<?xml version="1.0"?>
<opencv_storage>
<my_svm type_id="opencv-ml-svm">
  <svm_type>C_SVC</svm_type>
  <kernel><type>LINEAR</type></kernel>
  <C>1.0000000000000001e-01</C>
  <term_criteria><epsilon>2.2204460492503131e-16</epsilon>
    <iterations>100</iterations></term_criteria>
  <var_all>3780</var_all>
  <var_count>3780</var_count>
  <class_count>5</class_count>
  <class_labels type_id="opencv-matrix">
    <rows>1</rows>
    <cols>5</cols>
    <dt>i</dt>
    <data>
      0 1 2 3 4</data></class_labels>
  <sv_total>10</sv_total>
  <support_vectors>
    <_>
      -7.11720111e-03 4.97827306e-03 9.39298328e-03 7.71779707e-03
      1.65001750e-02 2.58930377e-03 5.26853092e-03 1.66773621e-03
      -8.52846075e-03 -6.26093056e-03 5.10483608e-03 8.74844752e-03
      3.24016809e-03 1.23338765e-02 5.41000860e-04 5.15668420e-03
      1.81546016e-03 -6.22944301e-03 -1.90061368e-02 6.72825286e-03
      1.31687615e-02 6.08754484e-03 1.64096244e-02 2.13017873e-03
      5.87715767e-03 9.85108432e-04 -2.10621655e-02 -8.97356495e-03
      1.85122620e-02 1.08029293e-02 2.75492668e-03 1.37298144e-02
      7.43639946e-04 7.16553815e-03 2.33302941e-03 -1.83162484e-02
      -6.07777759e-03 1.93558889e-03 6.22175820e-03 1.74130744e-03
      1.03380186e-02 1.19935442e-03 3.73780797e-03 1.42138894e-03
      -5.88122802e-03 -6.33767713e-03 -1.22799003e-03 8.30978807e-03
      4.15189611e-03 1.53190149e-02 5.36990492e-03 6.26012404e-03
      2.64288369e-03 -6.36996841e-03 -1.10150278e-02 4.68613394e-03
      3.35036451e-03 1.39842206e-03 1.06719630e-02 1.36980671e-03
      4.84621245e-03 1.70566270e-03 -1.34971235e-02 -3.85103724e-03
      2.03243620e-03 6.97414810e-03 4.79666563e-03 1.65499635e-02
      6.22475892e-03 7.26558408e-03 3.43585247e-03 -1.58722010e-02
      -3.64534091e-03 -3.09226103e-03 2.27282732e-03 1.62403740e-03
      6.08124770e-03 2.31360085e-03 2.13417271e-03 1.19265239e-03
      -4.76772292e-03 2.49180873e-03 -4.25132737e-03 4.57536138e-04
      1.69593189e-03 5.82449045e-03 1.51429989e-03 2.08286522e-03
      1.39627885e-03 -3.58890835e-03 -6.36084238e-03 -2.26526550e-04
      4.47759259e-04 1.23462814e-03 7.91426748e-03 3.34444665e-03
      4.02390072e-03 1.96954445e-03 -9.90932249e-03 2.63400190e-03
      1.27448579e-02 1.42169883e-03 1.98938069e-03 7.48881605e-03
      2.24982086e-03 3.86101543e-03 2.83810077e-03 -9.99222603e-03
      -3.81166261e-04 -5.49195753e-03 -5.89713527e-05 1.33435382e-03
      1.63475075e-03 4.10283625e-04 2.20344737e-04 1.70586500e-04
      -2.35838536e-03 1.73824548e-03 -3.44346766e-03 2.97053973e-03
      6.37391070e-03 2.81523680e-03 3.31819960e-04 -1.91700921e-04
      -2.24013755e-04 -2.05899565e-03 -4.90363967e-03 9.25500505e-03
      1.20018399e-03 2.44632643e-03 3.61102796e-03 7.35882495e-04
      6.52302580e-04 6.70310634e-04 -9.48924944e-03 -1.37902459e-03
      1.13683185e-02 4.58116271e-03 5.49215032e-03 4.46035061e-03
      1.34700804e-03 1.10285229e-03 6.05401001e-04 -1.04385810e-02
      2.93168402e-03 -3.98501055e-03 1.25395728e-03 2.51741218e-03
      1.22033153e-03 5.71920864e-05 -2.91628559e-04 -2.88236712e-04
      -1.09084661e-03 5.79139311e-03 -3.92051134e-03 1.38255855e-04
      3.41471197e-04 2.79985310e-04 -3.57643323e-04 -2.85019662e-04
      -4.13829228e-04 3.19322129e-03 3.68542573e-03 3.07429419e-03
      9.11030394e-04 2.10539857e-03 9.30212322e-04 5.23889670e-04
      1.34122430e-03 5.93723031e-04 -1.09387990e-02 4.14734660e-03
      5.68443164e-03 -6.76051306e-04 3.48991365e-04 2.96727841e-04
      -2.49155506e-04 6.74932206e-04 1.06961335e-04 -2.38674483e-03
      7.41222873e-03 -4.53530531e-03 -5.85458183e-04 -6.60856022e-05
      -3.28250084e-04 -7.72366911e-05 -1.10015608e-04 -3.97593016e-04
      2.11856398e-03 9.43647418e-03 -4.21537226e-03 -4.98234935e-04
      -1.69642866e-04 -4.85699129e-04 5.39150060e-05 -5.90016600e-04
      -2.23916257e-03 1.50906830e-03 3.36027588e-03 2.40777881e-04
      -5.78409003e-04 -5.99274244e-05 -8.54730115e-06 -9.97539028e-05
      1.90684459e-05 -1.77977968e-03 -4.42021945e-03 4.27023740e-03
      -3.30532459e-03 5.78007079e-04 1.58922034e-04 1.34537286e-05
      2.14046668e-04 -4.42164543e-04 -8.36382434e-03 -2.04014388e-04
      6.85311016e-03 -2.57563032e-03 -3.26029549e-04 -1.30377652e-04
      -4.41165233e-04 -1.13081078e-04 -1.01876655e-03 -2.65958975e-03
      -2.34677384e-04 6.46856707e-03 8.57596053e-04 -1.71914420e-04
      -2.02237803e-04 -3.99095530e-04 -7.39175011e-05 -7.78578396e-04
      -1.86863192e-03 3.33382399e-03 4.22056764e-03 -3.33149568e-03
      2.40841284e-04 5.88539151e-05 -2.28722958e-04 -1.51645392e-04
      -2.21859338e-03 -1.01464763e-02 5.39512234e-03 5.98124508e-03
      -1.51006388e-03 1.09894558e-04 -5.86611604e-05 -3.18140927e-04
      -3.16370657e-04 -2.72764871e-03 -6.57570967e-03 7.46555394e-03
      5.52514428e-03 6.28842099e-04 -2.00332332e-04 -1.48640378e-04
      -3.23497341e-04 -8.70938748e-05 -4.13821457e-04 -9.39448713e-04
      1.39566255e-03 5.03814733e-03 3.08648247e-04 -2.01503499e-04
      -7.51332027e-06 -5.12183527e-04 -2.25701006e-05 -3.78917539e-05
      -1.71047417e-04 2.09724880e-03 4.76690941e-03 1.24715071e-03
      -1.83575212e-05 -2.02161827e-04 -4.66794969e-04 -2.90368887e-04
      -3.04686837e-03 -5.75163541e-03 7.25323940e-03 4.70868312e-03
      1.23428216e-03 5.44727431e-04 7.24894635e-05 1.79050505e-04
      3.94892006e-04 -7.47025944e-04 8.92493932e-04 2.94528203e-03
      3.59087647e-03 9.80938712e-05 -3.49425914e-04 -9.96209928e-05
      -8.56863917e-04 -7.90420891e-05 -2.26021148e-04 -7.45314464e-04
      2.11579027e-03 1.83823530e-03 7.81217095e-05 -4.41088894e-04
      -1.23859616e-04 -1.21314812e-03 -1.86046236e-04 -6.64453837e-04
      -1.23715401e-03 3.90400318e-03 4.89891507e-03 1.97810610e-03
      3.77472199e-04 5.19169611e-04 6.02739456e-04 4.55465808e-04
      -3.96056566e-04 4.22069395e-04 4.30464279e-03 3.54141509e-03
      1.42665824e-03 1.67303137e-04 1.07646408e-03 7.87532117e-05
      2.14653002e-04 6.68568318e-05 9.14603734e-05 2.39880662e-03
      2.28475453e-03 -3.40153842e-04 -6.11403200e-04 -1.72555781e-04
      -2.06371024e-03 -1.55980897e-03 -1.25881622e-03 2.16335669e-04
      4.89026308e-03 1.03182474e-03 -9.54206742e-04 -1.05027296e-03
      -6.89874403e-04 -3.17162299e-03 -4.13914351e-03 -1.78096758e-03
      -2.22704001e-03 3.94696323e-03 3.12869204e-03 1.55386457e-04
      -9.74255272e-06 6.70316105e-04 -3.79663688e-04 -8.40039575e-04
      -9.66531283e-04 2.81886756e-03 3.81790521e-03 1.15307199e-03
      -2.36829073e-04 -3.54962540e-04 1.67655817e-04 -8.91883508e-04
      -2.08666245e-03 -1.76199561e-03 9.58665216e-04 1.00983109e-03
      2.96833203e-03 -4.21850942e-04 -8.43638496e-04 -8.74026096e-04
      -2.70932773e-03 -3.00435093e-03 -1.98820350e-03 -4.81125992e-03
      5.57562103e-03 4.38251393e-03 -5.15095191e-04 -9.40588128e-04
      -7.28608517e-04 -2.75030010e-03 -1.92103814e-03 -2.30737054e-03
      -7.96241686e-03 4.65247035e-03 3.63358646e-03 8.20504152e-04
      -3.12907854e-04 1.32900983e-04 -1.05658860e-03 -1.39130221e-03
      -1.23305351e-03 -2.03549583e-03 2.57614767e-03 5.07042697e-03
      5.69474010e-04 -1.10427325e-03 -1.04471073e-04 -1.90772698e-03
      -9.99380834e-04 -1.31831167e-03 -3.61730275e-03 1.08025665e-03
      5.71341673e-03 -2.96962884e-04 -3.07840586e-04 -3.93472757e-04
      -2.52953800e-03 -1.81023544e-03 -1.31698337e-03 -5.37253218e-03
      6.08427543e-03 4.51194914e-03 -6.04254135e-04 -5.78505336e-04
      -6.86865591e-04 -2.76046293e-03 -1.61638658e-03 -2.72371620e-03
      -8.65266100e-03 2.97993724e-03 4.66325367e-03 2.34224339e-04
      -3.87247128e-04 -1.74851186e-04 -1.69788208e-03 -1.10769365e-03
      -1.02621911e-03 -5.26792556e-03 5.54292696e-03 4.02940577e-03
      -8.03557748e-04 -1.51095883e-04 -2.19835347e-04 -1.72995101e-03
      -6.08395785e-04 -9.93958907e-04 -5.56073431e-03 3.42579675e-03
      2.85471161e-03 -2.42722235e-04 -7.62728800e-04 -3.88895452e-04
      -2.20055366e-03 -1.80889585e-03 -2.83808215e-03 -7.03493366e-03
      8.36805999e-03 2.74286958e-05 -4.74212051e-04 -1.59034826e-04
      4.39303258e-04 -1.26018887e-03 3.54115073e-05 -2.97198468e-03
      -3.99498036e-03 5.94684668e-03 2.14405055e-03 -1.49799895e-03
      -2.85492424e-04 -2.56401632e-04 -2.85558798e-03 -4.69758554e-04
      -2.25365069e-03 -7.33812153e-03 2.16108700e-03 -6.03723049e-04
      -1.14864844e-03 -1.73040215e-04 -2.67203926e-04 -1.77561177e-03
      -2.83788802e-04 -4.89784777e-03 -1.03158213e-03 9.23010707e-03
      -8.25402036e-04 -1.12503208e-03 6.78382048e-06 7.80351053e-04
      3.14741104e-04 5.60961780e-04 -5.56223560e-04 1.29614491e-03
      4.32372885e-03 -2.76325783e-03 -1.43178564e-03 -9.88646643e-04
      -4.19684249e-04 1.30616967e-03 1.93999113e-05 2.54991988e-04
      2.00391025e-03 -3.45479697e-03 -5.84803429e-03 -2.09382363e-03
      5.87989925e-05 -4.22915855e-06 1.98356269e-04 2.77482904e-04
      -5.26427990e-03 5.93890343e-03 8.65622889e-03 -1.27923777e-02
      -2.04414572e-03 -6.27166941e-04 -4.69672319e-04 1.39993429e-03
      -5.80123509e-04 -4.15229425e-03 8.06134474e-03 -4.36196988e-03
      -4.07948438e-03 -1.12639717e-03 8.85804417e-04 -1.20322953e-03
      4.37800819e-03 1.40300172e-03 2.13557668e-03 2.40234821e-03
      -2.23479257e-03 -8.63313209e-03 -1.38893398e-03 2.16655363e-03
      3.12532611e-05 8.72066617e-03 2.58464785e-03 2.18299031e-03
      5.45738614e-04 -7.92110804e-03 -1.17675057e-02 -1.96114695e-03
      1.20922232e-04 -7.11148605e-04 3.78890405e-03 -3.82559578e-04
      1.38414046e-03 1.91382729e-02 1.37909933e-03 -1.46959228e-02
      -7.70991493e-04 3.09102586e-03 2.16903980e-03 7.08258525e-03
      2.61988235e-03 2.46272236e-03 1.13367895e-02 -7.02112168e-03
      -6.11330895e-03 2.63472321e-03 5.06336475e-03 3.62501945e-03
      8.32878239e-03 1.21398701e-03 3.21356743e-03 2.22129049e-03
      -7.40906829e-03 -6.74083456e-03 -1.69464992e-03 4.95335262e-04
      2.59298133e-04 7.38636218e-03 6.30211434e-04 4.17241547e-03
      2.19766260e-03 -5.79373073e-03 -2.58662412e-03 -4.96822002e-04
      -1.69879771e-04 6.43587764e-03 8.92538112e-03 7.42924225e-04
      4.85945400e-03 3.67845269e-03 -3.38924187e-03 -4.37508523e-03
      5.06621599e-03 7.26295635e-03 3.92338680e-03 8.62721168e-03
      5.76959515e-04 4.97004529e-03 3.52893956e-03 -1.52096804e-03
      -7.36737810e-03 -1.61318027e-03 -2.77897739e-03 -2.00983020e-04
      1.35952642e-03 2.06565805e-04 8.39518791e-04 3.05699301e-04
      -6.81863679e-03 -6.24857261e-04 1.39856432e-03 -3.12221143e-03
      2.80037711e-05 1.60310697e-03 9.00064770e-04 9.54900519e-04
      5.47678268e-04 -6.59963395e-03 -4.49842401e-03 7.95669295e-03
      1.46240671e-03 -1.09905479e-04 1.53802487e-03 2.14777683e-04
      1.10845664e-03 8.20029352e-04 -4.78361920e-03 8.66285991e-03
      1.34704346e-02 9.09388938e-04 1.76450564e-03 8.24632240e-04
      7.90577673e-04 1.11900398e-03 7.42122997e-04 -4.70861048e-03
      3.13246762e-03 5.46921790e-03 -1.67188526e-03 -2.19633628e-04
      8.67022900e-04 8.10969796e-04 6.15961151e-04 4.96533467e-04
      -5.31974575e-03 5.03074937e-03 8.47655907e-03 -5.01175935e-04
      2.41648828e-04 8.33713391e-04 3.98321601e-04 1.01015938e-03
      8.11626378e-04 -5.45411464e-03 3.16684903e-03 2.89674150e-03
      -1.66240986e-03 -2.25121318e-03 -5.07192926e-05 4.71804844e-04
      1.23792479e-03 7.68165337e-04 -4.89685591e-03 -7.15814391e-03
      -4.66599129e-03 -3.76216741e-03 -4.42886120e-03 -2.73873702e-05
      5.00481692e-04 1.64058176e-03 9.20917315e-04 -5.46579668e-03
      7.31027685e-03 1.08402530e-02 1.64586632e-03 2.03806628e-03
      2.49075051e-03 9.05987981e-04 1.56128232e-03 1.78429380e-03
      -1.31008984e-03 6.90512173e-03 1.10283168e-02 2.69325427e-03
      6.00529043e-03 3.89695866e-03 2.78869784e-03 7.65462779e-03
      5.87561028e-03 1.65920006e-03 -1.05951037e-02 -9.30966623e-03
      -2.01450009e-03 -1.01237802e-03 3.10765626e-03 1.01909682e-03
      2.14833976e-03 1.20607333e-03 -3.55240889e-03 -1.14745907e-02
      -1.81888957e-02 -5.26724383e-03 2.52753706e-03 4.93805204e-03
      2.37675244e-03 6.95507368e-03 4.73525329e-03 5.45263581e-04
      6.90171774e-03 6.43296109e-04 9.44371626e-04 3.03745968e-03
      1.25106273e-03 1.61067920e-03 5.55314915e-03 4.94790729e-03
      1.81911688e-03 4.54292400e-03 1.58174289e-03 1.19221397e-03
      2.07207026e-03 1.46366388e-03 9.30801383e-04 3.96919390e-03
      9.42702591e-03 7.67219672e-03 -9.47546680e-03 -2.17197463e-02
      -3.27385287e-03 1.23178854e-03 1.97324832e-03 1.41596666e-03
      4.80859075e-03 4.60257661e-03 2.92752055e-03 -3.43664153e-03
      -1.30269751e-02 -4.33727459e-04 8.64254602e-04 8.68156319e-04
      8.37309635e-04 6.91090897e-03 9.41406004e-03 1.01523772e-02
      1.63732679e-03 -5.99781983e-03 -6.71645917e-04 3.10446863e-04
      7.30660628e-04 -2.20874463e-05 1.32199749e-03 3.57966614e-03
      4.20279801e-03 4.28560004e-03 -5.27357822e-03 8.42624810e-04
      1.67908636e-03 9.03499953e-04 1.22375693e-03 1.71014015e-03
      -7.15446658e-03 4.90493653e-03 6.33867981e-04 -1.05872741e-02
      -7.16182869e-04 -8.90772557e-04 -1.54186448e-04 2.72582960e-03
      7.50084268e-03 7.44691864e-03 8.32105428e-03 3.19929607e-03
      -6.58553699e-03 -3.00593697e-03 -4.42305161e-03 1.77877746e-03
      1.24611510e-02 1.04606636e-02 4.35997453e-03 8.07541481e-04
      1.19840689e-02 -2.59653828e-03 4.85288037e-04 6.12707692e-04
      -4.29925749e-05 3.18074919e-04 -6.37960155e-04 -1.34509569e-02
      8.87875352e-03 1.34413550e-02 2.60651321e-03 2.50594434e-03
      6.41470659e-04 -3.43851105e-04 -2.68505246e-04 -2.61772820e-03
      -1.15070120e-02 1.11617837e-02 5.64571703e-03 -6.31748000e-03
      -1.41857669e-03 -4.52626147e-04 1.73172646e-03 6.90714130e-03
      2.99934158e-03 -1.87151395e-02 -4.06414783e-03 1.21380035e-02
      6.89957384e-03 1.28438268e-02 1.29985241e-02 6.68279594e-03
      2.51663593e-03 -1.29755354e-03 -1.86677184e-02 -4.39246837e-03
      8.37927591e-03 8.85294937e-03 1.85179268e-03 -9.89746040e-05
      -7.04161765e-04 -1.65071353e-04 -2.92089465e-03 -1.23159699e-02
      6.64806785e-03 8.27705767e-03 1.18178669e-02 4.83101234e-03
      2.83175759e-04 8.25788185e-04 9.21897939e-04 -1.57440756e-03
      -4.18770732e-03 6.01740554e-03 1.38096567e-02 1.24052828e-02
      1.03856130e-02 7.45168328e-03 5.57341939e-03 3.16244434e-03
      -2.84576346e-03 -2.37018149e-02 -7.42632570e-03 1.68273970e-02
      1.66077167e-02 8.41739867e-03 1.13444775e-03 5.82310429e-04
      9.51092516e-04 -7.25759799e-03 -2.31124926e-02 -3.27859353e-03
      3.14601557e-03 1.33674210e-02 8.00156686e-03 4.55670757e-03
      6.06847554e-03 2.58765114e-03 4.41180455e-04 3.29559762e-03
      3.09348106e-03 -3.50788725e-03 6.91178069e-03 2.74263369e-03
      4.69342154e-03 2.46321270e-03 1.24013971e-03 3.81287304e-04
      2.11205566e-03 -1.98312500e-05 1.41931213e-02 1.86608136e-02
      1.20397927e-02 -3.84033192e-04 -5.16064046e-03 -6.77264575e-03
      -1.59816258e-02 -1.76737122e-02 -4.62147500e-03 3.46653117e-03
      1.23560261e-02 6.63428940e-03 3.38507467e-03 -1.72415853e-03
      -2.18995847e-03 -5.95724769e-03 -5.20229200e-03 -2.47422303e-03
      -2.85247178e-03 5.72684593e-03 3.12029175e-03 5.19211078e-03
      1.79936585e-03 2.68924003e-03 6.52766088e-04 8.03793687e-03
      2.38508242e-03 -5.47948912e-06 3.23042506e-03 2.34991050e-04
      1.35838846e-03 -1.78044417e-03 -5.81231398e-05 -1.88182737e-03
      5.18103503e-03 -1.28953392e-03 4.09499218e-04 7.16218539e-03
      2.24218448e-03 1.30187545e-03 9.56017175e-04 1.17914623e-03
      -8.26879404e-04 1.73776934e-03 -5.69111481e-03 -1.57923508e-03
      2.83976970e-03 -1.81158679e-03 5.31535596e-04 2.13330355e-03
      1.43996975e-03 4.91106039e-05 -3.16724530e-03 -1.53133767e-02
      6.84002647e-03 2.40526814e-03 -6.21511426e-04 1.50655827e-03
      -2.28670193e-03 -8.26348987e-05 1.21205689e-04 3.36331967e-03
      7.99691863e-03 2.96642072e-03 -1.37830595e-03 -3.96435708e-03
      8.98190847e-05 -2.92231678e-03 -2.42569949e-04 -1.17967150e-03
      -1.40535727e-03 3.46527691e-03 1.18475955e-03 2.19473056e-03
      5.50509576e-05 9.52296134e-04 -6.15196710e-04 4.42099728e-04
      -8.95307516e-04 -2.97703058e-03 -1.06964186e-02 -1.82072865e-04
      2.10618935e-04 -2.26097787e-03 -8.68064701e-04 -5.21259801e-03
      -1.34633295e-03 -2.18495983e-03 -4.99054417e-03 -8.11123755e-03
      3.25494562e-03 -3.05719761e-04 -6.96702045e-04 8.07741017e-04
      6.91958820e-04 1.91738407e-04 -3.83252394e-04 -1.47760019e-03
      6.13397174e-03 5.12497080e-03 -1.05751527e-03 1.45354192e-04
      5.30130405e-04 -5.87995048e-04 -2.05918186e-04 -1.48884114e-03
      -4.85827215e-03 5.03793778e-03 1.11163783e-04 3.97830765e-04
      4.34570567e-04 -1.60773561e-04 -7.11743312e-04 -2.63974012e-04
      3.70770373e-04 -5.31097688e-03 -4.51674499e-03 -5.16313885e-04
      -2.21985835e-03 -4.96985565e-04 -1.86193080e-04 3.42369400e-04
      -1.87248210e-04 1.05968758e-03 -2.23746523e-03 -9.22290375e-04
      5.40051423e-03 5.85657370e-04 7.85895681e-04 5.69087919e-04
      -3.52402021e-05 3.35592515e-04 -1.31100230e-03 -6.70372881e-03
      6.46754447e-03 4.30048117e-03 8.68522446e-04 2.26899778e-04
      -8.31756683e-04 -3.73053103e-04 -8.51562945e-04 -8.06709565e-03
      -2.65109556e-04 5.57145383e-03 1.56245579e-03 -1.84094461e-04
      -4.62154057e-05 -1.62833050e-04 3.77064280e-04 -1.13277538e-05
      6.23869360e-04 9.03434237e-04 -7.79611059e-04 2.06391746e-03
      2.47517339e-04 -8.76833452e-04 -1.26538321e-03 -9.55564377e-04
      -1.25764217e-03 -1.57749432e-03 -3.18752672e-03 1.49474980e-03
      1.32881710e-03 3.64094420e-04 4.87793790e-04 -1.52495457e-04
      8.36168838e-05 -1.11395842e-03 -7.40384357e-03 5.64472610e-03
      7.34315766e-03 3.77069839e-04 1.25005725e-04 4.11421614e-04
      3.19538492e-04 6.50177710e-04 -2.25003529e-03 -1.02706617e-02
      5.78914862e-03 6.01531647e-04 6.06822956e-04 -1.75419380e-04
      3.24083288e-04 -4.74105997e-04 -3.63134634e-04 -6.42343774e-04
      9.15687939e-04 -1.01737247e-03 2.38976179e-04 -7.10214255e-04
      -1.13732321e-03 -3.78414145e-04 -3.19828221e-04 3.77637596e-04
      -3.36279930e-03 -5.02240239e-03 -2.32585496e-03 -2.64681107e-03
      -4.15370706e-03 -1.75028967e-04 -1.35107242e-04 1.09563960e-04
      9.44984204e-04 -2.08780821e-03 -6.43783435e-03 9.82341729e-03
      1.38108898e-03 -3.57600139e-03 3.80185869e-04 6.63337938e-04
      3.17057275e-04 1.26795156e-03 -1.49333198e-03 -3.57119925e-03
      8.14459007e-03 1.81723954e-04 -3.21405847e-03 -2.02796538e-03
      -1.71897153e-03 -2.72428995e-04 3.48248286e-04 -7.52649317e-03
      -1.57558615e-03 3.59579292e-03 1.71659735e-03 -3.36009148e-03
      -1.67663419e-03 -1.49121697e-04 -3.68089939e-04 -3.41210864e-04
      -8.59024283e-03 -2.44363840e-03 9.59343743e-03 4.82811313e-03
      -6.82157325e-03 -2.87178089e-03 -4.03275015e-03 -2.52736645e-04
      5.66896191e-03 1.00280542e-03 6.33348711e-04 4.20178811e-04
      -8.59349500e-03 -9.08588432e-03 9.53090086e-04 4.02293913e-03
      3.67673882e-03 4.33500111e-03 1.17332558e-03 1.69890735e-03
      1.77374773e-03 -6.94286544e-03 1.61275268e-03 4.86988015e-03
      -2.16191332e-03 -3.26916273e-03 5.00433799e-03 5.95913688e-03
      3.54629499e-03 2.06076214e-03 9.17124678e-04 2.67485413e-03
      7.86687620e-03 9.36290249e-03 4.76059411e-03 3.40209552e-03
      2.39121378e-03 4.07547830e-03 4.35933005e-03 2.21963809e-03
      -3.31747532e-03 6.19480433e-03 4.68206918e-03 -1.09412947e-04
      3.21755256e-03 2.50729802e-03 5.01825288e-03 6.40584994e-03
      -1.54873880e-03 -2.35766498e-03 -1.65059662e-03 -4.60131792e-03
      -3.59162129e-03 -1.13121688e-03 8.32200341e-04 3.19692539e-03
      4.96023148e-03 -2.51722359e-03 3.66756087e-03 3.48013570e-03
      1.40146085e-03 -1.43058086e-03 -2.42322264e-03 -4.95281885e-04
      7.15803867e-03 1.12685198e-02 6.37529232e-03 -3.29144346e-03
      -5.38395904e-03 -1.68620038e-03 -6.58836262e-03 -8.13587476e-03
      -6.46041939e-03 2.65777507e-03 1.29741402e-02 6.68251701e-03
      7.80389598e-03 2.83005508e-03 2.98087532e-03 -3.93559737e-03
      2.08266056e-03 2.07539345e-03 6.27099350e-03 9.11372155e-03
      6.20488310e-03 -7.00345961e-03 -7.75783416e-03 -6.48451829e-03
      -9.03176330e-03 2.52779573e-03 2.47255969e-03 7.29223108e-03
      8.98030866e-03 3.93892266e-03 6.96815085e-04 -5.89081785e-03
      -2.29476742e-03 -8.58705584e-03 -2.36523431e-03 -2.82171066e-03
      9.62857064e-03 1.90788563e-02 1.71983093e-02 -1.06773712e-02
      -2.50856932e-02 -1.14128329e-02 -1.79676265e-02 -4.57967445e-03
      -8.60264874e-04 1.12791155e-02 1.78801846e-02 1.26835881e-02
      -3.35690659e-03 -8.29778519e-03 1.13323005e-03 -1.60799094e-03
      9.86874383e-03 3.51516227e-03 9.73631255e-03 1.00196851e-02
      1.09206010e-02 -4.85989824e-03 -1.60432644e-02 3.17223603e-04
      2.17057089e-03 1.26309972e-02 1.97023503e-03 9.44282766e-03
      8.48560967e-03 1.06694903e-02 -1.10709472e-02 -2.47659441e-02
      -4.50324593e-03 -6.70719659e-03 4.99421917e-03 2.86823930e-03
      1.78110227e-02 2.35899109e-02 1.76710300e-02 -5.39253466e-03
      -2.41046175e-02 -3.72304139e-03 -4.91106650e-03 4.63638920e-03
      -6.56693801e-03 1.23479571e-02 1.82618592e-02 1.63986441e-02
      -6.53998600e-03 -1.60890203e-02 -9.24641441e-04 -1.99571764e-03
      4.67670290e-03 4.48330306e-04 6.00449136e-03 5.22445329e-03
      7.06541073e-03 4.18825122e-03 -3.83867580e-03 4.75490419e-03
      -2.16746493e-03 4.56070201e-03 7.44120404e-03 2.09460612e-02
      1.77666955e-02 1.91756804e-02 -5.03964908e-03 -1.63851026e-02
      -4.28011594e-03 -1.04962271e-02 -1.21877920e-02 -1.09863235e-02
      2.43013026e-03 8.25184304e-03 6.19609514e-03 7.26084923e-04
      -5.10246260e-03 -4.94971697e-04 -1.08780535e-02 -5.06338431e-03
      -2.30055512e-03 1.05048660e-02 1.28859514e-02 1.03538418e-02
      -4.17343108e-04 -7.96130020e-03 3.38273298e-04 -4.75711655e-03
      2.48178584e-03 1.29410597e-02 1.08593162e-02 1.09146209e-02
      2.23760982e-03 -6.78978569e-04 -7.20553147e-03 -2.73689954e-03
      -8.63622222e-03 8.33478931e-04 2.11180151e-02 2.15564463e-02
      1.17512709e-02 -1.12584722e-03 -2.85774958e-03 -8.56338907e-03
      -1.32504804e-03 -1.06664570e-02 -5.23615442e-03 1.33590354e-03
      4.71380167e-03 5.06579736e-03 2.25251936e-03 -9.48837493e-03
      -1.07675018e-02 -2.88296188e-03 -1.25860292e-02 -3.75280599e-03
      3.93076288e-03 1.34468926e-02 -1.17562327e-03 -6.08769013e-03
      -3.43073369e-03 -8.35428108e-03 -3.41532892e-03 -1.92423328e-03
      4.71409643e-03 1.72409080e-02 1.03383660e-02 -1.08107403e-02
      -8.90311133e-03 -2.26305914e-04 -2.16150424e-03 9.14927106e-03
      1.46472929e-02 1.77105740e-02 1.41271902e-02 5.44165028e-03
      -1.93238035e-02 -1.43923583e-02 -9.78370477e-03 -8.69428087e-03
      -2.26292782e-03 -4.80211107e-03 9.97005962e-04 1.17781963e-02
      1.02686780e-02 -1.42974136e-02 -1.35081895e-02 -3.90125741e-03
      -1.76132168e-03 3.21032736e-03 8.52283835e-03 1.89555082e-02
      1.86701678e-02 4.85859485e-03 -2.14561317e-02 -1.73962601e-02
      7.80446967e-03 1.06772222e-02 1.04540996e-02 1.20636784e-02
      1.64229684e-02 9.81451012e-03 -1.18410296e-03 -2.76510343e-02
      -1.52138406e-02 1.69272404e-02 1.35601573e-02 1.08034657e-02
      3.46063543e-03 -4.88561520e-04 1.34715403e-03 -6.85511157e-03
      -2.67547891e-02 9.81762656e-04 1.19243271e-03 7.55579583e-03
      7.16811279e-03 1.06334221e-02 2.13096235e-02 1.55394170e-02
      -3.43000679e-03 -2.68508773e-02 -1.76811609e-02 6.68261573e-03
      1.12974821e-02 9.56819113e-03 3.93869448e-03 4.21042787e-03
      4.31807432e-03 -9.15958174e-03 -2.72714868e-02 -1.26224747e-02
      1.50286695e-02 9.56399553e-03 6.05313107e-03 -1.98594830e-03
      -1.18886726e-02 -8.51174630e-03 -1.18693970e-02 -2.37563569e-02
      8.71009007e-03 1.14248190e-02 8.68917629e-03 6.90524932e-03
      -1.73819295e-04 -4.33046417e-03 -7.11020781e-04 -2.33292999e-03
      -4.77139140e-03 9.49278474e-03 1.10589340e-02 3.79225938e-03
      -1.66765111e-03 -8.05698335e-03 -5.35094971e-03 -7.16478936e-03
      -9.76257771e-03 -1.82800889e-02 -1.63099694e-03 1.23692676e-02
      5.89694781e-03 1.99006428e-03 3.96401854e-04 2.37425393e-03
      5.46564348e-03 1.29695039e-03 1.88020652e-03 1.32600414e-02
      2.72226916e-03 6.89902483e-03 -1.10663983e-04 -1.06545072e-03
      -2.52292026e-03 2.73003732e-03 -2.71597318e-03 -2.42799171e-03
      3.95605370e-04 -4.37414879e-03 1.13583333e-03 -4.30092914e-03
      -6.60203979e-04 -1.95395597e-03 1.02462352e-03 -3.45475064e-03
      -5.56443911e-03 -6.61332114e-03 4.52030275e-04 2.03653844e-03
      -5.10655344e-03 1.73356198e-03 -1.25248171e-03 7.73707451e-03
      1.35386581e-04 6.79841079e-03 1.67416496e-04 -6.25094492e-03
      -1.08717359e-03 -4.87880036e-03 2.91333417e-03 1.82947994e-03
      3.38862929e-03 -8.76216043e-04 -1.79465103e-03 -3.12963920e-03
      2.40595895e-03 6.54940959e-04 8.64638889e-04 3.18410952e-04
      2.02763593e-03 2.80065899e-04 1.09393185e-03 -2.98540527e-03
      -5.76279417e-04 -1.99581287e-03 -6.07463822e-04 8.13923602e-04
      -1.34408369e-03 -3.41245066e-03 -2.21460802e-03 4.80484829e-04
      -4.73073078e-03 -8.61175731e-03 -2.16434803e-03 2.57339387e-04
      1.18914037e-03 4.91171004e-03 1.27055347e-02 6.49075722e-03
      3.40325315e-03 5.20358444e-04 2.20098672e-03 -3.10833147e-03
      -1.30819972e-03 2.61786743e-03 1.09002274e-03 2.90610129e-03
      1.02338183e-03 -2.20588525e-03 -5.16178925e-03 -2.09251489e-03
      1.16468011e-03 1.72328262e-03 4.04594047e-03 3.68755223e-04
      5.97516587e-03 1.78089249e-03 4.30643884e-03 -3.23618599e-03
      -6.80354610e-03 -2.17010314e-03 6.10286428e-04 3.18368757e-03
      8.48243886e-04 7.51056196e-03 1.09079527e-03 7.44170509e-04
      -1.32582700e-02 -1.22795161e-02 -1.95325978e-04 1.04495347e-03
      4.95866314e-03 4.33018338e-03 1.02788676e-02 4.49795974e-03
      4.70368750e-03 6.61476166e-04 3.05024150e-04 -3.67358397e-03
      -6.94253016e-04 2.32321396e-03 2.10297690e-03 1.60528999e-02
      -2.70518096e-04 2.71601998e-03 8.99866165e-04 -2.91087059e-03
      2.93387310e-03 1.96776367e-04 -3.90332396e-04 -6.70860754e-04
      5.40420553e-03 2.77872838e-04 3.99427675e-03 -7.32531911e-03
      -6.65354962e-03 5.62293455e-03 8.36809995e-05 -2.52162572e-03
      -3.64747783e-03 4.90470789e-03 2.26556906e-04 8.84065218e-03
      -1.26168458e-03 -3.44741158e-04 -1.40777417e-03 -3.08228889e-03
      -1.09967566e-03 -5.19650581e-04 1.09828189e-02 -5.65684459e-04
      3.71466251e-03 8.03019269e-04 -2.32545703e-04 -7.55501271e-04
      -4.38158633e-03 -1.62241026e-03 -1.74934557e-03 7.62984296e-03
      -1.79969263e-03 4.69845301e-03 -5.81955584e-03 -1.75899419e-03
      3.58042074e-03 1.64600415e-03 1.55495375e-03 -6.26727939e-04
      4.42642393e-03 8.50207056e-04 2.81886151e-03 -5.98896237e-04
      1.20275759e-03 6.12256955e-03 3.60432174e-03 3.02652013e-03
      -3.03727109e-04 1.19260571e-03 -6.92923227e-03 -6.79781940e-03
      -1.97870797e-03 2.44604750e-03 2.75499350e-03 5.41247427e-04
      2.69491435e-03 7.90505903e-04 8.05128831e-03 -6.57294993e-04
      1.06308935e-03 -5.09528536e-03 1.10380223e-03 5.18153375e-03
      3.99759831e-03 4.78594471e-03 -6.41476887e-04 2.52535637e-03
      -7.24674063e-03 -2.03585322e-03 -4.07274906e-03 2.03220453e-03
      2.81411945e-03 1.31600490e-03 2.20340444e-03 1.67823237e-04
      3.01727443e-04 -4.10229294e-03 -5.63675398e-03 9.22880415e-03
      5.69839915e-03 4.10503056e-03 1.44100026e-03 2.18929769e-03
      1.17132804e-04 -2.09879293e-03 -7.76231755e-03 -3.10675520e-03
      1.05386777e-02 1.22347362e-02 3.63660045e-03 2.25391472e-03
      3.29635735e-03 -1.04417175e-03 -1.02600595e-03 -5.99424401e-03
      -5.26481634e-03 -3.96625465e-03 3.01570771e-03 5.27139427e-03
      3.12761706e-03 3.52277560e-03 -3.21478210e-03 -6.27717050e-03
      -7.39689684e-03 -3.74775636e-03 1.26718101e-03 6.30230503e-03
      -4.36029444e-03 8.04780331e-03 2.33089784e-03 -2.24607601e-03
      -2.50691990e-03 3.84690429e-05 3.08567146e-03 4.27225791e-03
      -2.90527358e-03 -3.35797644e-03 7.09250197e-03 6.00953819e-03
      -2.27598567e-03 -1.87418773e-03 1.44480111e-03 4.75744763e-03
      5.02251787e-03 -1.56665093e-03 -3.95470811e-03 4.96630883e-03
      5.37808426e-03 1.00471219e-03 -2.70629209e-03 -1.54462340e-03
      -1.73979474e-03 -3.74508137e-03 -3.14096687e-03 -3.12000001e-03
      3.96795664e-03 4.99694888e-03 4.04488249e-03 -2.61973706e-03
      5.83951082e-03 3.30697774e-04 -3.45947745e-04 -1.25835638e-03
      3.03046050e-04 4.40605171e-03 4.80635837e-03 -8.25360941e-04
      -5.82414027e-03 -6.12410950e-03 5.15539665e-03 8.08215141e-03
      2.95208697e-03 -1.00701824e-02 -9.76364128e-03 -3.30319046e-03
      -8.63818638e-03 -1.17409509e-02 -1.12825092e-02 -1.87084673e-03
      7.93063827e-03 6.95687660e-04 -1.65681913e-03 -1.44337711e-03
      3.96655034e-03 4.87674959e-03 -1.71671039e-03 6.45060511e-03
      8.56225099e-03 7.68081332e-03 2.41111801e-03 -1.04051828e-02
      -1.12339323e-02 -5.13345841e-03 -2.59314943e-03 -5.79518359e-03
      -3.06796306e-03 5.19420998e-03 7.37481238e-03 7.85246491e-04
      -6.93885330e-03 -8.79318733e-03 -2.23928108e-03 -5.98783558e-03
      -4.39421739e-03 -7.23227067e-03 6.80572446e-03 1.72370318e-02
      1.32692847e-02 -1.50830494e-02 -2.44359374e-02 -9.50322114e-03
      -1.38221374e-02 -1.14173321e-02 -1.10695395e-03 1.10777002e-02
      1.52899567e-02 7.07871048e-03 -1.03029783e-03 -6.26297155e-03
      2.04347074e-03 -4.89564321e-04 3.31643433e-03 2.94372090e-03
      1.10903829e-02 1.83193870e-02 1.67667046e-02 -2.65415106e-03
      -8.45594145e-03 1.20245176e-03 -7.21272593e-03 -3.56820645e-03
      -3.01460456e-03 1.48409111e-02 2.49348078e-02 1.93055980e-02
      -1.53748356e-02 -2.58533917e-02 -9.11502540e-03 -7.70107331e-03
      -5.32536674e-03 4.01106692e-04 1.15716364e-02 1.98259521e-02
      1.20878462e-02 -8.33061896e-03 -2.22710259e-02 -9.70687158e-03
      -1.28100729e-02 -1.50052095e-02 -1.49590503e-02 2.92470772e-03
      2.26975940e-02 1.74017437e-02 7.88793550e-04 -4.12592478e-03
      -3.67201486e-04 -5.63993258e-03 -3.15041165e-03 -2.36317189e-03
      1.41841117e-02 2.85112280e-02 1.93622876e-02 4.64776717e-03
      -3.74695373e-04 -5.65666647e-04 -5.10106934e-03 -7.68340798e-03
      -1.20999236e-02 5.95875969e-03 2.47106962e-02 2.11781859e-02
      3.58179468e-03 -3.88884731e-03 -2.46132514e-03 -1.10449474e-02
      -1.77572239e-02 -1.59088150e-02 -1.55885378e-03 1.97439734e-02
      1.40094915e-02 1.12246710e-03 -1.30406290e-03 -9.69154877e-04
      -8.74642096e-03 -1.07244654e-02 -1.08492924e-02 -1.26741454e-03
      1.61573980e-02 1.15642091e-02 4.30849008e-03 2.17952160e-03
      1.63439335e-03 -2.15670723e-03 -6.03792118e-03 -1.43070025e-02
      -9.38655983e-04 1.61022525e-02 1.39687778e-02 1.15514826e-03
      -5.91152173e-04 2.36255396e-03 4.61309362e-04 -2.15927925e-04
      -7.05291657e-03 -2.70393444e-03 8.31176620e-03 8.44905525e-03
      -1.01331354e-03 -5.61305322e-03 -1.46408740e-04 -2.09093699e-03
      5.15555847e-04 -6.13180641e-03 1.19635358e-03 7.58183561e-03
      6.61908323e-03 -2.80187442e-03 -6.22158917e-03 4.95520420e-04
      -5.39853657e-03 4.96634457e-04 6.50626142e-03 5.89969708e-03
      -3.04042315e-03 -2.99309893e-03 -5.69422671e-04 -4.73759836e-03
      3.55469732e-04 1.52485061e-03 8.20443500e-03 -1.42607593e-03
      -5.08702546e-03 -4.54500085e-03 -1.37761654e-03 1.64714328e-03
      -4.68798354e-03 2.41229124e-03 2.46746535e-03 1.43674267e-02
      1.30900871e-02 2.62845238e-03 -6.14533434e-03 -6.12085778e-03
      -4.89433482e-03 -5.81232738e-03 -2.51351739e-04 -4.33815736e-03
      -1.78300822e-03 5.43589098e-03 1.99539820e-04 -1.95573829e-02
      -1.30885616e-02 -2.42099073e-03 4.41973185e-04 1.91859901e-03
      7.78245507e-03 1.95834860e-02 2.20338833e-02 4.27170051e-03
      -2.06217356e-02 -1.85680836e-02 -3.71394388e-04 -1.22029462e-03
      1.57470605e-03 -6.06710208e-04 7.05482904e-03 1.06824478e-02
      -1.12492230e-03 -1.74219869e-02 -1.46910027e-02 -1.75190496e-03
      2.29575136e-03 3.08467960e-03 6.48003584e-03 1.97799709e-02
      2.08856761e-02 6.91135461e-03 -1.38868429e-02 -1.12417573e-02
      -5.52310841e-03 7.94819498e-04 2.18361034e-03 6.13607047e-03
      1.76271107e-02 1.75471082e-02 -6.21593674e-04 -1.97000634e-02
      -2.12478247e-02 -1.88856048e-03 1.00808640e-04 2.37448863e-03
      6.26107492e-03 1.13107031e-02 1.25874327e-02 -2.14874302e-03
      -1.73524804e-02 -1.64722409e-02 -9.84237250e-03 1.59320759e-03
      2.83028628e-03 6.23149564e-03 1.85002070e-02 1.61569938e-02
      1.63222151e-03 -9.80316196e-03 -1.10715413e-02 -1.01671871e-02
      1.55771268e-03 4.23431024e-03 8.46831035e-03 1.67773664e-02
      1.53412931e-02 1.83182315e-03 -6.17065933e-04 -7.24846404e-03
      2.39046081e-03 -1.35473774e-05 -8.11742502e-05 3.89808393e-03
      7.72785535e-03 6.13958295e-03 -1.54997892e-04 -6.72138017e-03
      -4.42287372e-03 5.16041240e-04 4.10667388e-03 2.56075198e-03
      8.34105723e-03 1.24367857e-02 8.16626009e-03 3.12029920e-03
      -2.37980415e-03 -3.18752415e-03 -1.05523188e-02 5.53511083e-03
      4.82355384e-03 8.06642789e-03 1.52605670e-02 1.35069815e-02
      2.57765013e-03 -9.01000400e-04 -1.74126104e-02 -1.15387700e-02
      9.26504657e-03 8.58868565e-03 1.29275229e-02 1.70515571e-02
      1.43664787e-02 4.68087429e-03 -2.79797195e-03 -2.12740600e-02
      -1.94078253e-03 2.67313747e-03 2.59148539e-03 9.08688642e-03
      1.82181373e-02 1.17823491e-02 8.58473498e-03 1.97216240e-03
      -1.82954711e-03 -3.41943721e-03 2.75155972e-03 1.90950010e-03
      5.82712842e-03 1.14242202e-02 7.60057708e-03 5.63818449e-03
      4.67486493e-03 -2.21289042e-03 -2.08921582e-02 9.00101196e-03
      9.74751450e-03 1.59760602e-02 2.01656092e-02 1.58908516e-02
      8.68329220e-03 3.83272441e-03 -2.65840404e-02 -2.71102786e-02
      5.54499263e-03 4.80710249e-03 8.81190598e-03 1.56566445e-02
      8.77593923e-03 5.29409340e-03 2.76492001e-03 -2.92331409e-02
      2.29994487e-03 5.50294248e-03 7.34824920e-03 7.39525817e-03
      2.12029424e-02 9.81408264e-03 1.19730188e-02 9.77328885e-03
      3.69370100e-03 2.11382564e-03 5.06111793e-03 9.28681903e-03
      4.96335374e-03 1.50548089e-02 1.94949447e-03 5.82373142e-03
      3.21669225e-03 2.14882661e-03 -2.45920923e-02 7.95079581e-03
      9.99961887e-03 8.13716557e-03 2.28933468e-02 8.24873522e-03
      1.49891851e-02 9.05918330e-03 -2.57507302e-02 -2.50674635e-02
      2.40588305e-03 1.09464601e-02 5.68338996e-03 1.55476732e-02
      1.80565228e-03 8.37906823e-03 2.07432988e-03 -2.74747983e-02
      5.13308030e-03 7.03999726e-03 1.19633237e-02 8.45492352e-03
      1.79750249e-02 4.05018544e-03 7.50988303e-03 4.43237089e-03
      5.32385940e-03 4.59366804e-03 5.48865693e-03 9.79241263e-03
      3.26542812e-03 1.85974985e-02 3.28630349e-03 1.10052871e-02
      7.26574380e-03 5.28970780e-03 -2.36060098e-02 3.77876824e-03
      1.49511648e-02 7.57855177e-03 1.88562572e-02 4.31788806e-03
      6.88468246e-03 3.05225165e-03 -2.50097737e-02 -1.86293107e-02
      3.74614121e-03 1.03356140e-02 1.20870827e-03 1.50849214e-02
      3.61665594e-03 1.07480139e-02 5.99181699e-03 -1.91817451e-02
      7.01582944e-03 1.52471662e-03 6.98458962e-03 9.09952505e-04
      1.77732799e-02 2.21503410e-03 9.70144104e-03 5.59571711e-03
      7.14843580e-03 9.03635938e-03 2.39489926e-03 6.30323589e-03
      6.30309863e-04 1.97149031e-02 -2.63231865e-04 7.35244853e-03
      2.96561397e-03 8.23989697e-03 -1.45600988e-02 -2.72909441e-04
      7.46057043e-03 -4.00992297e-03 1.16041340e-02 -1.23425154e-03
      5.79968840e-03 -1.89763983e-03 -1.46901151e-02 -7.99162872e-03
      3.37283430e-03 9.09171626e-03 -7.65355537e-03 8.83310102e-03
      -6.43207645e-03 -5.21117545e-05 -1.15522891e-02 -1.37051018e-02
      4.79429821e-03 2.90295342e-03 5.55507187e-03 1.56367908e-03
      9.79410950e-03 -2.52790912e-03 1.10743579e-03 -5.74532896e-04
      3.08879628e-03 6.92064222e-03 5.21910004e-03 7.25016231e-03
      4.46484919e-05 4.81492793e-03 -1.11520081e-03 -2.78244785e-04
      -5.33693051e-03 4.43621399e-03 -2.40893126e-03 3.22464574e-03
      4.82179830e-03 -7.69362645e-03 -2.41046911e-03 -9.98732448e-03
      -4.05109767e-03 -1.32893240e-02 -6.38848357e-03 5.58382412e-03
      -1.34398940e-03 8.51687416e-03 -9.95724183e-03 4.70425002e-03
      -7.64145236e-03 4.39013448e-03 2.68240081e-04 6.52333489e-03
      6.20939722e-03 4.50573768e-03 4.79325606e-03 -2.75241863e-03
      6.60411533e-05 -1.36331294e-03 2.27441266e-03 -1.44058769e-03
      6.17084373e-03 7.46887084e-03 4.06365795e-03 2.48369062e-03
      -5.56730479e-03 -3.54522164e-03 -6.19690819e-03 2.68379715e-03
      2.05055717e-03 8.89389310e-03 7.20581599e-03 5.45346702e-04
      2.71696341e-03 -1.10872434e-02 4.34527826e-03 -3.49987135e-03
      5.36585180e-03 2.87133828e-03 6.97995443e-03 9.48040839e-03
      5.22115827e-03 1.76866975e-04 -1.19393645e-02 -1.43796892e-03
      -5.69369271e-03 2.92361155e-03 5.62256621e-03 9.82697308e-03
      -1.96137652e-03 1.08517101e-03 1.68333936e-03 4.05939808e-03
      2.33517261e-03 7.88864447e-04 -4.28008661e-03 -6.07375382e-03
      -2.32824194e-03 -1.60343980e-03 -4.10241919e-05 2.17415276e-03
      4.99867043e-03 5.53895766e-03 1.03586223e-02 9.77174845e-04
      1.85281504e-03 -1.20659053e-04 -3.15855280e-03 1.32733269e-03
      2.85214337e-04 3.44423437e-03 9.04241297e-03 5.46068000e-03
      -6.43915217e-03 -8.81668553e-03 -4.29207413e-03 -4.80473135e-03
      -5.97632956e-04 -7.58605602e-05 2.04712735e-03 4.97506279e-03
      8.13812297e-03 2.35620444e-03 2.00808339e-04 -6.18852908e-03
      -1.84153509e-03 -2.92963046e-03 1.85985235e-03 4.61157504e-03
      4.09955019e-03 6.23055408e-03 5.57080377e-03 2.51305802e-03
      1.38975459e-03 -5.37785003e-03 -6.19941996e-03 -2.79380055e-03
      -8.61533568e-04 -1.13315566e-03 -3.02344240e-04 7.20484601e-03
      7.97678251e-03 3.18979565e-03 -2.21214257e-03 -1.94114132e-03
      4.11372865e-04 1.53313752e-03 5.53307356e-03 7.74474163e-03
      3.37213627e-03 -2.86105112e-03 -3.71372863e-03 -3.51570779e-03
      -2.76602362e-03 -1.40556903e-03 -2.05730507e-03 1.57486496e-03
      -2.55925930e-03 5.04669361e-03 -7.11744279e-03 -2.25443952e-03
      -5.99351898e-03 -4.93861362e-03 3.01353401e-04 -1.13895912e-04
      1.15251774e-03 1.79935445e-03 8.85357335e-03 1.13057708e-02
      4.34751529e-03 -2.60007032e-03 -4.17154422e-03 4.67761274e-04
      -3.02624586e-03 -5.75410062e-03 -5.94995543e-03 6.56755175e-03
      1.15152765e-02 5.43807447e-03 -4.20188718e-03 -8.63072637e-04
      2.49145855e-03 4.08549793e-04 2.51943548e-03 1.59404427e-03
      6.55528996e-03 3.91700771e-03 -8.65493144e-04 9.96074450e-05
      -1.18285185e-03 3.28193954e-03 1.21078407e-03 -1.68736908e-03
      -6.27252646e-03 -8.63001042e-04 4.52805450e-03 5.98904071e-03
      -5.69489878e-03 -2.34397035e-03 1.35782140e-03 -1.56799646e-03
      -3.74301150e-03 -3.23483651e-03 7.21589103e-03 1.47038260e-02
      2.28556525e-03 -6.89016096e-03 -1.68743718e-03 1.11884344e-03
      2.39478817e-04 -4.89037810e-03 -1.23891905e-02 1.59504241e-03
      9.95114166e-03 -4.47676022e-04 -1.85597094e-03 7.66522193e-04
      3.98372533e-03 1.11018470e-03 -1.61275140e-03 -3.71708232e-03
      2.32670907e-04 5.93917351e-03 4.44567623e-03 -2.18636729e-03
      -6.68711436e-04 3.32901906e-03 1.60010869e-03 1.26439775e-03
      -2.28341063e-03 3.38477688e-03 6.71373541e-03 3.59288813e-03
      -5.08403813e-04 1.73738610e-03 2.71142460e-03 1.28587219e-03
      3.33223114e-04 -6.48231898e-03 -4.93956171e-03 4.22109198e-03
      6.35575678e-04 -2.72673904e-03 -1.34695438e-03 2.03779293e-03
      1.80772413e-03 5.26196323e-03 -3.90979182e-03 -1.39379092e-02
      -9.33862384e-03 -1.45000480e-02 2.58729397e-03 3.77164176e-03
      5.83635131e-03 4.00010915e-03 6.53274590e-03 -1.97141222e-03
      4.59480425e-03 9.46661644e-03 7.17969518e-03 9.09974892e-03
      5.89123741e-03 7.13039190e-03 4.75456333e-03 8.00754782e-03
      2.96244165e-03 5.54476911e-03 8.01794173e-04 6.03942340e-03
      -2.50796298e-03 -2.29705451e-03 2.84448802e-03 3.28488462e-03
      1.05755981e-02 4.31657163e-03 -2.75548059e-03 -1.49231935e-02
      -1.38453562e-02 -3.82500060e-04 4.86451807e-03 8.75548273e-03
      9.76999570e-03 1.59073249e-02 1.14825936e-02 7.25270715e-03
      -1.36697646e-02 -1.89524144e-02 7.23237777e-03 6.36536814e-03
      8.33717734e-03 8.14102683e-03 9.02526081e-03 2.90586217e-03
      2.78641959e-03 -6.82473090e-03 -1.50322262e-03 4.33198002e-04
      1.42451432e-02 1.84351820e-02 2.30016969e-02 2.00126227e-02
      6.96298340e-03 6.51319604e-03 -1.39716323e-02 -2.44029015e-02
      1.32479903e-03 4.00257949e-03 5.02955588e-03 5.02072554e-03
      5.76488301e-03 8.83037783e-03 3.61642521e-03 -1.79438051e-02
      -1.98032688e-02 6.75318151e-05 7.10002286e-03 6.29864493e-03
      6.53577922e-03 1.57406442e-02 1.88934039e-02 1.19286189e-02
      -6.36495091e-03 -1.14861559e-02 6.19346858e-04 8.38458911e-03
      8.84771813e-03 8.92462302e-03 8.42004735e-03 3.97225469e-03
      1.33640913e-03 -1.07110888e-02 -2.35114861e-02 -9.90171568e-04
      1.77206304e-02 1.54934414e-02 1.33524528e-02 1.30028808e-02
      1.55151756e-02 7.60534545e-03 3.49060749e-04 -1.49236536e-02
      -6.92031533e-03 7.67522957e-03 5.34365186e-03 5.68309613e-03
      1.07712056e-02 1.20426109e-02 5.45283034e-03 -5.55906372e-05
      -1.24564329e-02 -7.05226744e-03 1.45283611e-02 6.87717367e-03
      7.96180218e-03 1.03677260e-02 1.02135306e-02 7.11134728e-03
      7.66707538e-03 -1.02275051e-02 -7.09257415e-03 1.63278878e-02
      1.15617905e-02 8.00752733e-03 5.81785338e-03 9.97550413e-03
      8.22495855e-03 1.77762925e-03 -1.69165153e-02 -6.31074142e-03
      1.82016026e-02 9.46085714e-03 8.61013588e-03 4.81555890e-03
      8.14417098e-03 1.16139054e-02 8.33568815e-03 -9.18690208e-03
      -4.27371403e-03 1.59150101e-02 7.97701348e-03 7.17017241e-03
      9.29330196e-03 8.56493413e-03 6.60103792e-03 6.48508314e-03
      -1.34352408e-02 -9.89434496e-03 1.64286587e-02 1.19899511e-02
      1.00754332e-02 1.31633673e-02 8.63785855e-03 6.67846622e-03
      1.04699265e-02 -1.60570983e-02 -8.60999525e-03 1.53059931e-02
      9.54047311e-03 5.82192000e-03 5.14006475e-03 6.48720656e-03
      8.94559734e-03 1.18961632e-02 -1.01600513e-02 -1.30855246e-02
      1.40296891e-02 1.01029407e-02 8.19527730e-03 8.90517794e-03
      8.25705193e-03 1.01011209e-02 1.62459668e-02 -1.31181078e-02
      -1.21559519e-02 1.72305871e-02 1.58439502e-02 1.64240804e-02
      1.81333944e-02 9.81307682e-03 7.53276097e-03 1.15360199e-02
      -1.95688177e-02 -1.99490003e-02 9.65051632e-03 6.97498117e-03
      8.66782013e-03 1.21097006e-02 6.09273510e-03 5.96886594e-03
      5.99496067e-03 -2.30235327e-02 -1.39471702e-02 1.47383418e-02
      1.28181260e-02 1.45906825e-02 1.50428806e-02 1.29144164e-02
      1.53034469e-02 1.70776974e-02 -1.52918100e-02 -1.93255302e-02
      9.21203941e-03 7.62286177e-03 7.63400597e-03 1.12433350e-02
      8.23578332e-03 9.78379138e-03 1.18310396e-02 -1.94793865e-02
      -1.52367475e-02 1.11585120e-02 1.14712836e-02 9.34412796e-03
      2.19051875e-02 6.24366757e-03 1.36804050e-02 1.00647248e-02
      -1.72394048e-02 -1.81571711e-02 6.15948858e-03 7.96082150e-03
      4.55008959e-03 1.11542176e-02 1.99726550e-03 7.87391886e-03
      4.12855670e-03 -2.07931045e-02 -1.38518550e-02 1.32872527e-02
      1.62501726e-02 1.16206240e-02 2.29581669e-02 1.22675030e-02
      2.14870069e-02 1.24956239e-02 -1.45225497e-02 -1.57029759e-02
      7.19615258e-03 9.56426654e-03 4.33981419e-03 1.47514278e-02
      3.32393730e-03 9.74130724e-03 6.33350806e-03 -1.63922571e-02
      -1.65523458e-02 8.05078633e-03 1.17994463e-02 5.92628540e-03
      1.16867814e-02 3.44410702e-03 8.74154735e-03 5.15690073e-03
      -1.92573052e-02 -1.49864582e-02 6.89926231e-03 9.37753823e-03
      2.36843154e-03 1.41531201e-02 1.81396829e-03 1.16647910e-02
      7.39450613e-03 -1.60079021e-02 -1.35168284e-02 1.06678819e-02
      1.35441599e-02 5.81914978e-03 1.59211513e-02 3.82640562e-03
      1.10284975e-02 6.57242397e-03 -1.47990296e-02 -7.04420405e-03
      1.73875671e-02 1.46615300e-02 5.36737498e-03 2.28354093e-02
      3.01597011e-03 1.41394008e-02 1.04365163e-02 -9.69829597e-03
      -1.60914268e-02 1.38414383e-03 4.83781053e-03 -3.70063446e-03
      5.07223886e-03 -1.13885500e-03 4.63142805e-03 2.52403173e-04
      -1.64763629e-02 -3.45947314e-03 2.46293447e-03 4.62620100e-03
      -1.01282950e-02 -3.60378809e-03 -4.73956112e-03 1.46888220e-03
      -4.24573850e-03 -6.52240310e-03 -8.27547070e-03 5.85507974e-03
      4.89945244e-03 -5.58096624e-04 1.16136121e-02 1.62245298e-04
      6.56360202e-03 4.86428756e-03 -1.03950882e-02 7.75686000e-03
      8.83430522e-03 6.77085482e-03 -5.99167263e-03 6.56602322e-04
      -2.40722182e-03 3.86414281e-03 3.48878349e-03 1.52025884e-03
      -6.74771145e-04 -7.52540480e-04 2.54006544e-03 -7.85728637e-03
      -6.87709730e-03 -5.32926805e-03 -3.73415765e-04 -5.09493379e-03
      -1.86619011e-03 5.06434962e-03 -1.61747960e-03 1.31394176e-04
      -2.25716154e-03 -6.81410020e-04 -9.60470876e-04 3.65876360e-03
      1.14723470e-03 5.34462137e-03 5.24668815e-03 -5.27918246e-03
      -5.99174108e-03 -1.15155969e-02 -7.29743252e-03 -3.70700541e-03
      1.23848917e-03 -3.33944219e-04 6.95976720e-04 1.25092659e-02
      3.55229620e-03 -1.77407725e-04 -4.58492292e-03 3.52178258e-03
      1.75801804e-03 4.09446424e-03 2.04317737e-03 6.23816950e-03
      3.85131291e-03 -1.07735838e-03 -5.61271654e-03 -5.58044156e-03
      -1.99695141e-03 4.27082647e-04 1.65674801e-03 1.20253756e-03
      2.81242840e-03 5.54835470e-03 -8.28197459e-04 -5.69141516e-03
      -1.21800527e-02 -1.42416544e-03 -5.64578804e-05 1.82057847e-03
      1.69937825e-03 4.03826218e-03 1.12447767e-02 -4.67451580e-04
      -9.48277488e-03 -4.04205592e-03 2.07143393e-03 5.80544700e-04
      1.32025976e-03 1.22243457e-03 4.11900459e-03 1.79903805e-02
      3.40810861e-03 -7.37807946e-03 -4.90569975e-03 4.93212184e-03
      5.76719700e-04 1.58879673e-03 1.68298546e-03 6.30402332e-03
      -3.65841552e-03 -2.90595744e-05 6.74662821e-04 2.16775364e-03
      7.23978132e-03 9.19391960e-03 -6.63058553e-03 -7.36928964e-03
      -3.74396611e-03 -4.26623365e-03 1.63073215e-04 2.20723989e-04
      3.20617342e-04 4.49616788e-03 7.87393935e-03 -1.80551386e-03
      -6.93526294e-04 -8.76512751e-03 -3.40005010e-03 1.68295708e-04
      -1.53746223e-04 2.23792903e-03 5.55883767e-03 2.91437982e-03
      -5.58097265e-04 4.37679142e-03 8.79571831e-04 -2.54199863e-03
      8.45064642e-04 3.98319797e-04 4.17475938e-04 3.83342942e-03
      1.26749545e-03 8.59565353e-06 2.26849271e-03 2.72276299e-03
      -2.22998299e-03 -4.20650817e-04 -1.37501664e-03 -1.28572376e-03
      -1.79024693e-03 1.43187062e-03 -4.11903922e-04 -3.47218564e-04
      -3.72208259e-03 -1.37968909e-03 -3.18370317e-03 -2.40908144e-03
      -2.79558566e-03 -2.57028011e-03 -2.92545208e-03 3.38016427e-03
      7.81254843e-04 -1.17663108e-03 -1.06750079e-03 1.89867176e-04
      -9.29055386e-04 4.70775813e-05 -1.67025009e-03 -8.54629907e-04
      3.28530587e-05 2.05053971e-03 4.70076781e-03 6.85765874e-04
      -1.51013187e-03 -9.86102619e-04 -1.01338339e-03 -2.82780384e-03
      -2.63660401e-03 -1.88842096e-04 -5.01301419e-03 -1.36005937e-03
      4.98806068e-04 -4.34509944e-04 6.54890318e-04 1.19242497e-04
      3.99783748e-04 -1.04833697e-03 1.57562352e-03 -1.15850952e-03
      -3.46663612e-04 5.67505558e-05 -2.87287810e-04 1.29511522e-03
      2.84739857e-04 -2.77089700e-03 -8.85180477e-03 -4.57490515e-03
      -7.41443969e-03 -2.78678630e-03 3.51872016e-03 5.33912040e-04
      3.84419516e-04 9.23969899e-04 1.19664799e-03 5.80315245e-04
      1.57037086e-03 3.32177267e-03 5.25971409e-03 2.56882142e-03
      5.08850033e-04 3.60076840e-04 9.93311754e-04 2.48906692e-03
      9.44769185e-04 -4.41216456e-04 4.43317695e-03 8.29164032e-03
      6.76834534e-05 5.55816572e-04 1.24155474e-03 2.75855622e-04
      1.80657185e-03 -1.72220753e-03 -4.05986235e-03 -4.67053195e-03
      7.12345820e-04 1.53420900e-03 9.19289305e-04 1.36468734e-03
      6.32888929e-04 1.60657789e-03 -9.09062335e-04 -4.67944471e-03
      3.00559332e-04 5.45482850e-03 4.35873074e-03 1.37076620e-03
      1.25101756e-03 9.29824309e-04 3.74835939e-03 1.16034877e-03
      1.09179964e-04 -2.09028876e-04 4.71498724e-03 4.57225274e-03
      1.03571208e-03 1.34729419e-03 1.05681329e-03 2.81514530e-03
      1.17600465e-03 -4.80361842e-03 -3.18678329e-03 4.65642707e-03
      3.10511515e-03 2.31214566e-03 3.64478095e-03 2.65992084e-03
      2.90374248e-03 1.47645012e-03 -2.37530074e-03 -4.03979979e-03
      5.92071470e-03 3.57252383e-03 2.96492735e-03 4.25017392e-03
      2.62014708e-03 4.17699805e-03 3.14327306e-03 2.50326237e-03
      -2.37592100e-03 2.76822550e-03 4.23815148e-03 2.01267656e-03
      1.82946224e-03 1.81368121e-03 2.76330742e-03 2.74767238e-03
      -1.67888589e-03 -4.14568512e-03 1.17082940e-03 4.65128338e-03
      3.23925074e-03 1.80628372e-03 2.15043640e-03 5.00811916e-03
      2.22610426e-03 1.43931154e-03 -7.02604745e-03 -2.87118996e-03
      2.74691568e-03 2.47702003e-03 2.33468181e-03 3.16910213e-03
      2.72366148e-03 2.18416960e-03 1.64992933e-03 -1.70679821e-03
      -7.95058208e-04 -1.04952441e-03 9.20554996e-03 1.03192106e-02
      1.29633285e-02 8.66559427e-03 6.49077306e-03 4.24074801e-03
      -2.50665960e-03 -1.10298768e-02 -4.25866892e-04 8.97257589e-04
      6.97495008e-04 1.46375829e-03 2.88901222e-03 1.88510143e-03
      1.27116172e-03 -8.10425542e-03 -7.41445459e-03 1.95444771e-03
      4.80731996e-03 5.11429133e-03 7.43529201e-03 6.71134796e-03
      4.46783705e-03 5.60001517e-03 -3.09254997e-03 -8.95243604e-03
      -3.77857150e-03 6.91367174e-03 7.05456780e-03 8.54675286e-03
      6.91447221e-03 4.56881896e-03 3.09546245e-03 -3.23733734e-03
      -1.69596747e-02 -7.93624669e-03 1.04288431e-02 1.16503630e-02
      1.21643692e-02 1.18029080e-02 1.61339268e-02 1.08015593e-02
      1.81679294e-04 -1.53740402e-02 -7.39526842e-03 4.69329068e-03
      3.40363639e-03 5.87603869e-03 4.98454506e-03 4.01974237e-03
      3.16273374e-03 6.27755886e-04 -1.05366325e-02 -7.18246028e-03
      4.44338238e-03 3.95562965e-03 5.40034147e-03 8.80204979e-03
      6.22207718e-03 6.76151970e-03 9.32188798e-03 -7.62769394e-03
      -1.16040390e-02 1.04399929e-02 6.71923952e-03 5.02597354e-03
      4.36762068e-03 7.70348217e-03 7.81656988e-03 2.94119841e-03
      -1.14493947e-02 -4.15489729e-03 1.41322967e-02 7.39966473e-03
      4.66285646e-03 2.39764084e-03 5.12036821e-03 9.11762193e-03
      6.60246285e-03 -5.07138856e-03 -7.70238042e-03 2.07541999e-03
      1.09959231e-03 1.37002533e-03 2.64952099e-03 2.87274155e-03
      3.41043435e-03 8.67193472e-03 -1.03905676e-02 -5.40717272e-03
      9.20108333e-03 3.72217619e-03 1.44792453e-03 1.72912725e-03
      3.00176465e-03 6.88381819e-03 1.13692312e-02 -3.62507394e-03
      -4.26298520e-03 1.18791964e-02 5.98568330e-03 3.98901431e-03
      2.40730378e-03 3.38281505e-03 6.21351087e-03 7.05623161e-03
      -5.02612302e-03 -1.01294937e-02 1.18202120e-02 6.67780358e-03
      7.37942569e-03 4.31534508e-03 5.50138112e-03 6.12134393e-03
      9.82299820e-03 -1.35013545e-02 -4.79766214e-03 7.95273017e-03
      5.20412624e-03 2.61507486e-03 7.41377182e-04 1.76535768e-03
      3.27999936e-03 8.23103823e-03 -2.07533216e-04 -5.40393125e-03
      9.64145269e-03 4.92277741e-03 3.81790032e-03 1.04364159e-03
      1.38194591e-03 1.70240784e-03 2.54367688e-03 -2.95544928e-03
      -9.00302548e-03 1.51394773e-02 1.04728658e-02 1.23340236e-02
      8.43989290e-03 7.65962200e-03 8.14194605e-03 1.29383411e-02
      -1.53617710e-02 -1.85088869e-02 1.12149371e-02 8.15301761e-03
      7.03802705e-03 6.50271168e-03 4.89857513e-03 5.31069888e-03
      7.14360597e-03 -1.98868662e-02 -3.04148742e-03 1.23159187e-02
      7.92817492e-03 6.58439519e-03 4.17998433e-03 3.02132475e-03
      3.46752582e-03 4.90167458e-03 1.50370505e-03 -6.89436542e-03
      4.68506338e-03 6.74783904e-03 4.58293268e-03 3.19781457e-03
      2.67376378e-03 2.80002295e-03 3.83960409e-03 -5.56715124e-04
      -1.76427253e-02 8.24803486e-03 1.02507807e-02 7.19647435e-03
      8.91594496e-03 6.17979094e-03 6.14455342e-03 5.87280421e-03
      -1.96076203e-02 -2.08149832e-02 1.13933464e-03 5.61237708e-03
      3.43007036e-03 5.01766521e-03 1.95087597e-03 2.77520414e-03
      2.57407344e-04 -2.08950490e-02 -2.35982981e-04 6.10892521e-03
      9.86919645e-03 6.07425766e-03 7.72014121e-03 4.75609954e-03
      5.34631731e-03 4.52368800e-03 8.76262877e-03 -1.18451624e-03
      4.79526898e-05 5.70752844e-03 2.42456119e-03 4.48436569e-03
      1.14436634e-03 2.83080875e-03 1.07091502e-03 2.89800367e-03
      -1.67347901e-02 9.46601911e-04 5.07677626e-03 3.20566748e-03
      4.97185253e-03 1.48993218e-03 2.24395399e-03 7.51692220e-04
      -1.74307097e-02 -1.42107382e-02 2.65791593e-03 3.83769069e-03
      1.20736938e-03 5.16991923e-03 1.19077158e-03 2.72333273e-03
      1.00544817e-03 -1.69310737e-02 2.33604177e-03 3.27199069e-03
      5.01632085e-03 2.85911281e-03 4.88416618e-03 1.34012161e-03
      3.14750662e-03 3.09214066e-03 6.16068067e-03 2.87799491e-03
      4.26235329e-03 3.49846669e-03 1.85535499e-03 5.21769188e-03
      1.93351670e-03 4.14329069e-03 4.24796948e-03 8.12890194e-03
      -1.31198103e-02 -3.03301029e-03 1.45715559e-04 -1.37883122e-04
      2.18653632e-03 8.93384684e-04 1.72064302e-03 7.07440951e-04
      -1.38415759e-02 -3.81851313e-03 -7.58581143e-03 -4.42573614e-03
      -2.05039373e-03 -5.84821857e-04 6.87925087e-04 1.46554492e-03
      8.52912432e-04 -3.30729946e-03 1.71454463e-04 1.44628738e-03
      7.35738315e-04 7.69469887e-04 3.47996387e-03 1.89120008e-03
      3.03206174e-03 2.02148617e-03 5.21050207e-03 5.27237263e-03
      4.81431372e-03 -9.29271919e-04 8.06652184e-04 2.72710831e-03
      1.82156265e-03 2.26652250e-03 1.53017673e-03 6.18303800e-03
      4.08614893e-03 -8.12138058e-03 -4.93493443e-03 -1.80403341e-03
      -1.02919235e-03 -5.53248537e-05 6.26825378e-04 2.07004734e-04
      1.53598899e-03 8.04818980e-03 -3.83948325e-03 -7.41370069e-03
      -1.88709982e-03 5.67798736e-04 5.61017252e-04 9.29142698e-04
      2.26333956e-04 2.34184368e-03 4.31827456e-03 -7.13274407e-04
      -5.05505968e-03 4.85901430e-04 1.88693823e-03 4.42707154e-04
      8.02166294e-04 5.47492644e-04 4.45854291e-03 1.11463731e-02
      -6.80761412e-03 -5.07808477e-03 8.39089276e-04 9.89757013e-04
      3.99509590e-04 8.63609137e-04 4.25075763e-04 3.69647844e-03
      1.44130541e-02 -3.61770578e-03 -1.37300212e-02 -2.65686936e-03
      1.30293076e-03 6.89650362e-04 1.39451621e-03 1.40727218e-03
      4.34737606e-03 1.53564177e-02 -3.89831001e-03 -1.84762888e-02
      -7.82189367e-04 2.55019404e-03 1.29003124e-03 2.59549427e-03
      2.70951865e-03 5.07886568e-03 1.19024469e-02 -8.17073788e-03
      -8.07244424e-03 1.56115659e-03 3.25469347e-03 7.41059659e-04
      1.11517671e-03 1.24148687e-03 3.56609514e-03 1.14733325e-02
      1.05098334e-04 -5.61569119e-03 2.57232739e-03 5.67347836e-03
      1.98346050e-03 2.44645844e-03 1.50464498e-03 3.11981002e-03
      -7.13181263e-03 4.03518789e-04 -5.75191807e-04 1.67759007e-03
      3.50828120e-03 1.54594949e-03 2.54459190e-03 5.64669073e-03
      -2.18720944e-03 -5.90467686e-03 5.26189164e-04 1.19037146e-03
      2.86403461e-03 4.10154462e-03 -4.13482543e-04 -1.97032932e-03
      6.21418469e-03 -2.18951562e-03 -8.85419454e-03 7.07849627e-04
      2.20235297e-03 2.33143917e-03 3.48373456e-03 2.14574952e-03
      1.04260526e-03 1.67566366e-04 -8.33053142e-03 -8.39314703e-03
      1.49243089e-04 3.95457121e-03 6.51118951e-03 2.82156817e-03
      1.86243944e-03 1.10155139e-04 -1.94441306e-03 -6.05736300e-03
      2.21947312e-06 3.86568747e-04 4.93456260e-04 1.24820555e-03
      3.51650640e-03 5.90335731e-05 -1.67523773e-04 6.08355924e-03
      5.30993799e-03 1.22514879e-03 -3.08148982e-03 3.18124978e-04
      1.29995611e-03 1.30289304e-03 9.51714814e-04 -4.58355108e-03
      -1.05080213e-02 -1.75823737e-03 -1.93017791e-03 -4.73245367e-04
      1.60338625e-03 2.46571912e-03 4.03261837e-03 7.24928919e-04
      4.61941381e-04 -5.26960194e-03 2.45031319e-04 -3.30771698e-04
      -1.97591167e-03 -7.55418616e-04 1.05772004e-03 4.21081344e-03
      1.33111421e-03 -1.38127618e-03 -5.18468255e-03 2.24736379e-03
      -2.37213541e-03 -2.75090779e-03 -4.74534609e-04 7.04536098e-04
      1.74374878e-03 6.09062845e-03 -1.63254142e-03 -7.75769586e-03
      -3.66379670e-03 -4.62708389e-03 -1.41444535e-03 -2.24582409e-03
      5.07649849e-04 5.39202429e-03 7.42567424e-03 -7.08937441e-05
      -5.67494053e-03 -1.98821002e-03 -2.36727600e-03 -1.70311495e-03
      -1.73494464e-03 8.26441857e-04 3.61076812e-03 4.98803193e-03
      -1.23966136e-04 -1.00837625e-03 1.50633603e-03 -4.69212933e-03
      -5.85177273e-04 -1.67176325e-03 1.73876213e-03 9.44607146e-03
      8.79513752e-03 1.83042639e-03 6.57216588e-04 -1.02475926e-03
      2.87813484e-03 2.35706233e-04 -4.49697167e-04 -5.30276775e-05
      9.44751955e-04 5.32239326e-04 -6.49803784e-04 -4.92754346e-03
      4.39746631e-03 3.30293924e-03 -2.79118220e-04 -3.87388543e-04
      -4.10099863e-04 -2.18759975e-04 -6.40960177e-04 -9.43141337e-03
      -8.94853845e-03 -2.67898967e-03 2.85434979e-03 3.38980026e-04
      1.80367788e-05 2.75701750e-04 1.69304665e-03 1.26751524e-03
      5.57798543e-04 1.15334510e-03 7.29283271e-03 4.81014373e-03
      1.46545019e-04 5.35434265e-05 -1.32532441e-04 -1.40844102e-04
      -3.19610612e-04 -1.54217496e-03 -3.62447667e-04 5.33810817e-03
      1.84965588e-03 2.44946074e-04 -1.77644997e-05 -2.13976182e-05
      3.33060161e-04 -8.72763303e-06 -2.17087660e-03 -8.04209709e-03
      2.20406381e-03 2.92683975e-03 6.21306070e-04 4.32603119e-05
      3.03435314e-04 4.81822382e-04 -1.40559292e-04 -5.50733181e-04
      -9.02876630e-03 -1.47958647e-03 4.95730201e-03 5.05246979e-04
      3.90836009e-04 -9.91444685e-05 1.40909673e-04 -3.73330200e-04
      -5.48305630e-04 1.72351560e-04 3.79731553e-03 4.62065265e-03
      7.76730303e-04 5.29363519e-04 1.03623694e-04 2.25230353e-04
      -4.40927543e-04 -3.81390826e-04 -1.51678023e-03 -2.56644539e-03
      4.34964662e-03 -2.87514504e-05 1.59712334e-04 4.00109624e-04
      5.93061617e-04 1.83055003e-04 5.96960708e-05 -9.00558196e-03
      -1.03403952e-04 5.29051526e-03 8.90401308e-04 5.97850129e-04
      8.20950954e-04 1.38614606e-03 2.74512917e-03 1.56059081e-03
      -7.14734429e-03 -9.19408223e-04 4.24076011e-03 3.34063370e-04
      3.24244262e-04 1.42549441e-04 3.65175889e-04 -7.31105247e-05
      4.81749848e-05 -3.88622546e-04 -2.08308268e-03 2.31480389e-03
      9.66960622e-04 4.66858794e-04 2.58136824e-05 3.88357410e-04
      1.38648087e-04 3.52615403e-04 -3.30917002e-03 -3.91422492e-03
      3.06686161e-05 1.21531868e-03 6.88142900e-04 8.90510564e-04
      1.00123708e-03 1.72725727e-03 1.49084395e-03 -1.17484294e-03
      -1.36267871e-03 1.71570492e-03 1.11454655e-03 8.98915401e-04
      1.08185154e-03 2.13156501e-03 1.76212890e-03 2.18440103e-03
      2.15620827e-03 -1.11323618e-03 6.93795038e-04 6.43682957e-04
      4.13036876e-04 1.18750278e-04 1.66515485e-04 8.23775554e-05
      3.91518523e-04 -1.70127396e-03 -3.57052893e-03 8.47535208e-04
      1.03253359e-03 3.30068957e-04 2.12125917e-04 3.85627412e-04
      6.51923823e-04 6.08598930e-04 -1.87674153e-03 -1.99494953e-03
      1.66192907e-03 1.63193641e-03 5.92064927e-04 5.05789649e-04
      1.55981269e-03 1.56162726e-03 1.98112242e-03 2.92647211e-03
      -6.48387300e-04 -2.00178347e-05 4.58829105e-03 1.64264149e-03
      3.91035341e-04 1.44290400e-03 1.55602524e-03 4.18183859e-03
      7.68620148e-03 1.37788861e-03 -1.90946553e-03 7.92486360e-04
      2.28138757e-04 -1.12852911e-04 9.92155765e-05 1.67427075e-04
      3.54225107e-04 -6.43877793e-05 -4.82336711e-03 -4.05732822e-03
      1.93520362e-04 4.41370532e-04 -1.18918841e-04 -4.88787919e-05
      5.24387578e-05 6.22045191e-04 2.51653278e-03 -4.27523907e-03
      6.64927211e-05 3.84470262e-03 2.31387583e-03 5.37154498e-04
      3.92466434e-04 4.02477162e-04 1.47951383e-03 5.59599558e-03
      5.27504599e-03 9.65838262e-04 4.23660735e-03 2.47449358e-03
      1.02734764e-03 4.89404600e-04 2.69417244e-04 6.16463076e-04
      2.30426528e-03 4.77912277e-03 -6.02646917e-03 -7.88751233e-04
      3.29061644e-04 1.31799206e-05 1.16715819e-04 8.81775777e-05
      4.79855051e-04 1.73823745e-03 -3.71118635e-03 -5.33653144e-03
      -7.66614161e-04 3.97081923e-04 1.96308247e-04 2.61224835e-04
      6.95174895e-05 3.18459497e-04 6.13691693e-04 -3.35660670e-03
      1.96516141e-03 4.67688823e-03 2.00475962e-03 1.37594936e-03
      1.12202135e-03 6.08361908e-04 7.91244500e-04 1.58057304e-03
      2.52667326e-03 3.51988128e-04 1.65019091e-03 2.08895002e-03
      1.79308571e-03 1.20613957e-03 7.55409303e-04 1.03221892e-03
      2.26819026e-03 6.84068492e-03 -6.96720183e-03 8.32769263e-04
      7.76622968e-04 5.33553015e-04 4.20301891e-04 1.98622092e-05
      2.73544632e-04 4.07377433e-04 -2.22084066e-03 -9.15460289e-03
      -3.35423090e-03 6.31972624e-04 4.02662699e-04 4.78470669e-04
      -1.16315579e-08 3.48494970e-04 5.74626669e-04 2.05274881e-03
      -3.72205250e-04 -3.52620869e-03 2.26704311e-03 2.11239443e-03
      1.69163814e-03 8.01223796e-04 1.43278320e-03 2.28781160e-03
      1.01181371e-02 -7.06499792e-04 -1.01799406e-02 9.09167575e-04
      8.97047052e-04 1.37861213e-03 2.93213059e-04 7.36622256e-04
      6.89204317e-04 6.96703186e-03 -8.06534849e-03 -2.94959918e-03
      6.20056177e-04 2.28913486e-04 7.21116259e-04 4.76428249e-05
      6.14827441e-04 1.14122930e-03 6.02320442e-03 -9.98239312e-03
      -4.64138249e-03 2.84068665e-04 9.55130236e-05 7.63505290e-04
      1.09421751e-04 5.17743698e-04 7.16442126e-04 5.24854381e-03
      9.93210706e-04 -6.95375539e-03 2.76973442e-04 3.09483672e-04
      1.15649449e-03 5.12584869e-04 9.32505063e-04 1.06203917e-03
      7.45299086e-03 1.16229511e-03 -3.63373035e-03 -3.57627985e-04
      4.65070916e-05 1.03098934e-03 3.59751168e-04 7.78691785e-04
      9.10340284e-04 7.56728742e-03 -8.19498580e-03 -6.95179682e-03
      5.87752205e-04 1.00480982e-04 9.20661259e-04 2.70703662e-04
      6.26530091e-04 3.91331472e-04 7.21488241e-03 -5.04758162e-03
      -7.09016155e-03 7.44360499e-04 8.59118154e-05 9.57114506e-04
      1.51325512e-04 5.62018715e-04 3.00056417e-04 7.61590013e-03
      3.51029477e-04 -2.64979177e-03 -9.60065576e-04 -2.50960788e-04
      1.37190253e-03 3.49807291e-04 1.10157102e-03 1.73200457e-03
      9.12816171e-03 -5.40711990e-05 -9.01511032e-03 -1.40471337e-03
      1.61907388e-04 2.76799477e-03 6.83001417e-04 1.36003247e-03
      1.73874141e-03 7.11549632e-03 -1.66540570e-03 -9.63704102e-03
      8.58477957e-04 2.00867406e-04 2.67029391e-03 1.89732833e-04
      1.19972473e-03 1.06826506e-03 5.48545271e-03 2.98039545e-03
      -6.44558296e-03 1.81619334e-03 9.26063396e-04 3.81950429e-03
      7.43420795e-04 1.92839094e-03 2.08955049e-03 4.21937928e-03
      1.31313538e-03 -6.64424850e-03 -3.24025517e-03 -2.49164819e-04
      4.22550878e-03 5.47068310e-04 1.76783616e-03 1.82981126e-03
      8.78594443e-03 6.32387167e-03 -1.25593906e-02 -4.31940798e-03
      -1.80221221e-04 3.23208608e-03 -1.40813368e-04 1.52595772e-03
      3.58093297e-03 8.85629281e-03 4.74520959e-03 -6.84300251e-03
      2.71595386e-03 8.49497388e-04 5.18049905e-03 7.84264877e-04
      2.86351447e-03 2.57147313e-03 5.90766082e-03 8.23729951e-03
      -6.99383533e-03 -3.60882579e-04 1.47701168e-04 3.95121379e-03
      2.00063994e-04 2.22706818e-03 2.22825399e-03 7.70666450e-03
      1.74698560e-03 -1.19158970e-02 -8.96800216e-03 1.28824916e-03
      5.58083970e-03 -6.33066404e-04 -5.33685787e-04 5.45461604e-04
      1.77185703e-03 3.81658482e-03 -7.46790133e-03 -8.33340082e-03
      2.90703308e-03 1.05997110e-02 1.32771558e-03 6.30473020e-04
      2.53263395e-04 1.26996473e-03 1.55897997e-03 -1.40215382e-02
      -4.18702234e-03 1.35856355e-03 6.65527582e-03 1.25228823e-03
      1.72426889e-03 5.55722858e-04 2.32176133e-03 8.00159236e-04
      -6.84655970e-03 -1.89483119e-03 3.67806293e-03 1.41899260e-02
      2.71783210e-03 2.31060246e-03 1.59270465e-04 9.50223650e-04</_>
    <_>
      -7.60571798e-03 -1.01202878e-03 2.39572790e-03 8.89142789e-03
      9.76289529e-03 2.20261235e-03 2.22544023e-03 2.47309683e-03
      -6.97020814e-03 -1.30249318e-02 -6.38153637e-03 1.26272277e-03
      3.89035582e-03 5.08568343e-03 4.52778535e-04 1.98659417e-03
      1.72425096e-03 -5.77881932e-03 -1.40966708e-02 -1.04776560e-03
      5.69473160e-03 7.95220770e-03 1.08553031e-02 4.49214457e-03
      1.68905279e-03 2.68281717e-03 -3.51042370e-03 -5.53828431e-03
      7.86029268e-03 7.32927956e-03 2.46188557e-03 2.50450964e-03
      2.05195043e-03 2.37442390e-03 1.82967156e-03 -3.75590124e-03
      -9.85938683e-03 -7.00301398e-03 3.58727295e-03 1.97391142e-03
      7.82481022e-03 1.70459010e-04 1.62615313e-03 1.33595563e-06
      -4.37275134e-03 -9.30005033e-03 -6.77077286e-03 6.75607799e-03
      4.18764586e-03 1.08797811e-02 4.35842294e-03 3.93563230e-03
      8.80606589e-04 -5.23872115e-03 -1.97964860e-03 -7.25383521e-04
      4.53208899e-03 6.49780035e-04 5.22467401e-03 1.11750921e-03
      2.52094679e-03 1.61044963e-03 -1.41771103e-04 2.87429080e-03
      -1.00192884e-02 3.52589739e-03 3.68767814e-03 1.06336130e-02
      6.09631743e-03 5.01588918e-03 1.98626239e-03 2.11658026e-03
      -9.68543720e-03 -7.63117289e-03 1.89949549e-03 1.36423821e-03
      1.66411872e-03 2.62363418e-03 1.00282591e-03 5.33659302e-04
      -4.71576210e-03 -4.75885067e-03 -7.76505843e-03 5.66331437e-04
      3.31478985e-03 3.23897856e-03 2.88163521e-03 1.30328350e-03
      -6.27959438e-04 -5.40915411e-03 2.72356789e-03 -1.01797376e-02
      3.81633348e-04 1.35739695e-03 6.49175746e-03 4.21339646e-03
      2.47164094e-03 1.77893124e-03 1.79446267e-03 5.49774664e-03
      6.53017405e-03 -2.34272284e-03 3.61528946e-03 6.34725112e-03
      2.84397486e-03 2.46080966e-03 9.22743231e-04 3.18839308e-03
      -6.90790033e-03 -5.71942702e-03 4.59826668e-04 1.61230413e-03
      7.12081732e-04 4.46853315e-04 -4.79861337e-04 -1.26166933e-03
      -4.12200531e-03 -1.02922013e-02 -1.02303503e-02 1.93740893e-03
      5.63423987e-03 1.20807753e-03 -3.97309253e-04 -7.80942850e-04
      -1.48733833e-03 -6.61416817e-03 1.77356566e-03 9.39082121e-04
      -1.23395846e-04 1.68031582e-03 2.48205708e-03 4.13155241e-04
      -2.13523235e-04 -7.07814179e-04 9.33460251e-04 9.46002081e-04
      2.36027082e-03 9.37492936e-04 4.13026847e-03 3.20404372e-03
      5.29167766e-04 1.83486423e-04 -2.57181644e-04 -1.27586978e-03
      -8.54796916e-03 -1.01751704e-02 8.47429037e-04 2.22658063e-03
      7.73249019e-04 -1.92566018e-04 -1.95905639e-04 -6.13766897e-04
      -4.42049420e-03 -5.35776746e-03 -1.03640733e-02 1.52186796e-04
      5.63027570e-04 1.02712213e-04 -4.89722479e-05 -2.73770973e-04
      -5.56102488e-04 -3.65976361e-03 6.17299881e-03 -1.72336493e-03
      -9.72364855e-04 1.84455991e-03 5.22005663e-04 2.30858466e-04
      9.56744945e-04 9.89988912e-04 1.97117846e-03 6.17299881e-03
      -1.39952055e-03 -6.83361082e-04 6.55137817e-04 -2.32404738e-04
      -1.07133506e-04 7.49229628e-04 2.24143453e-03 6.80964906e-03
      -3.70722916e-03 -8.70275870e-03 -2.68724514e-04 8.26204196e-05
      -2.05529097e-04 1.29777200e-05 -4.64399054e-04 -3.66653461e-04
      -4.89402749e-03 -1.93732802e-03 -7.81625416e-03 -2.37991480e-04
      9.56337863e-06 -1.91594547e-04 -4.95848108e-05 -6.05204084e-04
      -8.62055982e-04 -5.07771363e-03 3.77410464e-03 -2.80126021e-03
      5.79652493e-04 -5.23288072e-05 -4.30283617e-05 -1.52791508e-05
      2.07086647e-04 1.60359370e-03 5.79113513e-03 3.77410464e-03
      -6.34069741e-03 6.21240470e-04 4.54285881e-04 8.74474426e-05
      2.13188308e-04 1.02477439e-04 6.33268326e-04 1.01709040e-02
      -4.37592808e-03 -3.17850290e-03 -8.20248024e-05 -1.00493089e-04
      -3.12771590e-04 -1.33906302e-04 -2.01677918e-04 -5.90348267e-04
      -6.02299813e-03 -4.45295265e-03 -4.85789118e-04 -1.26561907e-04
      -1.91078754e-04 -2.69533572e-04 -9.68556633e-05 3.10325995e-05
      -4.96554538e-04 -5.76261058e-03 1.65560911e-03 -5.34518110e-03
      8.05588134e-05 2.74298160e-04 -5.63049398e-04 -6.92799804e-05
      -1.17619584e-05 -2.63518232e-05 8.55600275e-03 1.65560911e-03
      -6.88073051e-04 -1.15276748e-06 -2.67599651e-04 -6.32183743e-04
      -2.31979531e-04 1.49278058e-04 3.19796585e-04 6.64204545e-03
      -3.83001333e-03 -1.03148120e-03 -1.87483543e-04 -1.79311566e-04
      -1.17353171e-04 -2.29990710e-05 7.53568238e-05 -5.47261792e-04
      -3.82926012e-03 -4.81855217e-03 -4.01003344e-04 -2.18938512e-04
      -8.49898497e-05 -1.38741409e-04 -2.53372946e-05 -6.21393265e-05
      -4.27842402e-04 -7.35660503e-03 2.56241532e-03 8.09029825e-06
      -1.51632194e-05 -3.91545153e-04 -2.30738908e-04 -3.05465292e-05
      3.19184066e-04 1.10618176e-03 4.34571179e-03 2.56241532e-03
      1.16496684e-03 5.83099318e-04 -3.09765710e-05 1.08173183e-04
      6.33760996e-04 9.56739706e-04 2.75527756e-03 1.37469789e-03
      -5.35585079e-03 6.77290605e-04 -2.02153715e-05 -2.05402594e-05
      -1.34919130e-04 -1.06250976e-04 -3.69872832e-05 -4.47637285e-04
      -5.26345102e-03 -7.16646109e-03 4.90117585e-04 -7.34075293e-05
      -1.48119885e-04 -2.78674532e-04 -3.37607227e-04 -2.94823083e-04
      -6.18791964e-04 -2.91662407e-03 2.33982597e-03 2.40759295e-03
      9.57357523e-04 7.71176012e-04 8.14769359e-04 7.77941139e-04
      1.40761398e-03 2.52373097e-03 3.24861659e-03 -3.70533642e-04
      1.94300397e-03 7.68655445e-04 1.03130320e-03 8.71859491e-04
      5.08281752e-04 9.32844065e-04 2.62388820e-03 3.24861659e-03
      -6.32210448e-03 -6.50401344e-05 1.60664757e-04 -1.24885366e-04
      -2.38450637e-04 -4.45667887e-04 -6.32671465e-04 -1.12656853e-04
      -5.32736117e-03 -3.56871984e-03 -3.64004140e-04 7.63289427e-06
      -2.09875841e-04 -2.45102623e-04 -3.62429768e-04 -7.38978735e-04
      -1.23487192e-03 -6.85243029e-03 -3.99013981e-03 2.83116038e-04
      7.63371238e-04 6.31991250e-04 7.14328606e-04 1.96481662e-04
      2.18300993e-04 4.38481290e-03 3.06268292e-03 1.70098545e-04
      3.36006306e-05 6.47727808e-04 4.88929974e-04 1.38726216e-04
      -3.12806485e-04 -2.08968020e-04 3.93505488e-03 3.48130870e-03
      -2.01564445e-03 -4.36997740e-04 -1.81160940e-04 -1.22449725e-04
      -3.53601266e-04 -2.84997455e-04 -5.99642284e-04 -5.12194540e-03
      -8.74817278e-03 -3.84371355e-03 -5.75635291e-04 -1.72547210e-04
      -1.77895330e-04 -4.44573787e-04 -1.95991321e-04 -4.77802765e-04
      -7.72577664e-03 -1.00543750e-02 3.99341993e-03 9.44824831e-04
      3.84755112e-04 7.03723577e-04 -8.81278174e-05 -3.60335776e-04
      4.25347331e-04 2.38347147e-03 2.83553940e-03 5.03692217e-03
      1.25619335e-04 -2.13141921e-05 3.41502047e-04 -4.37464245e-04
      -1.53728877e-04 4.72865795e-04 3.68538895e-04 2.83553940e-03
      -1.57183222e-03 -3.25135654e-04 -3.89531080e-04 -2.51149788e-04
      -3.80644604e-04 -2.05103221e-04 -4.94593405e-04 -6.97411085e-03
      -6.74485555e-03 -1.02911273e-03 -4.03235375e-04 -4.61707736e-04
      -2.22478033e-04 -7.36351358e-04 -3.33653472e-04 -3.84890009e-04
      -1.24571547e-02 -8.00065231e-03 7.81028392e-03 -4.21615056e-04
      -2.89277115e-04 -8.47881965e-05 -5.84090885e-04 -6.69638393e-05
      5.65329392e-04 -9.76487878e-04 6.23208378e-03 4.51408001e-03
      -4.58531926e-04 -2.10895567e-04 -2.79861095e-04 -3.97077267e-04
      -1.16483199e-04 1.11268321e-03 -5.94138354e-03 4.88196826e-03
      -1.93007480e-04 -7.72285741e-04 -1.74532004e-04 -2.81296117e-04
      -7.93337356e-04 -4.40786185e-04 -1.89890328e-04 -1.26066273e-02
      -2.38946383e-03 -1.46660500e-03 -1.00498577e-03 1.21236523e-03
      1.89505646e-03 -7.05823477e-05 5.17377106e-04 -1.66484053e-04
      -1.32207442e-02 -6.61750184e-03 4.15439438e-03 -6.64775202e-04
      -6.48697023e-05 -4.18301643e-04 -4.89759026e-04 -8.58662042e-06
      2.17789179e-03 -1.72374630e-03 4.84436285e-03 2.94588762e-03
      -7.07828091e-04 7.71689462e-04 5.63362613e-04 4.29519772e-04
      5.56106330e-04 -8.06255266e-04 -2.07430124e-03 5.92689402e-03
      -3.37010785e-03 -1.42459339e-03 2.11961544e-03 3.55600007e-03
      3.43151600e-03 1.57657010e-03 3.29566683e-04 -9.70300846e-03
      -6.78617647e-03 -4.17065108e-03 -7.41222291e-04 7.88411417e-04
      3.46714514e-04 3.53447488e-03 3.88697517e-05 6.47632347e-04
      -8.01639166e-03 -7.31185591e-03 2.72643496e-03 -6.55378797e-04
      1.39525149e-03 1.65328942e-03 4.10941383e-03 1.16078195e-03
      -2.60379491e-03 -2.35142396e-03 2.85862945e-03 1.00577844e-03
      4.45199432e-04 5.51057165e-04 8.90193682e-04 5.32452529e-03
      -2.29738391e-04 -2.55115516e-03 -1.13092863e-03 1.99262891e-03
      -2.96106189e-03 2.02425254e-05 1.04704418e-03 2.08760874e-04
      4.76515852e-03 2.55318475e-04 3.61552491e-04 -1.08812805e-02
      -8.67210329e-03 -2.05383054e-03 1.87588937e-03 3.67771043e-03
      3.58557119e-03 9.48383659e-03 1.72775483e-03 -8.53797363e-04
      -9.92146041e-03 -8.11281614e-03 6.67766435e-03 1.11196225e-03
      6.30661438e-04 8.80356180e-04 5.96297486e-03 5.72492485e-04
      -6.01727888e-03 5.71229076e-03 6.48312271e-03 1.10043613e-02
      3.99081362e-03 3.69406748e-03 3.42544471e-03 7.60044297e-03
      3.10183386e-03 -8.10866989e-03 -6.88113365e-03 2.51720916e-03
      -9.88112856e-03 -4.97129746e-03 -6.07001748e-05 5.29540330e-03
      1.01929354e-02 3.40640219e-03 2.69944197e-03 2.67304131e-03
      -2.89732101e-03 -1.15842251e-02 -4.67810314e-03 1.69818522e-03
      6.37378660e-04 5.22105256e-03 1.12877192e-03 2.33468832e-03
      1.67416153e-03 -4.64412570e-03 -6.14359602e-03 -5.21171466e-03
      4.68314363e-04 7.59254443e-03 7.59285875e-03 -1.58582965e-03
      4.10123914e-03 1.98688125e-03 -4.40082932e-03 -8.67140293e-03
      -2.40859343e-03 2.37535732e-03 3.02757090e-03 6.94573810e-03
      -2.45835935e-03 1.17485120e-03 -3.73302959e-04 -8.93350132e-03
      -3.15908948e-03 -3.91971227e-03 4.22872166e-04 -5.16804284e-04
      -1.26461237e-05 -2.89793272e-04 -3.17625207e-04 -4.73038468e-04
      -2.41228542e-03 9.31923394e-04 -4.92916442e-03 -4.17246018e-03
      -3.26390000e-05 8.65219336e-04 4.28560947e-04 6.98557851e-05
      -3.31527292e-04 -1.91923953e-03 -1.00651814e-03 -5.13880863e-04
      -6.58772094e-03 7.58060953e-04 9.37050965e-04 -5.49479562e-04
      -4.54442168e-04 -6.15522324e-04 -2.89008906e-03 6.00423990e-03
      3.71996220e-03 -1.43575261e-03 5.66036999e-03 5.74989303e-04
      -5.75589365e-05 -4.55326575e-04 3.35834920e-05 -2.20212387e-03
      4.54281783e-03 1.73568085e-04 -7.46860402e-04 4.37611132e-04
      1.08392152e-03 5.72663324e-04 2.61348730e-04 7.79785973e-04
      8.47313902e-04 3.78805283e-03 1.13448536e-03 -1.46167655e-03
      5.70799923e-04 8.89344141e-04 2.31891900e-04 3.21854110e-04
      1.10832043e-03 1.81776937e-03 3.95269599e-03 -3.23369936e-03
      -2.56676576e-03 -2.89514777e-04 4.88632126e-04 -1.78219743e-05
      7.72413856e-04 1.15197187e-03 4.13389731e-04 -1.36098696e-03
      -1.05280755e-02 -5.32962801e-03 -1.82037975e-03 8.68825766e-04
      2.71801604e-04 8.48251919e-04 9.90742818e-04 8.49322765e-04
      3.85902310e-03 -1.23890210e-03 7.01205223e-04 1.22713717e-03
      2.57211132e-03 6.71125192e-04 1.08695321e-03 1.65064097e-03
      3.92766995e-03 3.49285873e-03 2.55055330e-03 6.06129994e-04
      4.53401171e-03 3.61230550e-03 2.03233468e-03 6.22025784e-03
      6.09543594e-03 4.22490248e-03 3.31297269e-05 -6.54264819e-03
      -3.88775300e-03 6.09109877e-04 2.85012717e-03 8.18379689e-04
      1.45807874e-03 1.10760517e-03 2.39935284e-03 -3.13089136e-03
      -1.27963079e-02 -7.89046194e-03 1.44848193e-03 1.91819924e-03
      2.02872464e-03 6.06070785e-03 4.94954921e-03 4.08103364e-03
      4.96754283e-03 -8.64197209e-04 2.65695999e-05 2.85353838e-03
      1.23861723e-03 1.62065646e-03 5.17478213e-03 6.13792660e-03
      7.11193355e-03 1.40848849e-03 1.50542858e-03 2.31522345e-03
      2.65121809e-03 1.87868380e-03 2.02159816e-03 4.83408803e-03
      1.30504677e-02 1.15735643e-02 -1.15020471e-02 -1.95505619e-02
      -6.11399719e-03 -2.24968046e-03 -3.74177005e-03 2.21370277e-03
      5.16355410e-03 6.62350096e-03 5.94190741e-03 -8.12091772e-03
      -1.62481293e-02 -3.43525293e-03 -1.22654205e-03 -3.14094056e-03
      4.31031082e-03 9.08247940e-03 2.22561378e-02 1.23559870e-02
      -4.64818161e-03 -5.63886389e-03 7.47495389e-04 2.81338085e-04
      7.81819981e-04 2.90928059e-04 1.88636198e-03 9.79684759e-03
      9.53530613e-03 -1.43076782e-03 -6.47890288e-03 1.08338962e-03
      1.84866646e-03 1.00738276e-03 1.32256665e-03 3.39664705e-03
      7.90749211e-03 9.80684999e-03 -1.25046456e-02 -1.71795022e-02
      -2.43392168e-03 -1.92526414e-03 6.31588046e-04 5.28862281e-03
      8.99224076e-03 2.21850127e-02 1.04156462e-02 -1.53178051e-02
      -1.52793024e-02 -3.68252420e-03 -3.46426410e-03 1.24355126e-03
      1.33090559e-02 1.34028578e-02 2.32166406e-02 3.74920527e-03
      2.40578505e-04 -8.82629398e-03 5.55774604e-04 8.51673831e-04
      -5.10582293e-04 3.48549336e-04 1.28668093e-03 3.48582934e-03
      1.04871280e-02 4.37125680e-04 6.26408320e-04 2.10953248e-03
      6.28585054e-04 -3.94539791e-04 1.47059645e-05 5.97490172e-04
      4.05761553e-03 3.47625371e-03 -1.52433794e-02 -8.74761585e-03
      -2.00101966e-03 -1.44130143e-03 1.42446277e-03 7.86198117e-03
      5.88073069e-03 5.26034785e-03 -2.21295794e-03 -1.11013735e-02
      9.16987844e-03 1.24459174e-02 1.21390764e-02 6.05214573e-03
      3.67362564e-03 1.84164825e-03 6.02720911e-03 -6.99002016e-03
      -2.43173703e-03 8.09018221e-03 1.81759056e-03 1.29396474e-04
      -1.99931528e-04 -8.13546103e-06 2.82420864e-04 4.41353396e-03
      -1.53099559e-03 -2.17493135e-03 1.27528338e-02 5.68364421e-03
      1.46358775e-03 5.83452871e-04 1.41395698e-03 1.71761925e-03
      6.08163793e-03 -5.11202449e-03 -8.33373889e-03 1.18453307e-02
      9.74923838e-03 6.86549209e-03 4.27248050e-03 2.90363468e-03
      6.78565179e-04 2.80687260e-03 -1.09715769e-02 -1.86709547e-03
      1.51798921e-02 7.25694746e-03 2.22065649e-03 1.57313806e-03
      9.62114718e-04 -2.12534890e-03 4.32077097e-04 -1.73138957e-02
      -2.54031876e-03 1.60398372e-02 1.04788365e-02 6.38967613e-03
      5.37053635e-03 5.09732496e-03 5.97318448e-03 1.26508949e-02
      -4.14994638e-03 -1.13642197e-02 1.00132860e-02 5.39410394e-03
      4.76903422e-03 3.62894591e-03 2.30958522e-03 3.07068741e-03
      4.87049296e-03 -7.15090940e-03 1.70278107e-03 2.00572573e-02
      1.41055798e-02 7.33374897e-03 1.12755678e-03 7.92587874e-04
      2.36295353e-04 4.08908539e-03 -1.11829117e-02 -1.45174544e-02
      1.12033403e-02 5.32891881e-03 4.47314093e-03 -3.10737523e-03
      -5.96614263e-04 3.84695129e-04 -2.56695552e-03 -2.28952467e-02
      4.60737239e-04 1.08768409e-02 7.41035864e-03 6.22065505e-03
      7.42683653e-03 3.91300162e-03 4.86177113e-03 1.13815553e-02
      1.73948263e-03 5.35582006e-03 5.70079731e-03 3.57123697e-03
      1.38542242e-03 4.50466573e-03 1.07104389e-03 3.78258317e-03
      8.69960804e-03 -1.66797690e-04 -4.04985482e-03 1.32742980e-02
      7.10806716e-03 3.44847119e-03 4.13226429e-03 2.47580931e-03
      4.48407931e-03 -3.74047249e-03 -1.72459334e-02 -4.47343290e-03
      4.60200338e-03 1.87395455e-03 -4.73992579e-04 4.19274112e-03
      -1.09606260e-03 2.71628145e-03 -1.60881970e-02 -2.46972758e-02
      1.01461075e-02 7.51334336e-03 4.17880761e-03 3.55691765e-03
      4.56073368e-03 8.93903605e-04 4.54854267e-03 4.83332435e-03
      4.77370108e-03 1.26485191e-02 5.37263090e-03 3.29190586e-03
      3.59182828e-03 4.51115752e-03 1.64161064e-03 5.64581389e-03
      2.47616274e-03 4.99628531e-03 -2.43894479e-04 3.83417681e-03
      2.40798714e-03 1.02275005e-03 4.94598923e-03 -4.85233060e-04
      8.12160026e-04 -2.08398327e-02 -2.26811990e-02 2.67645111e-03
      3.05936881e-03 1.93698087e-03 -8.09937410e-05 2.24174256e-03
      -9.83392354e-04 1.30734628e-03 -1.79744940e-02 -1.89551860e-02
      7.26356497e-03 2.06510816e-03 2.38109310e-03 1.70029735e-03
      3.30148824e-03 8.93819379e-04 3.76414508e-03 -1.94031527e-04
      7.23984838e-03 9.08973720e-03 3.34039005e-03 4.18312149e-03
      1.39865873e-03 2.39118817e-03 6.85336650e-04 4.43015574e-03
      -1.40746846e-03 6.16046414e-03 2.77348491e-03 2.80588935e-03
      2.54595536e-03 -9.39275487e-04 -3.96575750e-04 -3.38478107e-03
      6.82903265e-05 -1.94787495e-02 -1.78381186e-02 3.69888102e-03
      2.79235723e-03 3.49879428e-03 3.59090598e-04 3.92442383e-03
      -2.44535157e-04 4.08488186e-03 -1.11715943e-02 -5.25070634e-03
      4.32916172e-03 1.24572567e-03 1.62756164e-03 8.91850912e-04
      1.09589065e-03 6.91556197e-04 2.10069865e-03 -5.83183253e-03
      7.01490790e-04 4.52210428e-03 1.23785366e-03 1.07158849e-03
      5.83200599e-04 1.00374082e-03 3.64690699e-04 9.66543739e-04
      -3.38007160e-03 4.15818952e-03 1.91180105e-03 9.65874235e-04
      1.15161727e-03 2.27776094e-04 1.53227558e-03 1.18199177e-03
      4.21241159e-03 -8.64792522e-03 -6.13009976e-03 2.82511907e-03
      1.22801890e-03 8.54890619e-04 -4.65908852e-05 3.67922854e-04
      7.25930615e-04 4.99974238e-03 -8.34415201e-03 -8.88860610e-04
      2.22097524e-03 9.71591158e-04 7.20142445e-04 3.78146418e-04
      1.40676019e-03 -2.94036814e-04 -8.22161441e-04 -4.12288960e-03
      2.85721896e-03 1.97827397e-03 6.15197467e-04 7.27281789e-04
      9.81353805e-04 1.84819149e-03 -4.09524480e-04 -6.99179387e-03
      -4.15235199e-03 -2.82292487e-04 1.73171086e-03 6.90152694e-04
      4.95526008e-04 -3.17598140e-04 -5.73337718e-04 1.09181996e-03
      2.26190826e-03 -4.99576144e-03 5.35825035e-03 -3.11567710e-04
      -2.58163956e-04 -3.39613616e-05 -5.66879578e-04 -2.21460097e-04
      1.02140463e-03 -6.77662482e-03 -5.96946198e-03 3.15108476e-03
      3.32089583e-03 8.42475507e-04 5.59640641e-04 6.71556976e-04
      1.77723449e-03 -8.27667420e-04 -6.47398364e-03 -1.27461462e-04
      3.66504653e-03 5.31090749e-03 2.19751010e-03 1.10046996e-03
      4.78662725e-04 2.71367654e-03 -3.50637361e-04 -7.78344320e-03
      -6.02422981e-03 4.15869895e-03 1.10172108e-03 -6.47207853e-05
      -2.33647443e-04 -4.88280610e-04 8.02402617e-04 -2.19644629e-03
      -3.29523464e-03 -5.61375916e-03 6.49968861e-03 2.99802958e-03
      2.55406066e-03 1.29109784e-03 6.53079624e-05 2.45922944e-03
      -2.77092168e-03 -1.11882463e-02 -2.68212077e-03 9.19746980e-03
      -8.05292730e-05 -3.03031411e-03 -1.38477620e-03 2.70613842e-03
      2.86534498e-03 -4.31090244e-04 -1.72861211e-04 -7.20299082e-04
      -1.94525986e-03 -1.06751837e-03 -4.08371305e-03 -3.95218749e-03
      -1.34606089e-03 1.01797143e-03 -1.12583934e-04 -9.33514093e-04
      3.46516113e-04 -1.42752903e-03 1.69866637e-03 4.61802399e-03
      2.96212011e-03 1.16642192e-03 -2.02336768e-03 3.72134452e-03
      2.80321483e-03 1.75885588e-03 1.33306242e-03 1.65770366e-03
      2.40590167e-03 -3.99684627e-03 2.54785555e-04 -5.55984257e-03
      2.95179361e-03 2.01709755e-03 4.28762333e-03 3.02489172e-03
      6.12322288e-03 1.33149081e-03 -2.14569084e-03 5.02856739e-04
      2.64054514e-03 2.23765476e-03 3.83599452e-03 7.17289280e-03
      4.66818968e-03 8.31530429e-03 -5.06957620e-03 -8.28793831e-03
      2.97516165e-03 6.10998424e-04 1.14369194e-03 2.52802134e-03
      5.11786621e-03 3.96112679e-03 2.68337410e-03 8.67328898e-04
      -6.56036986e-03 -8.04348290e-03 -5.09773206e-04 3.89738707e-03
      6.01593172e-03 1.12663442e-02 5.73517429e-03 5.07216295e-03
      -4.97139571e-03 -1.38768628e-02 -1.24130761e-02 -3.41419806e-03
      1.25815510e-03 5.40743861e-03 1.35466736e-02 8.21295287e-03
      6.98531186e-03 -1.05034113e-02 -8.38541240e-03 3.00387107e-03
      3.79613414e-03 1.08663342e-03 5.99954370e-03 8.37317482e-03
      5.93660679e-03 3.81455221e-03 -4.15156828e-03 -1.22495824e-02
      -5.37751522e-03 4.44964180e-03 1.86174829e-03 8.61954223e-03
      8.44446197e-03 6.32925844e-03 7.71979429e-03 -1.01423310e-02
      -1.81788504e-02 -3.09487316e-03 2.79241637e-03 2.44055199e-03
      9.79702920e-03 1.93192083e-02 1.67852752e-02 5.11021586e-03
      -1.62346233e-02 -2.36700438e-02 -1.15060471e-02 -1.58592686e-03
      3.06752347e-03 1.51537741e-02 2.25710962e-02 1.60882045e-02
      3.86590674e-03 -8.60297773e-03 -7.06629222e-03 -8.14546016e-04
      1.07960673e-02 2.88121426e-03 1.04276715e-02 1.03634708e-02
      1.31295528e-02 -1.55386038e-03 -2.01976523e-02 -4.60660411e-03
      -6.70699636e-03 1.57649326e-03 7.72400352e-04 1.04168206e-02
      9.99602210e-03 1.24947689e-02 5.41508012e-03 -1.49062779e-02
      -1.33048147e-02 -8.73107277e-03 6.31600572e-03 4.18483838e-03
      2.34684609e-02 3.16332057e-02 2.26501692e-02 7.85608310e-03
      -1.07683325e-02 -5.71559183e-03 -9.51322354e-03 -2.84884311e-03
      -4.56319144e-03 1.52892163e-02 2.46185251e-02 2.19590422e-02
      -7.63867237e-03 -1.78924762e-02 -7.86111597e-03 -2.93120206e-03
      2.06837454e-03 3.23238061e-03 8.49155150e-03 9.87822376e-03
      1.25439074e-02 -4.78056056e-04 -1.60873756e-02 -3.48617416e-03
      -6.73531462e-03 2.55719293e-03 1.20241484e-02 2.52385940e-02
      3.13743055e-02 2.55917646e-02 3.36699979e-03 -8.50295275e-03
      -2.91862874e-03 -7.33067002e-03 -5.55305555e-03 -3.15933907e-03
      7.85952900e-03 1.40491789e-02 1.18300160e-02 -4.38237004e-03
      -8.45047925e-03 -7.33506121e-03 -1.68565586e-02 -5.62718883e-03
      -6.29974704e-04 8.76897667e-03 1.51107088e-02 4.90687694e-03
      -1.38406977e-02 -1.62309576e-02 -5.77203091e-03 -7.50139914e-03
      2.18006852e-03 1.64048579e-02 1.36407604e-02 2.41044965e-02
      5.14889043e-03 -1.28608719e-02 -8.38718750e-03 -4.56432858e-03
      -7.72636756e-03 -9.85200983e-04 2.25601699e-02 2.56682932e-02
      2.56813262e-02 -3.79817589e-04 -1.30365817e-02 -1.07339285e-02
      -8.36735032e-03 -1.48844980e-02 -4.52263607e-03 7.36473547e-03
      6.38617016e-03 8.04638676e-03 -4.53233859e-03 -1.82190333e-02
      -7.27830082e-03 -5.36977407e-03 -1.10549787e-02 -2.20385060e-04
      1.27369901e-02 2.07441896e-02 9.25443321e-03 -1.41337067e-02
      -1.54408729e-02 -4.37118486e-03 -4.01879521e-03 -2.65624467e-03
      1.07623683e-03 2.09958330e-02 1.34323770e-02 7.56415259e-03
      -9.71769448e-03 -1.88456234e-02 -1.09572633e-04 5.28484676e-03
      9.08786338e-03 1.49660762e-02 1.39950262e-02 6.07456220e-03
      5.67467231e-03 -1.53398113e-02 -2.08808966e-02 -4.19389177e-03
      -4.51285997e-03 -3.68953473e-03 4.05294495e-03 1.79410521e-02
      1.09819779e-02 6.62885723e-04 -1.98507551e-02 -2.57615466e-02
      -4.44892282e-03 -3.24784731e-03 2.97709624e-03 1.34798139e-02
      1.47619415e-02 -3.01073946e-04 -9.12089832e-03 -2.88956575e-02
      -1.34842116e-02 5.71086863e-03 6.07989915e-03 1.05343182e-02
      1.60528794e-02 8.05738661e-03 2.44929324e-05 -1.65034638e-04
      -1.97234061e-02 4.25255951e-03 8.76476336e-03 6.66059833e-03
      5.12985978e-03 5.35599235e-03 4.05380735e-04 -4.96139284e-03
      -5.45341987e-03 -7.57308071e-03 -1.71831325e-02 -5.21434296e-04
      -8.98415397e-04 7.80753698e-03 1.87192149e-02 1.11870579e-02
      -5.39413234e-03 -1.50801158e-02 -2.91871503e-02 -8.38138070e-03
      7.14452239e-03 4.91680857e-03 5.47704659e-03 1.13691855e-02
      2.78823217e-03 -7.63105741e-03 -1.41006708e-02 -1.72147322e-02
      6.39290921e-03 7.14022014e-03 5.12644742e-03 4.91309306e-03
      -1.36196890e-04 -2.09723739e-03 -3.52202216e-03 -2.02411064e-03
      3.02988803e-03 -7.13450648e-03 3.03345919e-03 3.21687711e-03
      1.54601445e-03 -3.79534205e-03 -1.44181948e-03 -2.03919411e-03
      -4.94050514e-03 -1.31421704e-02 3.78535083e-03 3.93363321e-03
      3.95250099e-04 3.71881225e-03 1.07016973e-02 6.49881782e-04
      -2.17643217e-03 -4.31093713e-03 -6.63485005e-03 -1.20214326e-02
      -1.02067664e-02 -7.10239168e-03 -4.53415532e-06 1.16318874e-02
      4.83943429e-03 -1.72688335e-03 -6.61539100e-03 -1.03887497e-02
      8.49750824e-04 1.24626290e-02 7.46924756e-03 3.62826535e-03
      5.59250172e-03 3.12058418e-03 4.31448920e-03 8.93742719e-04
      -6.12316420e-03 -3.43525643e-03 4.19826806e-03 3.39156995e-03
      -6.25768502e-04 3.88373923e-03 -4.00238857e-03 -9.80325742e-04
      -1.43118668e-02 -1.43387951e-02 -9.43478104e-03 -4.68061015e-04
      6.67674118e-04 9.08250362e-03 2.11731307e-02 1.58002563e-02
      1.21456124e-02 4.58253082e-03 -7.74071924e-03 -7.20367022e-03
      -4.34691273e-03 7.67812162e-06 1.83387648e-03 1.15353120e-02
      -2.05635413e-04 -3.93003458e-03 -1.37312496e-02 -7.98667036e-03
      8.01433809e-03 5.09665441e-03 7.14618945e-03 1.97395682e-03
      1.16517227e-02 -1.26391102e-03 1.72512035e-03 -1.81800984e-02
      -1.30920149e-02 1.15446821e-02 4.90885973e-03 4.13927529e-03
      -4.38414718e-04 9.81467962e-03 1.02632155e-03 7.99997151e-03
      -7.15238415e-03 -7.80739728e-03 5.30494330e-03 -5.71477972e-03
      1.87424594e-03 -1.84836943e-04 1.60368495e-02 4.02592195e-05
      -1.70577422e-03 -1.05844373e-02 5.54435560e-03 1.20667703e-02
      -4.40729456e-03 -3.34724598e-03 -4.45236219e-03 8.96292552e-03
      -4.04129969e-03 8.59525346e-04 8.89400195e-04 1.18323984e-02
      8.91829003e-03 7.16351497e-04 3.23219481e-03 -2.86902883e-03
      3.41854873e-03 -4.26936196e-03 2.23596813e-03 -1.28525412e-02
      -5.13278320e-03 1.43482974e-02 5.98169351e-03 8.69569741e-03
      1.02396577e-03 1.27625987e-02 4.12389170e-03 5.32490807e-03
      -1.37221748e-02 -7.69056787e-04 9.89874825e-03 -4.18887055e-03
      -4.06759838e-03 -9.57038347e-03 -4.45808662e-04 -4.71951766e-03
      2.76010088e-03 -1.49546540e-03 1.02993473e-02 1.50675923e-02
      7.42343068e-03 9.33434442e-03 1.39387255e-03 1.63161494e-02
      2.65329285e-03 4.91843233e-03 -3.91859747e-03 1.45706255e-02
      9.66348965e-03 1.89958885e-03 3.15486407e-03 -1.84193850e-04
      8.49197339e-03 3.22379498e-03 2.23997259e-03 -2.18477063e-02
      -5.26929216e-04 1.13732405e-02 3.73939658e-03 5.18110441e-03
      1.83289725e-04 8.53391737e-03 3.70982988e-03 2.93304259e-03
      -1.05618658e-02 7.18689663e-03 9.70346108e-03 3.78634338e-03
      4.50747833e-03 1.33752765e-03 1.33630261e-02 3.10830143e-03
      -7.05795479e-04 -1.05385790e-02 8.56933743e-03 9.26305726e-03
      2.89357267e-03 3.97134852e-03 7.74939719e-04 1.43305548e-02
      6.13900076e-04 -2.54090573e-03 -1.57358553e-02 8.58862139e-03
      3.90747096e-03 2.34061759e-03 3.05464934e-03 -2.02910975e-04
      4.17302735e-03 3.23135778e-03 -5.05692651e-03 -7.25887204e-03
      1.04242908e-02 5.18295495e-03 3.15574254e-03 3.42892064e-03
      3.92942136e-04 6.52617356e-03 6.47809030e-03 -1.28923655e-02
      -7.59851886e-03 1.33819133e-02 4.08471562e-03 1.12325069e-03
      3.94606078e-03 1.19779131e-03 1.10437497e-02 5.02886141e-05
      -1.05744824e-02 -1.66911352e-02 3.92497750e-03 6.27067592e-03
      4.10566758e-03 5.94362710e-03 3.24498769e-03 1.07519561e-02
      7.40814256e-04 -1.19003858e-02 -7.76537741e-03 6.53627329e-03
      2.66356557e-03 1.10051804e-03 2.55606975e-03 -1.32859714e-04
      1.98250753e-03 2.28503137e-03 -1.14289513e-02 1.00549043e-03
      7.96879362e-03 3.15645500e-03 1.53539912e-03 2.56611942e-03
      -2.85125716e-04 1.07240153e-03 -2.05308734e-03 -5.76273398e-03
      -1.72266155e-03 7.97417480e-03 5.59135992e-03 3.48477974e-03
      5.44868363e-03 1.62276707e-03 1.70504628e-03 -8.56164657e-03
      -1.26069859e-02 -8.70421436e-03 6.09689672e-03 5.88903949e-03
      2.05863477e-03 3.84857599e-03 -2.46716267e-03 -3.07186227e-03
      -8.32605362e-03 -2.76227575e-03 2.88634212e-03 7.23320991e-03
      1.37898442e-03 3.63915111e-03 4.21468372e-04 -3.48613900e-03
      -4.34451504e-03 2.33979127e-03 7.70880468e-03 3.67809087e-03
      2.80438410e-03 6.47133973e-04 5.78100188e-03 9.08789574e-04
      -7.17727374e-03 -8.45381059e-03 8.08056560e-04 5.26296441e-03
      5.54435933e-03 2.97099631e-03 -9.33498202e-04 -2.71788213e-05
      -2.73462408e-03 -2.18849001e-03 -4.51160222e-03 7.67236529e-03
      5.88024873e-03 1.78609416e-03 9.07280599e-04 5.29895187e-04
      4.61308658e-03 1.70549541e-03 -1.19351177e-03 -7.11418455e-03
      2.76658451e-03 2.76361615e-03 -1.36922486e-03 2.37788889e-03
      4.66283225e-03 1.08141154e-02 8.44928995e-03 -3.82690411e-03
      -4.34046658e-03 -5.06551994e-04 6.09106105e-03 1.00392299e-02
      7.46238697e-03 5.60887391e-03 7.65078352e-04 -7.88254011e-03
      -1.55834518e-02 -6.49947394e-03 -1.22876395e-03 9.51308105e-03
      1.84142571e-02 1.59478132e-02 6.12736028e-03 5.10780513e-03
      2.33081286e-03 -4.42024507e-03 -2.74810218e-03 -3.80042964e-03
      2.62640417e-03 1.34189753e-03 8.17007944e-03 6.27548341e-03
      1.34469183e-05 -4.36855061e-03 -1.61435995e-02 -1.08198822e-02
      -8.85034725e-03 3.78816156e-03 9.35264491e-03 1.38941621e-02
      7.81974196e-03 -9.66393389e-03 -2.10588910e-02 -1.36075290e-02
      -7.82748219e-03 -2.99346575e-04 1.11759501e-02 2.30218805e-02
      2.21803263e-02 3.51000112e-03 -1.36609487e-02 -2.23583207e-02
      -1.33809829e-02 -1.03923799e-02 3.70043423e-03 1.76989846e-02
      2.75087245e-02 1.92510653e-02 7.05555640e-03 -4.07454045e-03
      -1.02139357e-02 -1.40815452e-02 -1.35163609e-02 -7.99104758e-03
      5.20790135e-03 1.66825466e-02 2.07366217e-02 4.58642561e-03
      -5.40871033e-03 -7.78364111e-03 -1.22348396e-02 -1.56942997e-02
      -6.96274685e-03 1.42236641e-02 3.20186391e-02 2.41578128e-02
      -2.06689117e-03 -1.95011217e-02 -2.70053428e-02 -1.23100542e-02
      -1.05344439e-02 1.82198803e-03 1.59045346e-02 2.87333857e-02
      1.43926516e-02 -7.61626987e-04 -1.18749943e-02 -1.33039122e-02
      -8.87454208e-03 -1.64185949e-02 -4.07711836e-03 9.70739778e-03
      2.76512653e-02 1.69041790e-02 1.20032311e-03 -5.91079891e-03
      -8.86841584e-03 -1.02311578e-02 -1.67155620e-02 -5.48382709e-03
      1.25619899e-02 3.46078873e-02 2.06606574e-02 8.57328632e-05
      -1.16901118e-02 -1.63687728e-02 -1.54390829e-02 -2.15204693e-02
      -3.34514189e-03 1.00827599e-02 3.13500725e-02 2.08113175e-02
      3.24012735e-03 -5.33896219e-03 -7.50754634e-03 -7.14468863e-03
      -1.05131036e-02 -1.47440843e-03 8.35992116e-03 2.47186627e-02
      1.51178837e-02 -8.69256072e-03 -1.15613779e-02 -1.26645733e-02
      -1.36888223e-02 -1.28882369e-02 -2.21149926e-03 1.08639160e-02
      2.18017343e-02 3.26741091e-03 1.09963736e-03 -8.00437946e-03
      -1.08761201e-02 -8.69757310e-03 -1.15718292e-02 -2.18269197e-04
      1.22903697e-02 3.21481153e-02 2.08251067e-02 -8.88404716e-03
      -1.69062167e-02 -1.93071719e-02 -1.49115846e-02 -1.34382779e-02
      -3.41448700e-03 1.29948854e-02 2.84080543e-02 1.13743125e-02
      -1.50993820e-02 -8.96234158e-03 -6.56491797e-03 -8.36571399e-03
      4.51531319e-04 3.29277571e-03 9.29534715e-03 1.25871422e-02
      -1.31381804e-03 -2.06002519e-02 -4.93904063e-03 -1.59840786e-03
      -1.09596946e-03 8.61796364e-03 1.56484544e-02 2.01159678e-02
      1.07785389e-02 -1.48311593e-02 -1.21609941e-02 -1.54989501e-02
      -8.77534784e-03 -6.87175617e-03 -9.54920833e-04 3.81010002e-03
      9.72586777e-03 1.67770255e-02 9.78616998e-04 -2.14785598e-02
      -1.01374006e-02 -5.28178597e-03 -2.05946504e-03 1.09477062e-02
      2.37122662e-02 1.58558767e-02 9.84153617e-03 -1.31168915e-02
      -2.07147822e-02 -4.60489094e-03 -7.03793718e-04 9.24918510e-04
      5.08300308e-03 1.56810544e-02 8.67309980e-03 -1.64174056e-03
      -2.09526028e-02 -2.23561507e-02 -2.90380046e-03 -1.07026286e-03
      3.95507552e-03 1.99608393e-02 2.19647568e-02 2.22235755e-03
      -1.43838041e-02 -2.68701445e-02 -2.70048659e-02 -7.96192698e-03
      -2.34652474e-03 -2.26617698e-03 1.03375018e-02 2.12762356e-02
      1.08400481e-02 2.09847908e-03 -1.98633838e-02 -2.45349500e-02
      -8.35079420e-03 -4.29612584e-03 4.04831226e-04 2.23609190e-02
      2.71582268e-02 1.24079641e-02 1.25954626e-03 -1.57936681e-02
      -1.40717430e-02 -1.47621438e-03 -9.13991127e-04 4.62504616e-03
      1.94191821e-02 1.87034886e-02 -1.70858623e-03 -1.17157102e-02
      -2.41811350e-02 -4.78986371e-03 2.88451277e-03 1.88489223e-03
      8.99283215e-03 2.10469756e-02 1.35805244e-02 -3.68946418e-03
      -1.06482329e-02 -1.77845210e-02 -2.20887810e-02 -7.32670538e-03
      -1.95996673e-03 3.00087058e-03 2.38764044e-02 2.12926026e-02
      5.10674343e-03 -6.53452764e-04 -1.79515146e-02 -1.71586480e-02
      1.64043962e-03 3.34252114e-03 9.46419407e-03 2.73255091e-02
      2.31220052e-02 6.26844680e-03 3.20877670e-03 -1.26933577e-02
      -4.77681140e-04 5.36175910e-03 3.19521828e-03 9.89151932e-03
      2.00251471e-02 1.00998981e-02 1.37425528e-03 -5.65090496e-03
      -1.22494446e-02 -1.36926994e-02 -3.92998336e-05 9.24229214e-04
      8.59520305e-03 2.09100768e-02 9.11764801e-03 1.52170868e-03
      -8.55121296e-03 -2.07376536e-02 -1.36787696e-02 1.07043795e-02
      7.65783433e-03 1.13031222e-02 2.35873498e-02 1.92639194e-02
      6.84595760e-03 1.07161829e-03 -1.60581656e-02 -1.33418692e-02
      9.56272334e-03 7.82678742e-03 1.41239921e-02 2.39015445e-02
      1.66523326e-02 3.53649538e-03 -6.68323692e-03 -2.11108644e-02
      -1.49902916e-02 -4.22437210e-03 1.47371355e-03 1.25384657e-02
      2.76030656e-02 1.83590855e-02 9.27474722e-03 -1.58125491e-04
      -1.84180681e-02 -1.43859871e-02 -9.17118415e-03 -2.67130882e-03
      3.67407920e-03 1.33464690e-02 6.54518697e-03 8.72955774e-04
      -3.33053502e-03 -1.05383536e-02 -1.06501952e-02 7.37607945e-03
      9.27140284e-03 1.84970349e-02 2.91271899e-02 1.77156907e-02
      6.63447333e-03 -5.83652174e-03 -1.85482148e-02 -1.25370389e-02
      -1.34941656e-03 3.63150437e-04 3.65118077e-03 1.48396706e-02
      5.18933823e-03 5.28024451e-04 -9.64395143e-03 -1.56286471e-02
      -6.87704142e-03 -1.23691447e-02 -5.47258183e-03 -3.61961708e-03
      1.10512786e-02 7.96565786e-04 2.03173049e-03 -2.11718772e-03
      3.83248273e-03 4.23693936e-03 -7.04230089e-03 -3.22712469e-03
      -3.18893767e-03 7.93998409e-03 -3.53354518e-03 2.00808095e-03
      1.41844247e-03 9.85719915e-03 -1.85071956e-03 -3.38268210e-03
      4.06376459e-03 -2.62611895e-03 1.14607373e-02 -2.14686967e-03
      2.04754155e-03 -7.85338506e-03 -7.22299004e-03 7.83421099e-03
      5.40026987e-04 8.95453710e-03 1.47591357e-03 1.01545742e-02
      -4.40888340e-03 4.32752259e-03 -4.48462879e-03 3.79878795e-03
      1.57051999e-03 -1.02912448e-02 -3.96961439e-03 -9.46321152e-03
      -3.92482337e-03 -6.78609684e-03 -4.37890785e-03 -3.05329682e-03
      7.46169779e-03 8.02836847e-03 2.27904203e-03 6.63852459e-03
      -2.54304521e-03 8.33496451e-03 4.06314881e-04 -3.42919677e-03
      -4.56541404e-03 9.40776709e-03 5.72085101e-03 -5.56387985e-03
      2.37700762e-03 -3.48746660e-03 8.63343850e-03 -7.22226826e-03
      -7.25575071e-03 -9.15018003e-03 4.91090212e-03 1.60593763e-02
      4.51525301e-03 6.38814550e-03 -3.14205326e-03 1.20175397e-02
      -7.61977397e-04 6.39622845e-03 6.27003983e-03 1.44181475e-02
      6.74246252e-03 2.63763033e-03 1.05813693e-03 -1.85757782e-03
      5.12799667e-03 2.05778820e-03 -2.83810124e-03 -8.33641912e-04
      6.94647618e-03 5.59933484e-03 2.61763786e-03 -6.21689484e-04
      -1.51779223e-03 6.32084813e-03 -5.92763536e-03 -1.01830931e-02
      -6.65764371e-03 4.42836620e-03 9.63476580e-03 4.45461739e-03
      2.72863870e-03 2.63412745e-04 7.11358897e-03 2.49148230e-04
      1.34217227e-03 3.97530943e-03 8.64841882e-03 6.76900707e-03
      2.12515448e-03 2.80305697e-03 -1.87499251e-03 2.37872911e-04
      -8.46853852e-03 -8.30165297e-03 4.64272773e-04 7.22030969e-03
      9.60168336e-03 5.45676611e-03 7.25171342e-03 2.14265776e-03
      1.31527688e-02 -4.78286762e-03 -8.69385712e-03 -3.82192526e-03
      9.19021107e-03 1.21731861e-02 7.40803266e-03 8.55867285e-03
      2.84179929e-03 1.07985614e-02 -1.15721971e-02 -9.77620948e-03
