<?xml version="1.0"?>
<opencv_storage>
<my_svm type_id="opencv-ml-svm">
  <svm_type>C_SVC</svm_type>
  <kernel><type>RBF</type>
    <gamma>2.2500000000000003e-03</gamma></kernel>
  <C>1.2500000000000000e+01</C>
  <term_criteria><epsilon>2.2204460492503131e-16</epsilon>
    <iterations>10000</iterations></term_criteria>
  <var_all>3780</var_all>
  <var_count>3780</var_count>
  <class_count>2</class_count>
  <class_labels type_id="opencv-matrix">
    <rows>1</rows>
    <cols>2</cols>
    <dt>i</dt>
    <data>
      -1 1</data></class_labels>
  <sv_total>56</sv_total>
  <support_vectors>
    <_>
      3.54523718e-01 1.01752533e-02 1.30514835e-03 9.91989393e-04
      1.78505224e-03 1.32875214e-03 5.62577322e-03 1.11694066e-02
      3.54523718e-01 3.54523718e-01 1.61155891e-02 5.84784057e-03
      2.28920646e-04 2.69419514e-03 2.39973096e-03 4.72703483e-03
      1.27823129e-02 3.54523718e-01 3.34478587e-01 1.58404615e-02
      2.65301159e-03 1.04158709e-03 1.52789650e-03 1.70828158e-03
      2.06740969e-03 2.05330942e-02 3.54523718e-01 3.54523718e-01
      5.45202531e-02 1.37415044e-02 1.33918342e-03 1.11456297e-03
      3.26582533e-03 3.29523510e-03 1.16736237e-02 3.54523718e-01
      3.42611045e-01 2.31955405e-02 6.52599707e-03 9.17524958e-05
      7.23678852e-03 2.51620705e-03 6.94691809e-03 1.66783016e-02
      3.42611045e-01 3.42611045e-01 3.57383750e-02 1.04214847e-02
      2.36370740e-03 1.52159715e-02 1.24349748e-03 7.90063851e-03
      2.33832244e-02 3.42611045e-01 3.42611045e-01 1.40126705e-01
      1.89300850e-02 2.50765792e-04 4.21921816e-03 2.25956552e-03
      6.24924991e-03 1.13117108e-02 2.52203107e-01 3.42611045e-01
      3.42611045e-01 5.12348488e-02 3.79970670e-03 4.13785269e-03
      3.10482737e-03 1.17127486e-02 3.23825590e-02 2.89928824e-01
      2.82276064e-01 2.29240917e-02 6.55979756e-03 4.15113615e-03
      7.94066302e-03 5.68492513e-04 9.44498577e-04 8.66241381e-03
      2.72735685e-01 3.49685907e-01 6.90688789e-02 1.14438124e-02
      3.45293595e-03 6.54729269e-03 4.95712506e-04 3.20577383e-04
      1.34054888e-02 3.36013347e-01 3.50105137e-01 3.74889821e-01
      6.16956428e-02 8.40044115e-03 4.27250471e-03 2.46346765e-03
      1.57684938e-03 1.23731056e-02 1.43219963e-01 3.74889821e-01
      3.74889821e-01 1.13844082e-01 1.24523807e-02 9.41764936e-03
      6.18060445e-03 0. 5.29315788e-03 1.38215169e-01 2.07646966e-01
      6.61843866e-02 8.34043976e-03 7.16824958e-04 2.42683245e-03
      1.59525510e-03 1.25199044e-03 1.04873180e-02 2.02870831e-01
      4.02698904e-01 1.25401899e-01 4.63821180e-03 8.55663850e-04
      2.12269905e-03 2.50310753e-03 2.92252167e-03 1.15687065e-02
      2.34257445e-01 4.02698904e-01 4.02698904e-01 5.10651059e-02
      2.74169492e-03 3.69640021e-03 7.27815088e-03 1.09632115e-03
      5.83549356e-03 8.98811817e-02 4.02698904e-01 4.02698904e-01
      3.38884257e-02 1.66312105e-03 7.21686694e-04 5.40872663e-03
      2.48700310e-03 8.82465392e-03 1.16027795e-01 3.89962018e-01
      1.06527664e-01 1.82171515e-03 4.69771650e-04 1.01518328e-03
      3.57809506e-04 8.15097766e-04 5.79747278e-03 1.11719966e-01
      3.89962018e-01 1.69433638e-01 1.77039648e-03 4.49303712e-04
      1.60325633e-03 9.58597084e-05 8.59463646e-04 9.67455935e-03
      1.26070678e-01 3.89962018e-01 3.89962018e-01 2.77865753e-02
      6.26021530e-03 1.27403400e-04 6.65187777e-04 4.38831892e-04
      4.95265750e-03 6.13021590e-02 3.89962018e-01 3.89962018e-01
      4.59349528e-02 8.24055076e-03 9.90915360e-05 0. 3.58242596e-06
      1.13254972e-02 9.06155929e-02 3.66023988e-01 1.11780398e-01
      5.21877781e-04 2.32362465e-04 1.13321620e-03 2.31660291e-04
      1.66317960e-03 8.75544641e-03 1.28252089e-01 3.66023988e-01
      1.81901291e-01 3.65318148e-03 1.98609909e-04 1.17056747e-03
      5.42532187e-04 1.68003596e-03 1.35912672e-02 1.88138440e-01
      3.66023988e-01 3.24343860e-01 1.88843701e-02 1.14929583e-03 0. 0.
      0. 2.65607163e-02 1.94149062e-01 3.66023988e-01 2.45191336e-01
      8.39662738e-03 1.90247330e-04 0. 4.62076161e-03 3.96469422e-03
      1.56784803e-01 3.66023988e-01 3.57052773e-01 1.99701265e-01
      1.24978283e-02 9.28583089e-04 1.28557882e-03 9.15989629e-04
      2.03626277e-03 8.33909959e-03 2.34089747e-01 3.57052773e-01
      1.20238572e-01 7.98375066e-03 1.27850962e-03 2.14865780e-03
      4.97705827e-04 6.32512616e-04 1.66915469e-02 3.57052773e-01
      3.57052773e-01 1.72929958e-01 1.89587343e-02 3.30593414e-03
      1.21346966e-03 1.37787051e-02 1.67615227e-02 1.95765793e-01
      2.72367001e-01 3.57052773e-01 9.63463709e-02 1.75352227e-02
      9.07506887e-03 2.49996711e-03 8.37655179e-03 2.01601926e-02
      1.13679953e-01 2.88004845e-01 3.57638210e-01 3.63345556e-02
      4.09319968e-04 3.91437410e-04 1.82571518e-03 8.57379579e-04
      4.54088236e-04 3.86436842e-02 3.57638210e-01 3.57638210e-01
      1.04778977e-02 4.73440887e-04 4.43851866e-04 1.05603086e-03
      3.02193360e-03 2.84971227e-03 3.17137912e-02 3.57638210e-01
      3.57638210e-01 4.36297618e-02 4.97080339e-03 4.14567627e-03
      1.03681302e-03 4.69087018e-03 8.58741067e-03 6.80251047e-02
      2.94983953e-01 3.57638210e-01 1.35008376e-02 2.31398945e-03
      2.22345022e-03 1.52948219e-03 1.34084327e-02 1.75464004e-02
      5.26380055e-02 3.57638210e-01 3.55944365e-01 1.67260226e-02
      3.00795422e-03 1.80036470e-03 9.26809793e-04 1.92385283e-03
      1.80139486e-03 1.07624093e-02 3.55944365e-01 3.55944365e-01
      2.80185454e-02 7.24928826e-03 4.56728553e-03 3.30032315e-03
      4.30160144e-04 9.19985876e-04 2.68805288e-02 3.55944365e-01
      3.36803496e-01 1.54537344e-02 1.26988357e-02 1.03768809e-02
      1.61934504e-03 1.01527246e-02 1.35600604e-02 2.63216384e-02
      3.50602746e-01 3.46319050e-01 2.96263769e-02 2.75256019e-02
      2.12144554e-02 6.03851443e-03 4.31320351e-03 7.28261704e-03
      3.12069580e-02 3.55944365e-01 3.70217979e-01 1.74359623e-02
      2.67147576e-03 2.08199373e-03 5.85503411e-03 1.48642444e-04
      4.85786237e-04 3.89081240e-02 3.70217979e-01 3.70217979e-01
      2.45381873e-02 7.52460072e-03 1.00237848e-02 2.11605318e-02
      2.22283369e-03 9.89970053e-04 1.02356225e-01 3.70217979e-01
      2.83767343e-01 1.91627685e-02 9.64369439e-03 7.19761103e-03
      7.16220820e-03 2.88539589e-03 7.77325453e-03 4.72563654e-02
      3.70217979e-01 2.54586458e-01 1.11257201e-02 5.41482540e-03
      2.70103011e-03 5.26898960e-03 1.22476241e-03 5.55392122e-03
      1.09342054e-01 3.70217979e-01 2.99482048e-01 2.56511942e-02
      8.72550439e-03 1.28672626e-02 2.17572171e-02 3.98920011e-03
      2.33248505e-03 1.44271508e-01 3.92524928e-01 1.90703779e-01
      3.00005190e-02 7.31611205e-03 6.96351333e-03 1.06875990e-02
      5.34643931e-03 3.37538496e-03 1.50816381e-01 3.92524928e-01
      2.28063390e-01 2.94457674e-02 6.47140946e-03 4.79936181e-03
      4.27202694e-03 4.46502492e-03 6.79040700e-03 1.36575997e-01
      3.92524928e-01 2.82936633e-01 7.89895058e-02 7.09636509e-03
      3.17728776e-03 5.70555963e-03 8.24241526e-03 8.88957549e-03
      2.22244784e-01 3.92524928e-01 8.77084136e-02 1.46971634e-02
      5.61909890e-03 3.85626871e-03 3.78867425e-03 8.63830652e-03
      6.90629939e-03 1.91954732e-01 3.75994325e-01 7.10869581e-02
      3.03177945e-02 1.12256035e-02 4.06949921e-03 3.65154073e-03
      9.98203829e-03 1.36308465e-02 2.62785137e-01 3.75994325e-01
      1.40892044e-01 3.15628462e-02 6.68437453e-03 2.83409678e-03
      2.38892296e-03 5.99592086e-03 7.53429625e-03 3.75994325e-01
      3.75994325e-01 7.74076059e-02 1.47357751e-02 7.44484039e-03
      3.24392272e-03 3.87790240e-03 9.77161899e-03 1.48732336e-02
      3.75994325e-01 3.75994325e-01 9.29173231e-02 2.21860316e-02
      7.64304632e-03 1.18420727e-03 2.01778067e-03 2.36076745e-03
      1.77884847e-02 2.28802562e-01 3.62574369e-01 1.42955914e-01
      6.07146090e-03 1.72274944e-03 7.37533905e-04 2.16392009e-03
      9.71771515e-05 1.71897188e-02 1.86327323e-01 3.27140540e-01
      5.12450971e-02 1.06380936e-02 3.38924257e-03 6.04317174e-04
      2.48098490e-03 1.44400522e-02 4.51302640e-02 3.94669294e-01
      3.94669294e-01 6.18718043e-02 1.26966287e-03 1.10420151e-04 0.
      8.14123894e-04 1.34147685e-02 9.02812704e-02 3.94669294e-01
      3.94669294e-01 1.83849201e-01 8.92902818e-03 3.78910592e-03
      1.28748838e-03 3.09491041e-03 2.05361590e-04 2.53505632e-02
      1.65936247e-01 3.75096470e-01 2.21801251e-01 2.67044604e-02
      2.72369161e-02 1.02843056e-02 7.52609456e-03 2.31878180e-03
      3.24889943e-02 1.20560840e-01 2.42707342e-01 7.19846562e-02
      5.46574825e-04 2.13396313e-04 0. 1.46269129e-04 4.99613304e-03
      1.88104764e-01 3.77818465e-01 3.77818465e-01 1.01629488e-01
      9.71030071e-03 7.63869518e-03 2.79125059e-03 1.83605892e-03
      9.80478432e-03 2.14388907e-01 3.77818465e-01 3.77818465e-01
      2.61133015e-01 1.03660263e-01 1.13202840e-01 9.26937163e-02
      2.18310785e-02 9.66819748e-03 3.50103155e-02 9.80698168e-02
      1.78662002e-01 3.41485292e-01 1.70261651e-01 1.29148051e-01
      1.47311941e-01 1.77139454e-02 4.44982052e-02 3.85087952e-02
      1.55270666e-01 3.41485292e-01 1.08147897e-01 2.87836678e-02
      3.58361490e-02 2.71111615e-02 9.86501575e-03 1.07661029e-02
      7.72732645e-02 3.41485292e-01 3.41485292e-01 3.23330402e-01
      4.45465557e-02 3.80700193e-02 3.97325978e-02 1.09120039e-02
      2.56230682e-02 3.58585231e-02 2.05551371e-01 3.41485292e-01
      1.35125056e-01 3.98853868e-02 1.47423232e-02 6.25061337e-03
      8.76089558e-03 1.66436136e-02 1.48263797e-02 2.34618858e-02
      1.94250673e-01 2.75724888e-01 2.41266832e-01 1.24327153e-01
      1.27548529e-02 2.51250295e-03 1.22190667e-02 1.29624773e-02
      1.79326124e-02 1.42676905e-01 1.41868576e-01 2.41008848e-01
      1.79518938e-01 5.57413697e-02 1.74197145e-02 3.16062942e-02
      2.14527622e-02 4.40810286e-02 1.49949312e-01 2.22891182e-01
      5.23723185e-01 5.23723185e-01 1.43974811e-01 2.34584399e-02
      1.52064143e-02 1.31652476e-02 3.86507586e-02 6.15136772e-02
      8.90709460e-02 2.11085394e-01 4.83898334e-02 1.93405652e-03
      8.82229186e-04 4.83493030e-04 8.89921677e-04 1.29313488e-03
      1.48418881e-02 1.78395435e-01 4.16484088e-01 9.41367596e-02
      7.41621188e-04 3.92498128e-04 1.46803819e-03 9.26353328e-04
      2.69380398e-03 1.23429326e-02 9.01033059e-02 4.16484088e-01
      4.16484088e-01 3.12036816e-02 5.25384815e-03 1.40784530e-03
      4.33276757e-04 3.92608345e-03 8.29012971e-03 2.26573288e-01
      4.16484088e-01 3.80351365e-01 2.17361040e-02 4.45985142e-03
      1.87743101e-02 1.49922154e-03 2.31503043e-03 5.68444934e-03
      2.09883139e-01 3.76449227e-01 1.06925450e-01 3.71236098e-03
      7.85366166e-04 9.27344488e-04 1.91683270e-04 1.54552795e-03
      7.74465129e-03 3.76449227e-01 3.76449227e-01 1.18771009e-01
      1.44877983e-02 5.77279646e-03 6.51756534e-03 2.25036405e-04
      2.36695074e-03 6.59968331e-03 1.90565377e-01 3.76449227e-01
      1.87916026e-01 2.02058572e-02 6.44757831e-03 1.13372346e-02
      1.53468130e-03 3.57358274e-03 2.65780697e-03 3.30557346e-01
      3.76449227e-01 1.85168758e-01 4.14898545e-02 8.52569751e-03
      5.10639045e-03 1.19215879e-03 5.05605387e-03 5.91327297e-03
      3.50888342e-01 3.50888342e-01 6.35410324e-02 6.99197780e-03
      5.74186398e-03 9.53913759e-03 5.28853212e-04 5.79304341e-03
      1.64827127e-02 3.50888342e-01 3.50888342e-01 4.71764281e-02
      8.50511901e-03 1.28705008e-03 2.72842636e-03 4.80922085e-04
      8.28628615e-03 2.60084458e-02 3.43180239e-01 3.50888342e-01
      8.23573023e-02 1.80140790e-02 3.38331447e-03 4.42575105e-03
      9.49085981e-04 4.11132490e-03 7.15867756e-03 3.50888342e-01
      3.50888342e-01 4.12080660e-02 1.18201505e-02 6.21478073e-04
      1.13698887e-03 8.79336498e-04 7.95347430e-03 1.35667315e-02
      3.49693328e-01 3.49693328e-01 4.68817875e-02 2.15755329e-02
      5.21985348e-04 1.35686932e-04 9.37219302e-05 1.04135294e-02
      2.42617186e-02 3.49693328e-01 3.49693328e-01 6.92618638e-02
      2.07489301e-02 4.05988540e-04 5.19463401e-06 4.99080707e-05
      1.50248352e-02 3.51587422e-02 3.49693328e-01 3.49693328e-01
      2.88569387e-02 1.67450029e-02 4.84642951e-04 8.86928756e-04
      8.00808310e-04 1.84857268e-02 3.45201716e-02 3.49693328e-01
      3.49693328e-01 3.32089551e-02 1.29699465e-02 3.64975422e-03
      6.59898482e-03 6.24488387e-03 2.91345436e-02 5.75175211e-02
      3.17366034e-01 3.17366034e-01 3.77533846e-02 3.93344834e-03
      1.66652455e-06 1.82411604e-05 1.18857817e-04 3.99166532e-02
      1.77290156e-01 3.17366034e-01 2.51459539e-01 5.52012865e-03
      2.98198225e-04 8.37004409e-05 8.74312501e-03 8.97536520e-03
      3.17366034e-01 3.17366034e-01 3.17366034e-01 3.17366034e-01
      2.00411361e-02 6.51854044e-03 5.19390218e-03 5.75996097e-03
      8.11914634e-03 2.76647266e-02 7.53957555e-02 1.79361612e-01
      1.26113400e-01 1.45105729e-02 1.35101806e-02 4.36025299e-03
      3.39503726e-03 7.30675273e-03 2.92203426e-01 2.30087131e-01
      9.10102725e-02 4.03657593e-02 4.33557853e-03 1.80570793e-03
      9.56986099e-04 2.18305886e-02 2.99834404e-02 3.70580256e-01
      3.55816334e-01 4.54693474e-02 2.34550107e-02 7.49227172e-03
      5.44131733e-03 1.67382346e-03 1.36103183e-02 4.43867035e-02
      3.70580256e-01 2.50923246e-01 7.00990707e-02 2.75684148e-02
      1.20594921e-02 8.09455104e-03 3.72711057e-03 4.79398901e-03
      1.16390381e-02 3.70580256e-01 3.09464693e-01 3.84042449e-02
      9.76698846e-03 2.16831896e-03 7.06498628e-04 1.24393357e-03
      2.96782656e-03 2.23050825e-02 3.70580256e-01 3.70580256e-01
      5.10316789e-02 2.44589839e-02 5.51236933e-03 3.41244158e-03
      5.99643029e-03 8.75445921e-03 3.42786796e-02 4.35171843e-01
      1.92103401e-01 5.61683141e-02 1.32867619e-02 3.21128499e-03
      2.88792141e-03 1.39917657e-02 2.09811777e-02 3.90513279e-02
      1.99215248e-01 1.31269798e-01 1.37982499e-02 1.25304982e-02
      5.21627080e-04 0. 9.11531132e-03 5.43867284e-03 3.42225656e-02
      4.35171843e-01 4.35171843e-01 1.63438618e-02 6.96656061e-03
      2.82366620e-03 3.69576202e-03 2.25873813e-02 5.71212210e-02
      1.35828629e-01 4.35171843e-01 3.31810385e-01 1.29918903e-01
      2.57807598e-02 3.09953950e-02 2.72255782e-02 2.33115070e-02
      5.00555038e-02 7.40481019e-02 1.98415041e-01 2.12156534e-01
      1.36390924e-01 3.92702036e-02 5.43498136e-02 4.53159623e-02
      2.09856480e-02 3.39856967e-02 4.13470045e-02 8.59236047e-02
      1.95438281e-01 5.73859103e-02 2.43008733e-02 1.78552326e-02
      2.99611017e-02 6.06674552e-02 2.21657217e-01 4.07898277e-01
      4.07898277e-01 4.07898277e-01 9.59739983e-02 3.35089415e-02
      9.77668725e-03 1.83087215e-02 4.84037995e-02 1.31273970e-01
      1.66493922e-01 3.15248460e-01 3.08601141e-01 2.61280477e-01
      8.77144039e-02 4.58921827e-02 3.35115492e-02 6.46082461e-02
      5.33835404e-02 9.08090323e-02 1.55224189e-01 3.47340643e-01
      3.26000571e-01 8.65790844e-02 5.33828512e-02 3.22603248e-02
      8.63960683e-02 2.56713089e-02 8.64197612e-02 2.29271188e-01
      3.47340643e-01 1.80616647e-01 1.09090135e-01 2.38264129e-02
      1.16045326e-02 6.09732606e-02 1.25803992e-01 1.15860581e-01
      1.83386654e-01 3.29875678e-01 1.47947252e-01 1.36662990e-01
      5.04637882e-02 4.14148979e-02 5.63270375e-02 7.65009150e-02
      9.06148404e-02 2.17974246e-01 3.47340643e-01 3.01581979e-01
      1.01362042e-01 4.26180065e-02 2.68323030e-02 2.79730093e-02
      3.31644267e-02 5.81556223e-02 1.54488683e-01 3.53361815e-01
      3.53361815e-01 2.44272411e-01 6.06906712e-02 2.46638544e-02
      2.99417153e-02 5.04578985e-02 6.40595630e-02 3.53361815e-01
      3.53361815e-01 1.40726209e-01 1.11731440e-01 2.42492575e-02
      2.21716613e-02 1.83645692e-02 2.86680367e-02 3.72683555e-02
      1.30711466e-01 2.53762424e-01 2.50505179e-01 2.32452542e-01
      5.48395663e-02 2.09000167e-02 1.17510790e-02 1.97355412e-02
      3.71603556e-02 7.71944374e-02 2.17063144e-01 2.28474990e-01
      8.48903060e-02 3.01159341e-02 2.28341129e-02 1.27674192e-02
      1.71078183e-02 3.08885649e-02 4.25897807e-01 4.25897807e-01
      1.79675534e-01 5.31114228e-02 2.95068845e-02 1.40887396e-02
      2.79020220e-02 4.96677868e-02 3.63749936e-02 4.25897807e-01
      4.25897807e-01 1.77771091e-01 1.04061961e-01 3.43227535e-02
      2.61878818e-02 9.75852739e-03 8.73808190e-03 2.94465255e-02
      5.04632741e-02 1.11952022e-01 1.95213452e-01 8.35435390e-02
      3.25417034e-02 2.55792197e-02 7.23474845e-02 4.09348197e-02
      4.69391830e-02 1.03702374e-01 2.00301185e-01 5.99701107e-02
      2.39444748e-02 1.34834116e-02 3.26190121e-03 1.26588149e-02
      4.54265289e-02 7.18916133e-02 4.23331559e-01 4.23331559e-01
      5.13354354e-02 2.09479891e-02 1.97821967e-02 6.00918056e-03
      7.13942992e-03 4.44592349e-02 2.03705817e-01 4.23331559e-01
      4.23331559e-01 6.73619062e-02 5.22338413e-02 2.28562169e-02
      9.71168559e-03 3.34383696e-02 2.92261411e-02 3.10680903e-02
      7.39824846e-02 1.12562954e-01 7.13791326e-02 6.96095973e-02
      4.45282720e-02 2.70457380e-02 2.13654842e-02 2.57241298e-02
      9.94417295e-02 3.47687155e-01 2.15965837e-01 1.50861833e-02
      3.50015867e-03 5.13638929e-03 2.11835327e-03 1.32746156e-03
      5.92689775e-03 1.93642229e-01 3.67417902e-01 2.63595909e-01
      5.86716691e-03 5.90829062e-04 2.91060627e-04 1.85784214e-04
      1.87597077e-04 1.02853896e-02 3.08187783e-01 3.67417902e-01
      2.03530192e-01 3.35828960e-02 2.62367893e-02 1.41860275e-02
      1.15634184e-02 1.11201294e-02 2.02285368e-02 1.83705479e-01
      3.67417902e-01 1.32789806e-01 2.05573887e-02 1.37239816e-02
      5.66363009e-03 1.31617039e-02 7.92021584e-03 6.92753196e-02
      3.67417902e-01 3.67417902e-01 1.33319885e-01 1.02468096e-02
      2.22717109e-03 9.46360000e-04 7.39062787e-04 1.52998138e-03
      1.63575392e-02 2.65934855e-01 3.68289202e-01 2.37756133e-01
      2.22754683e-02 4.06941166e-03 1.07991102e-03 7.26106111e-04
      6.85801357e-03 3.11809145e-02 1.50188759e-01 2.30351210e-01
      1.62555620e-01 1.08378325e-02 1.09462366e-02 3.38153425e-03
      1.92391146e-02 1.92464814e-02 1.57811970e-01 3.68289202e-01
      3.68289202e-01 1.12290315e-01 1.02037815e-02 2.61057308e-03 0.
      7.90042151e-03 3.17903087e-02 2.11849138e-01 3.68289202e-01
      3.68289202e-01 4.85986769e-02 2.36764103e-02 1.48552671e-01
      2.00927228e-01 8.77230689e-02 3.07381386e-03 4.71129175e-03
      2.12693191e-03 6.34440035e-03 1.85619611e-02 3.68103571e-02
      3.50146919e-01 3.50146919e-01 1.28796443e-01 8.73009581e-03
      7.40830647e-03 5.58533822e-04 5.98836690e-03 6.06400101e-03
      1.00747421e-02 1.65731087e-01 3.50146919e-01 3.50146919e-01
      8.33120942e-02 6.20747963e-03 9.01681720e-04 1.52917521e-03
      2.68632034e-03 3.36423293e-02 3.50146919e-01 3.50146919e-01
      3.50146919e-01 1.11478016e-01 2.94364542e-02 1.77617895e-03
      3.91637255e-03 3.87716922e-03 7.13481978e-02 3.61876935e-01
      3.61876935e-01 9.99355763e-02 1.27052059e-02 7.79479323e-03
      3.03876796e-03 1.42215537e-02 2.11980622e-02 1.41369954e-01
      3.61876935e-01 3.61876935e-01 1.03589170e-01 2.61932891e-02
      2.04008278e-02 5.59149403e-03 1.39731141e-02 3.38223316e-02
      5.30407652e-02 3.45865697e-01 3.61876935e-01 2.24575698e-01
      5.29832877e-02 2.54257098e-02 1.00693721e-02 2.26905253e-02
      3.38863321e-02 6.77522346e-02 1.60732299e-01 2.25436538e-01
      1.45317197e-01 5.96493408e-02 2.82312259e-02 1.37246987e-02
      4.39875796e-02 7.43570179e-02 7.35940635e-02 2.89387286e-01
      2.06468984e-01 1.76664427e-01 6.21597394e-02 2.18186677e-02
      3.82645987e-03 1.16798673e-02 1.17057683e-02 2.50297904e-01
      2.89387286e-01 2.54925728e-01 2.45449558e-01 7.65787736e-02
      2.51030885e-02 3.83920525e-03 1.50233079e-02 8.47234391e-03
      7.55092874e-02 1.15352504e-01 2.43461072e-01 2.79595017e-01
      1.52015716e-01 6.14324585e-02 1.94841698e-02 4.65286486e-02
      7.23244324e-02 2.89387286e-01 2.89387286e-01 2.20840916e-01
      2.89387286e-01 1.90566063e-01 9.12508443e-02 2.59123743e-02
      6.95226416e-02 9.88976508e-02 3.35103124e-01 3.48889232e-01
      6.81960136e-02 4.49415855e-02 1.00382799e-02 6.80640247e-03
      1.97995687e-03 4.48240107e-03 6.95275189e-03 3.48889232e-01
      3.48889232e-01 1.16694067e-02 5.76922530e-03 5.71526447e-03
      2.18025129e-03 6.88250316e-03 6.08378556e-03 1.80742368e-02
      3.48889232e-01 3.48889232e-01 4.47977372e-02 5.65309338e-02
      2.76372414e-02 2.00635567e-02 4.98045655e-03 1.77976396e-02
      4.38573770e-02 3.48889232e-01 3.48889232e-01 2.60453001e-02
      3.57287377e-02 1.01936013e-01 8.44342541e-03 3.29159163e-02
      2.29294989e-02 4.45654467e-02 3.16335410e-01 3.16335410e-01
      4.35263710e-03 5.00282496e-02 5.81032634e-02 2.20891926e-02
      2.53619142e-02 3.28929052e-02 9.76961181e-02 3.00006032e-01
      1.58707023e-01 4.75234678e-03 1.29113764e-01 1.05905503e-01
      5.43897115e-02 3.77534106e-02 7.26040974e-02 1.40203640e-01
      3.16335410e-01 3.16335410e-01 1.05407173e-02 2.15776652e-01
      3.16335410e-01 6.07502982e-02 8.14899579e-02 5.75758815e-02
      8.04693401e-02 1.31004140e-01 4.47579101e-02 1.91929028e-03
      3.16335410e-01 3.16335410e-01 9.13628116e-02 5.28101474e-02
      5.86386174e-02 7.58870468e-02 1.01867206e-01 8.52906406e-02
      1.63521711e-02 1.56390578e-01 1.23086803e-01 6.41167387e-02
      4.78199571e-02 7.60982707e-02 8.87884423e-02 1.65349782e-01
      1.58427075e-01 9.83736366e-02 3.46873671e-01 2.38940239e-01
      2.13281270e-02 1.49979629e-02 5.54490946e-02 1.15693621e-01
      1.50949489e-02 1.11046517e-02 1.26984846e-02 3.72205645e-01
      3.72205645e-01 9.83778685e-02 5.66352792e-02 6.84487075e-02
      3.43451276e-02 7.24013224e-02 8.17946866e-02 1.04432322e-01
      3.72205645e-01 3.72205645e-01 2.38101915e-01 8.04038569e-02
      1.80325825e-02 4.77474593e-02 1.37253195e-01 6.83088228e-02
      5.09211794e-02 1.28838897e-01 9.77071300e-02 9.23567731e-03
      7.21904635e-03 2.21494824e-01 2.21145049e-01 8.34969655e-02
      1.77522618e-02 1.34668946e-02 2.57823747e-02 2.36215424e-02
      6.62159687e-03 1.26189329e-02 3.41080546e-01 3.41080546e-01
      7.39549696e-02 5.04328832e-02 6.88776895e-02 3.41080546e-01
      3.41080546e-01 1.08450562e-01 5.78689091e-02 2.10618556e-01
      1.47482038e-01 4.89171371e-02 2.15944406e-02 3.71192507e-02
      1.24074675e-01 1.34999752e-01 4.31896038e-02 7.50740469e-02
      3.41080546e-01 3.41080546e-01 7.90204853e-03 1.07240467e-03
      2.63062044e-04 1.00493641e-03 7.39051541e-03 3.70674697e-03
      1.64027791e-02 3.79219830e-01 2.80494571e-01 3.62505484e-03
      2.61200522e-03 5.53366402e-03 5.16645424e-02 1.12007327e-01
      6.92410022e-02 1.21884897e-01 3.79219830e-01 1.84673443e-01
      2.60235555e-02 4.92636301e-03 3.84394825e-03 8.37786682e-03
      1.66641418e-02 5.10261580e-03 6.73935190e-02 3.79219830e-01
      3.19895089e-01 1.20475248e-01 6.72932491e-02 5.42841330e-02
      1.38624847e-01 1.92645818e-01 5.01782745e-02 8.77842531e-02
      3.79219830e-01 2.76358098e-01 1.84639487e-02 2.25563720e-02
      1.86892264e-02 2.08946019e-01 2.84375280e-01 1.67089701e-01
      2.70234108e-01 2.96895474e-01 1.51290864e-01 2.78104171e-02
      2.53731012e-02 1.89340897e-02 1.41185045e-01 1.39314935e-01
      1.06713362e-01 1.22461826e-01 1.53862000e-01 7.57150427e-02
      1.63153470e-01 1.36102423e-01 1.42514199e-01 2.96895474e-01
      2.96895474e-01 1.16528012e-01 1.13153957e-01 2.77531207e-01
      1.73880726e-01 6.67008460e-02 5.33898622e-02 6.25363812e-02
      2.96895474e-01 2.60734349e-01 8.22703689e-02 6.32119402e-02
      7.28704408e-02 6.01270273e-02 1.08822837e-01 6.70007691e-02
      3.98950651e-02 1.10918231e-01 1.32499591e-01 1.61060899e-01
      1.26131609e-01 2.00147927e-01 2.07949013e-01 1.55812874e-01
      1.18316919e-01 2.55484153e-02 3.26936692e-02 2.01442931e-02
      4.94914763e-02 5.98954745e-02 2.19185159e-01 3.15614074e-01
      2.09013373e-01 1.31386399e-01 1.01306312e-01 2.78091013e-01
      1.95071921e-01 1.43492714e-01 1.19620927e-01 2.23463237e-01
      2.65109450e-01 2.92283833e-01 1.95163414e-01 6.98801056e-02
      4.08910774e-02 2.75907032e-02 5.99991754e-02 7.53771141e-02
      2.19932929e-01 3.15614074e-01 1.50242493e-01 8.48873407e-02
      7.87471142e-03 1.02565149e-02 7.13668019e-03 3.01269665e-02
      4.36234549e-02 1.88168377e-01 3.23930949e-01 2.05336705e-01
      1.38062447e-01 2.77808961e-02 1.21278735e-02 8.82228371e-03
      3.03962715e-02 1.09522767e-01 1.84658229e-01 3.23930949e-01
      2.43240267e-01 1.15152255e-01 4.01373506e-02 1.05763339e-02
      2.36833133e-02 3.56931537e-02 6.13214076e-02 2.61818767e-01
      3.23930949e-01 3.19494396e-01 8.94825161e-02 2.80159861e-02
      2.26285346e-02 2.25224681e-02 4.18820865e-02 1.80881485e-01
      3.23930949e-01 3.23930949e-01 2.14076549e-01 1.15899622e-01
      4.67615835e-02 3.60451303e-02 1.18496241e-02 3.16956043e-02
      1.18350230e-01 1.46311194e-01 2.09188074e-01 2.88612008e-01
      1.53773993e-01 5.45772016e-02 4.23930213e-02 8.53342414e-02
      2.50984859e-02 6.03906810e-02 1.39687970e-01 2.96175420e-01
      2.98261374e-01 1.30976602e-01 2.19757333e-02 2.88472623e-02
      2.25969553e-02 5.11363111e-02 2.02108860e-01 2.72750556e-01
      2.79987007e-01 3.08253497e-01 2.56701738e-01 9.40052867e-02
      2.71340664e-02 1.92152504e-02 2.55663469e-02 8.20046589e-02
      2.14237317e-01 3.08253497e-01 1.85236514e-01 2.33397052e-01
      8.29595327e-02 3.43442149e-02 1.04163200e-01 2.30642296e-02
      3.16355899e-02 1.20271273e-01 2.04938024e-01 2.03485161e-01
      2.40641922e-01 8.79071951e-02 7.76033252e-02 7.13407397e-02
      1.54956626e-02 8.05603862e-02 1.95870519e-01 2.02539787e-01
      3.26198399e-01 3.11307341e-01 1.47425070e-01 3.52777392e-02
      2.96519250e-02 9.72929131e-03 2.65241433e-02 1.29708976e-01
      2.90726811e-01 3.26198399e-01 3.18196326e-01 9.86494496e-02
      6.89793751e-02 7.48016909e-02 2.09400840e-02 6.40430301e-02
      1.55535877e-01 2.02439591e-01 1.13591596e-01 9.40235108e-02
      3.52964066e-02 4.32002656e-02 3.76059040e-02 4.20833863e-02
      1.45421937e-01 2.47651175e-01 1.28704488e-01 1.26174048e-01
      1.11426175e-01 8.85251537e-02 1.81051731e-01 1.79516420e-01
      2.81759948e-01 3.52823168e-01 3.52823168e-01 2.46222734e-01
      1.51646748e-01 1.01116225e-01 3.95549051e-02 5.45168743e-02
      4.26785052e-02 2.23289989e-02 3.43548618e-02 7.10843056e-02
      8.36226940e-02 1.13878995e-01 9.76473987e-02 9.94779691e-02
      2.03537226e-01 3.52823168e-01 3.01619500e-01 1.09219342e-01
      1.20832600e-01 1.00554489e-01 1.36503819e-02 2.28366982e-02
      2.22337916e-02 6.15686327e-02 1.05148710e-01 2.90745258e-01
      2.98521638e-01 2.98521638e-01 5.48964180e-02 5.47050126e-03
      4.07693768e-03 5.44485636e-03 1.79470070e-02 9.15198773e-02
      2.98521638e-01 2.98521638e-01 1.49535850e-01 1.89568345e-02
      7.86382053e-03 1.44893788e-02 3.35742682e-02 1.06199622e-01
      2.91918248e-01 2.98521638e-01 1.82209983e-01 2.85401754e-02
      1.25842178e-02 3.67389177e-03 2.33434816e-03 2.05354486e-02
      1.26873389e-01 2.98521638e-01 2.98521638e-01 2.98521638e-01
      1.89341810e-02 6.53715245e-03 2.81399977e-03 3.93114276e-02
      2.15990141e-01 3.19942415e-01 3.19942415e-01 3.31948251e-02
      1.38905161e-04 1.35054899e-04 1.20236038e-03 1.75190307e-02
      7.64074996e-02 2.28781998e-01 3.19942415e-01 2.83756107e-01
      4.05899771e-02 2.06516823e-03 8.24962649e-03 1.14380997e-02
      9.16252099e-03 7.03413459e-03 1.72694754e-02 2.65088499e-01
      3.19942415e-01 3.19942415e-01 4.81201336e-02 1.86261698e-03
      1.90196931e-03 4.62677591e-02 2.27061249e-02 2.79725231e-02
      1.87294334e-01 3.19942415e-01 2.77673751e-01 3.80230919e-02
      3.08964867e-02 3.76065113e-02 9.52874795e-02 1.89591527e-01
      2.83400744e-01 2.83400744e-01 2.20701545e-01 6.07493669e-02
      3.61839421e-02 9.86190066e-02 1.10585354e-01 1.04376227e-01
      1.66753218e-01 2.24957600e-01 1.50182068e-01 1.21382080e-01
      7.05141872e-02 5.99139892e-02 1.97651744e-01 1.97700247e-01
      2.14024946e-01 1.24084555e-01 8.39259252e-02 1.69780701e-01
      2.83400744e-01 1.66788608e-01 6.99327365e-02 1.82123110e-01
      1.96667969e-01 2.83400744e-01 2.13888377e-01 8.96939039e-02
      7.55384117e-02 7.86149427e-02 2.47993656e-02 5.67848422e-02
      1.59936354e-01 2.12554142e-01 2.50295043e-01 1.22877926e-01
      1.95226207e-01 1.60876170e-01 1.64110690e-01 1.06628090e-01
      4.87630405e-02 1.61877930e-01 2.38305852e-01 3.52305681e-01
      3.52305681e-01 1.08197846e-01 1.61635429e-01 1.61208674e-01
      1.15237810e-01 4.77183796e-02 1.39871895e-01 3.11002225e-01
      2.29180694e-01 1.01564385e-01 2.95322370e-02 3.36798802e-02
      3.41284312e-02 1.64675880e-02 2.09765323e-02 7.88472593e-02
      1.57840461e-01 3.52305681e-01 1.87632784e-01 1.84076820e-02
      2.35881563e-02 1.28449490e-02 1.37852374e-02 1.02963923e-02
      5.06000817e-02 1.61456212e-01 3.65032285e-01 3.65032285e-01
      4.28760238e-02 3.95705029e-02 3.04763131e-02 2.37060469e-02
      8.72207899e-03 2.85250619e-02 1.53918013e-01 3.65032285e-01
      3.65032285e-01 1.04128636e-01 1.60179734e-01 3.65032285e-01
      7.17243925e-02 7.02432618e-02 4.45901081e-02 1.10131674e-01
      2.53232956e-01 1.51528686e-01 3.17002088e-02 1.64566729e-02
      6.80573238e-03 1.10300370e-02 3.71967838e-03 1.63898785e-02
      1.02855332e-01 1.34508595e-01 1.15408659e-01 1.17760263e-01
      1.04335740e-01 2.30866626e-01 1.07286721e-01 5.16709983e-02
      7.07916021e-02 1.09036215e-01 6.58718646e-02 1.02132186e-01
      2.43938323e-02 1.61398023e-01 3.22507471e-01 1.61069855e-01
      1.11321352e-01 5.82788587e-02 2.43159160e-02 6.41420204e-03
      5.85640734e-03 2.08960008e-03 1.81210816e-01 3.22507471e-01
      1.91859737e-01 2.17148840e-01 1.58421993e-01 3.22931260e-02
      1.84073467e-02 1.72358006e-02 3.34584825e-02 5.52104563e-02
      2.73653775e-01 2.05589116e-01 2.34080449e-01 1.97026074e-01
      7.13491961e-02 1.42560219e-02 4.76625428e-04 2.33287294e-03
      1.84335895e-02 1.72858387e-01 2.10008115e-01 3.22507471e-01
      3.22507471e-01 2.42448270e-01 3.03247525e-05 2.63147056e-03
      2.39909207e-03 8.58209804e-02 1.38215363e-01 8.26394111e-02
      1.51494801e-01 1.40349939e-01 2.57355776e-02 1.06444745e-03
      2.15021684e-03 1.14739714e-02 2.63939291e-01 2.88188130e-01
      2.66851306e-01 2.16277719e-01 1.09387442e-01 2.02807877e-02
      1.53085170e-02 1.75431385e-04 0. 5.24837337e-03 2.59069260e-02
      7.40762725e-02 3.31933588e-01 3.31933588e-01 3.31933588e-01
      1.45959454e-02 4.04841630e-05 6.94525079e-05 8.40756670e-03
      4.31560241e-02 1.37984425e-01 2.41535664e-01 3.31933588e-01
      3.31933588e-01 6.59952452e-03 4.63180011e-03 1.78717636e-02
      2.04032257e-01 2.28384435e-01 1.99236244e-01 1.91969410e-01
      2.38369241e-01 9.08477232e-02 7.85842165e-02 5.39484434e-03
      1.74611770e-02 7.09002689e-02 9.32686701e-02 6.28880411e-02
      1.01355970e-01 3.22105139e-01 3.22105139e-01 2.90094148e-02
      3.76851021e-05 5.16388624e-04 8.92302766e-03 2.94427983e-02
      8.95948783e-02 1.64228290e-01 3.22105139e-01 3.22105139e-01
      2.52165318e-01 1.37997372e-03 8.39536195e-04 9.10863653e-03
      1.35883829e-02 2.55915262e-02 5.21091782e-02 3.22105139e-01
      3.22105139e-01 1.63681731e-01 1.71509683e-02 3.00219143e-03
      6.18320238e-03 8.86846334e-03 3.58788925e-03 4.37821485e-02
      3.38058561e-01 3.38058561e-01 2.54093915e-01 7.72218704e-02
      3.16974483e-02 4.19438593e-02 3.62997875e-02 4.96598519e-03
      3.14058587e-02 2.65652150e-01 3.38058561e-01 3.38058561e-01
      1.96069740e-02 3.29632981e-04 1.48795266e-03 1.57363876e-03
      1.15757925e-03 4.45035938e-03 1.20580353e-01 3.38058561e-01
      3.38058561e-01 5.20263836e-02 1.27942837e-03 3.51916126e-04
      5.83183137e-05 2.04992876e-03 5.71676483e-03 6.00809790e-02
      3.38058561e-01 2.61898041e-01 9.33013037e-02 6.31166473e-02
      1.22248843e-01 8.23700503e-02 1.00846328e-02 1.31346937e-02
      8.06361660e-02 3.39487553e-01 2.78344363e-01 4.61571775e-02
      2.46803332e-02 8.67729485e-02 5.40330485e-02 1.65724345e-02
      7.25937309e-03 3.33481878e-02 2.54268199e-01 3.88940483e-01
      5.36259972e-02 2.49368302e-03 1.95002160e-03 4.69086634e-04
      2.01681280e-03 4.19793837e-03 5.50667979e-02 3.88940483e-01
      3.88940483e-01 4.23564017e-02 1.49649614e-03 1.75204186e-03
      9.41699313e-04 2.48254836e-03 7.57737143e-04 3.84085998e-02
      3.88940483e-01 2.66026348e-01 3.51362228e-02 1.04360050e-02
      1.67712029e-02 1.08898180e-02 1.33083491e-02 8.97733029e-03
      3.14642899e-02 2.33179837e-01 2.83083469e-01 3.44340131e-02
      9.50342603e-03 3.09107848e-03 2.39830418e-03 8.57014954e-03
      8.22544470e-03 3.86824422e-02 3.12554747e-01 4.12153929e-01
      3.60270105e-02 8.08064884e-04 4.28722356e-04 3.12649790e-04
      2.44129240e-03 6.18999067e-04 3.86764556e-02 4.12153929e-01
      4.12153929e-01 4.38461490e-02 1.06471940e-03 3.71130154e-04
      2.04374839e-04 1.09903514e-03 8.22413771e-04 5.27548864e-02
      4.12153929e-01 2.69685179e-01 2.76384577e-02 7.23144785e-03
      1.56648213e-03 4.57090931e-03 3.46717797e-03 4.93715238e-03
      3.47900912e-02 2.48858795e-01 3.05669993e-01 3.82474326e-02
      6.10967400e-03 4.96255560e-03 5.12487022e-03 3.17281950e-03
      1.03897480e-02 3.82626951e-02 2.81060219e-01 4.11094040e-01
      3.56781036e-02 1.24805141e-03 2.76328094e-04 8.22146132e-04
      1.23070335e-04 5.12296276e-04 4.17548083e-02 4.11094040e-01
      4.11094040e-01 5.41497655e-02 1.35956437e-03 1.13028707e-03
      1.14912505e-03 2.09277292e-04 1.33002549e-03 4.04161848e-02
      4.11094040e-01 2.49777794e-01 2.92142443e-02 3.25146201e-03
      3.08185047e-03 4.57890704e-03 4.09464492e-03 8.89864378e-03
      3.40633355e-02 2.47918561e-01 3.13473850e-01 4.14457917e-02
      8.39411933e-03 6.05882145e-04 1.73147675e-03 2.55463785e-03
      4.16318933e-03 2.79838126e-02 3.22632730e-01 4.06503677e-01
      2.47034337e-02 6.67073473e-04 6.47307839e-04 1.04973791e-03
      7.30323896e-04 6.35581498e-04 4.12871465e-02 4.06503677e-01
      4.06503677e-01 2.54689287e-02 3.27805919e-03 1.01548689e-03
      3.90545232e-04 4.85349010e-04 1.50205917e-03 3.19001153e-02
      4.06503677e-01 3.07954788e-01 5.47977276e-02 1.09920474e-02
      1.36422797e-03 9.25024797e-04 2.02019117e-03 6.12570951e-03
      4.32564430e-02 3.35210651e-01 1.39480591e-01 4.37818766e-02
      1.01416288e-02 7.70764938e-03 1.22655081e-02 1.89514346e-02
      3.33609581e-02 9.68037769e-02 2.11192653e-01 3.45523149e-01
      7.74534345e-02 2.79949345e-02 5.49862199e-02 5.46309464e-02
      3.55255120e-02 3.98911759e-02 1.25387102e-01 3.45523149e-01
      2.69367963e-01 7.60591030e-02 6.63807243e-02 1.66823924e-01
      2.92766869e-01 1.68346778e-01 1.39521599e-01 2.71204412e-01
      3.45523149e-01 1.11808576e-01 5.33188544e-02 2.80469619e-02
      2.51481738e-02 4.47405204e-02 5.53077199e-02 6.34940043e-02
      1.17900349e-01 1.46098837e-01 5.40809110e-02 4.69561778e-02
      9.22658965e-02 1.88356549e-01 2.13727728e-01 1.65841192e-01
      7.48981982e-02 7.80415982e-02 4.21097614e-02 1.28391549e-01
      8.57230574e-02 1.60552770e-01 2.09740922e-01 3.07060063e-01
      3.07060063e-01 1.70632213e-01 2.52929807e-01 2.26867840e-01
      1.67193502e-01 3.07060063e-01 3.07060063e-01 3.07060063e-01
      1.55618623e-01 1.47425130e-01 6.73508272e-02 8.17168728e-02
      7.31207728e-02 3.90751008e-03 5.55453449e-03 8.49758163e-02
      2.94214696e-01 2.65606880e-01 1.63723722e-01 4.83328141e-02
      9.59999487e-03 2.97827553e-03 5.81968762e-03 6.64193183e-03
      1.52649298e-01 3.30081642e-01 3.30081642e-01 2.17509836e-01
      5.83273098e-02 2.42627668e-03 4.27309424e-03 2.66411435e-02
      1.72484785e-01 3.30081642e-01 3.30081642e-01 9.77403596e-02
      4.49047424e-02 1.78874638e-02 8.96055158e-03 9.09999292e-03
      2.17394643e-02 1.06236339e-01 3.30081642e-01 3.30081642e-01
      1.42826661e-01 1.87143236e-02 1.11026885e-02 4.48596850e-03
      8.82950425e-03 1.04149720e-02 3.74348112e-03 4.36383620e-04
      2.52375882e-02 3.05987000e-01 3.14081103e-01 2.93178171e-01
      3.54163237e-02 5.09304693e-03 4.03664373e-02 2.55730040e-02
      3.47921276e-03 4.75834236e-02 2.28577763e-01 3.14081103e-01
      3.14081103e-01 1.08895607e-01 3.78807448e-02 5.57368668e-03
      3.13772284e-03 3.60996608e-04 4.17947955e-03 2.54046544e-02
      2.42184862e-01 3.14081103e-01 1.79966941e-01 3.63334604e-02
      1.03447903e-02 2.71538701e-02 7.81097915e-03 2.88676731e-02
      4.62245382e-02 2.30344757e-01 3.14081103e-01 3.14081103e-01
      5.70814982e-02 8.91779736e-02 7.79994577e-02 2.36823857e-02
      8.04645419e-02 1.64552763e-01 1.27197728e-01 2.02342495e-01
      1.99049219e-01 9.27326232e-02 1.98041677e-01 1.12981737e-01
      3.62374745e-02 3.81766334e-02 3.87236997e-02 1.16020469e-02
      3.84085365e-02 8.57674778e-02 1.13493040e-01 2.21310053e-02
      6.48425221e-02 2.32075062e-02 6.97242841e-02 7.33391792e-02
      1.02290839e-01 4.31145042e-01 4.31145042e-01 1.44183621e-01
      1.54723242e-01 7.14543089e-02 2.45039389e-02 2.18822528e-02
      1.98183544e-02 1.64258201e-02 1.53417364e-01 4.31145042e-01
      3.24642092e-01 3.19176167e-01 2.06714004e-01 5.98266087e-02
      5.29486276e-02 3.95053737e-02 1.71184633e-02 2.46634465e-02
      7.83932954e-02 2.19555959e-01 2.83041984e-01 1.72708616e-01
      4.76909913e-02 4.13624048e-02 3.01691182e-02 2.75282767e-02
      1.75923184e-02 8.85168090e-02 2.54572242e-01 3.19176167e-01
      1.78616434e-01 7.71667957e-02 3.00574750e-02 1.78568829e-02
      3.06013674e-02 5.24158925e-02 3.19176167e-01 3.19176167e-01
      2.48944625e-01 1.17904849e-01 8.04793835e-02 3.72091532e-02
      4.20106947e-02 9.66924503e-02 6.55168518e-02 2.25973710e-01
      3.19176167e-01 3.26728553e-01 1.34882361e-01 4.66181003e-02
      2.66401228e-02 2.09492091e-02 2.84780506e-02 8.02359637e-03
      4.70483340e-02 3.26728553e-01 3.26728553e-01 1.35751396e-01
      8.26219544e-02 3.85954566e-02 5.90649210e-02 7.87071586e-02
      6.22307397e-02 1.30493402e-01 3.26728553e-01 3.26728553e-01
      7.84258321e-02 7.10211992e-02 3.14416178e-02 3.40589732e-02
      7.45658576e-02 4.48060967e-02 6.84712306e-02 3.26728553e-01
      3.26728553e-01 1.66999966e-01 4.70185243e-02 1.08587770e-02
      8.98752455e-03 2.86374297e-02 2.03073267e-02 6.04957230e-02
      3.26728553e-01 9.31551903e-02 2.51161531e-02 1.86473262e-02
      1.23672998e-02 4.44632471e-02 1.11960605e-01 2.25418612e-01
      3.14433515e-01 2.68656284e-01 1.00993156e-01 6.49097562e-03
      2.43741879e-03 3.63723328e-03 1.91015508e-02 8.81545767e-02
      3.86989802e-01 3.86989802e-01 3.86989802e-01 1.67008042e-01
      4.06530909e-02 4.60209930e-03 3.64232366e-03 6.68035029e-03
      2.38825195e-02 1.10975634e-02 5.38991541e-02 2.00373277e-01
      2.15621635e-01 2.79778000e-02 4.43705590e-03 7.55342375e-03
      1.11301029e-02 1.83831677e-02 1.14369867e-02 1.58486903e-01
      3.68563741e-01 4.69118617e-02 3.44701996e-03 1.18603394e-03
      3.28403694e-04 1.47592521e-03 1.00431228e-02 1.41722381e-01
      3.95732701e-01 3.95732701e-01 4.69664186e-02 8.34648847e-04
      8.04248732e-04 0. 9.07274880e-05 5.29465219e-03 3.43062691e-02
      3.95732701e-01 3.95732701e-01 9.36451256e-02 9.38472245e-03
      2.90611899e-03 9.44126281e-04 3.23086558e-03 5.42154489e-03
      8.33862089e-03 1.57557160e-01 2.74144053e-01 8.91815498e-02
      2.80456734e-03 2.30675330e-03 3.75044474e-04 1.29531036e-04
      3.23961349e-03 1.75663084e-02 2.64516860e-01 3.95732701e-01
      9.50189009e-02 1.82311618e-04 0. 0. 8.81088908e-06 8.05862190e-04
      1.27873933e-02 2.56076306e-01 4.03252512e-01 3.37135583e-01
      1.65003794e-03 0. 0. 0. 9.08688253e-06 1.83428649e-03
      1.39638111e-01 4.03252512e-01 1.37669817e-01 3.69496387e-03
      2.43225787e-03 7.66629528e-04 0. 2.65949842e-04 7.07527110e-03
      1.12811916e-01 4.03252512e-01 3.23464930e-01 7.72445789e-03
      3.20198596e-03 4.19540098e-04 0. 1.59002899e-04 1.56225101e-03
      3.37071940e-02 4.03252512e-01 3.54259551e-01 4.90879593e-03 0. 0.
      0. 0. 4.71509957e-05 3.40850987e-02 3.54259551e-01 3.54259551e-01
      1.16355494e-02 0. 0. 0. 0. 3.66842614e-05 1.57565232e-02
      3.54259551e-01 3.40632707e-01 5.11894189e-03 2.15062778e-03
      2.81009125e-04 1.04286033e-03 6.28674927e-04 1.84419914e-03
      9.45556909e-03 3.54259551e-01 3.54259551e-01 6.86315773e-03
      1.75456656e-03 2.18562665e-04 1.98684353e-03 4.88969439e-04
      2.30362755e-03 1.32943708e-02 3.54259551e-01 3.52687031e-01
      1.03497505e-02 0. 0. 0. 0. 1.34592028e-05 9.53625515e-03
      3.52687031e-01 3.52687031e-01 1.38679566e-02 0. 0. 0. 0.
      3.26832320e-04 9.80089605e-03 3.52687031e-01 3.52687031e-01
      9.12143569e-03 1.36125321e-03 0. 9.82593396e-04 0. 1.20689522e-03
      1.08028026e-02 3.52687031e-01 3.52687031e-01 2.31310930e-02
      1.02195737e-03 0. 5.28621837e-04 0. 1.75323861e-03 1.18741719e-02
      3.52687031e-01 3.52478594e-01 9.45056602e-03 0. 0. 0. 0.
      5.35978237e-04 1.11677153e-02 3.52478594e-01 3.52478594e-01
      1.51333669e-02 0. 0. 0. 0. 1.23687292e-04 1.23009682e-02
      3.52478594e-01 3.52478594e-01 1.59298964e-02 1.25951436e-03
      1.69562874e-04 8.34967868e-05 0. 2.30126549e-03 1.58156175e-02
      3.52478594e-01 3.52478594e-01 3.12641598e-02 3.93935852e-03
      1.57491362e-03 3.22438485e-04 1.01651670e-03 1.86719187e-03
      2.10597403e-02 3.52478594e-01 3.52272183e-01 1.39901014e-02 0. 0.
      0. 0. 0. 1.29544139e-02 3.52272183e-01 3.52272183e-01
      1.21454867e-02 5.74831211e-04 1.44084144e-04 0. 0. 5.79265761e-05
      1.31862555e-02 3.52272183e-01 3.52272183e-01 3.06766517e-02
      3.17844027e-03 4.13810695e-03 3.18893627e-03 6.28702482e-03
      4.94770985e-03 2.83422004e-02 3.52272183e-01 3.52272183e-01
      1.81115903e-02 6.61234604e-03 6.82605663e-03 3.81350215e-03
      6.54596230e-03 7.00386381e-03 2.56728623e-02 3.52272183e-01
      3.51493955e-01 7.22765783e-03 1.62653648e-03 1.44285470e-04 0. 0.
      1.84575282e-03 1.06934188e-02 3.51493955e-01 3.51493955e-01
      8.10428336e-03 4.37330734e-03 1.34195830e-03 0. 0. 3.35132657e-03
      1.19405491e-02 3.51493955e-01 3.51493955e-01 2.21855342e-02
      1.39067629e-02 4.58223466e-03 1.66987919e-03 1.18943013e-03
      8.75057466e-03 1.40620507e-02 3.51493955e-01 3.51493955e-01
      7.75131732e-02 2.16084067e-02 5.60817029e-03 4.68374463e-03
      1.80727686e-03 7.17203366e-03 1.10768331e-02 3.51493955e-01
      3.15316826e-01 8.81760791e-02 4.89377938e-02 6.61691353e-02
      4.79176901e-02 2.01095492e-02 1.76736563e-02 4.37161252e-02
      3.15316826e-01 2.32551336e-01 1.86666518e-01 1.25517130e-01
      2.15335697e-01 2.50895709e-01 8.16812441e-02 5.00823706e-02
      7.44933188e-02 1.54387832e-01 3.15316826e-01 2.88704306e-01
      5.96945472e-02 2.99730189e-02 1.29570812e-02 2.08584662e-03
      2.20365729e-03 7.47719966e-03 2.95199096e-01 3.15316826e-01
      3.15316826e-01 1.86560258e-01 9.76229757e-02 6.53617606e-02
      5.22424094e-03 1.89113675e-03 3.69961653e-03 6.20667152e-02
      5.87209202e-02 1.95517331e-01 1.74626842e-01 1.36865467e-01
      1.67561963e-01 7.06950203e-02 2.66527906e-02 2.71554403e-02
      2.46515591e-02 7.25597069e-02 3.76329631e-01 3.76329631e-01
      9.44619626e-02 3.26689333e-02 1.86623465e-02 5.41429920e-03
      5.71122672e-03 2.15360932e-02 1.68252200e-01 3.76329631e-01
      3.05224568e-01 8.05183351e-02 5.84845059e-02 6.03747554e-03
      1.23517227e-03 1.33012235e-03 6.72492152e-03 1.07696757e-01
      3.76329631e-01 3.76329631e-01 5.17724641e-02 1.21007971e-02
      2.12118006e-03 8.23448281e-05 3.06951290e-04 8.33976548e-03
      3.97841632e-02 3.38381737e-01 3.38381737e-01 1.95671558e-01
      1.56550277e-02 6.22616569e-03 2.67863600e-03 1.82873453e-03
      8.20031390e-03 2.77073793e-02 2.95043200e-01 3.38381737e-01
      2.41813555e-01 1.79451201e-02 2.03761947e-03 2.79609184e-03
      2.56890990e-03 7.93697778e-03 6.58562779e-02 3.38381737e-01
      3.38381737e-01 1.94747187e-02 4.25942428e-03 2.15035374e-03
      7.58311171e-06 0. 2.84270057e-03 6.22280315e-02 3.38381737e-01
      3.37286264e-01 1.28586320e-02 8.22815392e-03 1.38786051e-03
      1.59007264e-04 7.03897444e-04 7.84835313e-03 3.18453945e-02
      1.04311276e-02 8.52847099e-03 4.07843152e-03 7.64565077e-03
      8.47356170e-02 3.60710949e-01 3.56931478e-01 1.01971045e-01
      2.48032231e-02 1.79826561e-02 8.97369999e-03 7.61472993e-03
      9.54479910e-03 1.00338042e-01 4.53183264e-01 4.53183264e-01
      2.52043813e-01 4.63284738e-02 1.91588178e-02 1.39379688e-02
      4.11752798e-03 4.46845638e-03 1.18116299e-02 4.91662957e-02
      7.59553835e-02 7.54277334e-02 5.40097915e-02 2.04048194e-02
      7.25181261e-03 2.80662999e-03 1.36000942e-02 2.05001161e-02
      1.34562358e-01 3.89627457e-01 2.07180530e-01 1.08096749e-02
      6.67829718e-03 2.87466496e-03 3.24429478e-03 4.28714510e-03
      1.46069992e-02 2.69304156e-01 3.76302838e-01 1.72744825e-01
      2.03612372e-02 6.96530007e-03 4.55585029e-03 2.10248935e-03
      1.44144217e-03 4.22840286e-03 7.37619549e-02 3.76302838e-01
      3.71842355e-01 2.93402579e-02 5.82254771e-03 4.74368164e-04
      1.09712582e-03 5.90045750e-03 2.19423953e-03 4.13861796e-02
      3.76302838e-01 1.87921375e-01 2.97037344e-02 5.67137683e-03
      1.07951906e-04 2.48058641e-04 8.54857091e-04 2.52866652e-03
      4.84072492e-02 3.76302838e-01 3.76302838e-01 4.05364633e-02
      1.54391518e-02 7.53020495e-03 2.68550240e-03 1.01774570e-03
      4.08540992e-03 3.85167822e-02 3.70554626e-01 3.11437607e-01
      5.93635179e-02 3.23549993e-02 9.32435691e-03 4.56040865e-03
      2.67177238e-03 1.29369833e-02 4.86633517e-02 2.65982777e-01
      3.34339082e-01 4.59433198e-02 1.41722448e-02 2.40841866e-04
      5.86456263e-05 0. 1.37427240e-03 5.10265082e-02 3.70554626e-01
      3.70554626e-01 9.25828665e-02 5.47929183e-02 6.94894837e-03
      1.14151253e-03 1.57044895e-04 1.43861794e-03 5.48684746e-02
      3.70554626e-01 3.70554626e-01 8.82247835e-02 2.33427901e-02
      1.33383041e-02 4.78532538e-03 3.20383045e-03 1.33630550e-02
      3.72909941e-02 1.45771101e-01 2.65579462e-01 1.43802285e-01
      3.20919864e-02 7.98119698e-03 8.87325965e-04 1.85065623e-03
      1.10590607e-02 1.73525102e-02 5.48625477e-02 1.55071914e-01
      1.82454258e-01 3.20475437e-02 1.66087802e-02 1.48774497e-03
      4.34093032e-04 5.17988345e-03 4.77865674e-02 4.57519293e-01
      4.57519293e-01 3.21592480e-01 1.66245587e-02 6.15129806e-03
      9.82426573e-05 2.32549370e-04 3.56916972e-02 4.11428586e-02
      2.69633770e-01 4.57519293e-01 1.48654968e-01 3.59641612e-02
      5.50737325e-03 2.51883105e-03 3.10357846e-03 1.09530408e-02
      1.24256536e-02 2.43415367e-02 1.39372364e-01 1.79077134e-01
      3.27190086e-02 7.50014000e-03 4.39699180e-03 4.60629817e-03
      6.50970638e-03 6.67167734e-03 1.77546479e-02 1.45630017e-01
      3.53327334e-01 4.43272628e-02 6.03637937e-03 1.00588845e-03
      3.27798392e-04 3.17428671e-02 3.82750332e-02 2.22738668e-01
      4.85063314e-01 4.85063314e-01 5.08383550e-02 1.25474557e-02
      2.80711404e-03 3.94180696e-03 7.24712806e-03 1.16242133e-02
      9.40179229e-02 4.85063314e-01 1.84556633e-01 2.13577338e-02
      8.61398131e-03 3.13848723e-03 5.10641327e-03 8.53550062e-03
      2.24493910e-02 2.60692630e-02 1.65363297e-01 1.34904280e-01
      1.23807481e-02 1.47958659e-02 4.47148783e-03 2.38106959e-03
      7.18937675e-03 4.80200537e-02 6.28054589e-02 2.03062594e-01
      4.55039263e-01 9.89302769e-02 2.01059356e-02 4.22116136e-03
      5.44591947e-03 5.57388458e-03 2.00145077e-02 5.65270931e-02
      4.55039263e-01 4.55039263e-01 1.08133763e-01 5.16937785e-02
      8.69806670e-03 4.34938120e-03 1.94812880e-03 3.70521657e-02
      9.02620181e-02 4.55039263e-01 1.77025661e-01 2.21882239e-02
      2.47743409e-02 5.50115108e-03 4.25655348e-03 4.79572592e-03
      2.65805107e-02 5.08077703e-02 2.05401897e-01 2.75685608e-01
      3.58532816e-02 3.06590442e-02 7.23980973e-03 2.13681534e-03
      6.43243175e-03 1.23867383e-02 4.12539691e-02 3.60300124e-01
      4.15355891e-01 6.24895617e-02 3.80165093e-02 6.17601676e-03
      9.20233130e-03 5.26668970e-03 3.11816223e-02 7.07684904e-02
      4.15355891e-01 4.15355891e-01 4.77265567e-02 2.88826264e-02
      1.02286926e-02 4.93209669e-03 1.55741563e-02 1.83324423e-02
      4.97652665e-02 4.15355891e-01 2.15008274e-01 3.05648278e-02
      3.19626406e-02 8.00235756e-03 6.77147135e-03 7.25003099e-03
      1.18719796e-02 2.84149460e-02 2.94282764e-01 2.82576412e-01
      3.90961617e-02 2.81550959e-02 8.19425564e-03 1.30001139e-02
      6.87410543e-03 1.43138887e-02 3.48871835e-02 2.34891489e-01
      4.17070299e-01 4.62895818e-02 3.28905061e-02 1.12791760e-02
      3.98944598e-03 1.69604365e-02 1.39761642e-02 4.77073714e-02
      4.17070299e-01 4.17070299e-01 8.14790949e-02 3.01188286e-02
      9.71685536e-03 6.66134246e-03 1.15325497e-02 2.19240095e-02
      1.03297986e-01 4.17070299e-01 2.31701642e-01 3.28016542e-02
      1.41879320e-02 5.85017074e-03 5.43159107e-03 1.17429835e-03
      6.38377434e-03 2.05547772e-02 1.92568898e-01 3.09438139e-01
      6.42915219e-02 7.41727045e-03 2.39080191e-03 3.68200848e-03
      6.91131208e-05 7.81772658e-03 2.01622508e-02 2.62391686e-01
      4.19862241e-01 4.85990867e-02 1.38528021e-02 7.52164843e-03
      2.67844950e-03 2.58345646e-03 6.64619589e-03 8.94030407e-02
      4.19862241e-01 4.19862241e-01 1.21238373e-01 4.76008793e-03
      3.07388837e-03 2.04771152e-03 1.03669672e-03 1.74413268e-02
      5.58239780e-02 4.19862241e-01 2.53808171e-01 6.11671694e-02
      6.08228892e-03 5.60733082e-04 8.34122708e-04 1.59768504e-04
      7.10909208e-03 2.49850582e-02 2.05499560e-01 3.25643659e-01
      6.72076568e-02 1.45168230e-02 1.18021742e-02 6.15379168e-03
      3.09288199e-03 5.75919310e-03 6.29154444e-02 2.78780460e-01
      4.70645279e-01 2.15438053e-01 2.55594007e-03 1.29399938e-04
      1.65175647e-03 2.39652768e-03 3.60603705e-02 3.42015959e-02
      2.21106753e-01 4.70645279e-01 2.57918030e-01 4.26641712e-03
      2.63924878e-02 2.24636011e-02 1.69997918e-03 1.89151987e-02
      6.47059679e-02 2.80068934e-01 2.72679389e-01 4.86043505e-02
      1.06562739e-02 1.55690340e-02 1.07224276e-02 2.02314649e-02
      1.28988549e-02 4.34774831e-02 1.65708050e-01 4.37431395e-01
      1.80964351e-01 2.10819598e-02 1.38031151e-02 1.15192859e-02
      3.33758853e-02 2.53262967e-02 2.88089383e-02 1.22707017e-01
      4.37431395e-01 1.63862079e-01 9.88122076e-03 2.13016476e-02
      1.55122457e-02 1.67633519e-02 7.22389342e-03 3.46398279e-02
      1.81281865e-01 4.37431395e-01 4.37431395e-01 2.56036110e-02
      5.71209053e-03 1.06763747e-02 4.20795307e-02 2.38637235e-02
      1.38846543e-02 8.12454894e-02 3.63050640e-01 2.19117597e-01
      3.14648934e-02 6.41376479e-03 3.12714721e-03 6.95552863e-03
      1.14400508e-02 1.96077917e-02 8.32462981e-02 3.63050640e-01
      3.63050640e-01 4.08112220e-02 1.05339000e-02 1.16759855e-02
      5.56418300e-03 4.87836264e-03 1.67650972e-02 9.76180509e-02
      3.63050640e-01 3.63050640e-01 3.51946615e-02 3.88151081e-03
      2.47447076e-03 9.81678814e-03 7.85806403e-03 1.37964264e-02
      2.58323830e-02 3.63050640e-01 3.63050640e-01 4.31057140e-02
      6.60104724e-03 6.12119026e-03 2.47163326e-03 1.15359039e-03
      1.64968427e-02 3.02117355e-02 3.50509852e-01 3.50509852e-01
      3.85615751e-02 1.35508655e-02 9.21536237e-03 2.84767500e-03
      2.22878996e-03 9.18141380e-03 5.71857020e-02 3.50509852e-01
      3.50509852e-01 8.19753036e-02 1.07270535e-02 7.76014244e-03
      1.40401957e-04 1.21891568e-03 3.63481813e-03 1.67682730e-02
      3.50509852e-01 3.50509852e-01 2.36376766e-02 6.31151069e-03
      6.69909641e-03 1.36244297e-03 1.42979529e-03 6.55622827e-03
      1.66640747e-02 3.50509852e-01 3.50509852e-01 1.01743033e-02
      1.78983633e-03 1.95239880e-03 3.22696811e-04 2.05548527e-03
      2.30717706e-03 1.54286455e-02 3.07903349e-01 3.98862362e-01
      1.47958577e-01 1.35952197e-02 1.21919531e-02 5.93757373e-04
      1.44723977e-04 3.46912857e-04 5.04110893e-03 1.80186629e-01
      3.98862362e-01 2.30412632e-01 1.70796756e-02 3.17467260e-03
      1.34843949e-03 1.28185842e-04 4.15682443e-04 6.30311854e-03
      3.34062576e-01 3.98862362e-01 1.59073994e-02 5.65826427e-04
      2.26042452e-04 3.44140863e-04 7.32681539e-04 6.77085249e-04
      2.24205498e-02 2.06423238e-01 3.98862362e-01 3.32821757e-02
      7.44073768e-04 1.33012992e-03 1.65104971e-03 1.16412586e-03
      4.57389047e-03 2.43654475e-02 2.32737020e-01 4.31891769e-01
      4.03802991e-01 1.67493895e-02 8.94792937e-03 8.02211557e-03
      1.57106435e-03 2.00937409e-03 1.34415720e-02 2.00404495e-01
      4.31891769e-01 2.19656929e-01 4.39178851e-03 8.69054347e-03
      9.49388370e-03 3.12538166e-03 7.54310703e-03 1.85221285e-02
      2.27524579e-01 4.31891769e-01 6.02773577e-02 3.14350822e-03
      6.53834036e-03 8.34380649e-03 5.96029451e-03 1.48161417e-02
      5.64703643e-02 1.35001838e-01 2.21991345e-01 2.55610384e-02
      4.45646560e-03 6.87041972e-03 9.39649623e-03 8.78870953e-03
      1.51185505e-02 4.08114456e-02 2.44234964e-01 1.15730509e-01
      6.34348914e-02 2.92433798e-02 3.55625339e-02 4.28766645e-02
      1.08747356e-01 1.69129878e-01 4.22857255e-01 3.45043659e-01
      1.70025378e-01 6.82837814e-02 2.29932088e-02 6.49613589e-02
      5.62485978e-02 1.39681071e-01 2.33053893e-01 4.41826493e-01
      1.82306677e-01 1.13755234e-01 4.84703556e-02 3.02273538e-02
      5.83689287e-02 2.92299353e-02 7.21361786e-02 1.46830797e-01
      2.34692439e-01 2.69052774e-01 1.01391919e-01 4.99168113e-02
      2.07704622e-02 8.25983435e-02 2.21797936e-02 7.66049922e-02
      6.76936507e-02 1.61855862e-01 1.78928792e-01 7.37415478e-02
      1.56857818e-02 7.22371507e-03 2.63691936e-02 1.86332334e-02
      7.50307217e-02 3.16287935e-01 3.96888137e-01 2.23941952e-01
      8.02544132e-02 1.02683846e-02 3.94499302e-03 5.63483080e-03
      1.96148064e-02 1.61058187e-01 5.05088270e-01 5.05088270e-01
      1.01232544e-01 4.26889211e-02 1.97104719e-02 4.91019199e-03
      2.86338590e-02 2.11480483e-02 3.71961370e-02 5.47204018e-02
      8.54828060e-02 1.17520273e-01 5.43941557e-02 1.48591073e-02
      4.01154440e-03 1.10107027e-02 1.77862365e-02 4.49149981e-02
      1.69557646e-01 1.61339968e-01 7.55835995e-02 1.78498961e-02
      2.23905896e-03 1.70772732e-03 8.26509262e-04 2.24983483e-03
      4.44254465e-02 4.62752789e-01 4.62752789e-01 1.77583501e-01
      4.30615395e-02 5.06545277e-03 1.03786762e-03 3.75686039e-04
      1.73756824e-04 2.83660013e-02 4.62752789e-01 4.62752789e-01
      3.90033238e-02 1.56948734e-02 3.72981885e-03 2.19564931e-03
      3.51625262e-03 2.01379322e-03 1.00966375e-02 5.75274564e-02
      7.79636428e-02 8.88213441e-02 1.71215869e-02 3.21204588e-03
      1.77742331e-03 6.65879110e-03 4.44671634e-04 2.45223986e-03
      6.73927814e-02 2.69251257e-01 1.55884579e-01 9.67585109e-03
      4.23497939e-03 0. 0. 1.07711705e-03 1.06456541e-02 3.34664017e-01
      4.79519516e-01 2.47491136e-01 5.97846182e-03 9.77303018e-04 0. 0.
      1.57650989e-02 1.53681450e-02 2.80607164e-01 4.79519516e-01
      6.53401092e-02 4.03483445e-03 7.99184374e-04 3.28354450e-04
      2.03839550e-03 0. 2.09775942e-04 4.79639024e-02 2.33121440e-01
      8.77814516e-02 8.05853284e-04 6.82672602e-04 5.95133519e-04
      1.38257549e-03 0. 4.61507094e-04 8.31684768e-02 4.27469403e-01
      2.05051228e-01 1.19245620e-02 5.85470058e-04 1.23291509e-04
      2.03115196e-05 7.29077682e-03 9.31051560e-03 1.52631447e-01
      4.27239507e-01 4.27239507e-01 1.64688993e-02 1.81182881e-03
      3.71800619e-04 4.53101180e-04 1.02991273e-03 4.82453639e-03
      5.95535487e-02 4.27239507e-01 8.89166221e-02 1.16449641e-03
      4.87055571e-04 4.72789805e-04 6.78997138e-04 0. 2.07049306e-03
      5.42570911e-02 3.81700039e-01 1.95678756e-01 3.05004674e-03
      6.56476535e-04 1.32159446e-04 4.83371026e-04 0. 7.03198276e-03
      3.50169875e-02 4.27239507e-01 3.76610786e-01 3.85864750e-02
      3.98426550e-03 3.79264471e-04 4.00534453e-04 5.04974334e-04
      2.35927198e-03 1.90063566e-02 3.76610786e-01 3.76610786e-01
      4.30513769e-02 1.26243187e-02 1.14243699e-03 3.97346797e-04
      6.98542790e-05 6.84272964e-03 2.29865406e-02 3.76610786e-01
      1.95912331e-01 3.46971140e-03 4.33037669e-04 0. 4.19142336e-04 0.
      2.86691473e-03 1.43606402e-02 3.76610786e-01 3.19504082e-01
      2.82398867e-03 7.00825534e-04 1.09691071e-04 7.62423035e-04 0.
      5.77010913e-04 7.80498935e-03 3.76610786e-01 3.57013583e-01
      1.85989439e-02 5.82987070e-03 6.73515373e-04 8.67341936e-04
      2.96909886e-04 7.04499800e-03 1.75794791e-02 3.57013583e-01
      3.57013583e-01 1.19464993e-02 1.86057505e-03 8.21112131e-04
      5.06536686e-04 2.02230434e-03 2.27566599e-03 7.89795350e-03
      3.57013583e-01 3.21117997e-01 1.38564117e-03 3.67629051e-04
      1.71517488e-04 9.76744923e-04 0. 3.77622782e-04 7.60119688e-03
      3.57013583e-01 3.57013583e-01 6.73967833e-03 2.71304398e-05
      3.95809620e-05 7.53818545e-04 0. 2.51748534e-05 6.31839642e-03
      3.57013583e-01 3.60221803e-01 1.36987306e-02 2.06632377e-03
      8.86529160e-04 2.59734225e-04 2.53143231e-03 2.32412270e-03
      1.58389080e-02 3.60221803e-01 3.60221803e-01 3.08020450e-02
      1.91653776e-03 5.96977130e-04 2.81228131e-04 1.23132847e-03
      5.28156804e-03 4.38751169e-02 3.60221803e-01 3.60221803e-01
      9.95376334e-03 0. 2.46620213e-04 4.92896768e-04 0. 6.30816430e-05
      6.33229921e-03 3.60221803e-01 3.60221803e-01 2.07061339e-02
      3.10116884e-05 3.80071928e-04 6.07991358e-04 3.52998322e-05
      2.90738797e-04 1.18959090e-02 2.89844364e-01 3.88517022e-01
      3.92073430e-02 1.11694087e-03 6.07274240e-04 6.18810518e-05
      3.43890541e-04 1.82181306e-03 4.59257811e-02 3.88517022e-01
      3.88517022e-01 6.19919784e-02 1.59290488e-04 2.48176075e-04 0.
      3.75115749e-04 5.18038264e-03 2.25707367e-02 3.88517022e-01
      3.88517022e-01 3.57419774e-02 9.00297528e-05 2.28692326e-04
      7.12683715e-04 1.68958664e-04 1.90609731e-04 5.34731522e-03
      2.05754623e-01 3.88517022e-01 3.06825917e-02 1.65740086e-04
      8.31192228e-05 5.86004346e-04 1.31412293e-04 6.47201232e-05
      1.32871768e-03 1.94497839e-01 4.48735148e-01 1.56226203e-01 0. 0.
      4.28545580e-04 1.24266767e-03 1.80249773e-02 1.41567579e-02
      2.70314276e-01 4.48735148e-01 2.27616295e-01 0. 7.68178049e-03
      7.70505378e-03 5.64849004e-04 9.38870944e-03 1.57194939e-02
      1.49007022e-01 4.48735148e-01 3.59039344e-02 3.45311477e-04 0.
      6.96210365e-04 0. 0. 1.38676213e-03 1.50070071e-01 4.26452875e-01
      6.79209754e-02 1.24828506e-03 0. 1.66123442e-03 0. 0.
      3.67448898e-03 9.30190310e-02 4.88408148e-01 1.99814707e-01
      2.97587202e-03 9.99698695e-03 8.86271056e-03 4.68912488e-03
      1.40783505e-03 1.20226545e-02 1.58349708e-01 4.88408148e-01
      4.10683632e-01 1.73122566e-02 1.91782543e-03 3.97378206e-03
      1.28307855e-02 6.16257777e-03 3.58617399e-03 1.20340824e-01
      3.79067689e-01 6.21920377e-02 9.89730470e-04 0. 2.86586885e-03
      1.33459238e-04 1.46628488e-04 4.35735658e-03 6.74714297e-02
      3.32373649e-01 4.98663373e-02 2.70068180e-03 2.46861950e-04
      6.17441954e-03 1.56183611e-03 1.99071364e-03 2.64058076e-03
      6.20042011e-02 4.37173337e-01 4.37173337e-01 5.22929691e-02
      7.91625306e-03 3.19031090e-03 5.39282057e-03 3.51272989e-03
      6.42597303e-03 8.10083151e-02 4.37173337e-01 4.37173337e-01
      5.51791489e-02 1.01556834e-02 4.40119719e-03 0. 1.06667774e-03
      2.29715705e-02 8.14381465e-02 3.44757318e-01 6.40818253e-02
      9.84752923e-03 1.65626640e-03 9.64871421e-03 1.79086172e-03
      2.61343457e-03 1.68929610e-03 5.61688505e-02 2.77702123e-01
      7.22883120e-02 7.99883902e-03 1.28820713e-03 7.87461363e-03
      9.81574049e-05 4.05523647e-03 6.58690464e-03 5.01392037e-02
      4.63614196e-01 4.63614196e-01 7.17252195e-02 1.26347449e-02
      1.34335449e-02 1.79417222e-03 5.82345761e-03 3.59202586e-02
      1.02835551e-01 4.63614196e-01 4.63614196e-01 2.88568158e-02
      9.70348809e-03 7.27817416e-03 9.56231356e-03 7.20298430e-03
      1.86592154e-02 1.33335263e-01 2.29843035e-01 1.19507782e-01
      1.22633036e-02 3.99064360e-04 1.24773113e-02 1.39546720e-03
      1.29575832e-02 2.21112370e-02 6.06334321e-02 1.28114223e-01
      5.55387139e-02 1.80910826e-02 1.01125846e-02 1.47411628e-02
      9.37258173e-03 1.18234009e-02 2.07886733e-02 8.01507756e-02
      4.55664068e-01 4.55664068e-01 4.20834385e-02 1.81180406e-02
      1.06911166e-02 1.33750373e-02 6.95585879e-03 1.39797367e-02
      2.32416004e-01 4.55664068e-01 4.55664068e-01 5.34881204e-02
      1.62775479e-02 1.84771288e-02 2.03241296e-02 2.72062719e-02
      5.94580770e-02 1.78781405e-01 1.25375256e-01 5.47811724e-02
      3.27559672e-02 3.07035185e-02 3.03740110e-02 2.61398740e-02
      2.65591256e-02 2.57586464e-02 1.17203280e-01 1.04026347e-01
      5.69530614e-02 2.95528062e-02 2.10495275e-02 3.35939527e-02
      3.01341694e-02 5.72473705e-02 5.00822999e-02 8.66416544e-02
      4.83447075e-01 3.57595146e-01 6.21944778e-02 2.40172110e-02
      4.37921546e-02 5.76957576e-02 8.40676650e-02 1.97039589e-01
      3.06719571e-01 3.62014741e-01 1.84353530e-01 8.24551955e-02
      4.11876403e-02 7.07860589e-02 3.86222489e-02 7.59695023e-02
      1.33344710e-01 2.09558964e-01 1.78862244e-01 8.40992257e-02
      6.71166554e-02 1.20573947e-02 3.89188342e-02 3.30744796e-02
      1.01474151e-01 1.54365897e-01 1.86675161e-01 2.08257183e-01
      1.27187893e-01 1.14880078e-01 2.78126691e-02 5.16241565e-02
      2.37331763e-02 5.86386733e-02 1.11525171e-01 1.67399451e-01</_>
    <_>
      7.55364150e-02 9.73294005e-02 4.15628739e-02 4.24039029e-02
      1.02318309e-01 3.38971876e-02 6.61207363e-02 5.10944612e-02
      5.00617735e-02 1.10439256e-01 1.19447283e-01 4.95173894e-02
      3.92713621e-02 7.47519881e-02 5.37849814e-02 6.36741146e-02
      8.56361091e-02 8.99465755e-02 3.01186413e-01 2.21373320e-01
      1.04384176e-01 9.11114886e-02 1.32785290e-01 5.05681299e-02
      7.23522827e-02 5.30290976e-02 1.49723724e-01 4.49669182e-01
      4.61661667e-01 4.61661667e-01 1.37951925e-01 1.19760349e-01
      3.92923616e-02 5.00717908e-02 4.20206487e-02 1.41189739e-01
      3.90190855e-02 4.81013022e-02 2.20096074e-02 7.41941296e-03
      1.03264963e-02 1.25023024e-02 1.29532842e-02 1.70245934e-02
      2.14749947e-02 1.37944221e-01 2.22114280e-01 3.21028307e-02
      4.83290432e-03 8.40003602e-03 7.63052609e-03 8.26951768e-03
      1.66959986e-02 3.75733078e-02 1.57961145e-01 5.21191239e-01
      2.33194575e-01 2.29789428e-02 1.31253097e-02 7.92487804e-03
      4.66796197e-03 5.27076190e-03 1.40393386e-02 4.48879004e-01
      5.21191239e-01 3.03379297e-01 5.60722267e-03 3.04691028e-03
      4.42190468e-03 3.89783247e-03 7.62711186e-03 2.54069176e-02
      1.15542866e-01 1.83536217e-01 1.29030095e-02 4.89708548e-03
      5.91146760e-03 5.36824996e-03 3.96629889e-03 6.52681012e-03
      2.28699781e-02 3.44967365e-01 4.02210295e-01 1.26822591e-02
      5.57041867e-03 7.91225396e-03 6.47990173e-03 3.67054087e-03
      1.07149594e-02 3.50592770e-02 3.81125003e-01 4.10847902e-01
      8.46272334e-02 3.71716777e-03 2.28502112e-03 8.83637462e-04
      1.75032532e-03 2.46953964e-03 1.82844885e-02 4.10847902e-01
      4.10847902e-01 5.97215109e-02 5.82720106e-03 1.37786614e-03
      1.86349486e-03 1.40419342e-02 6.86216727e-03 5.07483669e-02
      3.49590868e-01 3.49590868e-01 8.46305490e-03 4.36118525e-03
      1.13785155e-02 6.68458128e-03 3.88616160e-03 6.07205834e-03
      1.73777249e-02 3.49590868e-01 3.49590868e-01 4.73524220e-02
      2.04517823e-02 5.26463762e-02 2.62384117e-02 5.02916379e-03
      1.06902020e-02 4.12844233e-02 3.49590868e-01 3.49590868e-01
      1.09391576e-02 1.17457588e-03 1.62962289e-03 3.50874406e-03
      1.95950475e-02 1.49306264e-02 4.26289625e-02 3.49590868e-01
      3.49590868e-01 4.94522136e-03 5.21879178e-04 1.51585629e-02
      1.35797691e-02 1.29452236e-02 3.07938401e-02 7.80938640e-02
      4.02519226e-01 3.24248642e-01 3.80801037e-02 2.16760337e-02
      5.05121276e-02 2.38381494e-02 7.71902362e-03 2.61795297e-02
      1.18494280e-01 4.02519226e-01 1.94829196e-01 7.35054631e-03
      6.54056994e-03 1.84090845e-02 1.05850799e-02 2.52263490e-02
      4.24694158e-02 1.67593688e-01 4.02519226e-01 2.66017586e-01
      6.88651297e-03 3.85708199e-03 3.42429727e-02 2.20549144e-02
      1.10194366e-02 4.92738001e-02 1.56614169e-01 4.02519226e-01
      1.29252240e-01 1.80010367e-02 8.94895941e-03 2.73981132e-02
      3.25718112e-02 4.96067181e-02 1.02563821e-01 1.49764150e-01
      3.61751914e-01 1.53088555e-01 8.32369737e-03 2.35775243e-02
      3.86649184e-02 2.42933016e-02 3.76475528e-02 3.79881151e-02
      1.28582597e-01 3.61751914e-01 3.22274119e-01 1.01164147e-01
      1.07680246e-01 2.06394076e-01 1.28323197e-01 4.31665070e-02
      8.05521980e-02 2.23948225e-01 3.20558757e-01 6.50826246e-02
      1.36140725e-02 5.44768944e-02 1.09095171e-01 6.71768486e-02
      4.78146560e-02 5.68774156e-02 7.00899512e-02 1.70876697e-01
      1.15223937e-01 6.34772927e-02 2.07525179e-01 3.61751914e-01
      2.88823605e-01 3.25839929e-02 3.46003510e-02 5.24170063e-02
      3.52722496e-01 2.32949406e-01 9.29553583e-02 6.58142641e-02
      1.76843688e-01 9.59093273e-02 1.79116726e-02 6.23994321e-02
      3.39457124e-01 3.52722496e-01 5.79920299e-02 1.86873712e-02
      1.79654937e-02 4.09992971e-02 1.99405886e-02 3.36531810e-02
      4.42852341e-02 3.52722496e-01 1.65109426e-01 1.01746432e-01
      5.69486730e-02 1.07623756e-01 3.52722496e-01 2.36565784e-01
      1.25532579e-02 1.77903492e-02 6.98070228e-02 2.72181660e-01
      2.84845363e-02 1.55104278e-02 2.00908929e-02 1.46771401e-01
      7.61486888e-02 1.75742414e-02 1.69675481e-02 2.12684199e-01
      4.03704137e-01 2.05005389e-02 2.66159093e-03 3.56519292e-03
      8.65664799e-03 3.28351231e-03 2.18076874e-02 4.45049629e-02
      4.03704137e-01 4.03704137e-01 4.42118198e-02 6.95116399e-03
      9.63919330e-03 1.91560350e-02 1.42118931e-02 1.34269604e-02
      4.45644595e-02 4.03704137e-01 2.87937671e-01 1.21291876e-02
      9.87903215e-03 8.14884156e-03 6.72528101e-03 1.11548686e-02
      9.93633829e-03 1.82743575e-02 2.73716062e-01 2.88202733e-01
      1.97281484e-02 9.24499054e-03 2.14178637e-02 7.78191313e-02
      3.04552801e-02 2.08821986e-02 2.84771416e-02 2.92026043e-01
      3.39854836e-01 2.83135176e-02 1.79789793e-02 4.12825122e-02
      1.46205425e-01 9.48928818e-02 7.05085471e-02 9.40125659e-02
      3.39854836e-01 2.23679721e-01 3.07892878e-02 3.24506201e-02
      6.50786906e-02 2.15727329e-01 1.48132637e-01 9.78181511e-02
      1.69374302e-01 3.39854836e-01 1.11907847e-01 9.48738959e-03
      9.80666652e-03 8.49151909e-02 3.39854836e-01 1.52287826e-01
      4.93153445e-02 4.71938923e-02 1.62614062e-01 5.06586991e-02
      2.58732997e-02 2.16074996e-02 1.58207417e-01 3.39854836e-01
      2.52294868e-01 6.25999570e-02 7.35228509e-02 1.82066217e-01
      2.00873360e-01 2.82865874e-02 1.44203594e-02 2.02233475e-02
      6.26344010e-02 4.81663160e-02 3.86847258e-02 2.01353163e-01
      4.17718232e-01 1.89836457e-01 3.69869955e-02 3.02071078e-03
      4.88584861e-03 1.89878605e-02 5.67263272e-03 4.14414443e-02
      2.64222026e-01 4.17718232e-01 9.84931141e-02 4.81072478e-02
      2.05211658e-02 7.37210810e-02 2.19932422e-01 9.40036774e-02
      4.37653176e-02 1.02785617e-01 3.50384444e-01 1.46718115e-01
      6.08642325e-02 1.04651647e-02 1.79062989e-02 3.96711119e-02
      1.49303498e-02 6.27956241e-02 1.76694602e-01 4.17718232e-01
      1.29200876e-01 4.28608656e-02 8.51948559e-03 4.49178368e-03
      1.66902244e-02 3.87770636e-03 3.21506411e-02 2.32140005e-01
      3.75882417e-01 7.01428875e-02 2.27032285e-02 9.07829218e-03
      2.98608281e-03 1.21547468e-02 3.31500173e-03 3.23558897e-02
      3.75882417e-01 3.75882417e-01 1.31555215e-01 5.81568778e-02
      8.22046399e-03 1.09097129e-02 1.71334129e-02 3.57003044e-03
      4.03961875e-02 1.77772731e-01 3.75882417e-01 8.92416611e-02
      2.70744096e-02 8.67888145e-03 6.91639632e-03 4.96598706e-03
      1.50093576e-02 6.67896867e-02 3.75882417e-01 3.75882417e-01
      1.65853351e-02 6.17076596e-03 1.36224763e-03 3.10392724e-03
      6.53505512e-03 7.43657677e-03 2.29601730e-02 3.48232836e-01
      3.48232836e-01 4.56210971e-02 3.05510275e-02 1.31624639e-02
      1.85622443e-02 1.08929072e-02 1.78299453e-02 4.52472679e-02
      3.48232836e-01 3.48232836e-01 4.97855805e-02 5.70298405e-03
      6.96496107e-03 5.51370252e-03 4.05294029e-03 2.39494182e-02
      7.13467970e-02 3.48232836e-01 3.48232836e-01 5.36562838e-02
      1.63576324e-02 1.56731009e-02 1.32151311e-02 8.07196647e-03
      3.08971331e-02 8.10468942e-02 3.48232836e-01 3.48232836e-01
      7.82225505e-02 4.86215279e-02 2.74118707e-02 2.05263775e-02
      1.47501780e-02 1.45331658e-02 4.50761542e-02 3.16163927e-01
      3.54382247e-01 7.46035203e-02 1.68221053e-02 1.08916713e-02
      5.88071952e-03 1.01274718e-02 7.30680116e-03 5.20161279e-02
      3.30291599e-01 3.54382247e-01 2.99772844e-02 2.52340119e-02
      2.18011886e-02 1.67877935e-02 1.02004642e-02 2.38075759e-02
      6.76677674e-02 3.54382247e-01 3.54382247e-01 3.27827781e-02
      1.68076195e-02 1.50140058e-02 1.01029770e-02 5.02866646e-03
      1.36995474e-02 5.88801466e-02 3.54382247e-01 3.54382247e-01
      8.16010162e-02 1.52038597e-02 1.22303450e-02 4.16914001e-03
      1.57900434e-02 9.39672906e-03 4.37683202e-02 3.27764958e-01
      3.27764958e-01 2.32332453e-01 5.07275835e-02 1.85262039e-02
      6.83541549e-03 2.12100260e-02 1.39317662e-02 3.66521738e-02
      3.27764958e-01 3.27764958e-01 5.27892485e-02 2.27360092e-02
      4.19334881e-02 2.07646769e-02 2.00385433e-02 2.94588730e-02
      7.02402890e-02 3.27764958e-01 3.27764958e-01 2.01450467e-01
      2.90017724e-02 3.97405736e-02 4.63313311e-02 4.27760854e-02
      6.84046447e-02 7.54480660e-02 3.27764958e-01 3.27764958e-01
      1.90143451e-01 6.27494529e-02 2.60591824e-02 1.54924197e-02
      2.59840973e-02 1.49353556e-02 3.70139405e-02 2.27086365e-01
      3.60559434e-01 1.21291086e-01 5.18841334e-02 2.45986786e-02
      2.26292796e-02 2.16878485e-02 9.21369530e-03 3.50611769e-02
      2.81882912e-01 3.60559434e-01 1.66403234e-01 2.61003226e-02
      1.78697165e-02 2.59016957e-02 2.24307850e-02 3.34857106e-02
      3.57645303e-02 3.24811488e-01 3.60559434e-01 9.26799700e-02
      1.08851371e-02 1.37569960e-02 9.42237582e-03 4.24378030e-02
      1.05198286e-02 5.57332709e-02 3.60559434e-01 3.60559434e-01
      5.29756136e-02 1.14800595e-01 7.62895346e-02 3.30665596e-02
      1.66008044e-02 6.21202588e-03 1.15774665e-02 4.79383348e-03
      3.52689400e-02 7.02114627e-02 4.16113853e-01 3.46869975e-01
      2.74983719e-02 1.03854071e-02 3.08757066e-03 4.53439262e-03
      1.14140927e-03 1.64607503e-02 4.21857908e-02 2.85939306e-01
      4.16113853e-01 1.70964569e-01 1.43586705e-02 5.30239055e-03
      1.21338340e-02 1.17013725e-02 3.46502289e-02 4.24974151e-02
      4.16113853e-01 4.16113853e-01 1.88951999e-01 1.11053307e-02
      6.77008787e-03 2.26047402e-03 3.31620802e-04 6.24236232e-03
      5.48918657e-02 3.55844617e-01 3.09137642e-01 7.05971103e-03
      2.13266117e-03 9.35595715e-04 1.03366456e-03 5.49177057e-04
      5.28308470e-03 1.21137530e-01 3.55844617e-01 3.29216868e-01
      5.23300655e-03 4.73133475e-03 2.69506127e-03 1.93103973e-03
      1.99861918e-03 9.39933676e-03 3.62078324e-02 3.55844617e-01
      3.55844617e-01 6.78916126e-02 1.61348097e-02 1.20471269e-02
      4.97278897e-03 2.87346495e-03 7.92161096e-03 5.69025129e-02
      3.55844617e-01 3.55844617e-01 4.77242805e-02 3.23719531e-02
      3.04919910e-02 1.57729574e-02 9.30863619e-03 2.38176715e-02
      3.54973942e-01 4.27834958e-01 2.38818362e-01 1.55700212e-02
      1.51378568e-02 7.99532514e-03 7.40082143e-03 1.12134460e-02
      3.38436700e-02 4.27834958e-01 4.27834958e-01 1.11560948e-01
      2.47013904e-02 1.16884317e-02 1.33100953e-02 2.84186993e-02
      2.61609927e-02 6.36388659e-02 1.06070437e-01 3.89383078e-01
      1.74025133e-01 4.35979404e-02 3.51030864e-02 4.87809293e-02
      3.63265090e-02 2.95194648e-02 6.19032271e-02 1.02734171e-01
      1.21413797e-01 6.02387376e-02 2.95999683e-02 2.72910502e-02
      4.04102430e-02 3.25657576e-02 3.87954824e-02 5.78762032e-02
      3.75914037e-01 3.75914037e-01 9.57209766e-02 3.47989425e-02
      4.15991955e-02 2.82278452e-02 9.52003822e-02 1.06879383e-01
      1.83046475e-01 3.75914037e-01 3.75914037e-01 2.01243646e-02
      1.51077099e-02 7.59199262e-02 5.38563579e-02 9.10503566e-02
      1.38567030e-01 2.60479301e-01 1.73696578e-01 1.53463438e-01
      8.37424546e-02 5.41010313e-02 1.15828320e-01 4.64194380e-02
      5.20950705e-02 1.09383777e-01 1.44868582e-01 1.74231470e-01
      9.90616530e-02 8.61202925e-02 6.59004897e-02 1.37549624e-01
      4.44325432e-02 1.09911352e-01 1.46463186e-01 1.95485651e-01
      3.17556232e-01 1.80338636e-01 2.80171763e-02 2.56881844e-02
      1.08888730e-01 7.30568543e-02 6.50110692e-02 1.33567572e-01
      3.17556232e-01 2.12264791e-01 1.06338851e-01 8.15232173e-02
      5.85195012e-02 1.01040863e-01 1.30655080e-01 1.38204053e-01
      2.38150015e-01 3.17556232e-01 3.17556232e-01 1.11424714e-01
      1.13533370e-01 6.66449890e-02 5.04595712e-02 5.30801862e-02
      8.56940299e-02 1.31317914e-01 3.17556232e-01 2.29622886e-01
      5.20751551e-02 8.50288868e-02 9.85867754e-02 7.90340230e-02
      9.30261016e-02 7.41038695e-02 1.39771894e-01 2.79007018e-01
      1.97523590e-02 1.67608671e-02 1.99968908e-02 6.72625154e-02
      2.09315360e-01 9.76295918e-02 3.37214954e-02 4.53608781e-02
      2.50019841e-02 3.19475331e-03 4.63711517e-03 6.02987688e-03
      2.11934403e-01 5.35738885e-01 3.00264925e-01 8.11413117e-03
      1.31973214e-02 5.59295900e-03 9.11970995e-03 6.51148334e-03
      2.40415297e-02 6.20959252e-02 2.49143302e-01 9.11041722e-02
      2.40585729e-02 2.26863623e-02 1.21448720e-02 1.44780951e-03
      1.97722716e-03 1.55792395e-02 1.96141660e-01 5.35738885e-01
      3.27717632e-01 1.10536376e-02 5.40049467e-03 4.89204889e-04
      3.25225934e-04 0. 7.85856333e-04 1.16078965e-01 5.05475700e-01
      2.46923268e-01 4.05290350e-03 1.85246684e-03 3.10944160e-04
      7.12725194e-03 2.20725406e-03 6.18268037e-03 4.33435142e-02
      3.26621950e-01 9.42723453e-02 1.15579367e-02 6.79667527e-03
      5.67442039e-03 0. 0. 1.91205577e-03 1.17926002e-01 5.05475700e-01
      2.38270730e-01 2.31859143e-04 0. 0. 6.92273839e-04 8.23435315e-04
      2.95164599e-03 5.32476418e-02 4.62044328e-01 6.85825497e-02
      1.48995186e-03 8.69733340e-04 7.55625078e-04 8.98073316e-02
      5.25897816e-02 6.28966317e-02 1.30518526e-01 1.72627851e-01
      1.06785148e-01 4.26443145e-02 4.35647182e-02 6.60444647e-02
      6.68443888e-02 5.70460819e-02 6.49632663e-02 1.58863768e-01
      5.10396183e-01 2.85551637e-01 6.85888007e-02 4.24855761e-02
      3.42567153e-02 1.08490083e-02 1.47938300e-02 4.85850796e-02
      1.70460925e-01 3.43862623e-01 8.12658966e-02 2.84305960e-02
      1.97983906e-02 1.17054358e-02 5.64054726e-03 1.54356072e-02
      4.56540957e-02 1.85918599e-01 5.10396183e-01 2.64663875e-01
      3.09499167e-02 2.19929200e-02 6.44552102e-03 1.48551760e-03
      1.43453781e-03 3.41676408e-03 6.32716045e-02 4.49687243e-01
      1.33755103e-01 6.23871433e-03 1.46741781e-03 3.04363115e-04
      4.16599354e-03 1.16945067e-02 1.24004828e-02 1.40697971e-01
      4.49687243e-01 2.22891733e-01 1.36065260e-02 5.06083481e-03
      6.18624827e-03 4.49467152e-05 4.07737098e-04 1.02592318e-03
      3.06957196e-02 4.49687243e-01 1.47682786e-01 9.36996483e-04
      5.38782624e-04 8.44136594e-05 3.69004719e-03 2.38977605e-03
      7.85910990e-03 7.35077560e-02 4.49687243e-01 2.57257700e-01
      1.43801309e-02 4.37454786e-03 1.58053066e-03 5.64520620e-02
      9.05181095e-02 8.75188485e-02 3.03863138e-01 4.20357853e-01
      2.85989165e-01 8.85560289e-02 5.08712567e-02 5.45106865e-02
      1.55455187e-01 1.44076645e-01 9.21938047e-02 1.19134106e-01
      1.66833401e-01 5.24874218e-02 8.58606473e-02 7.49222785e-02
      7.37176090e-02 4.53791730e-02 5.16743064e-02 1.03034638e-01
      2.65222222e-01 4.20357853e-01 3.78291637e-01 7.47885704e-02
      2.54546814e-02 2.06948463e-02 6.87865689e-02 8.42084810e-02
      1.39750734e-01 1.13108166e-01 1.50693804e-01 8.30726102e-02
      5.65313250e-02 4.58031558e-02 6.85422271e-02 2.83330172e-01
      2.38050506e-01 7.67327845e-02 8.86103734e-02 1.42085150e-01
      2.09871307e-02 9.31750759e-02 1.40230760e-01 2.63358921e-01
      2.58527011e-01 2.03309104e-01 1.43752873e-01 1.13147989e-01
      9.46867839e-02 5.73237352e-02 2.11979836e-01 3.73594642e-01
      3.73594642e-01 1.18402891e-01 1.01289824e-01 9.02254134e-02
      6.58444762e-02 1.22371390e-01 3.36316228e-02 6.26539961e-02
      5.94131872e-02 1.07822642e-01 1.93237841e-01 2.56394714e-01
      1.64867535e-01 1.17757179e-01 9.96731222e-02 1.95925161e-02
      4.93400767e-02 5.04816808e-02 1.33825392e-01 1.42631501e-01
      5.22187874e-02 8.86376277e-02 4.51834947e-02 3.75366062e-02
      3.52279767e-02 1.32600218e-01 4.05651331e-01 4.05651331e-01
      1.74298227e-01 5.27915210e-02 7.66426027e-02 3.43045518e-02
      3.15047204e-02 4.92979512e-02 1.88078761e-01 4.05651331e-01
      4.05651331e-01 8.94108638e-02 1.09435394e-01 1.07381843e-01
      6.98505640e-02 3.52919623e-02 7.60111352e-03 4.77904081e-02
      6.02062121e-02 8.43270421e-02 1.63365066e-01 1.13561153e-01
      1.10616632e-01 8.39296356e-02 4.82916906e-02 1.56536493e-02
      9.37136263e-02 1.65365443e-01 2.39263192e-01 5.18953241e-02
      2.81510372e-02 1.07730580e-02 8.99654254e-03 7.11027812e-03
      2.54926067e-02 1.05147578e-01 4.20186520e-01 3.02388757e-01
      3.55172344e-02 1.75016597e-02 6.75500883e-03 6.65008510e-03
      5.29814651e-03 2.73762736e-02 2.16800213e-01 4.20186520e-01
      2.75971115e-01 1.04703747e-01 6.57679066e-02 2.95644589e-02
      4.15518805e-02 2.44560149e-02 2.11406257e-02 6.88008592e-02
      2.04685718e-01 1.46103010e-01 6.52225390e-02 4.46067974e-02
      2.03744266e-02 3.68389860e-02 3.89183164e-02 8.15973505e-02
      3.06578279e-01 4.20186520e-01 1.91228434e-01 2.02671811e-02
      1.06675467e-02 1.86464638e-02 1.21174511e-02 1.66000091e-02
      1.96051877e-02 2.05031708e-01 3.95231664e-01 1.49587348e-01
      3.50657292e-02 1.26324603e-02 2.18419377e-02 3.52490172e-02
      4.56318147e-02 4.04198952e-02 1.53786018e-01 2.61253208e-01
      1.07262455e-01 9.73587297e-03 8.37213360e-03 9.75829642e-03
      1.18076205e-02 1.89397484e-02 9.75857675e-02 3.95231664e-01
      3.95231664e-01 1.12213649e-01 6.51832437e-03 2.47101067e-03
      5.45382965e-03 8.02798569e-03 1.36938896e-02 1.09822430e-01
      3.95231664e-01 3.95231664e-01 5.84815405e-02 5.90207502e-02
      1.93820912e-02 2.25780867e-02 5.08072712e-02 7.65595213e-02
      7.00541660e-02 1.07102834e-01 2.25538582e-01 3.42009217e-01
      5.41415773e-02 8.22264608e-03 9.53150447e-03 3.74316052e-02
      2.40932986e-01 6.66109547e-02 9.36509818e-02 3.40614587e-01
      3.42009217e-01 5.72387083e-03 3.47413216e-03 1.01943910e-02
      1.70014966e-02 4.59253006e-02 2.05661684e-01 3.42009217e-01
      3.42009217e-01 8.41436461e-02 9.39248968e-03 6.85772067e-03
      6.72387984e-03 7.89214522e-02 3.42009217e-01 1.93813145e-01
      1.41206026e-01 1.52491778e-01 2.86134426e-02 7.61684263e-03
      8.26968476e-02 3.16497147e-01 3.16497147e-01 2.46270820e-02
      1.39730901e-03 1.97620457e-03 3.72757902e-03 6.03135442e-03
      1.98747050e-02 2.44696423e-01 3.16497147e-01 3.16497147e-01
      3.38257775e-02 1.29361609e-02 2.32747686e-03 8.99514649e-04
      5.34189539e-03 3.31665110e-03 1.41920876e-02 2.47513697e-01
      3.16497147e-01 2.84001082e-01 5.01990654e-02 3.16678686e-03
      4.30676941e-04 4.95737279e-03 1.71506181e-02 4.67852168e-02
      3.16497147e-01 3.16497147e-01 2.68255115e-01 8.38031471e-02
      1.19090900e-02 3.64002748e-03 1.26067419e-02 9.93833244e-02
      3.85361612e-01 3.85361612e-01 3.66726220e-01 8.97109061e-02
      7.99672529e-02 2.66282037e-02 1.02787530e-02 2.30775960e-02
      7.23090395e-02 3.13799262e-01 2.75640815e-01 1.27817482e-01
      1.13081597e-01 1.34068564e-01 8.62019137e-02 4.09029573e-02
      4.62967530e-02 1.01832308e-01 1.25743374e-01 2.69286245e-01
      2.95587063e-01 2.35805169e-01 1.08143479e-01 4.39014584e-02
      1.71399899e-02 3.81873585e-02 8.51515830e-02 8.16150159e-02
      5.91633134e-02 4.95878831e-02 7.57700130e-02 7.62743726e-02
      8.34656730e-02 5.06712981e-02 5.43558858e-02 1.65821612e-01
      1.83399335e-01 1.59509227e-01 1.21683806e-01 1.12886220e-01
      1.30643412e-01 1.32970244e-01 1.00212246e-01 2.14880705e-01
      3.09651196e-01 3.09651196e-01 7.77984187e-02 4.42981198e-02
      5.81316091e-02 6.29077777e-02 6.08473942e-02 1.11640170e-01
      3.09651196e-01 1.30862832e-01 1.39079392e-01 1.29918486e-01
      5.82514144e-02 1.08466774e-01 7.43629336e-02 1.19107068e-01
      1.48886204e-01 2.47683540e-01 2.80180454e-01 2.90216267e-01
      9.28345248e-02 1.50169684e-02 5.39565943e-02 2.20311061e-02
      7.69644305e-02 1.55357257e-01 3.09651196e-01 2.63687611e-01
      2.87842423e-01 4.43154275e-02 1.97823755e-02 6.05291650e-02
      3.46156918e-02 3.35316956e-02 1.26686916e-01 2.39238501e-01
      2.15014353e-01 1.37958959e-01 8.16800520e-02 4.39464562e-02
      7.82473683e-02 5.49771078e-02 1.02522112e-01 2.23838612e-01
      2.96296686e-01 2.63018727e-01 2.56180733e-01 3.34319994e-02
      6.60259975e-04 2.11146269e-02 1.52325258e-02 4.74407859e-02
      1.32113650e-01 2.96296686e-01 2.96296686e-01 2.56706506e-01
      9.14759263e-02 1.95899941e-02 2.72057019e-02 4.54950668e-02
      5.79110235e-02 1.76390991e-01 2.96296686e-01 2.83715427e-01
      1.15020320e-01 1.19885482e-01 5.03356308e-02 5.22968173e-02
      7.41512626e-02 1.21703267e-01 1.91272333e-01 2.82403022e-01
      2.01396957e-01 8.34067687e-02 1.50027990e-01 1.05867714e-01
      8.50758255e-02 6.27714470e-02 9.85978395e-02 1.50104791e-01
      1.75787255e-01 2.70260423e-01 3.17387164e-01 1.85303420e-01
      6.44645467e-02 4.84456047e-02 6.61662295e-02 1.32331848e-01
      1.55759603e-01 2.10233539e-01 1.28674462e-01 2.02767685e-01
      3.18649501e-01 1.83666676e-01 9.94407833e-02 1.22631259e-01
      2.05512330e-01 1.31987244e-01 9.35309008e-02 1.81232393e-02
      1.81710497e-02 3.79781239e-02 5.79263791e-02 2.08943099e-01
      5.84912896e-02 1.89673603e-02 1.97739881e-02 1.01157082e-02
      8.23958870e-03 7.30294921e-03 3.30224596e-02 1.69792488e-01
      5.14390111e-01 3.43870640e-01 8.14388134e-03 3.70046124e-03
      8.97627440e-04 2.01906841e-02 3.97639945e-02 6.69172704e-02
      5.15639298e-02 2.30643734e-01 8.90532136e-02 2.47496888e-02
      2.10632663e-02 7.03956652e-03 1.08572179e-02 1.56303551e-02
      2.61138249e-02 1.32060453e-01 5.14390111e-01 4.17086869e-01
      5.94990747e-03 8.36251490e-03 1.48393528e-03 0. 0. 6.71631983e-03
      7.62180239e-02 4.51055020e-01 2.94100434e-01 2.70897493e-04 0. 0.
      5.55606850e-04 2.82164081e-04 1.46058330e-03 2.88789310e-02
      3.62916112e-01 1.06430702e-01 3.61607200e-03 1.20017771e-03
      5.84903406e-04 0. 0. 4.86179907e-03 8.33593830e-02 4.51055020e-01
      3.47179413e-01 1.86093821e-04 0. 0. 5.41128917e-04 6.36503857e-04
      1.82867679e-03 3.34958918e-02 4.51055020e-01 1.42270088e-01
      5.47336880e-03 1.78373093e-03 5.41128917e-04 1.91257913e-02
      1.20300194e-02 3.56946848e-02 1.15989819e-01 2.95460761e-01
      1.26813993e-01 6.40134737e-02 3.64821032e-02 2.51479317e-02
      1.85465589e-02 3.06218211e-02 5.22557124e-02 2.00221613e-01
      5.06794393e-01 1.97883755e-01 4.67670746e-02 4.64217551e-02
      3.49668749e-02 2.76149288e-02 2.68086772e-02 4.36189659e-02
      9.73656923e-02 2.99156398e-01 2.27298424e-01 6.86846077e-02
      4.05574292e-02 3.36993746e-02 3.27976160e-02 4.59441580e-02
      8.48483592e-02 1.87902793e-01 5.06794393e-01 2.21671343e-01
      6.70637190e-02 6.00857101e-02 5.73997833e-02 3.35411460e-04
      1.26974948e-03 2.70044967e-03 3.27424072e-02 4.56530571e-01
      1.15943938e-01 7.21021323e-04 9.58828081e-04 8.23573850e-04
      8.66357610e-03 4.18351637e-03 5.00177685e-03 5.26260920e-02
      4.56530571e-01 2.40018576e-01 9.23597626e-03 2.67850515e-03
      1.80359674e-03 6.16475882e-04 1.55110750e-03 5.88947954e-03
      5.26955016e-02 4.56530571e-01 1.06925428e-01 3.35855060e-03
      2.34445278e-03 1.75671617e-03 1.04927011e-02 1.27799707e-02
      1.04952399e-02 1.04162760e-01 4.56530571e-01 2.47003466e-01
      5.86457690e-03 7.53080100e-03 6.22160174e-03 8.50473493e-02
      5.51180318e-02 6.44430071e-02 1.54160246e-01 4.09322560e-01
      3.29159617e-01 4.21431065e-02 4.06971872e-02 4.06847298e-02
      1.16604276e-01 1.18392207e-01 1.22545503e-01 6.85178638e-02
      9.44128335e-02 7.57668018e-02 3.83875370e-02 8.58580098e-02
      1.25486165e-01 1.29158601e-01 1.06368676e-01 8.07951316e-02
      1.79569185e-01 4.09322560e-01 3.59936297e-01 3.60038951e-02
      9.64049920e-02 1.07511237e-01 2.29578078e-01 2.38665134e-01
      1.47152334e-01 4.13470492e-02 1.00931928e-01 7.15800226e-02
      4.63411696e-02 1.16227180e-01 2.00391099e-01 1.42260507e-01
      1.63246408e-01 1.36437103e-01 4.37349081e-02 7.62018785e-02
      5.35364822e-02 6.84776232e-02 9.02207494e-02 1.54310629e-01
      2.04179212e-01 2.34748006e-01 9.18804705e-02 4.98013422e-02
      6.02086559e-02 3.53837498e-02 6.56227395e-02 8.13304856e-02
      2.37855643e-01 2.80400902e-01 3.15981954e-01 1.85836852e-01
      7.00739995e-02 7.90936053e-02 6.80401847e-02 1.01143435e-01
      1.40560269e-01 2.19876811e-01 3.15981954e-01 2.87076265e-01
      1.00128531e-01 6.01271391e-02 5.14632314e-02 9.20567513e-02
      1.48329362e-01 2.60809779e-01 3.15981954e-01 2.41737276e-01
      1.92154169e-01 8.05505216e-02 6.02932796e-02 2.97344103e-02
      2.24582125e-02 6.78249225e-02 1.05174288e-01 2.40196601e-01
      3.18183690e-01 2.10289329e-01 1.19387612e-01 7.83960745e-02
      4.85264622e-02 4.67724316e-02 1.08690515e-01 1.39264345e-01
      3.18183690e-01 3.11525345e-01 1.37342930e-01 5.02322130e-02
      2.87770871e-02 5.18858172e-02 6.17844537e-02 8.49926770e-02
      1.63845494e-01 3.18183690e-01 3.18183690e-01 1.65130928e-01
      6.16938658e-02 2.57435367e-02 3.04046012e-02 3.73422094e-02
      6.63618594e-02 1.08237229e-01 3.18183690e-01 2.76247501e-01
      2.00407416e-01 1.05255000e-01 8.22819620e-02 5.19103743e-02
      3.55864055e-02 6.82009608e-02 8.49302784e-02 2.76273906e-01
      2.09747285e-01 1.85055554e-01 1.10369422e-01 8.37499052e-02
      1.42461523e-01 1.57941803e-01 2.86612362e-01 2.86612362e-01
      2.17657462e-01 2.86612362e-01 1.45043865e-01 6.40805811e-02
      2.73457561e-02 3.33210453e-02 2.22655851e-02 2.90375985e-02
      8.68449658e-02 2.86612362e-01 2.86612362e-01 1.72130555e-01
      5.14629222e-02 1.39063885e-02 9.13276374e-02 5.99076599e-02
      3.73577029e-02 1.01879977e-01 2.78955132e-01 1.95132773e-02
      1.69410817e-02 1.85274631e-02 1.10193714e-02 2.77831480e-02
      1.04324810e-01 3.66757929e-01 3.46380830e-01 3.95214185e-02
      3.98945808e-03 1.92946487e-03 1.89530407e-03 1.47533359e-03
      1.61779709e-02 3.20655704e-01 3.66757929e-01 3.66757929e-01
      3.47648822e-02 7.89255351e-02 2.36328058e-02 1.35732917e-02
      5.12898248e-03 2.03548484e-02 4.81646545e-02 8.08204636e-02
      7.65558407e-02 8.03083405e-02 2.50768419e-02 1.31722400e-02
      9.83184204e-03 1.49240419e-02 9.45741907e-02 3.66757929e-01
      3.66757929e-01 2.10252717e-01 4.78178635e-02 1.20359968e-04
      2.38370878e-04 1.91814572e-04 2.61578080e-03 5.91134354e-02
      3.23032618e-01 3.30077142e-01 3.30077142e-01 1.84991118e-02
      3.52802291e-03 1.89233595e-03 4.00321325e-03 3.96662615e-02
      1.90139249e-01 1.74390525e-01 1.27529562e-01 8.19332153e-02
      1.01512792e-02 1.24199921e-03 2.02454766e-03 3.80146410e-03
      1.61674414e-02 3.20692897e-01 3.30077142e-01 3.30077142e-01
      1.46749362e-01 8.03683978e-03 3.52025009e-03 1.60876173e-03
      4.91839461e-03 4.22582813e-02 3.30077142e-01 3.30077142e-01
      1.26822308e-01 2.99128722e-02 4.83971275e-03 5.58356429e-03
      4.17306181e-03 6.06317930e-02 3.24467182e-01 3.24467182e-01
      2.26222649e-01 2.03278325e-02 1.28206017e-03 5.93465846e-03
      1.21632302e-02 3.00331376e-02 6.32458925e-02 3.13724667e-01
      3.24467182e-01 2.27583840e-01 2.48824563e-02 9.85994004e-03
      1.06308917e-02 4.33079991e-03 2.08149618e-03 3.39682563e-03
      8.79323334e-02 3.24467182e-01 3.24467182e-01 9.85851139e-02
      4.65519913e-03 4.23534960e-03 8.38476606e-03 2.05031205e-02
      9.85775981e-03 1.14761949e-01 3.24467182e-01 3.24467182e-01
      1.28568828e-01 2.23771632e-02 6.54216344e-03 1.01155311e-01
      1.34916171e-01 9.29550976e-02 2.53920972e-01 3.20760578e-01
      1.98330894e-01 7.37975016e-02 5.79905324e-02 6.89429715e-02
      1.41998559e-01 1.10766754e-01 7.66606852e-02 6.05317764e-02
      8.39729458e-02 3.52094993e-02 6.47143275e-02 1.19958714e-01
      1.45547524e-01 1.24316595e-01 1.18306570e-01 5.69170341e-02
      1.99248210e-01 3.20760578e-01 3.20760578e-01 1.99485779e-01
      1.64268732e-01 1.48832023e-01 2.72722334e-01 8.78676772e-02
      5.39501160e-02 7.26200119e-02 7.97859877e-02 2.09375471e-02
      8.34547728e-02 2.74587572e-01 3.20760578e-01 1.54988989e-01
      1.36509120e-01 1.22072421e-01 3.21055464e-02 1.34427443e-01
      5.09242192e-02 7.39914402e-02 1.94832936e-01 2.41717786e-01
      2.15022296e-01 2.45783806e-01 9.72201079e-02 1.28717301e-02
      1.36437118e-01 5.62520139e-02 8.69166404e-02 1.54054284e-01
      2.11671740e-01 3.46925586e-01 1.08492553e-01 3.60935479e-02
      3.82885002e-02 1.47388101e-01 1.85722578e-02 6.14658110e-02
      2.56247550e-01 3.46925586e-01 2.75857627e-01 1.74924031e-01
      6.85655102e-02 5.20492978e-02 2.45669350e-01 4.20720614e-02
      7.75358379e-02 1.39230877e-01 2.29990825e-01 2.43063509e-01
      2.08473995e-01 3.47623751e-02 1.18959686e-02 7.82434344e-02
      3.74364182e-02 6.78597018e-02 1.14162296e-01 2.01323807e-01
      3.43591571e-01 2.55817562e-01 6.29694834e-02 2.33309530e-02
      4.73598950e-02 3.81046869e-02 6.43013641e-02 1.57029465e-01
      3.43591571e-01 2.42734998e-01 1.67856500e-01 6.45865500e-02
      4.73617613e-02 1.57664642e-01 4.33652885e-02 8.61438215e-02
      9.77936983e-02 1.75649658e-01 3.43591571e-01 2.11102694e-01
      4.40975949e-02 2.72511356e-02 9.08074006e-02 2.94857901e-02
      7.50792697e-02 1.49104878e-01 3.43591571e-01 2.61686087e-01
      2.19862014e-01 1.21033251e-01 4.65263277e-02 2.30761822e-02
      3.55980396e-02 8.25265422e-02 1.30599141e-01 3.07123393e-01
      1.43935442e-01 2.19050765e-01 3.15471709e-01 1.15428291e-01
      1.29201338e-01 1.27828687e-01 1.02259099e-01 8.44688937e-02
      9.79905501e-02 3.15471709e-01 1.40425012e-01 6.66683018e-02
      1.60558727e-02 3.44688855e-02 5.95852956e-02 1.09459251e-01
      1.55688718e-01 3.15471709e-01 1.51189700e-01 2.00709611e-01
      2.72780240e-01 5.67129627e-02 1.52593121e-01 1.47489086e-01
      1.51035741e-01 1.02537744e-01 1.33765131e-01 1.38931135e-02
      3.51882540e-02 6.58055097e-02 3.68397310e-02 2.48911485e-01
      7.36597404e-02 1.22761484e-02 8.49406701e-03 4.65465197e-03
      4.74001467e-03 8.31094105e-03 7.92838633e-03 8.19136798e-02
      5.30802131e-01 3.32841426e-01 4.62298607e-03 4.38009156e-03
      1.32009282e-03 1.28473276e-02 3.29521820e-02 6.94302693e-02
      6.86623603e-02 2.42574990e-01 5.11804856e-02 1.41369328e-02
      4.18092078e-03 1.07729780e-02 2.32301932e-03 7.24048493e-03
      2.57209484e-02 1.44046307e-01 5.30802131e-01 3.80382925e-01
      4.23327368e-03 2.94701138e-04 1.44842209e-03 0. 0. 3.87101209e-05
      6.93740919e-02 4.54908431e-01 2.36744747e-01 1.47828978e-04 0. 0.
      8.37435131e-04 1.35921023e-03 3.61832092e-03 5.62656485e-02
      4.20067966e-01 7.87997022e-02 1.92292780e-03 7.50414911e-04
      7.43331097e-04 0. 0. 1.25595217e-03 8.54781866e-02 4.54908431e-01
      3.20477724e-01 7.19489879e-04 0. 0. 1.97087415e-03 2.22283299e-03
      4.69193514e-03 6.43154681e-02 4.54908431e-01 1.17130376e-01
      2.98275822e-03 1.50799705e-03 2.19058595e-03 2.35771388e-02
      3.16124968e-02 6.66446760e-02 1.64394021e-01 2.84072727e-01
      1.51743233e-01 4.83147949e-02 2.76507027e-02 2.98271980e-02
      1.93706583e-02 5.05437888e-02 9.64087844e-02 1.29634082e-01
      4.73772675e-01 2.13581368e-01 8.42744485e-02 7.27337673e-02
      4.37379479e-02 3.76809426e-02 4.21426147e-02 8.76787603e-02
      1.93812788e-01 3.02974850e-01 1.80407465e-01 6.07232302e-02
      5.14816828e-02 6.65309802e-02 3.08346711e-02 5.93385994e-02
      1.16411641e-01 1.73122019e-01 4.73772675e-01 2.66680151e-01
      5.88464066e-02 8.00563544e-02 6.42215237e-02 2.93199671e-04
      1.92869129e-03 4.53959033e-03 4.46135849e-02 4.48961705e-01
      1.10560149e-01 5.21910470e-03 5.15058730e-03 2.10317131e-03
      9.93808173e-03 1.31760137e-02 1.26712015e-02 1.00795455e-01
      4.48961705e-01 2.42016122e-01 6.60506496e-03 1.06141726e-02
      9.88855027e-03 9.94742382e-04 2.26265844e-03 3.39617790e-03
      5.73258288e-02 4.48961705e-01 1.32135525e-01 3.42710083e-03
      3.98672372e-03 2.00954359e-03 1.05870711e-02 4.36455244e-03
      6.46698428e-03 1.18130989e-01 4.48961705e-01 2.63626128e-01
      2.85851639e-02 1.35446601e-02 1.05567388e-02 1.27175063e-01
      1.02426939e-01 7.52707571e-02 1.63175270e-01 4.13505048e-01
      3.28124702e-01 3.58512774e-02 8.54587108e-02 1.19519725e-01
      1.88383803e-01 1.72869414e-01 9.10805911e-02 2.80170739e-02
      7.06297234e-02 7.34741539e-02 7.20376074e-02 1.02653511e-01
      1.85152426e-01 1.55484363e-01 6.29452169e-02 4.96023521e-02
      2.03705773e-01 4.13505048e-01 3.40648323e-01 8.94094706e-02
      7.54780620e-02 1.04843825e-01 2.06445709e-01 1.10593982e-01
      7.28376359e-02 6.43505454e-02 7.79277459e-02 6.43707663e-02
      9.99465361e-02 1.15936108e-01 1.37075156e-01 1.88892826e-01
      2.57649362e-01 9.64512005e-02 8.30505043e-02 6.09834455e-02
      9.00141224e-02 1.66661292e-01 1.88887358e-01 1.83891147e-01
      2.39696681e-01 2.56281376e-01 1.24022000e-01 1.05716042e-01
      8.99821147e-02 1.38645530e-01 1.78975657e-01 2.74570316e-01
      2.61418551e-01 1.70152545e-01 1.35653600e-01 8.18004385e-02
      7.26795867e-02 1.01648785e-01 9.16870758e-02 1.72683656e-01
      2.05336750e-01 1.26225606e-01 2.18951494e-01 2.43261531e-01
      1.41164869e-01 9.19088870e-02 1.58220083e-01 1.31738514e-01
      1.04538731e-01 1.84047043e-01 1.67848140e-01 2.00715959e-01
      1.21656597e-01 9.07462612e-02 6.46892861e-02 1.30678803e-01
      9.63862240e-02 8.45495239e-02 1.81557447e-01 2.37898737e-01
      3.50222647e-01 1.24832816e-01 4.33226563e-02 2.86796317e-02
      5.18551767e-02 3.28063630e-02 6.84703067e-02 1.38475522e-01
      2.88588494e-01 2.03491956e-01 1.58652440e-01 1.14651754e-01
      6.33926541e-02 9.84256119e-02 5.57047240e-02 3.88359390e-02
      1.92299709e-01 3.50222647e-01 3.50222647e-01 9.91051719e-02
      5.02406135e-02 2.70507280e-02 2.77585331e-02 2.77012959e-02
      4.38735038e-02 1.85846880e-01 3.50222647e-01 3.25786710e-01
      1.16008297e-01 3.30546685e-02 2.15609018e-02 1.89258419e-02
      1.84321627e-02 4.54031825e-02 1.11916974e-01 2.96884984e-01
      3.25786710e-01 1.78442031e-01 2.59273220e-02 1.54045159e-02
      3.74596603e-02 2.90352069e-02 3.10783219e-02 1.19228937e-01
      3.25786710e-01 3.25786710e-01 8.18778202e-02 5.27611263e-02
      2.51054317e-02 1.53370611e-02 3.26106809e-02 6.03780225e-02
      1.05935037e-01 3.25786710e-01 3.25786710e-01 1.24442920e-01
      5.01758158e-02 3.44095714e-02 4.91926596e-02 3.74040082e-02
      7.23222420e-02 1.75055996e-01 3.25786710e-01 2.03010321e-01
      5.97094260e-02 1.41170723e-02 9.60044190e-03 2.92901043e-02
      3.48224714e-02 4.11826856e-02 7.30392262e-02 2.40718931e-01
      9.44871604e-02 5.20166606e-02 5.26345223e-02 2.06114307e-01
      3.41584653e-01 3.41584653e-01 3.41584653e-01 8.30124989e-02
      1.36737585e-01 1.46735370e-01 8.29611793e-02 2.74579842e-02
      1.52351549e-02 5.07339276e-02 4.00792509e-02 4.77727950e-02
      1.01420321e-01 1.82833552e-01 7.74131119e-02 8.81427899e-02
      1.68942317e-01 3.41584653e-01 3.41584653e-01 2.48012021e-01
      1.47588864e-01 6.01604730e-02 9.90094021e-02 4.27602371e-03
      5.88815333e-03 1.58196967e-02 1.31351084e-01 3.34115505e-01
      3.34115505e-01 1.30406931e-01 1.27211437e-02 4.63554543e-03
      2.45662755e-03 5.17880602e-04 7.43316673e-03 1.23383060e-01
      3.34115505e-01 3.34115505e-01 3.73309031e-02 1.75095967e-03
      3.24696535e-03 4.68886690e-03 1.11362720e-02 8.26322809e-02
      3.34115505e-01 3.34115505e-01 1.52980804e-01 3.40271406e-02
      4.92744893e-03 3.51656531e-03 2.36808951e-03 1.31702435e-03
      3.82945202e-02 3.34115505e-01 3.34115505e-01 1.38090760e-01
      6.17461884e-03 1.26677405e-05 2.39782524e-03 2.28617573e-03
      4.55471636e-05 4.07828804e-04 1.10396482e-02 1.08443342e-01
      3.54004741e-01 3.00546288e-01 1.97144821e-02 1.72557181e-03
      1.89885753e-03 2.67138309e-03 1.17363373e-03 2.11164244e-02
      1.54061437e-01 3.54004741e-01 3.54004741e-01 8.39730203e-02
      6.85705245e-03 7.78436381e-03 1.60129252e-03 2.43629515e-03
      4.17778781e-03 1.31433280e-02 1.98255628e-01 3.54004741e-01
      1.12976186e-01 1.15226433e-02 2.54201062e-04 3.97669064e-04
      8.92019088e-05 1.40161661e-03 2.05774717e-02 2.38896534e-01
      3.54004741e-01 3.54004741e-01 2.62748916e-02 2.97787022e-02
      1.66478567e-02 9.82617307e-03 3.01428400e-02 1.38774514e-01
      1.83801040e-01 4.01071608e-01 1.78091317e-01 6.59003556e-02
      9.24934819e-02 3.44978124e-02 1.50010614e-02 3.03949211e-02
      3.67962047e-02 1.56455394e-02 5.65373264e-02 1.11434266e-01
      1.29907444e-01 1.17297163e-02 5.58879366e-03 3.85528570e-03
      4.92097344e-03 2.83644293e-02 1.48463190e-01 4.01071608e-01
      4.01071608e-01 7.62413293e-02 6.23457208e-02 2.98860464e-02
      1.26917483e-02 3.14016007e-02 4.00359705e-02 5.47057576e-02
      4.01071608e-01 4.01071608e-01 1.26725495e-01 3.07668746e-01
      1.19654030e-01 2.92728469e-02 6.99474961e-02 1.21438578e-01
      2.70001236e-02 5.73082678e-02 1.67888492e-01 3.25566888e-01
      1.57734349e-01 1.00509152e-01 7.19293505e-02 5.18531725e-02
      1.46504313e-01 1.75960585e-02 8.45949873e-02 1.19528539e-01
      1.64747506e-01 2.00657725e-01 1.32896453e-01 9.59154442e-02
      1.76661104e-01 2.13250816e-01 1.90336049e-01 2.80322850e-01
      3.25566888e-01 2.77908891e-01 1.24266498e-01 1.18229695e-01
      1.48091018e-01 1.05836496e-01 1.71031699e-01 1.18908852e-01
      1.09227464e-01 1.39147997e-01 1.91817433e-01 1.62608936e-01
      1.65768147e-01 1.07955888e-01 7.67663047e-02 1.56108782e-01
      2.06313170e-02 1.08700655e-01 1.16221428e-01 1.48104906e-01
      3.67781192e-01 2.48692989e-01 6.85679987e-02 5.29506803e-02
      2.21208826e-01 3.69789600e-02 1.03316188e-01 1.46849975e-01
      2.63101786e-01 2.00060114e-01 1.76270932e-01 1.39799863e-01
      9.50163081e-02 1.69611737e-01 5.68782277e-02 8.57197717e-02
      1.50651127e-01 1.97933927e-01 2.17696711e-01 2.12308705e-01
      1.15854830e-01 8.87624100e-02 3.01564276e-01 6.18305169e-02
      1.18678860e-01 2.01539412e-01 1.79713622e-01 2.48924613e-01
      1.13252193e-01 5.27792424e-02 9.18906182e-03 1.34707823e-01
      9.85222235e-02 1.61723331e-01 1.95636496e-01 2.20133856e-01
      1.17645867e-01 9.90350246e-02 1.32131279e-01 4.58358787e-02
      1.66501597e-01 2.16777712e-01 2.66676873e-01 2.09882304e-01
      2.30686516e-01 1.56291187e-01 8.47930685e-02 6.79751933e-02
      2.70665735e-02 2.18725219e-01 6.12846166e-02 1.53401241e-01
