<?xml version="1.0"?>
<opencv_storage>
<my_svm type_id="opencv-ml-svm">
  <svm_type>C_SVC</svm_type>
  <kernel><type>RBF</type>
    <gamma>2.2500000000000003e-03</gamma></kernel>
  <C>2.5000000000000000e+00</C>
  <term_criteria><epsilon>2.2204460492503131e-16</epsilon>
    <iterations>10000</iterations></term_criteria>
  <var_all>3780</var_all>
  <var_count>3780</var_count>
  <class_count>2</class_count>
  <class_labels type_id="opencv-matrix">
    <rows>1</rows>
    <cols>2</cols>
    <dt>i</dt>
    <data>
      -1 1</data></class_labels>
  <sv_total>50</sv_total>
  <support_vectors>
    <_>
      1.27984241e-01 1.02491327e-01 1.43532872e-01 4.15451862e-02
      9.35848504e-02 9.77963656e-02 7.49660730e-02 6.88795671e-02
      1.33689255e-01 1.25254959e-01 8.63105208e-02 1.00516051e-01
      2.69907732e-02 9.94205922e-02 3.33297029e-02 7.46457502e-02
      1.36941925e-01 2.06958473e-01 2.55324036e-01 1.23985372e-01
      9.79084373e-02 1.17404968e-01 1.01989910e-01 2.15198755e-01
      1.51878417e-01 2.39989012e-01 3.31931561e-01 2.74515271e-01
      1.68465838e-01 1.26970768e-01 8.36196840e-02 1.09412856e-01
      1.36462107e-01 2.83400059e-01 3.30392748e-01 2.96842098e-01
      5.45630157e-02 4.78023291e-02 5.68327308e-02 1.38534931e-02
      3.19803469e-02 7.06830993e-03 5.54124974e-02 6.06392212e-02
      6.96936101e-02 8.28976706e-02 9.87137482e-02 8.99358615e-02
      2.39548441e-02 3.29714306e-02 2.17018221e-02 5.86484410e-02
      6.77275658e-02 6.93231001e-02 1.75922841e-01 2.58903146e-01
      1.03299037e-01 3.82575244e-02 3.07300221e-02 3.28959264e-02
      1.24867275e-01 1.09217711e-01 1.06430374e-01 5.95368028e-01
      5.95368028e-01 2.27773041e-01 2.98247151e-02 3.00031416e-02
      3.73998396e-02 5.79098351e-02 5.03972545e-02 1.10216416e-01
      2.49958355e-02 2.85436306e-02 2.85215992e-02 1.71025526e-02
      1.63651779e-02 9.69395787e-03 1.14629781e-02 1.45834023e-02
      1.29778869e-02 1.10672675e-01 9.97945741e-02 5.30176274e-02
      5.10891117e-02 4.04332727e-02 1.86666325e-02 1.86587013e-02
      1.52025865e-02 1.83736961e-02 4.44470346e-01 4.65859264e-01
      8.87682661e-02 7.41424412e-03 4.79226699e-03 5.92956180e-03
      4.25705127e-03 1.17994752e-02 6.30034208e-02 4.65859264e-01
      4.65859264e-01 1.93870082e-01 2.40366291e-02 1.03320815e-02
      4.50618239e-03 6.01170585e-03 1.35628181e-02 2.49278694e-01
      1.74132943e-01 1.40608877e-01 2.67150737e-02 1.83616020e-02
      1.15541341e-02 5.43804886e-03 8.47696047e-03 8.76940042e-03
      1.77520327e-02 4.07214075e-01 2.53693879e-01 1.37898019e-02
      4.48689610e-03 4.72964114e-03 8.45331815e-04 7.13913096e-03
      7.68828578e-03 4.67273109e-02 4.07214075e-01 4.07214075e-01
      7.84069002e-02 1.07631860e-02 2.83207535e-03 8.60828848e-04
      2.17725020e-02 2.40631923e-02 1.49882227e-01 4.07214075e-01
      4.07214075e-01 5.19030057e-02 5.97305316e-03 4.63563338e-04
      4.76590649e-05 5.34859635e-02 4.33628038e-02 1.04385473e-01
      3.62176150e-01 1.79813251e-01 4.09446750e-03 4.84521035e-04
      2.55988305e-03 5.51047095e-04 4.43976931e-03 6.80274144e-03
      6.21295013e-02 3.62176150e-01 2.42745131e-01 1.37599150e-03
      2.49289180e-04 1.33060443e-03 1.46844401e-03 2.47889827e-03
      1.39960442e-02 1.13810316e-01 3.62176150e-01 3.62176150e-01
      4.72446270e-02 1.54820429e-02 2.86814459e-02 1.56138922e-04
      2.01797709e-02 2.69239992e-02 9.13949609e-02 3.62176150e-01
      3.62176150e-01 4.59734648e-02 2.38445271e-02 6.89744726e-02
      2.34208372e-03 2.06317287e-02 1.06568336e-01 2.62633413e-01
      3.73452485e-01 1.48686320e-01 2.53921055e-04 4.80430695e-04
      9.06750618e-04 5.99539024e-04 2.06736964e-03 9.28781182e-03
      1.34572119e-01 3.73452485e-01 1.03482544e-01 1.21240178e-03
      2.27724784e-03 2.74278573e-03 1.74585998e-03 1.73845503e-03
      4.39126370e-03 2.26932913e-01 3.73452485e-01 2.68706024e-01
      7.08777923e-03 5.19145560e-03 1.67425536e-02 1.13157008e-03
      8.94177146e-03 6.92204684e-02 3.01805168e-01 3.73452485e-01
      1.74973056e-01 2.01166701e-03 4.58010612e-03 5.26939426e-03
      3.64354858e-03 3.52892978e-03 2.21585613e-02 3.68973255e-01
      3.67801547e-01 7.64188394e-02 2.07253499e-03 1.07156602e-03
      1.91157206e-03 1.59066927e-03 3.06704780e-04 2.41785450e-03
      2.22928122e-01 3.67801547e-01 3.51343341e-02 1.17446145e-03
      5.73510304e-04 1.77203072e-03 3.78485827e-04 1.05897570e-03
      1.12733683e-02 3.67801547e-01 3.67801547e-01 6.25641495e-02
      2.38892739e-03 1.88509701e-03 2.85796192e-03 3.67789785e-03
      6.43242442e-04 1.00283138e-02 3.49157423e-01 3.67801547e-01
      3.47588025e-02 1.39829400e-03 3.66888795e-04 1.01191760e-03
      2.02958356e-03 4.24273021e-04 2.37235576e-02 3.67801547e-01
      3.48340333e-01 1.68062653e-02 7.76252651e-04 2.65834387e-04
      9.78862052e-04 1.53293760e-04 5.38610271e-04 1.13533102e-02
      3.48340333e-01 3.48340333e-01 2.55782548e-02 1.57860084e-03
      3.26153095e-04 1.22923288e-03 2.55668722e-03 1.07800821e-03
      1.21544376e-02 3.48340333e-01 3.48340333e-01 3.83573920e-02
      8.92379554e-04 4.58574505e-05 1.90491718e-03 1.80113071e-03
      3.22229229e-04 2.07781401e-02 3.48340333e-01 3.48340333e-01
      1.32240519e-01 1.03398990e-02 4.46163258e-03 6.87806588e-03
      6.47893175e-03 6.80743344e-03 7.00285286e-02 3.48340333e-01
      3.46172214e-01 1.81885492e-02 2.08111759e-03 3.67241213e-03
      4.83912136e-03 1.06717804e-02 5.93115017e-03 1.82318613e-02
      3.46172214e-01 3.46172214e-01 7.04136025e-03 5.10651246e-03
      7.48759042e-03 6.32801978e-03 8.77551828e-03 1.03076482e-02
      1.07795104e-01 3.46172214e-01 3.46172214e-01 1.61142096e-01
      4.51937504e-02 4.48279083e-02 5.84278591e-02 4.13733870e-02
      4.81749177e-02 1.53449565e-01 3.46172214e-01 2.06776813e-01
      4.61071730e-02 4.21436988e-02 5.23764640e-02 6.46404251e-02
      5.48632555e-02 8.77740383e-02 1.39857516e-01 3.46172214e-01
      3.30116212e-01 1.43885324e-02 4.58279019e-03 5.00058383e-03
      2.54661660e-03 3.45183979e-03 1.32167218e-02 1.96788386e-01
      3.95445347e-01 2.94910282e-01 1.42395990e-02 1.95824238e-03
      1.54646812e-03 1.21506467e-03 1.60279917e-03 1.80996582e-02
      1.51379377e-01 3.95445347e-01 1.67862326e-01 3.11176218e-02
      1.20381350e-02 1.28422286e-02 1.65349431e-02 2.32646335e-02
      6.45082295e-02 1.38153419e-01 3.95445347e-01 1.93484053e-01
      2.40503699e-02 3.73640587e-03 1.78025104e-03 1.02240359e-02
      7.42544420e-03 4.38071899e-02 1.35409772e-01 3.95445347e-01
      1.49620920e-01 5.16172638e-03 1.30832684e-03 1.51987071e-03
      3.07480642e-03 4.45590907e-04 8.29998590e-03 2.27188468e-01
      3.86042565e-01 1.01130091e-01 9.23611782e-03 1.06008782e-03
      6.90850313e-04 2.68909149e-03 3.68639943e-04 2.05913163e-03
      2.91729331e-01 3.86042565e-01 1.07696161e-01 9.16060992e-03
      8.61885678e-03 3.27865500e-03 5.52666467e-03 9.05882288e-03
      2.47407202e-02 2.44012818e-01 3.86042565e-01 9.09725204e-02
      2.13198550e-02 1.00403847e-02 5.37781604e-03 1.80461735e-03
      1.21265221e-02 2.02970747e-02 3.86042565e-01 3.86042565e-01
      8.28901529e-02 1.09572979e-02 2.50423932e-03 1.27616862e-03
      9.14530538e-04 2.22479785e-03 2.72910413e-03 2.58473724e-01
      3.87979895e-01 5.58404364e-02 5.53907221e-03 2.78839818e-03
      3.54797440e-03 1.96797634e-03 3.62348044e-03 5.88409556e-03
      1.95342302e-01 2.89121687e-01 1.33489847e-01 3.89256030e-02
      6.77491631e-03 5.65178413e-03 1.31771597e-03 4.45425883e-03
      1.70407034e-02 3.87979895e-01 3.87979895e-01 1.25381649e-01
      4.40694243e-02 2.10449528e-02 8.66929814e-03 2.02998309e-03
      2.07763049e-03 8.23221505e-02 3.87979895e-01 3.87979895e-01
      3.99896577e-02 5.35719376e-03 2.97570904e-03 3.10927443e-03
      2.83776107e-03 2.54944572e-03 6.74122898e-03 1.47353098e-01
      2.32544899e-01 2.40349248e-02 5.55487210e-03 4.07685572e-03
      4.14752262e-03 6.10990776e-03 4.60154423e-03 9.53408610e-03
      9.70053375e-02 1.13316856e-01 8.56389031e-02 3.71440277e-02
      2.46663801e-02 1.02815973e-02 1.54886616e-03 5.09228371e-03
      2.05027223e-01 4.66303915e-01 4.66303915e-01 7.02095926e-02
      2.66774073e-02 1.03035839e-02 1.88692901e-02 7.96947721e-03
      1.65992733e-02 1.29940614e-01 4.66303915e-01 4.09470409e-01
      4.77131605e-02 6.27014786e-03 7.79647799e-03 8.38280004e-03
      2.28261184e-02 1.10915517e-02 3.60426977e-02 1.99490041e-01
      1.75728321e-01 5.49121760e-02 2.14894023e-02 2.67684422e-02
      8.56828410e-03 3.89934145e-02 1.33146001e-02 3.85831818e-02
      1.48744211e-01 1.28869176e-01 1.79362759e-01 4.67024073e-02
      1.83794182e-02 3.08619794e-02 3.17406990e-02 4.18043844e-02
      2.02519789e-01 4.47907835e-01 4.47907835e-01 1.86417982e-01
      2.54810266e-02 2.23797634e-02 1.59138236e-02 6.25488535e-02
      2.80028731e-02 1.05118394e-01 4.22518045e-01 4.03975219e-01
      1.20496586e-01 9.38401967e-02 8.32730904e-02 2.74818763e-02
      8.69813487e-02 2.99862251e-02 4.35144491e-02 1.61555469e-01
      1.67720005e-01 1.44984230e-01 1.47274300e-01 1.34854272e-01
      7.11182058e-02 1.54343531e-01 1.11968786e-01 9.06438306e-02
      7.31951445e-02 1.06899649e-01 1.60678446e-01 4.87340018e-02
      4.86235581e-02 2.98458561e-02 8.69433284e-02 3.89400385e-02
      1.67739525e-01 4.88777250e-01 4.50729609e-01 1.81007206e-01
      9.23247039e-02 6.34330586e-02 5.73703554e-03 1.18556708e-01
      1.24879166e-01 1.58530936e-01 3.07489425e-01 2.58464962e-01
      7.01641589e-02 3.59363481e-02 2.97653507e-02 3.17257680e-02
      1.96346994e-02 2.71799192e-02 2.31065620e-02 3.61951143e-02
      5.69020770e-02 1.29786745e-01 3.00977051e-01 1.40830338e-01
      2.41915490e-02 2.13159509e-02 1.72812901e-02 3.37264910e-02
      2.79584453e-02 5.17587215e-02 7.45514482e-02 2.14333951e-01
      4.52966630e-01 6.54831529e-02 1.77403688e-02 1.91077441e-02
      2.26575099e-02 1.26642520e-02 3.73516828e-02 2.10470244e-01
      5.11082172e-01 5.11082172e-01 1.11588642e-01 1.45698823e-02
      5.04828896e-03 1.30313700e-02 1.57897603e-02 6.20655380e-02
      7.84975216e-02 4.02573973e-01 1.00009024e-01 8.96584429e-03
      2.66620517e-03 3.20966565e-03 1.48847923e-02 6.72267377e-03
      1.70108173e-02 1.85184568e-01 4.02573973e-01 1.22336134e-01
      1.01025281e-02 1.73900079e-03 4.63170977e-03 1.32034877e-02
      1.14744483e-02 2.77532972e-02 1.56669840e-01 4.02573973e-01
      4.02573973e-01 3.92135046e-02 4.01258375e-03 7.02393427e-03
      4.30603698e-02 3.24307382e-02 4.52863239e-02 1.53110653e-01
      4.02573973e-01 2.19066814e-01 3.77732962e-02 8.80151801e-03
      1.78085621e-02 6.45656660e-02 7.37387985e-02 6.63575083e-02
      3.91217709e-01 4.14285809e-01 8.63187760e-02 5.71139529e-03
      1.24391983e-03 8.51958524e-03 1.06741199e-02 1.30688632e-02
      5.89355528e-02 4.14285809e-01 4.14285809e-01 1.22820996e-01
      1.09882187e-02 2.87579559e-03 1.27951205e-02 1.47649972e-02
      1.63337309e-02 1.79126114e-01 1.15927100e-01 4.14285809e-01
      7.54922628e-02 1.49121722e-02 8.77055805e-03 2.04489306e-02
      3.45233008e-02 5.73164746e-02 6.67058453e-02 1.05823837e-01
      2.15220332e-01 4.00773399e-02 1.64595749e-02 1.25729097e-02
      3.46048884e-02 4.37658690e-02 3.70233990e-02 6.47690147e-02
      4.22049820e-01 4.22049820e-01 1.44162089e-01 1.44117372e-02
      3.53457686e-03 9.99398716e-03 4.41083424e-02 5.74345775e-02
      3.22620422e-01 4.22049820e-01 4.22049820e-01 1.01861455e-01
      1.75394677e-02 4.42260411e-03 6.27298933e-03 8.96253660e-02
      9.32183191e-02 1.82598978e-01 8.55542049e-02 1.36318415e-01
      6.13321736e-02 2.24787593e-02 2.21458804e-02 3.61002721e-02
      6.71829134e-02 5.09483442e-02 8.96500051e-02 9.14149880e-02
      1.12047911e-01 6.34940192e-02 2.11642776e-02 1.60619747e-02
      2.08516046e-02 7.01025873e-02 7.60586858e-02 9.02740732e-02
      3.18470389e-01 2.11763263e-01 9.57023352e-02 5.49515858e-02
      9.55984816e-02 5.09956339e-03 5.90523742e-02 7.25328848e-02
      1.06072828e-01 3.20311993e-01 3.20311993e-01 1.08601823e-01
      8.81709680e-02 2.36308753e-01 1.34077435e-02 1.00426309e-01
      3.20311993e-01 3.20311993e-01 6.98843747e-02 5.08196205e-02
      4.47655059e-02 3.46173123e-02 5.02500050e-02 2.07140949e-02
      5.58883324e-02 6.64416328e-02 8.28485489e-02 1.90918535e-01
      7.67546892e-02 4.13854867e-02 5.53148836e-02 1.13874361e-01
      3.89313959e-02 1.35253295e-01 3.20311993e-01 3.20311993e-01
      2.88883775e-01 1.50101408e-01 1.10036433e-02 1.01754246e-02
      3.58770080e-02 7.47862365e-03 5.62657192e-02 2.60967642e-01
      2.88883775e-01 2.88883775e-01 1.04807280e-01 5.76748792e-03
      1.90569763e-03 2.95191281e-03 1.59285925e-02 1.07564710e-01
      1.78977132e-01 2.88883775e-01 1.21392012e-01 2.17639394e-02
      4.21516877e-03 1.39277978e-02 3.58079374e-02 5.52261695e-02
      1.71226397e-01 2.88883775e-01 2.88883775e-01 8.94993767e-02
      9.79024917e-03 5.15615009e-03 1.65360421e-02 1.83237404e-01
      2.39018768e-01 2.88883775e-01 2.88883775e-01 1.76192224e-01
      3.45253110e-01 4.45732735e-02 1.72492675e-02 9.46804415e-03
      5.36809489e-03 1.76928733e-02 6.16911538e-02 6.98882863e-02
      3.45253110e-01 3.45253110e-01 8.54228213e-02 9.03021246e-02
      4.68277186e-02 1.15854777e-02 1.04929935e-02 3.85984778e-03
      2.16656923e-02 3.45253110e-01 7.42001757e-02 1.43970083e-02
      3.00020315e-02 5.26663810e-02 2.51963139e-01 2.50673980e-01
      2.08370641e-01 1.33913741e-01 5.88173084e-02 8.75935405e-02
      1.14354350e-01 3.45253110e-01 3.45253110e-01 1.65215820e-01
      2.43251286e-02 1.68585479e-02 1.55400466e-02 4.34687883e-02
      2.94449747e-01 2.31150359e-01 9.67599079e-02 3.32452320e-02
      1.16086518e-02 5.56051731e-03 1.57185784e-03 8.85411724e-03
      2.94449747e-01 2.94449747e-01 2.94449747e-01 6.81402460e-02
      1.77975856e-02 1.79940108e-02 5.46571845e-03 8.44077766e-03
      6.73433170e-02 2.94449747e-01 1.36483237e-01 2.94449747e-01
      2.94449747e-01 2.68094927e-01 8.25413465e-02 7.69098988e-03
      1.09279556e-02 1.00117661e-02 3.82646658e-02 2.94449747e-01
      2.94449747e-01 1.48801461e-01 7.39528090e-02 4.88470681e-02
      8.70091468e-03 1.87112968e-02 2.71528549e-02 1.11662455e-01
      3.17839205e-01 3.17839205e-01 1.54380828e-01 1.06738992e-01
      1.39413267e-01 4.54918072e-02 7.99637139e-02 2.36380383e-01
      3.17839205e-01 1.57055259e-01 1.88867390e-01 1.30248338e-01
      1.20620951e-01 1.53241798e-01 8.82734656e-02 1.50682822e-01
      1.32324785e-01 1.40842661e-01 3.17839205e-01 3.17839205e-01
      1.10167116e-01 6.15272038e-02 8.77486318e-02 2.05563009e-02
      4.02351245e-02 9.29250270e-02 2.29320094e-01 1.68043435e-01
      1.43974036e-01 8.53341371e-02 7.55695477e-02 9.12008137e-02
      5.85360974e-02 6.04307987e-02 8.53508785e-02 1.34193376e-01
      2.19754770e-01 1.17457516e-01 9.43158418e-02 8.04956928e-02
      1.77941099e-01 1.61462218e-01 2.91047215e-01 2.25856543e-01
      2.09584981e-01 1.47256792e-01 4.97007556e-02 4.43877056e-02
      9.38617159e-03 1.27869859e-01 5.63082956e-02 1.84835434e-01
      2.28141353e-01 2.25618437e-01 2.52041191e-01 1.72198489e-01
      1.59052357e-01 1.35988057e-01 2.37905294e-01 1.96992099e-01
      1.71440586e-01 1.70194075e-01 1.69350177e-01 1.39281109e-01
      8.73015374e-02 1.15826257e-01 4.09834795e-02 1.74566194e-01
      1.33509189e-01 1.89288557e-01 1.76718593e-01 1.49426639e-01
      1.29448265e-01 4.04006951e-02 3.89453694e-02 1.79995801e-02
      6.07404374e-02 6.58400804e-02 1.47792697e-01 2.09756032e-01
      3.20770174e-01 2.43707001e-01 1.61023095e-01 6.45576194e-02
      3.39882262e-02 1.59249660e-02 7.81991333e-02 1.28622070e-01
      3.62741202e-01 3.62741202e-01 1.59908548e-01 7.33651668e-02
      5.03214411e-02 6.44392297e-02 8.31536800e-02 6.47243112e-02
      1.39365748e-01 1.22209251e-01 1.82913795e-01 2.93513119e-01
      2.14884818e-01 9.31447819e-02 7.08857328e-02 2.32339222e-02
      6.16954267e-02 1.01033442e-01 1.97732195e-01 3.26242208e-01
      2.18748838e-01 1.17201492e-01 3.19576524e-02 2.40099970e-02
      1.22349029e-02 1.89670343e-02 6.50852621e-02 4.06464964e-01
      4.06464964e-01 2.09565759e-01 1.00968212e-01 5.76648004e-02
      3.94837856e-02 3.14921252e-02 1.94399506e-02 2.35435098e-01
      4.06464964e-01 4.06464964e-01 1.27268866e-01 1.01997584e-01
      4.78248075e-02 2.15813927e-02 2.11653728e-02 3.59720476e-02
      7.05991238e-02 1.43783286e-01 1.52379826e-01 9.68641639e-02
      5.95056526e-02 3.93091850e-02 3.32282372e-02 7.90514201e-02
      3.89451794e-02 1.07110068e-01 1.56505957e-01 1.09905265e-01
      5.56413196e-02 2.51550488e-02 1.62040628e-02 9.34637617e-03
      9.18343011e-03 5.47470246e-03 1.79511338e-01 4.04411376e-01
      3.89610082e-01 5.38867116e-02 1.79916397e-02 2.81143119e-03
      5.28446818e-03 6.89817499e-03 6.99157454e-03 2.41544291e-01
      4.04411376e-01 3.41649592e-01 4.69362102e-02 2.61021424e-02
      1.78198703e-02 1.54100303e-02 2.71119624e-02 1.25125423e-02
      6.40803576e-02 1.86398059e-01 8.24154764e-02 6.42545745e-02
      3.35460827e-02 1.22089507e-02 1.68380570e-02 2.92939451e-02
      3.65509912e-02 2.16127440e-01 4.04411376e-01 1.84682190e-01
      3.52931209e-02 1.06080221e-02 2.78937118e-03 2.16268143e-03
      6.88412134e-03 8.19556601e-03 2.29795530e-01 3.82062167e-01
      1.53817743e-01 3.40089686e-02 4.88407677e-03 3.98352090e-03
      2.03912100e-03 9.61177144e-03 5.65148797e-03 1.31934777e-01
      3.31309646e-01 1.16024844e-01 4.94555011e-02 1.81378163e-02
      4.62860707e-03 9.44852550e-03 3.47147509e-02 4.99714762e-02
      3.82062167e-01 3.82062167e-01 1.32992446e-01 3.42842303e-02
      6.65539550e-03 2.55086692e-03 3.65820434e-03 1.41817341e-02
      7.79564455e-02 3.82062167e-01 3.82062167e-01 1.20923437e-01
      4.54872958e-02 4.87188436e-03 4.07953467e-03 3.86766647e-03
      1.19636338e-02 6.10325439e-03 1.23189338e-01 3.41412574e-01
      1.99127153e-01 7.27461949e-02 2.43376940e-02 7.62567157e-03
      7.76710149e-05 5.86016104e-03 8.91377125e-03 5.80063984e-02
      1.58100858e-01 1.28616750e-01 5.04643358e-02 6.06165221e-03
      1.00025451e-02 4.62673279e-03 5.75102540e-03 2.16983780e-01
      4.16861027e-01 4.16861027e-01 2.41148785e-01 1.03645258e-01
      1.79348085e-02 4.77429340e-03 1.99605781e-03 5.73503878e-03
      8.10418576e-02 2.61748910e-01 4.16861027e-01 2.35978752e-01
      2.48000585e-02 1.45807236e-01 3.02228749e-01 1.49329618e-01
      4.58745360e-02 3.12631624e-03 5.21675916e-03 5.82141709e-03
      1.43784108e-02 6.21610731e-02 3.02228749e-01 3.02228749e-01
      1.67414919e-01 4.56700511e-02 1.47375965e-03 1.52395926e-02
      6.42876178e-02 7.91057572e-02 1.13054425e-01 3.02228749e-01
      3.02228749e-01 3.02228749e-01 1.34535491e-01 1.26413284e-02
      7.67005887e-03 2.68274285e-02 3.01388782e-02 1.04442939e-01
      2.32706517e-01 3.02228749e-01 3.02228749e-01 1.49110869e-01
      1.05350064e-02 5.02733253e-02 1.60306364e-01 1.63476884e-01
      1.51857466e-01 3.11934501e-01 3.11934501e-01 7.71674588e-02
      2.94275824e-02 1.59074664e-02 8.27208608e-02 1.89139202e-01
      2.02009097e-01 9.66866389e-02 2.35819921e-01 1.01159357e-01
      3.40865478e-02 2.39225924e-02 3.36108468e-02 1.32849902e-01
      2.67796308e-01 1.61990300e-01 1.06754802e-01 7.60084540e-02
      9.03599039e-02 6.50202483e-02 7.22470731e-02 3.04586366e-02
      1.47035241e-01 3.11934501e-01 3.11934501e-01 4.05167527e-02
      1.98861547e-02 6.39038580e-03 1.21980328e-02 2.69147642e-02
      3.42260227e-02 2.10686803e-01 3.11934501e-01 3.11934501e-01
      5.44005036e-02 9.39924866e-02 4.05512452e-02 2.20918246e-02
      2.17247978e-02 4.66910601e-02 1.69156238e-01 3.72696161e-01
      1.72456831e-01 5.47620542e-02 5.59369251e-02 4.68465425e-02
      3.82778719e-02 3.03535014e-02 7.69245699e-02 1.58880860e-01
      2.20302746e-01 1.28929570e-01 5.52816167e-02 3.00896354e-02
      2.83590797e-03 2.19512638e-02 1.33135598e-02 4.92460839e-02
      3.03294212e-01 3.72696161e-01 3.56807500e-01 9.10422280e-02
      3.82300392e-02 1.66731384e-02 2.46459376e-02 1.28229167e-02
      5.79180047e-02 2.86930203e-01 3.72696161e-01 2.73447931e-01
      8.79884958e-02 1.11715242e-01 8.97596925e-02 8.12871084e-02
      6.22987859e-02 8.56684744e-02 1.55937240e-01 1.46109790e-01
      1.09255657e-01 1.54053554e-01 1.31340474e-01 1.58007979e-01
      8.88101831e-02 1.11996204e-01 3.41611430e-02 1.21104725e-01
      1.01170436e-01 1.13936365e-01 1.10713117e-01 7.05535039e-02
      4.37750779e-02 7.18671307e-02 2.74118204e-02 1.34081140e-01
      3.80310863e-01 3.80310863e-01 2.38767296e-01 1.58246443e-01
      8.53800476e-02 8.34021196e-02 1.05315834e-01 1.19115397e-01
      1.21382564e-01 3.80310863e-01 3.13415349e-01 2.35727921e-01
      1.85307637e-01 1.22943625e-01 1.49913087e-01 5.33664152e-02
      1.35297641e-01 5.10820411e-02 1.10060200e-01 1.12794563e-01
      1.49630964e-01 2.03580245e-01 1.17494233e-01 1.08557709e-01
      8.18950534e-02 1.39402851e-01 1.28824905e-01 3.02281797e-01
      3.00786436e-01 3.11712980e-01 1.61605343e-01 7.70201609e-02
      8.43235254e-02 6.10028952e-02 1.92604840e-01 8.76593143e-02
      1.37834534e-01 2.37115070e-01 2.23147660e-01 1.43185452e-01
      9.65522602e-02 1.23257548e-01 1.14691496e-01 1.73207387e-01
      1.24728002e-01 2.74316847e-01 2.19135910e-01 1.58637837e-01
      4.45959605e-02 1.46938004e-02 7.61496648e-03 3.64999883e-02
      9.49590802e-02 1.18205748e-01 1.59545049e-01 1.45191863e-01
      8.38282481e-02 2.63771135e-02 4.39715059e-03 3.35193262e-03
      8.93571302e-02 4.22174662e-01 4.22174662e-01 3.01851958e-01
      1.89133719e-01 4.98693176e-02 2.75076050e-02 1.62344594e-02
      2.67731845e-02 6.01636209e-02 1.61837339e-01 9.08791423e-02
      5.36011755e-02 4.33450863e-02 2.79882085e-02 1.21833459e-02
      4.91765235e-03 3.99317518e-02 1.27992496e-01 4.22174662e-01
      4.22174662e-01 2.44479794e-02 1.95340924e-02 1.24386102e-02
      2.80817482e-03 2.35713297e-03 1.24777453e-02 5.79494573e-02
      3.44732106e-01 2.63067186e-01 5.55461831e-02 2.79197786e-02
      4.69621690e-03 2.88767684e-02 3.68480496e-02 2.48227030e-01
      3.44732106e-01 3.44732106e-01 2.77565084e-02 6.75833179e-03
      5.60006080e-03 7.30687659e-03 9.05191191e-05 3.92250426e-04
      1.60678737e-02 9.32825208e-02 3.44732106e-01 3.43844920e-01
      2.05351319e-03 8.67259863e-04 8.59291526e-04 1.66866779e-02
      1.61042362e-02 1.05708092e-01 3.44732106e-01 3.44732106e-01
      5.72362505e-02 3.28644353e-04 5.24461677e-04 1.80310360e-03
      8.74107331e-02 1.30593643e-01 2.68010557e-01 2.70360261e-01
      2.44777963e-01 1.18283806e-02 9.05635674e-03 9.98170860e-03
      4.36790623e-02 2.70360261e-01 1.54294953e-01 1.08023793e-01
      6.67546093e-02 4.39042933e-02 1.11630801e-02 1.67900044e-02
      1.67158861e-02 2.63501674e-01 8.56723711e-02 1.28438607e-01
      2.05085278e-01 2.70360261e-01 2.70360261e-01 2.08902601e-02
      1.79514638e-03 2.62897625e-03 2.68536992e-02 2.70360261e-01
      2.49693021e-01 1.85302868e-01 2.19662726e-01 2.70360261e-01
      3.86868268e-02 2.59026866e-02 2.86172479e-02 2.70360261e-01
      2.79942244e-01 4.63498421e-02 3.34125124e-02 1.93182677e-02
      1.78922024e-02 1.21245924e-02 3.15769650e-02 8.95398930e-02
      2.79942244e-01 1.29670128e-01 2.73776222e-02 2.70923506e-02
      3.75220254e-02 3.71906199e-02 6.48697838e-02 9.45088938e-02
      1.71263546e-01 2.51783967e-01 2.79942244e-01 1.00994371e-01
      5.90161756e-02 1.23272516e-01 2.46878326e-01 1.24809377e-01
      1.36221662e-01 1.81747839e-01 2.79942244e-01 1.05394341e-01
      1.25627611e-02 1.79633740e-02 9.30740982e-02 2.79942244e-01
      2.79942244e-01 2.54179716e-01 2.58266866e-01 2.79942244e-01
      1.95554197e-01 8.94722641e-02 9.14328024e-02 1.17875747e-01
      1.56526744e-01 2.33402118e-01 2.33314946e-01 2.12702170e-01
      1.50091425e-01 1.40022457e-01 6.19173869e-02 4.59640212e-02
      2.80442629e-02 8.90034884e-02 9.51965526e-02 9.08219293e-02
      4.15588915e-02 1.19056672e-01 1.31131068e-01 5.01236059e-02
      9.01840478e-02 2.09823161e-01 3.57745141e-01 3.57745141e-01
      3.57745141e-01 2.83933938e-01 1.41714856e-01 1.58773661e-01
      4.52646017e-02 4.88051772e-02 2.26275809e-02 1.06093869e-01
      1.15990587e-01 1.35964498e-01 6.68561682e-02 1.57916412e-01
      2.39526823e-01 1.00060672e-01 8.68362188e-02 9.29421932e-02
      1.36655882e-01 7.10942596e-02 9.02811065e-02 7.38932863e-02
      2.45501563e-01 2.43888423e-01 2.89566010e-01 2.29358718e-01
      1.33905709e-01 1.04322597e-01 6.09711297e-02 7.14368522e-02
      1.25844091e-01 2.36132786e-01 2.48366535e-01 1.15333885e-01
      1.48113087e-01 4.70300578e-02 1.86403245e-01 7.02097192e-02
      1.03015244e-01 1.25817075e-01 2.34778166e-01 2.17691213e-01
      2.20142886e-01 2.55198151e-01 9.54610407e-02 2.60725975e-01
      5.74490838e-02 7.26927370e-02 1.11932926e-01 1.75622061e-01
      1.64680511e-01 2.23947927e-01 2.02378109e-01 6.64549395e-02
      5.34587391e-02 5.73330522e-02 1.22198574e-01 2.35643342e-01
      2.06228107e-01 1.41850188e-01 8.91993940e-02 8.08964893e-02
      4.68795337e-02 1.19581789e-01 7.23620057e-02 2.06590891e-01
      2.93864787e-01 1.87463358e-01 2.08586276e-01 1.66915193e-01
      1.93604916e-01 6.08226769e-02 1.63828880e-01 7.70931914e-02
      1.36339203e-01 1.23922653e-01 1.95024550e-01 1.88489094e-01
      1.47222549e-01 1.08546682e-01 9.39086676e-02 2.06966564e-01
      1.30670533e-01 2.31802940e-01 2.35977784e-01 2.64368057e-01
      1.41600519e-01 6.30125254e-02 5.63128144e-02 6.16636127e-02
      1.10362358e-01 6.55362606e-02 1.42090812e-01 1.53997406e-01
      1.57668397e-01 2.22882017e-01 1.35030955e-01 9.07154828e-02
      1.13445692e-01 1.76471725e-01 1.98158666e-01 2.26750672e-01
      3.33268434e-01 2.72730827e-01 1.56642869e-01 1.14447810e-01
      9.94416252e-02 1.19272374e-01 2.23098576e-01 9.76454839e-02
      1.42796397e-01 1.25337481e-01 2.13061705e-01 1.73003092e-01
      1.70452252e-01 1.53855383e-01 1.56312838e-01 3.33268434e-01
      1.03418827e-01 8.67250264e-02 1.13323376e-01 1.79953814e-01
      5.89902699e-02 3.06575056e-02 1.95353888e-02 2.30594277e-02
      5.56798987e-02 9.40400362e-02 2.93938220e-01 3.39636028e-01
      8.86401236e-02 3.84194665e-02 1.67546179e-02 7.87738431e-03
      1.26073044e-02 7.23052248e-02 3.57958466e-01 3.57958466e-01
      3.57958466e-01 8.79400671e-02 5.40232174e-02 4.53430042e-02
      3.06611434e-02 2.87364144e-02 1.05051599e-01 4.07214463e-02
      5.37819415e-02 6.47812039e-02 5.45640141e-02 6.22524954e-02
      4.98749539e-02 4.96310741e-02 6.05863743e-02 2.07376137e-01
      3.57958466e-01 3.57958466e-01 1.60076633e-01 5.74441105e-02
      9.44553968e-03 3.98734910e-03 5.37468726e-03 5.71808312e-03
      5.31249233e-02 3.18764657e-01 3.18764657e-01 2.80269533e-01
      3.77474725e-02 1.65259913e-02 1.35409355e-03 4.31351690e-03
      3.12902872e-03 3.03009059e-02 1.86492160e-01 2.23742157e-01
      1.35619640e-01 5.45065776e-02 2.90647261e-02 1.53473746e-02
      2.21885722e-02 3.89440693e-02 3.18764657e-01 3.18764657e-01
      3.18764657e-01 9.13664699e-02 2.20304448e-02 9.12779011e-03
      7.76071509e-04 8.88611842e-03 3.11530679e-02 3.18764657e-01
      3.18764657e-01 2.77410269e-01 6.97050244e-02 1.66610461e-02
      1.27607957e-01 3.00429881e-01 3.00429881e-01 3.00429881e-01
      3.00429881e-01 9.84823778e-02 3.13587934e-02 3.80059406e-02
      4.96644191e-02 1.34252056e-01 2.14484408e-01 1.40451849e-01
      2.47237936e-01 1.48389578e-01 6.80251941e-02 9.57458913e-02
      1.52394697e-01 1.56482294e-01 3.35972197e-02 7.59490207e-02
      2.31628731e-01 2.74129242e-01 3.00429881e-01 2.34602585e-01
      3.77836861e-02 1.77176166e-02 3.94507609e-02 8.76473412e-02
      8.05705488e-02 8.86347443e-02 8.27233419e-02 1.61290765e-01
      1.32385090e-01 7.03564137e-02 8.29553008e-02 9.02663246e-02
      1.16343319e-01 5.26547469e-02 5.14199734e-02 3.92515846e-02
      9.28958133e-02 1.11817062e-01 2.64207929e-01 3.11382502e-01
      2.53040910e-01 5.12562916e-02 9.23914276e-03 2.07663197e-02
      6.21681707e-03 4.59501967e-02 7.50334337e-02 3.11382502e-01
      3.11382502e-01 3.11382502e-01 1.01358883e-01 6.45228103e-02
      4.83360812e-02 3.20955329e-02 9.17525515e-02 1.19547762e-01
      2.02464029e-01 1.92687467e-01 1.28156066e-01 1.08521298e-01
      2.71192901e-02 2.34597158e-02 2.35437248e-02 4.64715362e-02
      7.68339857e-02 2.81357080e-01 3.11382502e-01 2.99681097e-01
      4.68394570e-02 6.48459746e-03 0. 7.28161167e-03 2.18365788e-02
      3.32039930e-02 2.14620411e-01 3.56673986e-01 2.57489860e-01
      5.51679842e-02 1.67342834e-02 5.75578120e-03 7.01058470e-03
      1.41736707e-02 3.58932912e-02 1.70743883e-01 3.56673986e-01
      1.86222598e-01 6.99936897e-02 1.02778934e-02 1.01948380e-02
      5.63279493e-03 2.22495459e-02 5.12055233e-02 2.70527303e-01
      3.56673986e-01 2.58216709e-01 5.46174832e-02 1.35157844e-02
      1.26459822e-02 6.75402675e-03 3.39183100e-02 4.13307473e-02
      2.95328647e-01 3.56673986e-01 2.47073591e-01 3.73860486e-02
      1.68574844e-02 1.41092101e-02 1.38530191e-02 8.34817346e-03
      7.71902800e-02 3.07728797e-01 3.24551225e-01 1.57795489e-01
      4.64719981e-02 8.13219510e-03 9.07478668e-03 1.89914685e-02
      1.01609761e-02 7.24667683e-02 2.62516022e-01 3.24551225e-01
      2.04753026e-01 4.52063531e-02 1.45145971e-02 1.45351952e-02
      1.01074986e-02 2.14962736e-02 3.64054888e-02 2.73821324e-01
      3.24551225e-01 2.67607719e-01 3.85961011e-02 6.27765711e-03
      1.11577567e-02 1.80638805e-02 8.66047479e-03 3.26790176e-02
      3.07886869e-01 3.24551225e-01 2.82842308e-01 7.19686300e-02
      1.20690987e-02 1.46490010e-02 3.19000669e-02 4.43670116e-02
      6.75751045e-02 1.40626803e-01 3.35862130e-01 2.48865172e-01
      7.58851618e-02 4.05938067e-02 5.39796054e-02 8.79964307e-02
      6.95604533e-02 1.06831051e-01 1.91901565e-01 2.22766742e-01
      1.07534483e-01 6.54551238e-02 1.55746751e-02 1.66581795e-02
      4.32821549e-02 4.35673706e-02 5.21843098e-02 3.35862130e-01
      3.35862130e-01 2.86659181e-01 1.01640753e-01 5.53362332e-02
      2.85424925e-02 7.05056936e-02 1.66702896e-01 2.00182572e-01
      3.35862130e-01 3.35862130e-01 1.58054292e-01 2.32014842e-02
      1.58524252e-02 3.00599840e-02 7.46954381e-02 1.59672022e-01
      8.84432644e-02 5.41067757e-02 4.54664268e-02 2.34525613e-02
      1.00043165e-02 5.90376137e-03 3.46934386e-02 1.23383723e-01
      4.43831354e-01 4.43831354e-01 3.61388288e-02 1.54672321e-02
      1.10582504e-02 3.26963663e-02 1.80663057e-02 1.59169883e-02
      5.74121587e-02 1.43422976e-01 1.10944405e-01 8.45502838e-02
      5.73634245e-02 3.02311964e-02 2.42300481e-02 1.07522653e-02
      2.16151029e-02 9.96542424e-02 4.43831354e-01 4.43831354e-01
      2.83027828e-01 5.00398241e-02 1.92475356e-02 2.02685071e-04
      7.80965274e-05 7.33590312e-03 6.99151009e-02 3.55194896e-01
      3.35082024e-01 7.43633183e-03 2.27750003e-04 2.02685071e-04
      3.73908458e-03 3.21858865e-03 2.66771652e-02 2.95237869e-01
      3.55194896e-01 8.04086179e-02 1.09070800e-02 3.18700168e-03
      7.90956605e-04 5.96438209e-03 7.51754793e-04 5.27149113e-03
      3.71154025e-02 3.55194896e-01 3.55194896e-01 1.15550995e-01
      6.69502541e-02 4.05732803e-02 1.28606781e-01 2.86765229e-02
      2.21449453e-02 1.40449643e-01 3.55194896e-01 1.96983457e-01
      9.51775834e-02 1.15433216e-01 1.84860528e-01 1.75984725e-02
      3.40047665e-02 7.62226060e-02 3.16915095e-01 3.37349087e-01
      3.92268300e-02 1.48462346e-02 4.85171191e-03 4.04467015e-03
      1.57840878e-01 1.05473444e-01 1.07025206e-01 3.06571931e-01
      3.37349087e-01 9.91051495e-02 3.78999896e-02 3.45747955e-02
      8.90484005e-02 1.51325747e-01 5.84973395e-02 5.88943511e-02
      1.82397440e-01 3.37349087e-01 7.28661343e-02 6.94181025e-02
      6.04559109e-02 1.34593606e-01 2.42807686e-01 7.20435753e-02
      5.27075641e-02 1.53294310e-01 3.37349087e-01 1.32171854e-01
      7.46095181e-02 1.00447059e-01 2.27008760e-01 1.44275606e-01
      6.25961870e-02 5.12670763e-02 2.39930183e-01 3.13483298e-01
      1.47314340e-01 7.69621581e-02 6.86963797e-02 1.44387662e-01
      2.02190727e-02 1.06789740e-02 2.37528030e-02 2.63426423e-01
      3.13483298e-01 1.74662709e-01 8.79548565e-02 5.53501993e-02
      5.54832295e-02 3.13483298e-01 1.50142252e-01 8.71797726e-02
      2.00399697e-01 3.13483298e-01 9.61378366e-02 3.69016491e-02
      5.03690764e-02 1.75590560e-01 1.08198382e-01 1.06386170e-01
      1.14385210e-01 3.13483298e-01 3.13483298e-01 5.53062521e-02
      2.05509979e-02 7.97704514e-03 1.79292094e-02 2.57366430e-02
      1.25323851e-02 7.73265213e-02 4.14425462e-01 4.14425462e-01
      3.44329029e-01 1.56947821e-01 6.74842671e-02 3.86034288e-02
      7.18070641e-02 2.53976397e-02 5.10315634e-02 3.59551013e-02
      8.48848820e-02 9.51454714e-02 8.73620808e-02 5.73754385e-02
      8.50501135e-02 3.72278318e-02 6.57515079e-02 1.62331596e-01
      4.14425462e-01 4.14425462e-01 1.26025498e-01 5.06904833e-02
      4.70546558e-02 2.62266975e-02 8.13597068e-02 9.55886766e-02
      9.52794403e-02 8.51211995e-02 1.01188578e-01 4.96703163e-02
      4.86003384e-02 5.03806360e-02 7.49172419e-02 1.73752159e-01
      9.21809375e-02 1.45035192e-01 4.73354682e-02 1.49121106e-01
      7.09403604e-02 1.03796624e-01 1.38140202e-01 1.68357641e-01
      2.36397833e-01 1.33890733e-01 1.71922415e-01 7.99757913e-02
      1.96643278e-01 4.51885834e-02 8.84905159e-02 2.00677559e-01
      2.52780288e-01 1.94250479e-01 1.15093000e-01 1.45709440e-01
      8.25603083e-02 1.14200182e-01 3.92869189e-02 1.40734807e-01
      1.70429468e-01 2.22523257e-01 2.97017485e-01 1.01281822e-01
      7.40909651e-02 3.66598368e-02 1.11388914e-01 2.76061352e-02
      2.24090010e-01 3.36195439e-01 3.36195439e-01 2.51548767e-01
      1.28682241e-01 8.02393109e-02 2.44283713e-02 9.07311812e-02
      9.84372869e-02 9.58593264e-02 1.24732584e-01 2.19403937e-01
      1.94005772e-01 1.53196111e-01 9.15598348e-02 4.95550148e-02
      1.66017547e-01 1.23043016e-01 1.12352595e-01 1.21771105e-01
      2.08181292e-01 3.11400771e-01 1.51630908e-01 5.55330738e-02
      1.58828925e-02 6.31733611e-02 5.95045164e-02 9.96827781e-02
      2.32558995e-01 3.11400771e-01 3.11400771e-01 1.88521102e-01
      2.01414451e-01 5.46427630e-02 1.72622532e-01 6.20171577e-02
      7.99611881e-02 1.69934183e-01 3.11400771e-01 1.68979675e-01
      2.02709988e-01 1.83328927e-01 1.08318254e-01 2.04903796e-01
      5.99815734e-02 7.84961134e-02 8.11140314e-02 1.81213170e-01
      1.79269642e-01 2.04365775e-01 1.95671201e-01 1.24967016e-01
      2.23738223e-01 3.83408852e-02 5.89314178e-02 6.69331551e-02
      1.50273472e-01 2.41504893e-01 1.87419429e-01 2.61909485e-01
      8.05483460e-02 2.86318958e-01 5.07396683e-02 9.92905572e-02
      1.54198214e-01 2.13372171e-01 1.86585307e-01 1.13908410e-01
      1.93298250e-01 6.59923777e-02 2.10379869e-01 1.05772853e-01
      1.46140233e-01 2.03948855e-01 2.01220036e-01 9.98016670e-02
      7.65759796e-02 4.98887226e-02 4.04651538e-02 1.51077092e-01
      3.59067507e-02 3.62032428e-02 4.37801145e-02 8.30507502e-02
      1.37787089e-01 8.68464336e-02 1.68014079e-01 2.28607610e-01
      3.64687204e-01 3.30308467e-01 2.04560339e-01 5.49707673e-02
      9.01196599e-02 8.39455575e-02 4.45097722e-02 8.20300728e-02
      5.40635549e-02 6.56986907e-02 8.90158117e-02 1.02511764e-01
      8.61077234e-02 1.03288502e-01 1.20878875e-01 1.56915128e-01
      3.64687204e-01 3.64687204e-01 3.64687204e-01 1.53792858e-01
      1.07764266e-01 4.40524146e-02 7.15472996e-02 3.37498076e-02
      1.18479654e-02 7.19365403e-02 1.32877469e-01 3.17536145e-01
      3.04913789e-01 1.21336348e-01 1.93193834e-02 1.61003135e-02
      8.33533797e-03 1.50868157e-03 3.37967463e-02 1.41211987e-01
      3.17536145e-01 2.48269722e-01 7.54491761e-02 2.11276151e-02
      5.60082356e-03 2.41698436e-02 4.18979116e-02 3.17536145e-01
      3.17536145e-01 3.17536145e-01 7.59818181e-02 1.32848406e-02
      2.85733840e-03 4.06634063e-03 6.65431423e-03 1.63615253e-02
      2.36169010e-01 3.17536145e-01 3.17536145e-01 7.21677616e-02
      2.34781206e-03 1.72320011e-04 2.47741747e-03 4.63402271e-02
      8.27908665e-02 1.89032182e-01 1.61430806e-01 3.44938517e-01
      3.35779995e-01 1.14703916e-01 1.17637599e-02 2.50255894e-02
      7.82886297e-02 6.80980161e-02 9.52296257e-02 5.99784516e-02
      1.20479926e-01 1.01300277e-01 1.00020282e-01 5.87097295e-02
      4.28553633e-02 9.21864435e-02 7.59215057e-02 6.07547909e-02
      1.15723141e-01 3.44938517e-01 3.44938517e-01 3.44938517e-01
      1.86643615e-01 5.79890013e-02 1.03539027e-01 7.64829665e-02
      1.32245392e-01 1.12025701e-01 1.61006302e-01 1.65877372e-01
      2.65363902e-01 1.24342896e-01 6.47411346e-02 1.74130693e-01
      1.17990896e-01 1.43649191e-01 1.10231496e-01 1.12266444e-01
      8.54586139e-02 1.56175852e-01 1.82344541e-01 1.50142536e-01
      1.94319934e-01 8.05177540e-02 7.28591084e-02 7.46651068e-02
      6.75374046e-02 1.06422573e-01 2.78181344e-01 3.19508851e-01
      3.11302274e-01 1.65346771e-01 1.81183264e-01 2.95397729e-01
      2.43388683e-01 1.68562725e-01 1.14329182e-01 1.52728885e-01
      1.47209361e-01 1.05411313e-01 1.82921469e-01 1.64174899e-01
      1.53514758e-01 9.85959172e-02 7.47240111e-02 7.63653368e-02
      1.08177334e-01 1.28201976e-01 1.86498240e-01 9.52337608e-02
      3.42013165e-02 3.69510129e-02 1.36782518e-02 2.23957580e-02
      7.22600669e-02 3.02309930e-01 3.47285479e-01 2.62979478e-01
      7.01571032e-02 1.83618609e-02 2.72181891e-02 1.12995896e-02
      3.63789797e-02 4.83881794e-02 3.47285479e-01 3.47285479e-01
      2.88313001e-01 1.30736500e-01 8.68045017e-02 6.91949055e-02
      2.91146450e-02 2.04214379e-02 2.48567276e-02 9.48713869e-02
      1.21916063e-01 1.74836770e-01 1.17709808e-01 4.92094457e-02
      5.02534062e-02 7.82796089e-03 3.81550901e-02 2.86499318e-02
      3.47285479e-01 3.14712942e-01 1.92888767e-01 2.18034592e-02
      1.14857331e-02 6.16010977e-03 4.70897323e-03 1.49289081e-02
      2.77605951e-02 3.08859408e-01 3.19501311e-01 1.95066690e-01
      3.32515426e-02 2.08418407e-02 5.88798057e-03 1.06874192e-02
      1.43112577e-02 3.07246279e-02 2.53139079e-01 3.19501311e-01
      3.00943464e-01 3.37805785e-02 1.39677050e-02 9.80878808e-03
      1.06212345e-03 2.74131112e-02 2.78320387e-02 3.15967053e-01
      3.19501311e-01 1.42722562e-01 6.00605384e-02 3.77708785e-02
      1.40462462e-02 1.00915618e-02 1.86144095e-02 1.89573951e-02
      2.54182011e-01 3.19501311e-01 3.19501311e-01 7.32071474e-02
      3.28691080e-02 3.04434132e-02 4.88502011e-02 6.28830045e-02
      3.31497379e-02 2.33669966e-01 2.94084042e-01 1.98970005e-01
      6.43212944e-02 6.55505732e-02 7.85255656e-02 1.68556184e-01
      2.84363896e-01 1.26867726e-01 1.76571235e-01 1.76692367e-01
      7.23741651e-02 1.20623991e-01 1.59792513e-01 1.18402384e-01
      7.22473189e-02 4.71809134e-02 1.75268203e-02 1.02248974e-01
      2.94084042e-01 2.94084042e-01 6.91719279e-02 2.64142036e-01
      2.91489035e-01 2.94084042e-01 2.94084042e-01 5.49221560e-02
      3.89077961e-02 6.64042309e-02 8.52063298e-02 3.06550693e-02
      4.48999628e-02 6.24099448e-02 1.52745292e-01 2.57637680e-01
      1.03152335e-01 9.91451889e-02 5.73243052e-02 1.76140703e-02
      6.23371974e-02 4.55626510e-02 8.34079087e-02 8.41341391e-02
      3.09696645e-01 3.09696645e-01 3.09696645e-01 2.33182877e-01
      5.64458594e-02 3.61160226e-02 1.05786733e-01 1.74192294e-01
      2.75988370e-01 2.74515599e-01 5.28884754e-02 7.23215267e-02
      6.26916662e-02 1.88388843e-02 1.38463795e-01 2.07629696e-01
      1.87190562e-01 1.17570668e-01 1.38450712e-01 1.51990265e-01
      2.33994946e-01 2.82859802e-01 1.26998380e-01 4.10848260e-02
      1.17783928e-02 1.64980795e-02 8.91275425e-03 1.83345690e-01
      2.70838320e-01 1.49271101e-01 2.58408189e-01 1.42226174e-01
      2.24929750e-01 4.85076010e-02 3.29520106e-02 4.64855656e-02
      2.20704645e-01 1.68931246e-01 1.07236736e-01 2.70838320e-01
      2.70838320e-01 1.14519909e-01 2.65463263e-01 8.20549205e-02
      3.89864407e-02 3.46546061e-02 7.63507634e-02 6.62768483e-02
      2.08509147e-01 1.29651099e-01 2.70838320e-01 2.70838320e-01
      1.34849429e-01 9.19249281e-02 7.16467649e-02 1.04672827e-01
      5.15015423e-02 2.41307601e-01 2.70838320e-01 2.23185107e-01
      7.79233500e-02 7.56894425e-02 1.22064419e-01 2.14710042e-01
      9.14988294e-02 7.10491017e-02 1.29115596e-01 2.42336616e-01
      2.42336616e-01 1.67226180e-01 1.11611873e-01 1.42252639e-01
      1.53208300e-01 7.70669207e-02 6.80886954e-02 7.34550804e-02
      2.28322446e-01 1.75431311e-01 2.42336616e-01 1.26643091e-01
      1.91825330e-01 1.81958690e-01 1.25930682e-01 5.38915843e-02
      1.12598024e-01 2.04017892e-01 2.42336616e-01 1.52985767e-01
      1.13090418e-01 2.21560761e-01 1.91206530e-01 1.21044740e-01
      1.53714120e-01 2.21582755e-01 2.42336616e-01 2.56456882e-01
      2.56456882e-01 1.06843792e-01 1.12908840e-01 1.12258457e-01
      3.15604284e-02 3.83101404e-02 3.96165401e-02 1.75326958e-01
      2.31836915e-01 2.56456882e-01 1.67354733e-01 2.56456882e-01
      2.46343374e-01 2.43301019e-02 2.86654569e-02 2.04250403e-02
      4.68795709e-02 2.56456882e-01 2.34945506e-01 8.29371735e-02
      9.33894068e-02 5.29758222e-02 4.20126431e-02 2.02357814e-01
      2.56456882e-01 2.56456882e-01 1.86175153e-01 1.97846621e-01
      1.00973427e-01 1.25088453e-01 6.69368282e-02 2.90210694e-02
      1.59207582e-01 2.56456882e-01 8.14309642e-02 1.55742586e-01
      2.01396257e-01 3.13611388e-01 3.29356521e-01 3.29356521e-01
      8.50005448e-02 8.09133276e-02 4.29398268e-02 6.38827235e-02
      1.37064189e-01 1.17825121e-01 1.23966426e-01 9.94691700e-02
      9.67281088e-02 2.01233514e-02 4.01007235e-02 3.73504385e-02
      1.05996527e-01 2.01448992e-01 1.82377473e-01 2.03093410e-01
      3.29356521e-01 2.66282588e-01 1.05701350e-01 1.70935199e-01
      1.71868667e-01 1.04125120e-01 1.27323464e-01 5.96250743e-02
      9.65409353e-02 7.91520998e-02 2.90707082e-01 4.98656146e-02
      5.27083091e-02 5.13339937e-02 1.09337851e-01 2.12816596e-01
      9.71918777e-02 1.30842984e-01 3.81449610e-02 1.19488001e-01
      2.05700453e-02 1.54535994e-01 1.24689341e-01 2.26075932e-01
      2.08639666e-01 3.14056426e-02 5.28213307e-02 1.14716794e-02
      1.49945781e-01 1.53915994e-02 2.41752341e-01 2.66803384e-01
      2.90107131e-01 2.38499492e-01 8.86869878e-02 1.10936336e-01
      9.93386284e-02 3.41797084e-01 5.02042398e-02 9.98981968e-02
      1.14058666e-01 2.38196850e-01 1.83144793e-01 4.63786423e-02
      1.03380926e-01 8.52670372e-02 3.10294509e-01 2.55155619e-02
      1.45550147e-01 1.59482688e-01 2.25575998e-01 1.84312150e-01
      6.16238080e-02 6.48861602e-02 2.87686400e-02 8.67933258e-02
      1.48469955e-02 9.87106413e-02 2.24630058e-01 2.66595483e-01
      2.41370320e-01 1.77466527e-01 1.92482203e-01 1.07379653e-01
      1.70422122e-01 4.15437631e-02 4.62805629e-02 2.00359777e-01
      3.06742549e-01 1.03675209e-01 6.10146224e-02 1.54611140e-01
      1.28101066e-01 1.73138812e-01 2.14811843e-02 1.02796525e-01
      1.51724830e-01 1.64435983e-01 1.72743052e-01 2.23177835e-01
      2.58102596e-01 2.30701387e-01 1.60198331e-01 9.19393897e-02
      6.69934675e-02 2.03080446e-01 2.90574163e-01 1.25398159e-01
      1.13260798e-01 1.54967040e-01 1.22987039e-01 2.08596155e-01
      4.89589684e-02 3.50664034e-02 1.20397478e-01 1.64146855e-01
      1.17933549e-01 8.04605037e-02 1.60011753e-01 7.61748329e-02
      2.10936517e-01 1.18669711e-01 7.78113678e-02 1.52194738e-01
      1.32471055e-01 1.48034155e-01 1.86791047e-01 1.76272839e-01
      1.62269637e-01 1.64780334e-01 8.15075934e-02 5.44894412e-02
      1.36158586e-01 2.15548649e-01 2.22176284e-01 3.41298372e-01
      3.41298372e-01 1.46442249e-01 2.46586800e-01 1.26492679e-01
      1.08740956e-01 2.17050314e-01 1.66416451e-01 4.14178334e-02
      7.06315115e-02 1.10069886e-01 3.71028706e-02 2.82973051e-02
      3.53974923e-02 2.98732501e-02 3.61373983e-02 5.66439144e-02
      5.34655415e-02 2.13816658e-01 3.72525543e-01 3.38552266e-01
      9.16860700e-02 1.93567798e-02 2.06095688e-02 1.54561102e-02
      3.60784233e-02 7.81871974e-02 3.72525543e-01 3.72525543e-01
      9.70085412e-02 4.50542532e-02 1.99334957e-02 4.17604372e-02
      6.28201365e-02 4.86283675e-02 7.42897019e-02 3.72525543e-01
      3.72525543e-01 2.58491784e-01 2.67334878e-02 2.13206606e-03
      1.75982565e-02 2.37779357e-02 2.94551197e-02 3.24378647e-02
      1.85642600e-01 3.46250832e-01 3.46250832e-01 1.67537525e-01
      1.54124871e-02 4.85432381e-03 1.70212798e-03 3.39376112e-03
      8.08767229e-03 5.05127124e-02 3.36747885e-01 3.46250832e-01
      1.32576451e-01 2.27896664e-02 0. 0. 3.69401206e-03 3.53127494e-02
      3.46250832e-01 3.46250832e-01 2.61276752e-01 2.89887749e-02
      2.13816436e-03 1.43791578e-04 4.80526578e-05 3.14347493e-03
      2.22222395e-02 2.15952650e-01 2.52089947e-01 1.31779596e-01
      2.57550031e-02 4.61893296e-03 0. 0. 3.21758376e-03 3.17210741e-02
      1.94117259e-02 7.74763525e-03 2.12586448e-02 1.10439293e-01
      2.23269343e-01 3.32913727e-01 3.31786066e-01 2.98476908e-02
      5.03656752e-02 2.88533811e-02 2.80452464e-02 3.23036760e-02
      6.33504465e-02 7.67190829e-02 3.31064045e-01 3.32913727e-01
      5.25933877e-02 2.30246074e-02 1.83349550e-02 5.08985436e-03
      9.43576638e-03 1.31996619e-02 5.98254800e-02 3.32913727e-01
      3.32913727e-01 4.84824777e-02 3.41711417e-02 2.00541988e-02
      3.42066353e-03 9.55433212e-03 2.43308134e-02 2.91884877e-02
      3.32913727e-01 3.32913727e-01 1.38206676e-01 6.07594736e-02
      5.14587276e-02 4.11744900e-02 3.83436494e-02 3.77466455e-02
      3.79454978e-02 1.25881568e-01 1.92700505e-01 6.58175200e-02
      6.34794235e-02 5.39197437e-02 4.19864282e-02 3.16283703e-02
      1.73154697e-02 1.43924123e-02 2.26014890e-02 4.87755425e-02
      6.55002818e-02 6.53992370e-02 3.06137558e-02 9.51949228e-03
      1.60140526e-02 4.89251390e-02 2.96615455e-02 4.10774022e-01
      4.26680565e-01 3.66148680e-01 1.12184919e-01 2.82841213e-02
      3.19378525e-02 4.59216759e-02 5.62055334e-02 2.59937905e-02
      1.90867439e-01 4.26680565e-01 4.19692487e-01 1.26197189e-01
      8.97522867e-02 9.34708565e-02 7.32197985e-02 3.14749181e-02
      1.83807667e-02 2.99139265e-02 4.99343425e-02 1.30986899e-01
      1.46523908e-01 6.09458461e-02 5.57954349e-02 2.43972037e-02
      5.16063757e-02 3.28369588e-02 1.05712533e-01 9.31528583e-02
      1.56635284e-01 3.28227103e-01 5.75159118e-02 8.67022574e-02
      1.02960259e-01 7.96587169e-02 1.04668498e-01 2.61657029e-01
      3.57435882e-01 3.57435882e-01 3.36763799e-01 6.27248511e-02
      5.75589351e-02 3.48178335e-02 8.32841098e-02 1.30686164e-01
      1.16991960e-01 3.18868369e-01 3.57435882e-01 1.03239521e-01
      3.67844813e-02 2.15564426e-02 7.31457141e-04 5.86936101e-02
      2.50734668e-02 1.75448313e-01 2.57991493e-01 1.62442908e-01
      1.53331205e-01 7.81538710e-02 6.79608360e-02 2.19199210e-02
      5.08085825e-02 3.00918650e-02 1.94088876e-01 3.19793314e-01
      3.19793314e-01 2.60022432e-01 1.31519511e-01 4.21239436e-02
      7.46729132e-03 4.51418273e-02 7.29912519e-02 1.32908642e-01
      2.27199584e-01 3.19793314e-01 3.13175559e-01 2.64782310e-01
      1.50220066e-01 4.59915176e-02 7.46367499e-02 8.25360194e-02
      1.37226596e-01 1.55858010e-01 2.49162123e-01 1.64436802e-01
      1.43746421e-01 1.10096142e-01 4.97859828e-02 2.61892546e-02
      1.94712915e-02 6.28482476e-02 2.06117883e-01 2.79486746e-01
      1.75840080e-01 1.93364546e-01 2.15029821e-01 2.58288026e-01
      2.03333259e-01 3.05726547e-02 6.34828433e-02 7.83692524e-02
      1.72698468e-01 2.60555953e-01 1.96362838e-01 1.72598079e-01
      6.37380257e-02 7.33050331e-02 4.30548266e-02 6.05489798e-02
      1.11493029e-01 1.98627487e-01 2.79486746e-01 1.59868032e-01
      2.22210661e-01 1.82866454e-01 1.92873359e-01 3.85858864e-02
      1.41798198e-01 1.38860241e-01 2.79486746e-01 6.66344315e-02
      5.03152572e-02 1.59521744e-01 1.65382087e-01 1.62592918e-01
      3.64936292e-02 9.53311771e-02 8.16599056e-02 6.69013709e-02
      1.05580591e-01 1.84244633e-01 2.39573017e-01 2.53200591e-01
      2.53213376e-01 1.90784946e-01 2.09416091e-01 1.63754255e-01
      9.79308039e-02 1.32459521e-01 4.62076776e-02 1.50131881e-01
      1.23554192e-01 1.37846291e-01 3.03523149e-02 1.20639727e-01
      1.31152734e-01 1.73870564e-01 1.03662796e-01 1.63137496e-01
      2.32560679e-01 2.29714364e-01 2.53213376e-01 2.53213376e-01
      2.07521573e-01 2.49892861e-01 1.58017680e-01 8.60367715e-02
      3.06190759e-01 1.74618304e-01 1.68236583e-01 1.56984344e-01
      1.27110362e-01 9.25646052e-02 1.04021631e-01 5.81179932e-02
      2.32878849e-01 3.06190759e-01 1.51917249e-01 9.66953039e-02
      6.98506832e-02 7.36130401e-02 5.81941195e-02 1.28059655e-01
      1.11975312e-01 7.12176934e-02 1.25525191e-01 9.41145122e-02
      1.22732297e-01 1.90647244e-01 1.75216809e-01 1.86537847e-01
      3.06190759e-01 1.77134320e-01 2.15943307e-01 9.69053656e-02
      3.79990302e-02 4.11573052e-02 6.11855350e-02 7.20593333e-02
      1.51863009e-01 3.06190759e-01 3.06190759e-01 1.54664442e-01
      3.10772985e-01 8.26995522e-02 8.94686729e-02 6.97197989e-02
      4.93291877e-02 2.90365759e-02 7.08669871e-02 8.42066184e-02
      8.25838745e-02 9.79828164e-02 5.51390909e-02 8.32705125e-02
      8.15325305e-02 6.32489473e-02 1.16350457e-01 2.30577588e-01
      3.06037366e-01 3.43998760e-01 3.91927101e-02 8.96260701e-03
      7.94665795e-03 1.44650768e-02 1.53690614e-02 3.15922908e-02
      1.84584573e-01 3.43998760e-01 3.43998760e-01 3.43998760e-01
      1.02456443e-01 1.91040840e-02 1.37276035e-02 1.86737701e-02
      2.14136746e-02 5.32406680e-02 3.43998760e-01 6.99736550e-02
      1.50490701e-01 1.09063834e-01 8.15460011e-02 8.61627460e-02
      4.51051332e-02 2.38847807e-01 2.73669451e-01 2.15782940e-01
      5.60527034e-02 1.43236399e-01 1.65528461e-01 1.92175895e-01
      2.04108000e-01 6.98521361e-02 2.33221203e-01 2.73669451e-01
      4.67346534e-02 2.73669451e-01 2.73669451e-01 2.73669451e-01
      8.07832256e-02 5.93659990e-02 4.52392325e-02 5.72046638e-02
      5.72754182e-02 7.67625123e-02 9.63113084e-02 2.73669451e-01
      2.73669451e-01 1.87039435e-01 1.64895907e-01 7.25772977e-02
      9.56390128e-02 8.54075477e-02 7.09666684e-02 1.16162643e-01
      1.45251051e-01 2.29816586e-01 2.82653958e-01 2.82653958e-01
      1.24113269e-01 1.56527355e-01 2.07796052e-01 6.90338910e-02
      5.50903752e-02 4.02537845e-02 6.65301606e-02 5.88928610e-02
      2.82653958e-01 7.01502189e-02 5.09347282e-02 4.29854095e-02
      5.37983961e-02 1.69313058e-01 2.82653958e-01 2.82653958e-01
      2.82653958e-01 2.82653958e-01 9.80438218e-02 1.25431359e-01
      1.21171653e-01 1.73293620e-01 1.65988177e-01 1.42784223e-01
      1.01795644e-01 8.39814246e-02 1.98816329e-01 7.19649568e-02
      7.32955113e-02 6.74470365e-02 1.38382107e-01 8.07294175e-02
      6.25241548e-02 7.92241320e-02 7.84012079e-02 3.29754859e-01
      8.49937648e-02 5.46135381e-02 4.90740128e-02 7.26250708e-02
      1.04633354e-01 7.44843930e-02 9.26547945e-02 5.55735864e-02
      1.67560220e-01 4.24368978e-02 3.92032675e-02 4.65768278e-02
      9.19826031e-02 3.98458719e-01 2.86602736e-01 9.56465006e-02
      6.48822635e-02 2.16042414e-01 9.15628970e-02 8.16029981e-02
      9.18780565e-02 1.81377679e-01 3.98458719e-01 3.98458719e-01
      8.53258744e-02 3.87806483e-02 1.17022835e-01 8.91082063e-02
      9.94159430e-02 1.17102742e-01 2.17828169e-01 4.86426875e-02
      3.64146121e-02 4.99357544e-02 2.80428100e-02 6.02408051e-02
      1.07102683e-02 2.83972956e-02 4.14347500e-02 4.78831455e-02
      1.08427353e-01 2.31496155e-01 9.66282263e-02 5.24715148e-02
      5.20614423e-02 5.27225807e-02 3.99822444e-02 5.76370880e-02
      8.34542364e-02 4.50697482e-01 4.50697482e-01 3.76839638e-02
      2.57906620e-03 3.35635915e-02 2.68954448e-02 5.27631640e-02
      9.00522694e-02 1.21063866e-01 4.50697482e-01 4.50697482e-01
      9.19697881e-02 9.54890996e-03 3.25410701e-02 3.35756429e-02
      4.85860109e-02 9.69503969e-02 1.46008790e-01 1.07125282e-01
      3.55644077e-01 8.31558928e-02 2.24527102e-02 2.82678064e-02
      2.93720197e-02 1.11172926e-02 1.85774211e-02 4.36470322e-02
      1.59637511e-01 3.90087128e-01 3.28499168e-01 2.44145319e-02
      3.59500721e-02 1.45817064e-02 1.38577800e-02 3.09279021e-02
      2.67489515e-02 3.29977721e-01 3.90087128e-01 1.01537980e-01
      5.63456537e-03 9.75394994e-03 1.51504464e-02 6.25373935e-03
      1.44938203e-02 4.27568033e-02 2.89696872e-01 3.90087128e-01
      2.15792000e-01 8.33091419e-03 1.05145462e-02 2.08349200e-03
      2.28365432e-04 2.23303586e-03 2.27202680e-02 1.23825073e-01
      3.72353345e-01 3.72353345e-01 6.75399080e-02 2.71747299e-02
      6.44087791e-03 2.61589848e-02 3.35165448e-02 1.11338422e-02
      9.72506031e-02 3.72353345e-01 3.72353345e-01 9.42677259e-02
      4.81230998e-03 0. 1.07845794e-02 9.33393743e-03 7.77044659e-03
      2.03311875e-01 3.72353345e-01 2.32358217e-01 1.48126613e-02
      1.12440232e-02 2.55736697e-04 1.73621971e-04 9.84572340e-04
      1.25758946e-02 1.13535888e-01 3.72353345e-01 1.19500935e-01
      1.08517827e-02 2.24695751e-03 0. 3.05524329e-04 1.97412723e-04
      6.00606343e-03 1.51280239e-01 4.07002449e-01 4.07002449e-01
      1.18241064e-01 2.74289306e-03 1.94888082e-04 1.02146156e-03
      1.69786264e-03 1.14785349e-02 9.78139862e-02 4.07002449e-01
      3.06195438e-01 4.87994812e-02 6.43781433e-03 1.30657700e-03
      3.66592803e-03 1.86420977e-02 2.05674097e-02 1.67237684e-01
      4.07002449e-01 1.72078148e-01 2.66415235e-02 5.50545147e-03
      3.36897187e-03 1.36478636e-02 1.09828543e-02 2.01939289e-02
      8.84117857e-02 3.21027547e-01 1.14533044e-01 2.90775038e-02
      1.96326096e-02 1.12156393e-02 2.77825668e-02 4.98581976e-02
      4.62101437e-02 1.09174460e-01 1.16598248e-01 4.32962775e-02
      2.87861824e-02 2.14019548e-02 1.28019303e-02 1.78913221e-01
      3.25332850e-01 1.09997265e-01 6.05888963e-02 7.82157257e-02
      3.03506050e-02 4.57160845e-02 4.96757403e-02 4.73063551e-02
      5.37069798e-01 5.37069798e-01 3.95469397e-01 6.59520701e-02
      8.45158100e-02 4.08231653e-02 2.61254795e-02 4.39351462e-02
      1.14537431e-02 8.40423070e-03 3.18267383e-02 4.75513972e-02
      2.74446961e-02 6.28368333e-02 6.10204078e-02 7.97227472e-02
      1.07133314e-01 6.65788054e-02 3.27223577e-02 1.07778251e-01
      4.93034646e-02 2.31582299e-02 1.20852413e-02 5.88490814e-03
      1.04440963e-02 2.39558406e-02 1.58569273e-02 1.57950327e-01
      3.96989703e-01 3.17246348e-01 9.36160460e-02 1.00221103e-02
      1.22235883e-02 1.97655540e-02 2.46645175e-02 1.25476001e-02
      1.97521746e-01 3.96989703e-01 3.96989703e-01 9.36121773e-03
      1.22498916e-02 1.34415505e-02 1.35422181e-02 1.80607345e-02
      2.11330112e-02 1.66368224e-02 1.50112316e-01 7.38210455e-02
      5.59727512e-02 1.09902611e-02 6.38522860e-03 6.61621522e-03
      6.36191759e-03 7.41397496e-03 6.33549616e-02 3.96989703e-01
      3.90023768e-01 1.07104279e-01 9.05136950e-03 1.67078879e-02
      1.06290560e-02 1.18535208e-02 1.62572321e-02 1.13185830e-01
      3.44503462e-01 3.44503462e-01 9.63042527e-02 9.03729349e-03
      1.79459509e-02 5.18586254e-03 1.47988070e-02 2.50040833e-02
      3.49177793e-02 3.44503462e-01 3.44503462e-01 5.58416061e-02
      6.16791192e-03 6.78081578e-03 4.34607081e-03 4.67422511e-03
      5.14170015e-03 4.61868979e-02 3.44503462e-01 3.44503462e-01
      6.48643374e-02 5.98033285e-03 8.57852492e-03 2.97880056e-03
      6.92000706e-03 1.08422246e-02 1.65379159e-02 3.44503462e-01
      3.44503462e-01 8.57803896e-02 2.72747260e-02 1.33421691e-02
      2.59198342e-03 5.34716900e-03 1.85803548e-02 4.41739187e-02
      2.26857305e-01 3.83490801e-01 1.41123414e-01 6.49713427e-02
      2.90227924e-02 7.78365275e-03 1.62251182e-02 1.88693497e-02
      4.68214266e-02 1.34438872e-01 2.66935617e-01 1.11732692e-01
      1.53450081e-02 8.88779853e-03 8.82547698e-04 3.00633721e-03
      7.82501698e-03 2.38956027e-02 3.81796777e-01 3.83490801e-01
      2.89617866e-01 3.96557264e-02 1.48740597e-02 3.10420175e-03
      8.62262398e-03 7.83953629e-03 2.39108913e-02 3.60718638e-01
      3.83490801e-01 1.38387710e-01 5.97561300e-02 3.38551104e-02
      1.78531036e-02 3.41705158e-02 2.34044101e-02 2.00425982e-02
      8.93041566e-02 2.02011079e-01 1.83106616e-01 4.95382510e-02
      4.40454446e-02 4.65842634e-02 4.37993445e-02 2.89034136e-02
      3.64948437e-02 7.33633861e-02 2.31934711e-01 4.30203617e-01
      2.91610472e-02 5.99469617e-03 7.20739737e-03 1.48336245e-02
      1.43293822e-02 8.37757066e-03 2.21886739e-01 4.35548782e-01
      4.35548782e-01 4.59050015e-02 8.73982720e-03 1.76451355e-02
      1.00804316e-02 2.11191718e-02 2.46636011e-02 9.33058336e-02
      4.35548782e-01 1.30008295e-01 4.75936085e-02 5.77547438e-02
      4.84762751e-02 4.35091816e-02 2.10282803e-02 4.55686525e-02
      4.61747237e-02 1.53515473e-01 8.82729292e-02 7.71006197e-02
      6.48531914e-02 3.06040421e-02 5.71293570e-02 4.92836982e-02
      5.93751371e-02 8.90020654e-02 1.52076676e-01 4.60851878e-01
      6.09098636e-02 1.95782520e-02 1.75710488e-02 9.70103592e-03
      1.16385249e-02 3.80983055e-02 8.33826885e-02 4.60851878e-01
      4.60851878e-01 3.33807766e-02 2.30072234e-02 6.43120240e-03
      1.09244362e-02 1.13683511e-02 4.13496718e-02 1.22761436e-01
      4.60851878e-01 1.10719375e-01 6.55724257e-02 1.98141765e-02
      9.88173112e-03 4.22418714e-02 4.64672633e-02 7.66441226e-02
      2.29652628e-01 2.03675762e-01 2.93237656e-01 3.43663171e-02
      5.71448775e-03 4.42223623e-03 2.99149193e-02 2.48986091e-02
      6.51882961e-02 3.42469126e-01 3.59196633e-01 3.59196633e-01
      4.25747558e-02 5.64160803e-03 1.81458215e-03 1.31595982e-02
      9.02323332e-03 1.41835045e-02 6.51599914e-02 3.59196633e-01
      3.59196633e-01 7.87930712e-02 4.70386120e-03 3.00627341e-03
      2.19319612e-02 9.26470477e-03 1.11047542e-02 8.03699344e-02
      3.59196633e-01 3.49348813e-01 2.03538518e-02 7.05394614e-03
      5.88861248e-03 2.00228877e-02 6.19678432e-03 8.98825098e-03
      8.54346603e-02 3.49348813e-01 3.49348813e-01 1.61376297e-01
      4.06010486e-02 6.63778791e-03 1.33119384e-02 1.87883284e-02
      6.58042589e-03 4.19277884e-02 3.09266359e-01 3.49348813e-01
      5.07316738e-02 7.88374338e-03 4.43050778e-03 1.69946216e-02
      3.25267669e-03 3.94847197e-03 5.34571409e-02 3.49348813e-01
      3.49348813e-01 2.63278075e-02 9.81195737e-03 3.52813466e-03
      9.97758564e-03 1.18019991e-02 5.87860122e-03 3.55561674e-02
      3.49348813e-01 3.68006349e-01 3.08999181e-01 1.44984350e-01
      2.28231791e-02 6.00298215e-03 2.78534070e-02 1.23908864e-02
      4.09519933e-02 1.46601096e-01 2.37593845e-01 2.25189179e-01
      1.34875983e-01 4.69890274e-02 1.54765984e-02 2.56233234e-02
      2.55028587e-02 4.53158915e-02 1.31465331e-01 3.68006349e-01
      4.62653339e-02 9.55421943e-03 3.19825462e-03 2.87071825e-03
      8.57737660e-03 1.24518797e-02 3.20030712e-02 3.68006349e-01
      3.68006349e-01 2.42039993e-01 1.61930248e-02 7.25460332e-03
      1.32217782e-03 9.66226857e-04 1.51971243e-02 4.78150807e-02
      3.16366404e-01 2.81132251e-01 1.65804416e-01 4.13863435e-02
      2.70950440e-02 2.19578966e-02 1.16025079e-02 1.98501032e-02
      3.06829251e-02 1.23528577e-01 3.61457169e-01 3.18267554e-01
      2.16619391e-02 1.07135028e-02 2.47478094e-02 1.03662377e-02
      1.62064787e-02 1.80098433e-02 1.16814137e-01 3.61457169e-01
      3.51730555e-01 1.19228428e-02 5.34907263e-03 4.44685575e-03
      2.55773775e-03 9.81160812e-03 4.32331376e-02 2.27327377e-01
      3.61457169e-01 3.61457169e-01 4.96134674e-03 1.18797424e-03
      1.06708482e-02 2.41763494e-03 5.17305266e-03 1.76678300e-02
      2.29627281e-01 3.43940079e-01 3.43940079e-01 9.44443885e-03
      4.11164714e-03 1.90529115e-02 6.48188544e-03 9.90866404e-03
      1.64025780e-02 9.58119407e-02 3.43940079e-01 3.43940079e-01
      7.00543029e-03 1.90923922e-03 9.06476565e-03 1.09353103e-02
      1.72872171e-02 1.72724053e-02 1.08646564e-01 3.43940079e-01
      3.43940079e-01 1.50141027e-03 1.09899171e-04 3.73938610e-03
      4.57957824e-04 9.81089193e-04 6.04292424e-03 1.28363058e-01
      3.43940079e-01 3.43940079e-01 2.69928318e-03 1.65240502e-03
      8.44742171e-04 4.51845553e-04 1.57686265e-03 2.65972759e-03
      1.04593597e-01 3.89213294e-01 3.89213294e-01 1.30260857e-02
      1.30210959e-04 4.79518250e-03 1.17929280e-02 1.87704340e-02
      3.03095859e-02 1.23312540e-01 3.89213294e-01 3.89213294e-01
      3.24254483e-02 7.52640481e-04 3.30609153e-03 2.49310466e-03
      8.33723973e-03 2.64523420e-02 7.94832930e-02 3.89213294e-01
      2.84647912e-01 4.73232381e-03 3.37203336e-03 1.33558910e-03
      3.73874704e-04 2.66056345e-03 3.73111945e-03 1.07769489e-01
      3.00414056e-01 1.68567061e-01 8.40752758e-03 1.94551039e-03
      1.92608789e-03 0. 2.67421664e-03 4.03237995e-03 4.74492572e-02
      4.34967011e-01 4.34967011e-01 8.33402872e-02 2.61630188e-03
      1.17212126e-03 8.07985256e-04 2.58869282e-03 1.09793413e-02
      5.89205660e-02 4.34967011e-01 4.34967011e-01 6.97662979e-02
      5.41861029e-03 3.37290275e-03 1.03883818e-03 4.56929061e-04
      3.32292030e-03 7.00505823e-02 3.29306155e-01 1.64910913e-01
      1.66976005e-02 1.39618455e-03 4.57707141e-03 3.50126997e-03
      3.95838358e-03 6.26627449e-03 4.35822532e-02 2.41205499e-01
      1.25555202e-01 5.53051149e-03 0. 6.17221883e-03 4.76151984e-03
      8.68170522e-03 2.67808009e-02 7.58583322e-02 4.31897789e-01
      4.31897789e-01 5.98087162e-02 1.01078656e-02 1.01313777e-02
      3.77610605e-03 8.76348466e-03 1.43429758e-02 1.30886897e-01
      3.42249274e-01 4.31897789e-01 1.43643111e-01 6.66735042e-03
      1.18628154e-02 1.19158728e-02 1.23028802e-02 2.23078486e-02
      4.83876131e-02 3.15176874e-01 1.78448483e-01 4.37610038e-03 0.
      1.14883436e-02 1.50667550e-02 4.61702012e-02 8.85064974e-02
      1.70120195e-01 2.18472108e-01 1.59717798e-01 4.33975086e-02
      4.70681908e-03 2.20703278e-02 3.26881409e-02 4.64279838e-02
      8.55343491e-02 1.30942434e-01 2.10016817e-01 5.13462961e-01
      2.63168961e-01 6.51929602e-02 8.18318501e-02 4.26637940e-02
      6.04210384e-02 5.91399223e-02 6.63095042e-02 9.37919766e-02
      1.83171213e-01 1.30541161e-01 1.96000174e-01 1.53885543e-01
      7.17146024e-02 1.21870466e-01 9.70326290e-02 8.13443735e-02
      2.49603435e-01 1.84426397e-01 2.00791061e-01 1.31338611e-01
      1.13938615e-01 7.74397627e-02 5.15908897e-02 7.02080652e-02
      1.42145678e-01 8.71785283e-02 6.97117671e-02 1.99375033e-01
      3.25747937e-01 2.07735911e-01 1.09316364e-01 1.16375238e-01
      6.08652644e-02 6.85996786e-02</_>
    <_>
      1.60949439e-01 1.09685302e-01 5.21834791e-02 5.75547852e-03
      1.06320277e-01 1.90583318e-02 9.81175993e-03 3.73606160e-02
      1.17412046e-01 2.69344777e-01 2.05134451e-01 7.92102292e-02
      1.12957731e-02 4.73154783e-02 1.51178688e-02 7.29570165e-03
      4.54629697e-02 1.76568329e-01 3.29247475e-01 2.18372628e-01
      8.11804086e-02 2.38422472e-02 7.05180317e-02 5.03523350e-02
      2.62200721e-02 7.88342133e-02 2.18720868e-01 4.38815892e-01
      4.38815892e-01 2.23267704e-01 2.05841865e-02 2.64609177e-02
      3.02812029e-02 2.23532766e-02 9.66788679e-02 3.14379066e-01
      1.06131285e-01 9.24716741e-02 3.97073217e-02 6.13666046e-03
      4.12013289e-03 1.53410702e-03 2.34352471e-03 1.53259719e-02
      5.18926755e-02 2.03458101e-01 8.00402388e-02 2.87716035e-02
      1.23631395e-02 7.69043982e-04 8.13330698e-05 2.07933807e-03
      2.13615373e-02 1.07091665e-01 4.65124339e-01 4.65124339e-01
      1.20625712e-01 8.36044643e-03 7.44826952e-03 5.42942667e-03
      6.47932431e-03 2.72220783e-02 7.12224394e-02 4.65124339e-01
      4.65124339e-01 7.81734139e-02 1.15869036e-02 8.68550409e-03
      1.45722239e-03 3.43474187e-03 1.41344396e-02 1.33424744e-01
      1.38067111e-01 4.32862937e-02 5.75391250e-03 3.74574936e-03
      3.70896421e-04 0. 2.14018673e-03 2.18413826e-02 4.92009632e-02
      2.56522328e-01 1.36500582e-01 2.18335376e-03 2.59019178e-03
      1.62599294e-03 0. 2.49068649e-03 3.16290855e-02 5.92808202e-02
      4.61608380e-01 4.61608380e-01 1.54368039e-02 3.92291090e-03
      4.99666762e-03 4.76564560e-03 5.10626845e-03 1.31053794e-02
      7.04584643e-02 4.61608380e-01 4.61608380e-01 3.02339606e-02
      7.43879145e-03 1.37086539e-03 7.97346793e-03 2.66454127e-02
      3.08505781e-02 1.48469150e-01 3.01802486e-01 1.00728638e-01
      3.02104419e-03 4.84526576e-03 6.17378112e-03 0. 5.45502757e-04
      1.18339397e-02 7.76045695e-02 4.31614697e-01 7.52005950e-02
      2.68245442e-03 2.79880944e-03 6.48335647e-03 2.74129532e-04
      1.26445002e-03 7.34416721e-03 1.20893262e-01 4.31614697e-01
      3.61355394e-01 1.84691194e-02 6.29626680e-03 4.22492996e-03
      4.05264134e-03 2.60240529e-02 2.54079401e-02 1.71737969e-01
      4.31614697e-01 2.29551435e-01 2.98932288e-02 4.02151141e-03
      8.67157150e-03 2.32087020e-02 2.76798066e-02 2.44054571e-02
      3.02619576e-01 4.00315970e-01 8.30513090e-02 4.10695124e-04 0.
      1.09604676e-03 4.37767274e-04 1.77850795e-03 4.47266409e-03
      1.08158521e-01 4.00315970e-01 6.41487464e-02 3.02253547e-03
      2.28221272e-03 6.61340833e-04 1.40202625e-04 6.12493197e-04
      4.19443473e-03 2.34520152e-01 4.00315970e-01 1.77260563e-01
      1.48929460e-02 4.29058244e-04 2.27277190e-03 2.59357225e-02
      2.50524264e-02 1.89906191e-02 2.61852503e-01 4.00315970e-01
      1.48926824e-01 1.34547856e-02 9.90924146e-03 1.70332869e-03
      8.88094679e-03 1.28959473e-02 2.11555101e-02 3.90116900e-01
      3.58947009e-01 2.86647398e-02 4.88255685e-03 4.43627452e-03
      4.95237939e-04 0. 6.63492887e-04 1.86524249e-03 2.76859134e-01
      3.58947009e-01 1.75137836e-02 2.17610737e-03 2.05525802e-03
      5.99994906e-04 8.30476056e-05 1.14424562e-03 2.23890715e-03
      3.58947009e-01 3.58947009e-01 9.22018364e-02 2.58802902e-02
      2.56261174e-02 2.06364063e-03 0. 3.82849108e-03 1.30449925e-02
      3.58947009e-01 3.58947009e-01 7.58069977e-02 1.93600170e-02
      1.49246389e-02 4.76224726e-04 0. 6.20987732e-03 1.64489523e-02
      3.58947009e-01 3.52172285e-01 1.27189234e-02 3.10506643e-04 0.
      8.52441590e-04 1.53590273e-03 1.15614082e-03 4.16847691e-03
      3.52172285e-01 3.52172285e-01 1.03774909e-02 1.48688250e-05 0.
      2.71300157e-03 2.58665974e-03 1.12733932e-03 6.15837798e-03
      3.52172285e-01 3.52172285e-01 4.81261648e-02 4.65759961e-03 0. 0.
      0. 1.83140778e-03 1.31160701e-02 3.52172285e-01 3.52172285e-01
      2.37458535e-02 2.23032403e-04 0. 0. 0. 4.54082707e-04
      2.92738527e-02 3.52172285e-01 3.52402300e-01 7.19175488e-03
      5.24937408e-04 0. 1.88462110e-03 5.28072822e-04 1.50796724e-04
      6.68137614e-03 3.52402300e-01 3.52402300e-01 1.19072264e-02
      1.11131684e-03 0. 6.18127291e-04 0. 6.78293727e-05 1.66689288e-02
      3.52402300e-01 3.52402300e-01 1.32375713e-02 3.08978983e-04 0. 0.
      0. 1.68325394e-04 2.35335119e-02 3.52402300e-01 3.52402300e-01
      3.06128599e-02 2.90105492e-03 0. 0. 0. 3.01907159e-04
      2.79889256e-02 3.52402300e-01 3.53195608e-01 1.17167076e-02
      5.82088076e-04 0. 5.51112986e-04 0. 2.07285892e-04 1.20432759e-02
      3.53195608e-01 3.38491887e-01 4.36735200e-03 7.54878201e-05 0.
      1.25191279e-03 5.83246816e-04 1.29840418e-03 2.40328610e-02
      3.53195608e-01 3.53195608e-01 3.47384922e-02 1.92058494e-03 0.
      1.16622064e-03 0. 8.98238737e-04 3.31031494e-02 3.53195608e-01
      3.53195608e-01 2.73100436e-02 1.87251440e-04 0. 1.38739031e-02
      3.96396779e-03 8.94993823e-03 6.66234866e-02 3.53195608e-01
      2.30135977e-01 3.90342507e-03 0. 0. 1.35943608e-03 1.70797505e-03
      3.03497561e-03 5.97347580e-02 3.86034817e-01 1.29728049e-01
      8.51664227e-03 0. 0. 1.03892700e-03 1.92035793e-03 7.08966609e-03
      1.13884546e-01 3.86034817e-01 3.86034817e-01 3.85650061e-02
      2.80556735e-04 0. 1.42033156e-02 1.00780828e-02 2.07025595e-02
      1.20029986e-01 3.86034817e-01 3.27962071e-01 3.30661908e-02
      2.18852609e-03 1.15190330e-03 2.15572328e-03 1.74301211e-02
      2.67449226e-02 1.95534006e-01 3.86034817e-01 9.85956863e-02
      6.83718314e-03 0. 0. 1.08951796e-03 1.57684961e-03 8.22947826e-03
      1.01009138e-01 4.31757540e-01 8.37415457e-02 1.26523022e-02
      7.68901256e-04 0. 1.08596636e-03 1.19110185e-03 1.54215749e-02
      9.01466906e-02 4.26103145e-01 2.38945886e-01 2.15370320e-02
      1.03017138e-02 1.15887178e-02 6.28153386e-04 1.72200520e-02
      2.12998521e-02 2.03525096e-01 4.31757540e-01 2.46996209e-01
      1.91437025e-02 7.72436941e-03 1.56614371e-02 5.89463045e-04
      1.07234716e-02 1.79164112e-02 2.39185765e-01 4.31757540e-01
      7.41453990e-02 2.35167313e-02 4.49230615e-03 6.48788235e-04
      3.41641670e-03 1.90084451e-03 1.54531151e-02 9.29305702e-02
      2.83525437e-01 1.33731693e-01 3.13079245e-02 2.08181515e-02
      5.93986455e-03 6.60516089e-03 2.11647060e-03 7.61659909e-03
      6.10920154e-02 2.18283504e-01 2.10719988e-01 2.41544861e-02
      3.45366145e-03 1.22302445e-02 3.67271248e-03 9.12552513e-03
      1.98825058e-02 3.55697095e-01 4.52581853e-01 2.02619612e-01
      2.80925538e-02 1.82381421e-02 1.22145219e-02 8.87817144e-03
      3.61167290e-03 1.55969942e-02 4.52581853e-01 4.52581853e-01
      1.39320150e-01 4.82048318e-02 3.58639210e-02 9.51795280e-03
      4.75717802e-03 6.67824759e-04 6.60588499e-03 7.78517053e-02
      2.25588828e-01 8.31416547e-02 2.87278164e-02 1.34382434e-02
      8.28697905e-03 3.89089924e-03 6.74930983e-04 9.83025413e-03
      1.22553483e-01 2.43752658e-01 1.50318965e-01 3.50384973e-02
      2.66138818e-02 7.74389552e-03 7.17993686e-03 9.28054505e-04
      2.44949050e-02 4.44422007e-01 4.44422007e-01 1.23166859e-01
      2.74721142e-02 1.92204155e-02 6.43288530e-03 1.43414468e-03
      2.92470097e-03 3.55505273e-02 4.44422007e-01 4.44422007e-01
      1.06618457e-01 3.63709442e-02 7.47023383e-03 1.24042882e-02
      1.52559225e-02 4.68113367e-03 2.46776082e-02 1.58534124e-01
      3.58156264e-01 1.22440785e-01 2.86134407e-02 3.16235563e-03
      4.17189253e-03 2.43026484e-02 4.26514959e-03 1.91079769e-02
      9.59921703e-02 2.97000378e-01 1.24848902e-01 3.65434252e-02
      3.11898533e-02 1.20880557e-02 4.88081342e-03 1.49087859e-02
      7.69111365e-02 4.11219925e-01 4.11219925e-01 7.38651454e-02
      1.25954356e-02 4.17295145e-03 2.90928129e-03 8.42055492e-03
      9.28924046e-03 8.98647159e-02 4.11219925e-01 4.11219925e-01
      1.62880689e-01 5.32213040e-02 1.50723718e-02 1.22119132e-02
      2.18505077e-02 9.84289683e-03 6.12402149e-02 1.15172192e-01
      2.84989238e-01 8.00042003e-02 5.88189103e-02 2.75418293e-02
      2.51103695e-02 1.14199379e-02 5.23960739e-02 1.59498438e-01
      1.58721685e-01 1.13011509e-01 9.09026414e-02 7.97376968e-03
      4.38391318e-04 5.15866326e-03 1.06726009e-02 5.37910778e-03
      1.37678459e-01 4.29940939e-01 4.29940939e-01 5.96145764e-02
      5.70965325e-03 1.84049399e-03 6.16052561e-03 3.15936795e-03
      2.42808815e-02 2.07292452e-01 4.29940939e-01 4.00539458e-01
      1.12515777e-01 2.58478343e-01 4.37942110e-02 5.71103953e-03
      7.81975687e-03 4.20662574e-03 1.80396705e-03 5.86767681e-03
      2.42521875e-02 2.56293654e-01 4.31194752e-01 6.48808554e-02
      1.93354674e-03 1.41901500e-03 3.11525585e-03 2.94508156e-03
      1.04319667e-02 3.14432159e-02 1.63512707e-01 4.31194752e-01
      3.37509036e-01 2.97426507e-02 1.83560736e-02 8.74411874e-03
      4.87824250e-03 6.82637561e-03 2.77552661e-02 3.23082805e-01
      4.31194752e-01 1.65854111e-01 1.67667028e-02 4.58220765e-02
      3.74543183e-02 2.53250599e-02 3.74054015e-02 6.52733147e-02
      3.47585768e-01 3.47585768e-01 4.56837378e-02 2.18171836e-03
      2.12114328e-03 3.69871384e-03 4.53118840e-03 1.31226731e-02
      3.06804348e-02 3.47585768e-01 3.47585768e-01 4.35262509e-02
      1.07013909e-02 1.74355246e-02 6.75727287e-03 3.86087666e-03
      7.66274473e-03 4.33629900e-02 3.22560698e-01 3.47585768e-01
      6.20552748e-02 1.08921407e-02 3.11937202e-02 4.02396396e-02
      3.44243795e-02 7.26319999e-02 9.40277725e-02 3.32866818e-01
      3.47585768e-01 1.09628305e-01 4.79536951e-02 3.67690027e-02
      4.66422811e-02 2.30068546e-02 5.24825454e-02 7.89756402e-02
      3.59866709e-01 3.59866709e-01 2.61580274e-02 1.30702881e-02
      2.23854259e-02 1.55339446e-02 1.07461261e-02 9.23403911e-03
      3.19510922e-02 3.59866709e-01 3.28523129e-01 4.56379056e-02
      1.25209522e-02 7.15318415e-03 2.24941187e-02 4.40792292e-02
      3.73287797e-02 8.73181969e-02 2.69441634e-01 3.59866709e-01
      1.01046197e-01 4.40532379e-02 2.97129899e-02 2.14316286e-02
      8.72241892e-03 1.41254263e-02 3.10017373e-02 3.59866709e-01
      3.59866709e-01 5.52448295e-02 1.27590680e-02 9.20188893e-03
      1.82768181e-02 2.32796576e-02 2.66435314e-02 5.15945517e-02
      3.59635234e-01 2.53249496e-01 2.69042086e-02 9.63094458e-03
      6.09538238e-03 7.38283852e-03 4.14111465e-02 3.79694588e-02
      1.19342826e-01 3.59635234e-01 3.01423818e-01 2.58144997e-02
      7.28943618e-03 1.35531127e-02 2.25150492e-02 2.93122213e-02
      3.06856278e-02 1.75898656e-01 3.59635234e-01 3.59635234e-01
      1.64991412e-02 4.20296146e-03 2.86982884e-03 4.14337823e-03
      1.79804247e-02 2.12877356e-02 7.12981373e-02 3.59635234e-01
      3.59635234e-01 1.15076452e-02 6.02705404e-03 6.51504798e-03
      4.29325365e-03 7.18034105e-03 2.06263512e-02 7.77794719e-02
      4.05518502e-01 2.28629559e-01 1.45916687e-02 1.38499367e-03
      4.46648384e-03 2.92159896e-02 3.00104599e-02 3.07515934e-02
      2.18021005e-01 4.05518502e-01 1.43832654e-01 8.68332572e-03
      7.46720890e-03 2.20428267e-03 8.99595954e-03 1.55170262e-02
      2.97362898e-02 3.05812597e-01 4.05518502e-01 2.47848928e-01
      8.45767278e-03 8.33207741e-03 3.27823008e-03 4.00444167e-03
      5.74158784e-03 2.15072595e-02 1.01244628e-01 4.05518502e-01
      7.95590803e-02 5.82650304e-03 5.15386229e-03 2.01752200e-03
      2.08394788e-03 6.43991167e-03 2.49618832e-02 2.01175392e-01
      4.00386721e-01 1.35490984e-01 2.00082995e-02 2.27185301e-02
      4.31577023e-03 8.05618358e-04 2.96222069e-03 1.30929975e-02
      2.71125734e-01 4.00386721e-01 8.46434757e-02 1.65044311e-02
      1.32515999e-02 2.29672296e-03 8.65437032e-04 3.59317311e-03
      1.62811615e-02 4.00386721e-01 4.00386721e-01 6.24899194e-02
      8.83941539e-03 5.22190705e-03 6.27498748e-03 2.22888705e-03
      3.45555274e-03 1.57845244e-02 1.87641442e-01 4.00386721e-01
      3.98039743e-02 1.54653434e-02 4.49474575e-03 7.08477013e-03
      3.42235155e-03 1.16045319e-03 1.76634081e-02 2.27659866e-01
      3.74736398e-01 5.49907833e-02 7.42470985e-03 3.21946922e-04
      3.24324443e-04 6.83122489e-04 1.53492694e-03 1.70152579e-02
      3.74736398e-01 3.74736398e-01 2.04487592e-02 2.10950454e-03
      8.32073565e-05 3.51123845e-06 4.55414993e-05 1.34011102e-03
      2.81937905e-02 3.74736398e-01 3.74736398e-01 2.72277612e-02
      1.60044618e-02 1.67445175e-03 1.67006231e-03 2.96019739e-03
      3.91400623e-04 1.61595177e-02 2.39222780e-01 3.54989201e-01
      2.26628557e-02 8.37087631e-03 1.55208656e-03 5.97458740e-04
      1.97346497e-04 2.34636711e-03 1.98208410e-02 3.22529852e-01
      3.85070890e-01 1.20217837e-02 5.82501467e-04 0. 0. 0.
      7.33224850e-04 1.83117110e-02 3.85070890e-01 3.85070890e-01
      2.27645580e-02 3.07331979e-03 0. 0. 5.62046152e-05 5.46757889e-04
      1.40735097e-02 3.85070890e-01 2.84937710e-01 1.78440474e-02
      2.72205984e-03 3.08046641e-04 8.46588286e-04 6.46431639e-04
      2.84566358e-03 1.58222411e-02 3.19563985e-01 2.62851268e-01
      1.59893092e-02 8.82210117e-03 8.51737335e-04 3.86704574e-03
      2.47666193e-03 6.18946878e-03 1.29549215e-02 3.85070890e-01
      3.86712939e-01 2.10825801e-02 2.33062566e-03 0. 8.53420119e-04
      1.09234505e-04 1.16524589e-03 2.20740959e-02 3.86712939e-01
      3.86712939e-01 2.85394806e-02 7.79359427e-04 2.44303170e-04
      1.01795159e-02 2.42866203e-03 5.70613658e-03 6.43796325e-02
      3.86712939e-01 1.86156869e-01 1.01064630e-02 9.47521348e-03
      4.02137451e-03 3.41650518e-03 1.91789691e-03 7.91277084e-03
      1.54673206e-02 3.86712939e-01 2.36278176e-01 1.46009447e-02
      5.77686960e-03 8.50780774e-03 3.94455111e-03 7.23205099e-04
      5.25122695e-03 3.80029380e-02 3.86712939e-01 4.03701037e-01
      3.30728889e-02 9.42369632e-04 4.34390851e-04 7.98763800e-03
      4.41655098e-03 9.64813773e-03 7.90973529e-02 4.03701037e-01
      2.94350147e-01 2.60957628e-02 3.98239121e-03 1.91284716e-03
      1.50517852e-03 1.21562546e-02 1.61144789e-02 1.41539216e-01
      4.03701037e-01 1.87219471e-01 9.82633326e-03 3.61664454e-03
      4.22837958e-03 1.68193213e-03 2.32633483e-03 6.44032517e-03
      4.52380441e-02 4.03701037e-01 1.39607787e-01 1.14715956e-02
      5.70893846e-03 2.58248020e-03 1.73214264e-03 8.49504024e-03
      8.26327782e-03 9.32836086e-02 4.03701037e-01 1.49529859e-01
      1.59796178e-02 1.21517712e-02 1.35192294e-02 7.32236076e-04
      1.27095906e-02 1.60464067e-02 1.81337148e-01 3.98508787e-01
      2.07292035e-01 1.33129451e-02 8.99942685e-03 1.98283326e-02
      8.33863684e-04 1.21559761e-02 1.24642868e-02 2.62598813e-01
      3.98508787e-01 8.31376016e-02 9.88513418e-03 6.62912102e-03
      4.33704071e-03 1.29426224e-03 7.99364876e-03 9.43574961e-03
      1.73475727e-01 3.98508787e-01 1.04504429e-01 6.57521002e-03
      4.86480910e-03 7.32584205e-03 1.13961857e-03 6.10669842e-03
      9.65549983e-03 3.78360331e-01 3.98508787e-01 1.18033566e-01
      1.36814807e-02 3.13597382e-03 1.48272160e-02 1.90903898e-03
      9.41449590e-03 1.55946789e-02 2.44925290e-01 3.60201716e-01
      6.87920824e-02 1.98025852e-02 1.30889677e-02 1.72581561e-02
      8.54878780e-03 5.97094884e-03 2.26801988e-02 3.60201716e-01
      3.60201716e-01 5.87679520e-02 9.67732444e-03 3.59494612e-03
      7.62733305e-03 2.31476431e-03 5.74882515e-03 1.28571689e-02
      3.60201716e-01 3.60201716e-01 4.30328324e-02 1.73756853e-02
      1.52544416e-02 1.26059074e-02 7.76475761e-03 1.03228278e-02
      2.75769625e-02 3.60201716e-01 3.60201716e-01 5.99001683e-02
      1.79566368e-02 1.42970746e-02 8.21461901e-03 1.05269486e-02
      3.40984901e-03 1.49723291e-02 3.44770759e-01 3.44770759e-01
      1.00511938e-01 1.73486415e-02 1.16678681e-02 3.02458368e-03
      2.12835125e-03 1.31663075e-03 1.08572012e-02 3.44770759e-01
      3.44770759e-01 6.53848201e-02 2.26459112e-02 2.40978487e-02
      1.09746754e-02 1.10426350e-02 1.24631859e-02 3.23066153e-02
      3.44770759e-01 3.44770759e-01 1.27049565e-01 4.46262695e-02
      5.61011098e-02 2.88182124e-02 7.67973717e-03 1.34895481e-02
      3.54422070e-02 3.44770759e-01 3.44770759e-01 4.26029861e-02
      6.47179876e-03 8.32937006e-03 2.77941697e-03 2.52792961e-04
      1.24904141e-03 2.00223178e-02 3.61045748e-01 3.61045748e-01
      1.14620794e-02 6.06282090e-04 1.15055032e-03 1.32212939e-03
      2.07716669e-03 5.23950672e-04 4.49233949e-02 3.61045748e-01
      2.27305278e-01 8.78379643e-02 2.88043115e-02 4.78874706e-02
      2.71793380e-02 1.07311392e-02 7.06929481e-03 3.46799456e-02
      3.61045748e-01 3.61045748e-01 3.28608677e-02 3.80102987e-03
      8.79572891e-03 4.04862687e-03 8.87792371e-03 1.23326648e-02
      1.15710907e-01 3.61045748e-01 3.61045748e-01 1.05413562e-02
      3.06030735e-04 0. 2.30552559e-03 4.28562053e-03 2.00380129e-03
      4.85756993e-02 4.06717509e-01 1.77918911e-01 2.26151198e-02
      1.53524417e-03 0. 5.32044389e-04 9.77448421e-04 5.06997295e-03
      3.37903425e-02 2.75178134e-01 1.30683646e-01 1.48390029e-02
      2.38023873e-04 0. 4.36843699e-03 4.44582012e-03 1.20628253e-02
      1.96297705e-01 4.27131981e-01 3.57723683e-01 3.61407474e-02
      3.03901406e-03 0. 1.00810081e-03 7.67844962e-04 3.29741910e-02
      2.06255287e-01 4.27131981e-01 3.53474110e-01 1.51459485e-01
      3.35961789e-01 3.35961789e-01 1.01550996e-01 4.64968570e-02
      2.13810541e-02 1.36884255e-02 1.32477526e-02 5.82071356e-02
      1.90487325e-01 3.35961789e-01 1.95300788e-01 5.11157438e-02
      1.26470536e-01 4.96582240e-02 3.73876952e-02 3.62085439e-02
      8.45799968e-02 1.75453424e-01 2.59451538e-01 2.96121567e-01
      1.29232734e-01 1.00011349e-01 3.45323533e-02 2.34566946e-02
      4.18309979e-02 1.00610137e-01 8.98372680e-02 2.11693481e-01
      3.35961789e-01 3.16298753e-01 1.20455779e-01 1.49879474e-02
      3.74758393e-02 4.10201214e-02 5.76107018e-02 1.11035295e-01
      2.25289106e-01 2.14454666e-01 2.15428770e-02 5.45350574e-02
      2.95586828e-02 2.28585228e-02 4.57062013e-02 8.75845775e-02
      1.20675355e-01 3.66220474e-01 3.66220474e-01 3.54067795e-02
      1.73359774e-02 2.92149261e-02 1.28257480e-02 3.52955833e-02
      7.30018839e-02 3.30468267e-02 2.62803465e-01 3.66220474e-01
      2.90480942e-01 4.99948934e-02 5.17976517e-03 7.03566521e-03
      8.79105274e-03 2.52917726e-02 3.00727542e-02 3.66220474e-01
      3.66220474e-01 1.34316921e-01 3.20267640e-02 1.46042705e-02
      1.32401532e-03 3.23419343e-03 1.86684243e-02 1.92661792e-01
      4.22736853e-01 2.79892653e-01 3.60131934e-02 9.15186293e-03
      9.41216573e-03 1.09869766e-03 8.23025778e-03 2.50927899e-02
      4.22736853e-01 4.22736853e-01 6.84299916e-02 1.13030886e-02
      2.62250751e-03 1.04954105e-03 4.71186475e-04 5.56476740e-03
      2.76353471e-02 3.82734202e-02 4.22736853e-01 2.98600197e-01
      3.63550335e-02 1.58240534e-02 1.30897192e-02 1.89652992e-03
      6.93028141e-03 1.29919304e-02 8.22591856e-02 2.33787090e-01
      3.71416174e-02 2.00912114e-02 8.14135093e-03 5.22517646e-03
      7.31308572e-03 2.62674708e-02 3.28286961e-02 4.63697165e-01
      4.63697165e-01 3.16802263e-02 7.09974812e-03 1.37700839e-03
      2.99078622e-03 2.13722442e-03 1.29059311e-02 8.77748728e-02
      4.63697165e-01 4.63697165e-01 7.01968521e-02 5.62650375e-02
      1.78516433e-02 1.54715721e-02 2.82781036e-03 4.88791727e-02
      7.39861876e-02 1.38730973e-01 1.45966515e-01 2.73837242e-02
      1.93050765e-02 1.53572764e-02 1.22128716e-02 2.25134622e-02
      6.85835630e-02 8.41242746e-02 5.79547323e-02 7.00284168e-02
      8.73247311e-02 1.13176316e-01 7.19782561e-02 1.17765650e-01
      3.08428593e-02 4.52610776e-02 6.89279139e-02 2.36121684e-01
      1.18302956e-01 6.12307452e-02 8.48490894e-02 2.63156127e-02
      2.06285696e-02 2.24394631e-03 2.16516554e-02 5.99686019e-02
      2.96282530e-01 1.38479754e-01 7.58184344e-02 9.96971577e-02
      3.62938903e-02 5.25316373e-02 7.65780499e-03 2.73220651e-02
      2.96282530e-01 5.90433441e-02 6.58809394e-02 8.43435973e-02
      1.70629352e-01 1.62873551e-01 2.96282530e-01 1.77564323e-02
      6.93563279e-03 3.40200588e-02 2.96282530e-01 2.33737230e-01
      1.96485952e-01 2.96282530e-01 2.96282530e-01 2.96282530e-01
      6.04356565e-02 1.20426016e-02 2.96282530e-01 3.13440859e-01
      6.04103170e-02 2.30730642e-02 1.76169351e-02 9.12826229e-03
      1.18568428e-02 2.90575251e-03 2.46981736e-02 3.13440859e-01
      3.13440859e-01 3.55458967e-02 1.27967801e-02 2.40805419e-03
      2.79231253e-03 1.11741782e-03 1.07502425e-03 3.41851115e-02
      3.13440859e-01 3.13440859e-01 2.24036112e-01 1.34678796e-01
      1.35112956e-01 1.98068827e-01 1.80057645e-01 2.68134866e-02
      3.38856392e-02 3.13440859e-01 3.13440859e-01 1.51266545e-01
      5.78884967e-02 3.20314169e-02 9.22212526e-02 5.81871271e-02
      5.67584345e-03 6.06101975e-02 3.13440859e-01 3.20295960e-01
      1.09215602e-02 6.63132733e-03 7.34105648e-04 8.76820588e-04
      3.00329225e-03 2.84148776e-03 2.18666606e-02 3.20295960e-01
      3.20295960e-01 2.65769213e-02 1.26739461e-02 5.52944746e-03
      3.57623678e-03 7.60834944e-03 6.58987975e-03 2.87842639e-02
      3.20295960e-01 3.20295960e-01 1.50439842e-02 6.35769870e-03
      2.75331102e-02 7.88972303e-02 7.92987794e-02 4.23702374e-02
      7.10612461e-02 3.20295960e-01 3.20295960e-01 1.42969996e-01
      1.21287279e-01 7.09177777e-02 2.29850248e-01 2.00502291e-01
      9.43085328e-02 1.05328441e-01 3.20295960e-01 2.79676974e-01
      4.84871119e-02 3.68662141e-02 2.23152339e-02 7.86760170e-03
      1.92004051e-02 2.26486828e-02 6.46419972e-02 2.79676974e-01
      1.40837252e-01 4.07769904e-02 5.01987189e-02 3.23789194e-02
      3.06094401e-02 5.36211133e-02 4.38599102e-02 8.83157775e-02
      1.94639787e-01 2.79676974e-01 2.79676974e-01 2.79676974e-01
      1.24159649e-01 1.69293508e-01 1.30955637e-01 1.19437724e-01
      2.04361424e-01 2.79676974e-01 1.57693252e-01 2.79676974e-01
      2.52685934e-01 1.35506928e-01 7.81636834e-02 1.08007409e-01
      1.14986017e-01 2.32754514e-01 2.33128488e-01 6.70063049e-02
      4.56608534e-02 4.72932458e-02 4.92229648e-02 7.94094279e-02
      7.77857006e-02 3.94590683e-02 5.77400215e-02 7.49423578e-02
      3.33087534e-01 1.46934122e-01 5.03024906e-02 1.01209231e-01
      8.21985304e-02 6.66007251e-02 4.35524248e-02 1.01898596e-01
      3.33087534e-01 9.40197036e-02 9.72493514e-02 9.79802459e-02
      1.20661914e-01 1.65606976e-01 1.84212059e-01 9.37586725e-02
      1.26027033e-01 1.27426520e-01 3.33087534e-01 2.10233212e-01
      6.91206306e-02 1.69738516e-01 1.80698365e-01 2.51891583e-01
      1.77162111e-01 3.33087534e-01 3.33087534e-01 1.62709981e-01
      3.66669782e-02 7.49599608e-03 1.93416327e-02 8.41274019e-03
      1.39682805e-02 1.74771901e-02 1.01616405e-01 3.42545360e-01
      6.46285191e-02 6.19800342e-03 2.86128116e-03 1.60271791e-03
      1.55072031e-03 1.36548392e-02 3.32819894e-02 2.17209041e-01
      3.42545360e-01 2.01488182e-01 8.52274671e-02 3.08506414e-02
      4.24848646e-02 4.53142338e-02 6.79343566e-02 9.42692682e-02
      3.42545360e-01 3.42545360e-01 5.41237853e-02 3.28128599e-02
      4.51831967e-02 5.66915683e-02 1.11172289e-01 1.16662815e-01
      3.15119982e-01 3.42545360e-01 3.42545360e-01 5.24389409e-02
      1.34909013e-02 7.62510905e-03 3.02970456e-03 2.42987857e-03
      1.71760693e-02 7.73480535e-02 3.26119542e-01 3.37784082e-01
      5.97383529e-02 8.64025671e-03 9.05775931e-03 5.25636785e-03
      4.55188099e-03 5.91947837e-03 3.88212018e-02 2.59547353e-01
      3.37784082e-01 2.13999655e-02 1.06134778e-02 4.07673642e-02
      1.36154547e-01 2.14580074e-01 2.30647683e-01 3.37784082e-01
      3.37784082e-01 3.04935962e-01 3.38313878e-02 7.69967306e-03
      1.93021763e-02 6.77818879e-02 9.51145515e-02 9.69902128e-02
      2.84712404e-01 1.64832562e-01 7.78467208e-02 7.11533353e-02
      5.43424021e-03 1.05014695e-02 5.95889566e-03 1.20446300e-02
      5.07813646e-03 2.36570016e-02 4.69425589e-01 4.69425589e-01
      6.51729703e-02 8.32634885e-03 1.31178638e-02 6.89063082e-03
      6.89129531e-03 1.32591110e-02 4.66511101e-02 4.69425589e-01
      4.69425589e-01 4.66259047e-02 1.23620648e-02 2.54028924e-02
      2.09798329e-02 2.08955500e-02 1.92914419e-02 4.96932864e-02
      6.14846274e-02 7.37493783e-02 7.02412426e-02 2.63037160e-02
      2.63681300e-02 1.15006538e-02 1.52376238e-02 1.76042877e-02
      4.32759225e-02 2.39054397e-01 1.37985691e-01 1.90210976e-02
      6.03153463e-03 1.00675011e-02 3.45087028e-03 2.17943662e-03
      1.14999274e-02 4.62231189e-02 4.09452438e-01 3.91039699e-01
      4.54786159e-02 2.29562875e-02 4.98944372e-02 2.57167351e-02
      6.08831877e-03 1.22129582e-02 1.25688046e-01 4.09452438e-01
      3.35087776e-01 2.31549572e-02 1.02908574e-02 1.00282123e-02
      3.40723270e-03 3.29196057e-03 1.02195665e-02 3.55348550e-02
      3.58976394e-01 9.90530401e-02 1.46290902e-02 3.39454995e-03
      9.15704481e-03 3.91365588e-03 2.19654432e-03 7.01578567e-03
      1.98747784e-01 4.09452438e-01 1.50192097e-01 6.48238659e-02
      2.03669928e-02 4.56756800e-02 2.28177253e-02 1.40124289e-02
      1.15871327e-02 1.41073942e-01 3.71977359e-01 1.95135757e-01
      5.88080734e-02 9.18108597e-03 8.61092750e-03 1.03906635e-02
      2.87890844e-02 3.47517356e-02 1.71620309e-01 3.71977359e-01
      1.92489624e-01 1.34090893e-02 2.39322078e-03 6.91312551e-03
      2.26006727e-03 4.35064919e-03 2.17430592e-02 3.71977359e-01
      3.71977359e-01 7.77700096e-02 3.50473598e-02 1.55051025e-02
      5.15422830e-03 1.28169414e-02 3.55684571e-02 1.14282742e-01
      3.71977359e-01 3.71977359e-01 7.42688775e-02 4.18986678e-02
      1.28855109e-02 1.95550689e-04 1.86759904e-02 2.66296323e-02
      3.12275626e-02 1.74976274e-01 3.37541461e-01 2.03911856e-01
      2.93838084e-02 9.45797004e-03 5.83024230e-03 8.72986671e-03
      9.04512778e-03 6.53949529e-02 3.37541461e-01 3.37541461e-01
      2.83504605e-01 5.84641621e-02 4.06154431e-02 1.39970351e-02
      2.88695190e-02 5.22100292e-02 1.08149543e-01 2.99024850e-01
      2.66087055e-01 1.12234250e-01 8.30641538e-02 4.09671068e-02
      3.38072702e-02 2.21644212e-02 2.63901819e-02 1.01167202e-01
      3.22220474e-01 3.37541461e-01 2.46250704e-01 1.39927417e-01
      9.96956974e-02 7.59108067e-02 6.27546608e-02 1.41202256e-01
      5.92415668e-02 4.21115309e-02 7.29112923e-02 1.31877616e-01
      4.02070098e-02 9.47006196e-02 3.40986371e-01 3.40986371e-01
      2.66757160e-01 4.68814261e-02 5.01032360e-02 7.63160363e-02
      4.20753844e-02 1.16600476e-01 5.19375540e-02 1.01069793e-01
      1.63804889e-01 3.21041524e-01 1.21763907e-01 4.19668593e-02
      5.17902337e-02 9.32558924e-02 6.84558600e-02 4.75487746e-02
      1.72769219e-01 3.40986371e-01 3.40986371e-01 3.40986371e-01
      9.02582332e-02 4.80861403e-02 4.90915030e-02 7.29497243e-03
      9.26393867e-02 3.34295958e-01 3.34295958e-01 1.65501192e-01
      2.25353315e-02 1.06655378e-02 1.66884325e-02 4.84601734e-03
      1.16036739e-02 1.52628586e-01 3.34295958e-01 3.18250299e-01
      9.80897769e-02 4.56890278e-02 6.11301558e-03 1.30164402e-03
      3.81287420e-03 7.96721596e-03 6.59264671e-03 1.32654920e-01
      3.34295958e-01 3.34295958e-01 3.34295958e-01 1.63278878e-01
      1.44772753e-02 7.66111398e-03 5.21456730e-03 1.07578430e-02
      7.44045600e-02 2.09636629e-01 1.26707941e-01 1.56697065e-01
      1.33220866e-01 9.41445865e-03 2.71264184e-03 1.24314055e-01
      4.18326467e-01 4.18326467e-01 2.42594212e-01 2.09764376e-01
      1.91324174e-01 4.50619496e-02 4.17061374e-02 7.78622478e-02
      1.73405379e-01 1.42987981e-01 1.13721766e-01 1.10991292e-01
      6.05261996e-02 3.55992019e-02 7.18448535e-02 2.06187561e-01
      1.50118142e-01 1.16538681e-01 1.13678299e-01 1.13449067e-01
      1.70537189e-01 1.70232415e-01 2.50664473e-01 1.67766079e-01
      4.90524545e-02 8.83354098e-02 1.76919952e-01 2.03554079e-01
      1.24545895e-01 1.09064937e-01 6.60453886e-02 4.10214178e-02
      3.00484542e-02 9.60795656e-02 1.23409510e-01 1.64943561e-01
      1.20027557e-01 7.70455822e-02 6.09585121e-02 4.04152758e-02
      2.56379973e-02 6.76070377e-02 2.27017149e-01 1.77852988e-01
      1.52232438e-01 1.32006094e-01 1.54887095e-01 1.79321155e-01
      1.59198686e-01 3.39057863e-01 1.38280004e-01 1.73359379e-01
      2.04582408e-01 2.59798706e-01 1.82690918e-01 1.15057230e-01
      6.16083369e-02 3.31452377e-02 1.52128395e-02 3.30875479e-02
      9.57185104e-02 1.77620873e-01 3.85852307e-01 2.22650722e-01
      1.27799809e-01 9.25362855e-02 9.10351127e-02 9.91524160e-02
      9.76183414e-02 1.45220771e-01 3.06008846e-01 1.11546740e-02
      2.00114995e-02 2.73930784e-02 7.02741519e-02 2.16950074e-01
      3.19112629e-01 4.11907397e-02 1.48897571e-02 1.25922943e-02
      9.24030766e-02 7.43630826e-02 8.49080458e-02 2.34466121e-01
      3.19112629e-01 3.19112629e-01 1.85685560e-01 6.11384809e-02
      1.00733072e-01 3.52876969e-02 1.84872504e-02 1.25724720e-02
      2.79933866e-02 1.23134211e-01 1.23959571e-01 6.67789802e-02
      5.25633916e-02 5.34181185e-02 2.27619201e-01 5.99785596e-02
      1.71780735e-02 5.49747907e-02 3.19112629e-01 3.19112629e-01
      2.49125034e-01 2.04741746e-01 3.19112629e-01 1.74163982e-01
      1.42267615e-01 1.12021104e-01 1.81047216e-01 2.67099589e-01
      2.67099589e-01 9.57039148e-02 3.68033536e-02 1.10972971e-01
      2.67099589e-01 1.10585861e-01 6.11688830e-02 8.03632364e-02
      2.67099589e-01 1.90306425e-01 1.24289664e-02 2.26656217e-02
      2.46787205e-01 2.67099589e-01 1.46299660e-01 4.82717454e-02
      8.80384222e-02 2.67099589e-01 1.83564335e-01 9.71140563e-02
      8.51980895e-02 2.67099589e-01 2.67099589e-01 1.21253937e-01
      4.70409021e-02 8.29606429e-02 2.21423626e-01 1.04335897e-01
      7.01248320e-03 7.80071644e-03 1.48170218e-01 2.36698210e-01
      1.43028302e-02 1.15837622e-02 6.03045486e-02 1.68575481e-01
      1.65696844e-01 7.31239691e-02 7.59053826e-02 2.48614684e-01
      1.30546406e-01 1.06575809e-01 1.06332317e-01 1.04812130e-01
      2.79268295e-01 2.79268295e-01 2.47048438e-01 2.79268295e-01
      1.91089720e-01 2.79268295e-01 1.95667613e-02 8.77582841e-03
      2.39381958e-02 6.79922700e-02 9.00453627e-02 4.87627760e-02
      6.78116605e-02 1.98082864e-01 2.79268295e-01 1.70999300e-02
      5.01493225e-03 2.15807222e-02 8.69316682e-02 1.28770515e-01
      1.71291679e-01 2.79268295e-01 2.79268295e-01 5.29847890e-02
      1.54733360e-01 1.26538023e-01 4.29669842e-02 1.16975591e-01
      7.68516660e-02 1.41466141e-01 3.29061210e-01 1.69443876e-01
      1.42319664e-01 1.04587570e-01 7.30480999e-02 2.95874830e-02
      2.38493681e-02 1.79544780e-02 7.46995956e-02 2.66259670e-01
      3.29061210e-01 2.44549170e-01 7.05143390e-03 4.93600406e-03
      5.10654598e-03 2.38933284e-02 2.48646028e-02 9.27662402e-02
      3.29061210e-01 3.29061210e-01 3.29061210e-01 1.80896092e-03
      1.79291051e-03 6.42804371e-04 3.70232877e-03 2.15330115e-03
      3.72149721e-02 2.19598860e-01 3.29061210e-01 2.19887093e-01
      1.48747182e-02 1.10531030e-02 1.35586457e-02 1.64562706e-02
      1.64228305e-02 2.32400186e-02 4.96580005e-02 3.36904287e-01
      3.65868121e-01 3.82072963e-02 6.13074377e-03 1.17916642e-02
      2.01496705e-02 2.69864630e-02 2.36301105e-02 7.01792538e-02
      3.70123655e-01 3.70123655e-01 9.14470875e-04 9.32953626e-05
      7.17296032e-04 1.16256962e-03 5.00204624e-04 6.50745723e-03
      3.29652913e-02 3.70123655e-01 3.70123655e-01 4.32856530e-02
      3.51381348e-03 1.80098240e-03 2.83262483e-03 3.05881316e-04
      1.79613463e-03 1.64211821e-02 3.70123655e-01 2.96152502e-01
      1.51611760e-01 5.79041541e-02 2.35523805e-02 3.93593423e-02
      3.14028598e-02 4.50262874e-02 1.75722867e-01 2.96152502e-01
      1.68827757e-01 2.53077418e-01 1.64446011e-01 1.21907763e-01
      1.39172092e-01 9.03030708e-02 1.56494945e-01 2.76997834e-01
      1.48179382e-01 2.96152502e-01 1.76505834e-01 4.23196629e-02
      1.19815329e-02 1.14332754e-02 4.17526858e-03 6.43446064e-03
      3.06686405e-02 2.96152502e-01 2.96152502e-01 2.96152502e-01
      1.40158579e-01 6.66528121e-02 3.79636921e-02 1.71426348e-02
      9.55727790e-03 4.30814661e-02 2.47639909e-01 9.38905627e-02
      2.76622742e-01 2.76622742e-01 2.76622742e-01 2.76622742e-01
      2.20390916e-01 2.76622742e-01 2.76622742e-01 5.95409460e-02
      3.69321965e-02 7.14982972e-02 8.55902210e-02 1.66978970e-01
      1.51827782e-01 9.14299712e-02 1.67143509e-01 5.85397184e-02
      2.27721985e-02 2.76622742e-01 2.76622742e-01 2.76622742e-01
      2.05665588e-01 1.00485630e-01 3.59208956e-02 1.67594645e-02
      5.42355999e-02 1.94531798e-01 7.91184902e-02 1.29516035e-01
      8.93407166e-02 9.38121378e-02 5.21319993e-02 1.56214042e-02
      1.62466411e-02 4.04580086e-02 5.66969626e-02 2.79706717e-01
      1.88864306e-01 1.21009447e-01 1.74904510e-01 1.59024626e-01
      1.18094921e-01 2.08531126e-01 1.90125018e-01 1.76348925e-01
      2.79406011e-01 1.89239666e-01 1.20065339e-01 5.29462807e-02
      1.32431954e-01 6.24678545e-02 1.25786424e-01 2.24152625e-01
      1.94922447e-01 3.32801700e-01 2.59353727e-01 9.09139067e-02
      9.01726559e-02 7.99584985e-02 5.24865016e-02 1.00099035e-01
      2.20534518e-01 1.80674255e-01 1.91409260e-01 1.44406378e-01
      1.22593418e-01 5.32668047e-02 9.82724726e-02 4.75283489e-02
      1.03560776e-01 1.25266418e-01 1.45932451e-01 1.96497694e-01
      9.70815420e-02 9.32539776e-02 3.44671980e-02 5.17443158e-02
      2.53402591e-02 1.05238587e-01 2.60172397e-01 1.95949063e-01
      1.48873284e-01 5.66969141e-02 7.54584447e-02 4.11861315e-02
      4.34373952e-02 5.31890877e-02 5.41305959e-01 5.41305959e-01
      2.56701380e-01 1.22419477e-01 7.28788599e-02 8.78968313e-02
      3.19177508e-02 4.42970544e-02 9.21102799e-03 4.38949876e-02
      9.39085782e-02 1.19258404e-01 1.29756927e-01 8.74609724e-02
      7.69757628e-02 3.46584246e-02 4.24845666e-02 2.79943757e-02
      8.05387199e-02 1.15884051e-01 1.28898263e-01 6.80372957e-03
      2.50044977e-03 6.06840570e-03 2.32766010e-03 8.79001990e-03
      5.81911653e-02 3.46566647e-01 3.46566647e-01 1.65952761e-02
      5.93108358e-03 6.47646375e-03 7.47243594e-03 5.78896422e-03
      6.00072742e-02 3.46566647e-01 3.46566647e-01 3.46136838e-01
      2.01086849e-02 1.09769311e-02 5.73610933e-03 1.35314809e-02
      1.09877083e-02 2.12884154e-02 6.37848973e-02 1.04082920e-01
      2.08161958e-02 1.32523682e-02 2.73628091e-03 1.56474777e-03
      1.02518741e-02 9.20537710e-02 3.46566647e-01 3.46566647e-01
      3.46566647e-01 5.41327260e-02 4.65461146e-03 3.52099836e-02
      1.99140254e-02 1.76625066e-02 2.33364310e-02 1.48045897e-01
      3.33938062e-01 3.33938062e-01 2.24506631e-01 6.51605129e-02
      9.52369943e-02 2.56736632e-02 2.93229111e-02 4.89029214e-02
      1.17295861e-01 1.47988364e-01 1.67426974e-01 2.06728101e-01
      2.04546303e-01 9.14452691e-03 3.94185481e-04 2.60711298e-03
      1.35251537e-01 3.33938062e-01 3.33938062e-01 3.13573152e-01
      7.29586631e-02 1.70650650e-02 3.35275084e-02 1.56247951e-02
      2.13760622e-02 9.54561830e-02 3.33938062e-01 2.14842960e-01
      8.47629234e-02 7.65831470e-02 7.94589221e-02 8.37246999e-02
      5.70904575e-02 1.10271148e-01 2.03024685e-01 2.41074830e-01
      1.34663388e-01 3.60270068e-02 1.96762923e-02 3.43976691e-02
      1.15745313e-01 5.84045462e-02 1.17447123e-01 1.96372822e-01
      2.94418752e-01 2.94418752e-01 2.69903362e-01 2.04569027e-02
      5.50000705e-02 8.40371251e-02 5.09246439e-02 5.23007698e-02
      1.05110213e-01 8.80435854e-02 1.85591653e-01 2.94418752e-01
      2.94418752e-01 5.70468269e-02 1.39714286e-01 6.54162019e-02
      7.76163489e-02 1.10324040e-01 1.05788320e-01 2.94418752e-01
      2.94418752e-01 2.48319060e-01 7.07308650e-02 1.56033253e-02
      5.41581213e-03 2.52639949e-02 8.10553953e-02 2.13842720e-01
      3.33641261e-01 3.33641261e-01 2.95615476e-02 1.18339509e-02
      1.25399337e-03 2.44405726e-03 9.54832602e-03 1.91411935e-02
      6.60275668e-02 2.49218360e-01 2.64542311e-01 7.59781823e-02
      6.70418097e-03 3.44966017e-02 1.31791849e-02 1.92846935e-02
      3.47952284e-02 4.74937111e-02 3.33641261e-01 3.33641261e-01
      2.79138535e-01 3.51122804e-02 7.49941869e-03 2.27054884e-03
      6.54639327e-04 1.41008920e-03 3.30090150e-02 2.09417656e-01
      3.33641261e-01 3.33641261e-01 4.94654998e-02 1.93380155e-02
      2.47936212e-02 2.92269532e-02 2.49046087e-02 5.82850352e-02
      1.78291991e-01 1.56182975e-01 1.59870535e-01 3.65285911e-02
      5.16346954e-02 6.14074282e-02 5.06769381e-02 2.80405283e-02
      2.66663674e-02 3.74603570e-02 2.32101716e-02 3.07005811e-02
      4.03898731e-02 7.97334965e-03 1.15340250e-02 1.41878920e-02
      3.61260632e-03 3.51870470e-02 3.07413161e-01 4.78621930e-01
      4.78621930e-01 2.23433211e-01 3.67658213e-02 4.53004390e-02
      3.40919681e-02 1.35920551e-02 2.71499380e-02 1.06658496e-01
      2.04421625e-01 4.47025657e-01 1.68968379e-01 2.22136527e-01
      1.59712583e-01 1.53259054e-01 5.46334013e-02 5.58048673e-02
      7.21995085e-02 3.58622074e-02 5.36790527e-02 1.76211640e-01
      3.70389640e-01 1.91891417e-01 1.26150966e-01 3.87071893e-02
      3.92328985e-02 7.14251697e-02 6.00631274e-02 9.88351256e-02
      3.67490262e-01 1.18519917e-01 1.09382987e-01 9.54702869e-02
