<?xml version="1.0"?>
<opencv_storage>
<my_svm type_id="opencv-ml-svm">
  <svm_type>C_SVC</svm_type>
  <kernel><type>RBF</type>
    <gamma>1.5000000000000001e-04</gamma></kernel>
  <C>6.2500000000000000e+01</C>
  <term_criteria><epsilon>2.2204460492503131e-16</epsilon>
    <iterations>10000</iterations></term_criteria>
  <var_all>3780</var_all>
  <var_count>3780</var_count>
  <class_count>2</class_count>
  <class_labels type_id="opencv-matrix">
    <rows>1</rows>
    <cols>2</cols>
    <dt>i</dt>
    <data>
      -1 1</data></class_labels>
  <sv_total>41</sv_total>
  <support_vectors>
    <_>
      1.92923263e-01 4.65671755e-02 4.39136662e-02 4.17247489e-02
      4.85060699e-02 5.75429536e-02 6.41647726e-02 1.04941092e-01
      3.33203346e-01 2.43169725e-01 1.59143493e-01 2.48164073e-01
      6.39981329e-02 3.11277993e-02 4.65159602e-02 4.66734543e-02
      4.71042134e-02 2.44464874e-01 1.88918665e-01 1.12655401e-01
      9.75520611e-02 4.41248007e-02 4.69510742e-02 6.59198686e-02
      2.18714103e-02 7.03571215e-02 1.79134294e-01 4.52428490e-01
      4.52428490e-01 2.34548941e-01 3.63978669e-02 1.33531960e-02
      4.20355499e-02 4.41850871e-02 6.58444464e-02 1.59079909e-01
      6.33813515e-02 7.53887966e-02 6.93409666e-02 2.11989712e-02
      8.95583536e-03 1.63198747e-02 3.29936929e-02 2.68540289e-02
      3.91566642e-02 1.37221709e-01 1.05225578e-01 7.40578100e-02
      2.98645254e-02 3.13599594e-02 4.57437970e-02 7.56012201e-02
      3.76970842e-02 3.21974196e-02 3.33655387e-01 5.08198082e-01
      8.18644837e-02 1.57922506e-02 1.50366768e-03 8.70614219e-03
      1.65938661e-02 1.03041809e-02 2.39397995e-02 5.08198082e-01
      5.08198082e-01 1.74717307e-01 3.32487263e-02 8.54756404e-03
      3.06843780e-02 1.31441290e-02 1.27825346e-02 4.07543965e-02
      1.81105405e-01 7.03607798e-02 2.08743941e-02 7.72690168e-03
      1.24208648e-02 1.52395098e-02 2.03258432e-02 1.01643046e-02
      3.03552244e-02 4.29108381e-01 1.34852439e-01 1.83937643e-02
      1.06643960e-02 4.42379015e-03 1.80766487e-03 4.41181753e-03
      8.77330173e-03 5.99440262e-02 4.29108381e-01 4.29108381e-01
      5.30017167e-02 6.90865889e-03 6.26479834e-03 1.42323012e-02
      7.19442032e-03 2.34561246e-02 3.19109224e-02 4.29108381e-01
      4.29108381e-01 2.84899864e-02 8.23192392e-03 5.89207467e-03
      4.44108946e-03 1.42768901e-02 3.01105715e-02 7.65546933e-02
      4.03491259e-01 1.09823920e-01 1.05433296e-02 5.29280677e-03
      1.62721646e-03 2.49357283e-04 1.09712628e-03 2.59525189e-03
      1.06725149e-01 4.03491259e-01 1.35340229e-01 8.02252628e-03
      1.25538919e-03 1.06463302e-03 3.20602237e-04 1.25068554e-03
      7.28668738e-03 2.00689927e-01 4.03491259e-01 2.56707281e-01
      1.72603354e-02 9.46328137e-03 6.23682607e-03 4.27481532e-03
      1.55655844e-02 1.45343300e-02 1.70967489e-01 4.03491259e-01
      2.87511289e-01 2.54129674e-02 2.59804167e-02 7.57791614e-03
      1.60532128e-02 2.05982346e-02 3.32066044e-02 2.83865243e-01
      3.89285594e-01 6.66635409e-02 7.55249569e-03 2.36679777e-03
      6.72570197e-04 3.58678080e-05 8.55855527e-04 1.19232349e-02
      1.66614890e-01 3.89285594e-01 3.16910148e-02 3.24548874e-03
      1.41698006e-03 7.74780056e-04 9.79383592e-04 1.35852105e-03
      1.40624680e-02 2.53299385e-01 3.89285594e-01 1.81980327e-01
      2.07705162e-02 2.57580727e-02 3.84942535e-03 1.60696544e-02
      3.44865322e-02 4.45228554e-02 2.93969125e-01 3.89285594e-01
      1.07369885e-01 1.80182997e-02 9.10796877e-03 8.43690766e-04
      8.52485932e-03 2.15280615e-02 6.37065247e-02 3.89285594e-01
      3.69955420e-01 3.50080244e-02 2.14941660e-03 0. 5.89286617e-04
      2.68251728e-03 2.83413613e-03 1.12795774e-02 2.12054268e-01
      3.69955420e-01 4.91923913e-02 8.42033699e-03 0. 8.24581773e-04
      3.11194733e-03 3.69100063e-03 1.01218885e-02 3.26605439e-01
      3.69955420e-01 7.38147721e-02 1.00182695e-02 0. 0. 8.04912392e-03
      7.85216130e-03 4.82158400e-02 3.69955420e-01 3.69955420e-01
      8.79366919e-02 1.73375458e-02 0. 0. 5.60333813e-03 7.04376865e-03
      5.79540841e-02 3.69955420e-01 3.50454956e-01 1.47849442e-02
      3.94670339e-03 0. 6.95058028e-04 9.39185848e-04 1.30498561e-03
      1.28804175e-02 3.50454956e-01 3.50454956e-01 7.52470130e-03
      2.30683107e-03 0. 8.31518963e-04 2.66475283e-04 5.49504824e-04
      2.41231155e-02 3.50454956e-01 3.50454956e-01 3.96603756e-02
      5.84424241e-03 0. 0. 5.28029981e-04 7.89004785e-04 5.95070347e-02
      3.50454956e-01 3.50454956e-01 4.77658063e-02 3.32184206e-03 0.
      2.57841602e-04 1.72328975e-04 1.70080455e-06 7.38861412e-02
      3.50454956e-01 3.37214381e-01 1.16151497e-02 4.09925263e-03
      1.46771214e-04 1.11817801e-03 2.55437742e-04 4.78214468e-04
      5.03421240e-02 3.48816097e-01 3.29463214e-01 1.12026343e-02
      3.91702913e-03 6.36008510e-04 9.70047782e-04 1.70291842e-05
      8.40760942e-04 5.13844155e-02 3.48816097e-01 3.48816097e-01
      7.86441490e-02 1.08486321e-02 6.36008510e-04 6.18921069e-04
      6.65154424e-04 2.79444247e-03 9.78419930e-02 3.48816097e-01
      3.48816097e-01 5.12734242e-02 2.71996502e-02 1.05070993e-02
      2.82038413e-02 1.52788712e-02 2.38430053e-02 1.33368865e-01
      3.48816097e-01 3.58976066e-01 8.77314061e-03 1.97101966e-03
      3.51626630e-04 1.64395059e-03 1.28953473e-03 1.22588838e-03
      2.04609111e-02 3.58976066e-01 2.98156977e-01 1.14667173e-02
      6.24006614e-04 9.33414034e-04 2.33283150e-03 2.83697667e-03
      1.03904062e-03 3.17354500e-02 3.58976066e-01 3.58976066e-01
      2.46257111e-02 1.94009617e-02 1.78852789e-02 5.06369956e-02
      2.99319439e-02 2.62362305e-02 8.12131241e-02 3.58976066e-01
      3.29848289e-01 1.74490344e-02 1.00014331e-02 9.22595430e-03
      2.85927039e-02 3.99932675e-02 9.24436469e-03 9.39920768e-02
      3.58976066e-01 1.98121414e-01 1.89119689e-02 4.02082835e-04
      6.66075095e-04 1.02242583e-03 7.44749384e-04 2.29116413e-04
      8.64808634e-02 4.07583058e-01 1.48128375e-01 1.43408589e-02
      1.13188493e-04 0. 8.38769949e-04 0. 6.55268814e-05 1.10204861e-01
      4.07583058e-01 2.47257382e-01 1.63868647e-02 5.92002366e-03
      1.60485669e-03 9.83535778e-03 2.48530339e-02 7.08012609e-03
      2.18823284e-01 4.07583058e-01 2.65436709e-01 1.52131338e-02
      4.06500418e-03 0. 3.19305365e-03 5.84277976e-03 1.93406083e-02
      2.62363195e-01 4.07583058e-01 1.26130342e-01 6.92352094e-03
      1.18142914e-03 0. 1.05335773e-03 0. 4.59715520e-05 7.84601122e-02
      4.14506823e-01 1.15578793e-01 7.94549286e-03 2.46821065e-03 0.
      8.22111790e-04 0. 0. 7.16065243e-02 3.41860890e-01 2.14029580e-01
      1.18475929e-02 1.27151900e-03 0. 4.20959713e-03 4.78934823e-03
      2.51157153e-02 2.84494340e-01 4.14506823e-01 1.51315644e-01
      6.92550233e-03 0. 0. 1.55956345e-03 2.82653840e-03 2.32715104e-02
      4.14506823e-01 4.14506823e-01 1.14709973e-01 4.51194122e-03
      7.71532650e-04 0. 7.25074846e-04 0. 1.01077625e-04 5.83699979e-02
      3.21965367e-01 7.16393888e-02 6.20214210e-04 0. 0. 9.83384438e-04
      0. 7.58119510e-04 8.43748376e-02 2.92880714e-01 1.42283574e-01
      1.99954514e-03 0. 0. 6.17786660e-04 2.02931208e-03 1.34702539e-02
      4.32738036e-01 4.32738036e-01 8.74596983e-02 7.53304164e-04 0. 0.
      1.64758903e-03 2.11689691e-03 1.60026066e-02 4.32738036e-01
      4.32738036e-01 4.64868546e-02 5.19771886e-04 0. 0. 1.49888021e-03
      1.15443382e-03 1.01107201e-02 1.89750612e-01 3.68973285e-01
      6.49950951e-02 4.81419079e-03 2.65134615e-03 0. 2.96548521e-03
      6.54806709e-03 6.76490441e-02 2.05728278e-01 2.42392898e-01
      6.57229871e-02 3.66904569e-04 0. 0. 1.30026450e-03 3.00263497e-03
      2.88688280e-02 4.17410463e-01 4.17410463e-01 7.84982815e-02
      9.67846834e-04 0. 0. 5.13572653e-04 8.62754695e-03 5.59286624e-02
      4.17410463e-01 4.17410463e-01 7.74885044e-02 1.29323481e-02
      1.57469362e-02 1.59630994e-03 1.01746982e-02 1.13598965e-02
      1.32166684e-01 2.46639490e-01 2.86222279e-01 4.46792990e-02
      1.92169920e-02 2.35146303e-02 2.05239840e-03 3.76135446e-02
      1.37311602e-02 1.03840016e-01 2.04809830e-01 1.65535644e-01
      8.05484056e-02 2.80783488e-03 2.90998199e-04 0. 7.28688377e-04
      2.09707636e-02 1.71618626e-01 4.06073004e-01 4.06073004e-01
      4.27450240e-02 7.06811249e-03 2.23603984e-03 0. 9.16015543e-03
      1.66318510e-02 2.14931309e-01 4.06073004e-01 4.06073004e-01
      6.23365194e-02 6.09110296e-02 5.89627847e-02 3.28587852e-02
      1.67206943e-01 7.60982931e-02 1.01703569e-01 1.85911685e-01
      9.76100862e-02 4.70639542e-02 7.87558556e-02 1.23236924e-01
      7.70680830e-02 1.71774998e-01 9.44313332e-02 6.81992918e-02
      7.24508837e-02 5.14389686e-02 7.21673369e-02 1.18923880e-01
      4.35753204e-02 2.43168660e-02 5.50675914e-02 2.18591634e-02
      2.15956062e-01 4.98560965e-01 4.98560965e-01 8.92430320e-02
      2.16342807e-01 1.81760147e-01 9.42201167e-02 7.52564594e-02
      4.16218117e-02 9.44619775e-02 2.11100832e-01 2.95787930e-01
      3.94458584e-02 1.38757646e-01 1.20411113e-01 1.99896917e-02
      8.00948963e-03 4.78447881e-03 2.57792976e-03 6.37967791e-03
      1.46977380e-02 1.72646701e-01 3.67659509e-01 3.10488820e-01
      1.83634330e-02 1.32139598e-03 8.33675964e-04 2.48478795e-03
      4.39400133e-03 1.08271539e-02 2.72283237e-02 2.21090734e-01
      3.67659509e-01 3.42098355e-01 1.08344659e-01 1.35603426e-02
      7.94056337e-03 7.55485008e-03 7.14783138e-03 1.01541743e-01
      3.67659509e-01 3.67659509e-01 2.81852067e-01 1.42789692e-01
      2.65643857e-02 3.06593031e-02 1.51260775e-02 4.60401475e-02
      2.55000353e-01 3.88965636e-01 1.40134141e-01 7.15693133e-03
      4.84030897e-04 1.61349424e-03 6.60337461e-03 5.53096412e-03
      6.38485653e-03 3.88965636e-01 3.88965636e-01 8.92707035e-02
      7.23503856e-03 6.24859426e-03 2.69800499e-02 8.61233566e-03
      1.69617366e-02 1.23401545e-02 1.45150006e-01 3.88965636e-01
      2.49223784e-01 4.05661911e-02 3.53812315e-02 1.69432908e-02
      3.43207642e-02 3.24012563e-02 5.08697852e-02 2.13774979e-01
      3.80712301e-01 6.75938800e-02 1.35107227e-02 3.76731567e-02
      3.32725905e-02 4.38879728e-02 6.31834790e-02 4.22345996e-02
      4.37351793e-01 4.37351793e-01 1.10640146e-01 1.14211924e-02
      3.40192318e-02 8.22061077e-02 2.21457351e-02 7.39751905e-02
      3.33642140e-02 4.37351793e-01 4.37351793e-01 6.69856817e-02
      1.05642686e-02 4.83742617e-02 4.34298925e-02 3.92000973e-02
      7.87912086e-02 8.81066397e-02 1.95127800e-01 2.06303343e-01
      6.10470697e-02 2.81760786e-02 7.78733194e-02 9.91487131e-02
      5.56269549e-02 1.02295376e-01 7.06908703e-02 1.10908829e-01
      6.41887411e-02 3.66569348e-02 1.21949855e-02 8.09679776e-02
      8.47797468e-02 7.85425678e-02 9.69685912e-02 1.09516881e-01
      3.61520380e-01 3.17279279e-01 6.39084429e-02 2.96014473e-02
      5.88776357e-02 2.21325066e-02 5.03644980e-02 7.72725567e-02
      1.64763957e-01 3.61520380e-01 3.61520380e-01 1.04087919e-01
      1.38331458e-01 7.79761821e-02 1.69903815e-01 1.57449409e-01
      1.40537485e-01 2.47211963e-01 1.48291811e-01 1.08831175e-01
      5.12373298e-02 1.56820063e-02 9.10269469e-02 3.96227464e-02
      7.59419948e-02 1.08900242e-01 1.09477714e-01 2.05077082e-01
      1.70933679e-01 7.80535340e-02 7.65821189e-02 1.12201363e-01
      1.81057677e-01 1.65786967e-01 1.78246796e-01 1.56373963e-01
      3.37974399e-01 1.63180247e-01 4.86550294e-02 6.74761981e-02
      1.82476230e-02 9.03896391e-02 1.11138836e-01 1.11044101e-01
      2.34446332e-01 3.37974399e-01 1.26097009e-01 3.61939706e-02
      2.50258688e-02 3.06500215e-03 2.92947255e-02 7.37934411e-02
      2.31087103e-01 3.37974399e-01 1.38850644e-01 6.20050505e-02
      3.67426202e-02 3.68853807e-02 2.56111417e-02 9.84383300e-02
      1.02388784e-01 1.31708294e-01 2.14303330e-01 2.88488299e-01
      7.93508962e-02 2.43909694e-02 1.32032949e-02 1.75225083e-02
      5.28113805e-02 1.51376829e-01 3.37974399e-01 3.37974399e-01
      3.23575824e-01 3.93973291e-02 5.39468601e-03 0. 0. 3.54535389e-03
      3.51599343e-02 1.63398832e-01 3.23575824e-01 3.23575824e-01
      3.62099633e-02 4.56061400e-03 1.01332960e-03 5.89684292e-04
      2.44673318e-03 2.33939346e-02 1.02835014e-01 3.23575824e-01
      1.61762103e-01 2.67132223e-02 2.46118614e-03 3.18924873e-03
      2.69328952e-02 9.63941962e-02 2.18165338e-01 3.23575824e-01
      3.23575824e-01 1.46349177e-01 5.44086518e-03 5.47815231e-04
      7.58206099e-03 3.44430581e-02 2.25432336e-01 1.87954441e-01
      2.99461156e-01 2.08668411e-01 3.40412885e-01 4.08871248e-02
      6.01169141e-03 5.20296255e-03 1.29053125e-03 1.81975029e-03
      3.66869639e-03 6.56578913e-02 3.40412885e-01 3.40412885e-01
      1.73084840e-01 3.66519131e-02 1.08929221e-02 2.02730903e-03
      1.65538921e-03 1.58014940e-04 6.67098761e-02 3.40412885e-01
      1.49639249e-01 2.25268453e-02 4.31984477e-02 9.61585641e-02
      5.79074435e-02 1.21891648e-01 5.31881452e-02 5.05289510e-02
      1.77849337e-01 2.25778818e-01 3.40412885e-01 2.85820067e-01
      3.23757648e-01 9.67533141e-02 2.55702864e-02 2.61213840e-03
      7.78019102e-03 1.96077272e-01 2.93580234e-01 2.37506092e-01
      4.36471589e-02 3.97079764e-03 2.05332297e-03 2.00733030e-03
      3.49139236e-03 6.43908158e-02 2.93580234e-01 2.93580234e-01
      2.10745364e-01 1.19676113e-01 2.93697957e-02 7.08586201e-02
      3.59001122e-02 3.56898643e-02 1.38853788e-01 2.93580234e-01
      2.93580234e-01 2.93580234e-01 2.07147405e-01 1.42581776e-01
      4.22929525e-02 1.04557024e-02 7.14625232e-03 2.63235923e-02
      1.67812064e-01 2.93580234e-01 2.92620063e-01 1.61539733e-01
      4.44501564e-02 5.32660224e-02 3.16004492e-02 2.50641257e-02
      7.23476112e-02 1.65359586e-01 2.75435269e-01 1.97029531e-01
      1.91210076e-01 1.12420090e-01 2.49045178e-01 1.13351233e-01
      9.34010446e-02 2.24128649e-01 2.75435269e-01 2.29446679e-01
      7.26025030e-02 3.38560455e-02 4.44402471e-02 9.25589949e-02
      9.80252773e-02 5.68627976e-02 1.52139083e-01 2.75435269e-01
      2.75435269e-01 2.64926761e-01 2.16553971e-01 1.02691688e-01
      1.41850397e-01 6.81481585e-02 6.93684891e-02 1.53119713e-01
      2.48710915e-01 1.79002419e-01 1.07078835e-01 3.14720236e-02
      3.66249382e-02 7.37046897e-02 5.88968098e-02 8.50764215e-02
      1.56875744e-01 1.92999959e-01 2.93020159e-01 7.00868964e-02
      2.23232731e-02 7.06742238e-03 3.29511389e-02 8.25607032e-02
      4.28463668e-02 2.18495861e-01 3.36035877e-01 3.36035877e-01
      6.43625334e-02 2.48311777e-02 1.95190404e-03 3.78691591e-02
      2.43659467e-02 7.33335689e-02 2.67591864e-01 3.36035877e-01
      3.36035877e-01 9.09404755e-02 2.16271952e-02 2.90109832e-02
      8.03204328e-02 7.87577853e-02 6.56940192e-02 1.11614898e-01
      2.22481117e-01 3.36035877e-01 7.08968416e-02 4.00083065e-02
      2.47681271e-02 7.89880529e-02 3.72641645e-02 7.84925371e-02
      1.39613345e-01 2.65409112e-01 2.47964174e-01 4.92716730e-02
      1.29839750e-02 6.63265213e-03 5.48740365e-02 1.75065827e-02
      8.52936581e-02 3.44303876e-01 4.33874696e-01 2.27987424e-01
      2.95657963e-02 3.06781987e-03 4.74887528e-03 2.76408941e-02
      1.63146928e-02 1.07189663e-01 4.33874696e-01 4.33874696e-01
      1.44589573e-01 4.48767990e-02 3.58339772e-02 1.94507390e-02
      8.44357461e-02 1.57246497e-02 8.39476585e-02 1.14436641e-01
      1.66164145e-01 1.34357274e-01 4.76779602e-02 3.01074442e-02
      2.98998095e-02 7.11701289e-02 1.34392753e-02 8.69320482e-02
      1.38832182e-01 1.95806727e-01 1.24062173e-01 1.79243449e-03 0. 0.
      4.42060176e-03 6.27689017e-03 3.02990247e-02 3.79651040e-01
      3.79651040e-01 1.15873858e-01 2.06870795e-03 0. 0. 6.20020600e-03
      7.96630420e-03 3.74499001e-02 3.79651040e-01 3.79651040e-01
      1.16551451e-01 2.04250421e-02 1.54190771e-02 1.51509251e-02
      2.05188300e-02 4.44913376e-03 1.95258185e-02 1.29092440e-01
      2.07297102e-01 1.71792939e-01 2.03271415e-02 1.02798920e-02
      1.04677221e-02 1.02361320e-02 1.43921357e-02 3.19838412e-02
      3.71243179e-01 3.79651040e-01 3.45560983e-02 1.17006677e-03 0. 0.
      1.69881410e-03 2.24036071e-03 2.53589321e-02 3.66644621e-01
      3.66644621e-01 1.03225540e-02 7.92238687e-04 0. 0. 2.22269100e-05
      5.46936702e-04 4.86149304e-02 3.66644621e-01 2.77419806e-01
      6.68967068e-02 6.26682630e-03 1.85934093e-03 1.32246793e-03
      2.79014185e-03 1.00657642e-02 4.60672677e-02 3.66644621e-01
      3.43445420e-01 1.54863931e-02 6.40751561e-04 0. 0. 6.56190852e-04
      9.67476331e-03 2.18555421e-01 3.66644621e-01 2.64783174e-01
      9.36545804e-03 3.04770307e-03 0. 0. 1.23243271e-05 1.94557908e-03
      9.35179964e-02 4.01637942e-01 1.82379693e-01 8.46305490e-03
      1.92796940e-03 0. 0. 0. 1.81756436e-03 7.58340880e-02
      2.64099002e-01 1.57056481e-01 2.85140262e-03 2.37043574e-03 0. 0.
      5.12391271e-04 2.53629349e-02 4.01637942e-01 4.01637942e-01
      1.86329693e-01 4.77772532e-03 1.34334259e-03 0. 0. 6.88927175e-05
      4.34627458e-02 4.01637942e-01 4.01637942e-01 9.88919064e-02
      1.34362541e-02 1.84828136e-02 5.97543595e-03 5.56275388e-03
      2.58360873e-04 5.27899526e-03 1.37162670e-01 4.00314420e-01
      2.74564803e-01 4.00040969e-02 6.41709194e-02 3.50334421e-02
      2.03224272e-02 4.68475278e-03 1.14859911e-02 6.30264655e-02
      2.75994062e-01 1.99239045e-01 1.63107160e-02 1.67282624e-03
      2.08144053e-03 4.14832821e-03 8.79499875e-03 7.95030072e-02
      4.00314420e-01 4.00314420e-01 1.89518765e-01 2.89338883e-02
      2.70751901e-02 1.14029264e-02 1.50256939e-02 3.80767509e-02
      6.52529299e-02 1.78230345e-01 4.00314420e-01 2.25430414e-01
      5.29710623e-03 5.44160120e-02 2.95551300e-01 2.95551300e-01
      1.97662562e-01 1.94106102e-02 9.27633420e-03 4.94226208e-03
      3.20911803e-03 1.86555162e-02 1.61482528e-01 2.95551300e-01
      2.95551300e-01 2.63778567e-01 4.71700840e-02 5.46647161e-02
      3.72402221e-02 3.26176099e-02 2.24600360e-03 3.11008822e-02
      2.27582425e-01 2.95551300e-01 2.95551300e-01 2.39219159e-01
      1.24765188e-01 2.12615039e-02 2.10699462e-03 1.86743438e-02
      4.38186005e-02 1.57471120e-01 2.95551300e-01 2.11209968e-01
      1.15290731e-01 1.52262524e-01 6.81269169e-02 2.36726683e-02
      1.17440574e-01 2.85242349e-01 2.61441082e-01 1.74811259e-01
      2.54110366e-01 8.86160359e-02 1.92859665e-01 1.70838520e-01
      1.57006383e-01 2.50292748e-01 1.56435654e-01 9.89207625e-02
      4.54892926e-02 1.17376573e-01 4.91563641e-02 1.78809702e-01
      2.24145263e-01 1.70340359e-01 1.19640991e-01 9.13030356e-02
      1.49597436e-01 1.93893775e-01 2.00896084e-01 1.42385051e-01
      2.53344387e-01 1.72564745e-01 1.38491139e-01 1.90052569e-01
      1.30308539e-01 1.00817077e-01 1.01535879e-01 1.22905627e-01
      1.08983248e-01 1.47426412e-01 1.14920832e-01 1.46059021e-01
      1.95437416e-01 1.02719754e-01 7.90946409e-02 6.38402998e-02
      1.40440375e-01 7.39436001e-02 1.73733205e-01 2.19472185e-01
      1.66314468e-01 1.19494289e-01 5.36147840e-02 4.80216630e-02
      2.24822816e-02 1.04165949e-01 1.44149318e-01 3.10032368e-01
      2.66995966e-01 1.85572684e-01 2.30643407e-01 1.42943993e-01
      6.97030276e-02 7.43019506e-02 2.11156353e-01 1.20951951e-01
      1.62109196e-01 1.12677075e-01 1.85585424e-01 2.63676077e-01
      1.74121708e-01 9.03169960e-02 5.46804592e-02 9.74496976e-02
      7.45646656e-02 3.10032368e-01 2.54703909e-01 2.22482383e-01
      1.46252126e-01 7.83473328e-02 5.86497933e-02 1.07241748e-02
      9.18611437e-02 6.75121397e-02 1.94436863e-01 2.07515031e-01
      2.06302121e-01 1.84019029e-01 1.31650612e-01 8.52465108e-02
      3.06825042e-02 7.82591403e-02 9.15408209e-02 1.39300615e-01
      2.63139337e-01 2.47233942e-01 1.98360622e-01 1.55862242e-01
      9.30544212e-02 8.59431624e-02 6.95348084e-02 3.98910679e-02
      1.91380262e-01 2.37130582e-01 2.85844624e-01 2.26237014e-01
      1.50183067e-01 9.07212421e-02 6.40145838e-02 4.84738164e-02
      7.69126639e-02 2.65232593e-01 3.00379127e-01 3.00379127e-01
      1.77473217e-01 9.99864489e-02 6.94623068e-02 2.99525466e-02
      3.33748683e-02 7.41179287e-02 9.47118923e-02 1.79616064e-01
      2.66838044e-01 2.76117206e-01 2.25554958e-01 6.85712993e-02
      2.47435849e-02 8.19397792e-02 8.51132795e-02 2.37423182e-01
      3.15987885e-01 3.15987885e-01 1.24945976e-01 7.57636130e-02
      5.82545400e-02 2.38062348e-02 2.64631230e-02 5.49545176e-02
      1.53309450e-01 1.79634914e-01 2.56449342e-01 1.85842812e-01
      1.29205436e-01 8.76600444e-02 4.76505607e-02 1.39297292e-01
      9.06798765e-02 2.00260296e-01 2.20891535e-01 3.15987885e-01
      3.81134339e-02 5.11614531e-02 1.02308644e-02 1.61754750e-02
      1.25479430e-01 2.74308383e-01 2.06191942e-01 3.18306506e-01
      1.50388703e-01 5.84283611e-03 7.17695849e-03 1.45156833e-03
      1.99567899e-02 1.67669252e-01 3.29723716e-01 3.29723716e-01
      2.28727087e-01 3.76133211e-02 3.81325558e-02 2.55866349e-02
      2.70726681e-02 2.13846713e-02 1.73215464e-01 2.29574457e-01
      1.24249943e-01 8.81074145e-02 9.85118300e-02 9.29107983e-03
      6.84691453e-03 1.14886202e-02 1.92463249e-02 2.46585563e-01
      3.29723716e-01 3.29723716e-01 1.64218828e-01 1.01522498e-01
      2.49159103e-03 6.33359840e-03 3.06740813e-02 1.26407564e-01
      1.79359004e-01 3.24224681e-01 1.56731963e-01 2.98007317e-02
      7.44153094e-03 3.28071304e-02 1.21705696e-01 1.96889982e-01
      3.24224681e-01 3.24224681e-01 1.96784973e-01 1.27867777e-02
      5.81391342e-03 1.26133813e-02 7.28704093e-04 6.96467643e-04
      2.19331472e-03 3.10336519e-02 2.51721740e-01 3.24224681e-01
      3.24224681e-01 6.19557910e-02 2.51804180e-02 2.89140362e-02
      4.29652408e-02 2.76088659e-02 9.48467106e-02 3.24224681e-01
      3.24224681e-01 1.04972661e-01 1.24077993e-02 1.05370553e-02
      1.74456611e-01 2.21067682e-01 1.62490845e-01 1.98358536e-01
      2.15160400e-01 7.60251731e-02 1.41210686e-02 3.08172572e-02
      6.35988936e-02 2.80923188e-01 1.99505523e-01 7.94972777e-02
      5.38406074e-02 4.61576022e-02 2.60889493e-02 3.16572189e-02
      8.33984762e-02 2.69926935e-01 1.81253776e-01 2.16677696e-01
      9.53973010e-02 9.14341509e-02 2.80923188e-01 2.80923188e-01
      5.04243448e-02 5.17913774e-02 6.46618530e-02 2.80923188e-01
      2.80923188e-01 1.32189900e-01 7.36777261e-02 1.25378087e-01
      1.72014773e-01 4.02604304e-02 1.10504068e-01 2.80923188e-01
      2.82406121e-01 8.97721127e-02 3.20736654e-02 3.47600356e-02
      1.84132271e-02 1.31799141e-02 4.16870415e-02 8.79237801e-02
      2.97690868e-01 1.65777490e-01 4.43213955e-02 1.45760598e-02
      2.07278822e-02 5.46127707e-02 4.51997630e-02 8.98779333e-02
      1.32641748e-01 1.93702623e-01 2.97690868e-01 1.22000426e-01
      4.14328836e-02 3.20481881e-02 1.44188881e-01 1.31281704e-01
      8.74528959e-02 1.52364179e-01 2.97690868e-01 2.21537679e-01
      3.52295861e-02 1.13062365e-02 4.62699980e-02 2.97690868e-01
      2.73223579e-01 2.64665753e-01 2.67927140e-01 2.97690868e-01
      2.87440985e-01 5.17917238e-02 4.02858518e-02 6.96384311e-02
      1.77702501e-01 1.30309597e-01 1.42237261e-01 1.37947679e-01
      1.96163356e-01 2.87440985e-01 4.42340896e-02 7.62321725e-02
      6.02037422e-02 1.24024376e-01 5.53281680e-02 6.54550269e-02
      1.15988322e-01 2.20949039e-01 2.24595606e-01 6.58591837e-02
      1.04878888e-01 1.44540057e-01 2.87440985e-01 2.87440985e-01
      2.87440985e-01 2.59345591e-01 1.57890379e-01 2.23349601e-01
      9.17319879e-02 1.44011289e-01 8.81218165e-02 1.44351244e-01
      1.24704942e-01 8.89232755e-02 1.09177291e-01 1.74034163e-01
      2.23911956e-01 6.30941391e-02 1.25909165e-01 5.96652031e-02
      2.16275826e-01 3.99358533e-02 1.73211098e-01 2.09502056e-01
      2.56833464e-01 2.01584518e-01 7.07184672e-02 1.33712441e-01
      8.27726200e-02 1.72591805e-01 1.43863158e-02 1.20498717e-01
      1.24657951e-01 2.16056362e-01 2.37946600e-01 1.10381864e-01
      1.35643899e-01 7.23846480e-02 2.51105040e-01 7.93589652e-02
      1.61660671e-01 1.46203667e-01 2.40599334e-01 3.21512908e-01
      1.21791475e-01 1.37333408e-01 3.93604487e-02 1.72144800e-01
      1.22846030e-02 1.16783194e-01 7.52719641e-02 3.20989847e-01
      2.53733546e-01 8.42242241e-02 8.25541094e-02 7.09888563e-02
      9.29892957e-02 4.98395966e-05 2.55648792e-02 1.34060979e-01
      2.95401722e-01 3.25266510e-01 1.03341900e-01 6.43819347e-02
      5.23500964e-02 4.99263108e-02 3.62340622e-02 9.17455256e-02
      2.38592446e-01 3.25266510e-01 3.25266510e-01 1.15651116e-01
      7.90977255e-02 3.03011034e-02 7.51683041e-02 3.84626016e-02
      5.72267286e-02 9.71285179e-02 3.25266510e-01 2.82624900e-01
      8.00247788e-02 8.15939158e-02 5.13158888e-02 6.50256872e-02
      6.40720278e-02 1.72263041e-01 1.66506290e-01 2.95441657e-01
      1.79919377e-01 2.58459561e-02 2.41763927e-02 1.23089282e-02
      4.95932251e-02 3.80328447e-02 1.27154142e-01 3.85526836e-01
      3.54571939e-01 7.13515133e-02 5.07091451e-03 2.26064920e-02
      1.16397096e-02 3.82327884e-02 5.35060279e-02 3.85526836e-01
      3.85526836e-01 3.85526836e-01 1.48650229e-01 2.89000440e-02
      4.05854248e-02 1.94977168e-02 9.70535204e-02 1.93904601e-02
      1.09459229e-01 1.11698687e-01 1.60527632e-01 1.14360034e-01
      2.46546529e-02 5.60406782e-02 2.63225734e-02 1.19553253e-01
      3.08207516e-02 1.41358793e-01 1.93942979e-01 1.91378653e-01
      4.38512117e-03 5.69569063e-04 2.52415147e-03 1.88039825e-03
      1.07156327e-02 5.61533421e-02 3.56018394e-01 3.56018394e-01
      1.28849104e-01 1.90929498e-03 1.33899623e-04 1.08731265e-05
      1.65850157e-03 2.31637545e-02 2.43033439e-01 3.56018394e-01
      3.56018394e-01 4.68540490e-02 1.50845041e-02 3.92248668e-03
      1.02745071e-02 2.37988308e-02 6.25124648e-02 8.01194534e-02
      1.84376508e-01 1.42380580e-01 5.61555922e-02 3.86235595e-04
      4.80744900e-04 1.71668595e-03 2.95206830e-02 1.23296730e-01
      3.56018394e-01 3.56018394e-01 2.62623847e-01 2.31332462e-02
      4.22033388e-03 1.29097432e-03 2.10131658e-03 5.49567072e-03
      3.42026614e-02 3.22709531e-01 3.66553724e-01 3.60693753e-01
      3.40607837e-02 4.37568128e-03 4.81635565e-03 6.57117506e-03
      2.03985255e-02 4.78758849e-02 1.22437596e-01 1.31712750e-01
      1.88704923e-01 4.46921997e-02 1.55785325e-04 1.85192237e-03
      3.70260817e-03 2.04391778e-02 1.57564029e-01 3.66553724e-01
      3.66553724e-01 1.51232406e-01 1.13188252e-02 6.14960724e-03
      1.82025675e-02 2.60438304e-02 6.21041916e-02 1.22693710e-01
      3.49667281e-01 3.01889271e-01 4.47076894e-02 1.63027421e-02
      2.59870058e-03 1.41178453e-02 5.90682700e-02 1.26538292e-01
      2.56479383e-01 3.28827173e-01 3.22814316e-01 6.10872470e-02
      4.93020518e-03 2.47690119e-02 3.50077450e-02 6.28876239e-02
      1.01358384e-01 1.37139291e-01 1.94178998e-01 2.88416237e-01
      9.81064066e-02 3.16035338e-02 5.25185373e-03 4.79589216e-03
      4.18333616e-03 1.06445299e-02 1.09814726e-01 3.28827173e-01
      3.28827173e-01 1.67342842e-01 1.17418114e-02 1.97609514e-02
      2.01517548e-02 1.79553647e-02 4.84243669e-02 1.27403364e-01
      3.19783062e-01 3.28827173e-01 2.03141645e-01 2.75396649e-02
      1.10237725e-01 7.46055320e-02 8.20987076e-02 1.23703927e-01
      9.40389112e-02 1.13908581e-01 2.30291307e-01 1.81124300e-01
      1.50551930e-01 1.06471360e-01 8.26279074e-02 4.61523496e-02
      7.62081817e-02 8.20001438e-02 8.27500522e-02 1.30977660e-01
      1.37008607e-01 1.26182169e-01 1.10167988e-01 6.25689626e-02
      7.47566521e-02 1.45497382e-01 1.89850658e-01 3.48721236e-01
      3.48721236e-01 3.28674227e-01 1.30672663e-01 1.09578311e-01
      5.99432066e-02 6.75760359e-02 9.92617831e-02 1.24710515e-01
      1.12231903e-01 3.20909441e-01 3.10417414e-01 1.73867956e-01
      1.74231201e-01 9.97418314e-02 6.31794706e-02 4.35395502e-02
      1.36051521e-01 9.39406306e-02 1.30454794e-01 1.44851968e-01
      1.73294038e-01 2.23730206e-01 1.45320103e-01 9.47182626e-02
      6.90243170e-02 6.26873523e-02 5.13678044e-02 1.57433376e-01
      2.15487301e-01 1.98280752e-01 1.21651337e-01 7.67117366e-02
      1.00699864e-01 1.44424170e-01 1.38648555e-01 5.81495985e-02
      3.19623411e-01 3.17270368e-01 1.89064339e-01 1.40127927e-01
      8.87658074e-02 1.12540647e-01 2.12444350e-01 9.16093290e-02
      7.78814852e-02 2.03486502e-01 3.19623411e-01 3.11522156e-01
      1.62265033e-01 1.43113613e-01 7.60014132e-02 1.15974940e-01
      4.54292931e-02 2.35900972e-02 1.10373475e-01 2.20103085e-01
      2.37130180e-01 1.52305678e-01 9.96077433e-02 6.74450174e-02
      7.96709955e-02 3.15226652e-02 6.69212714e-02 2.87127376e-01
      3.15660238e-01 3.15660238e-01 8.88350457e-02 5.74445464e-02
      5.66178933e-02 9.38178971e-02 5.49284518e-02 6.11283407e-02
      1.83729157e-01 3.15660238e-01 2.70232797e-01 8.74696374e-02
      1.26387656e-01 1.05018236e-01 9.94224176e-02 6.33035302e-02
      7.21535757e-02 2.36029819e-01 3.15660238e-01 1.86111704e-01
      1.08475111e-01 4.30676788e-02 6.11220710e-02 1.66564975e-02
      4.23785038e-02 1.08579665e-01 2.30329901e-01 2.81140953e-01
      2.64358550e-01 1.23572901e-01 6.00642152e-02 6.18318580e-02
      5.90594932e-02 2.11615533e-01 1.99754566e-01 2.87358344e-01
      2.62531340e-01 2.98148870e-01 8.64540115e-02 1.08409896e-01
      7.79408365e-02 4.11059894e-02 5.38847446e-02 8.58182460e-02
      1.93841681e-01 2.15133071e-01 1.50365263e-01 1.19629748e-01
      1.08047888e-01 5.75911477e-02 4.34893370e-02 9.03311595e-02
      8.86670724e-02 2.54755378e-01 2.98148870e-01 2.60433346e-01
      6.11722879e-02 3.60165201e-02 4.11406308e-02 3.28732692e-02
      1.42514750e-01 1.65238053e-01 2.13340804e-01 1.12318866e-01
      1.03405938e-01 4.46099490e-02 3.57659236e-02 5.20210601e-02
      7.18078539e-02 3.47850382e-01 3.47850382e-01 3.47850382e-01
      2.25076735e-01 1.46943524e-01 7.42452741e-02 5.44788651e-02
      2.37656441e-02 2.15673409e-02 5.43097854e-02 7.98360854e-02
      1.79245800e-01 8.70217681e-02 7.91792199e-02 6.09587245e-02
      4.01315130e-02 4.66058254e-02 7.61606544e-02 2.71806061e-01
      3.47850382e-01 3.47850382e-01 1.51679680e-01 9.43572596e-02
      2.71566655e-03 3.06654628e-03 6.03274489e-03 1.55642666e-02
      1.71196654e-01 3.02226841e-01 2.63664871e-01 5.67047931e-02
      1.93778109e-02 8.29410926e-03 1.18094301e-02 9.82957985e-03
      1.97517909e-02 3.02226841e-01 3.02226841e-01 1.98821113e-01
      3.63668874e-02 5.58452122e-03 1.36248451e-02 5.07268868e-03
      9.49246995e-03 1.71157215e-02 1.23347543e-01 3.02226841e-01
      3.02226841e-01 1.52444020e-01 6.94427863e-02 5.52388392e-02
      8.07805161e-04 6.46968279e-03 9.89890750e-03 2.20322967e-01
      3.02226841e-01 3.02226841e-01 2.36748219e-01 2.48285666e-01
      4.39468063e-02 6.36977702e-02 4.70565110e-02 5.50248511e-02
      2.65399396e-01 2.65399396e-01 7.42171109e-02 4.20038626e-02
      2.53182333e-02 2.47590184e-01 1.08640373e-01 8.60089958e-02
      5.40307984e-02 2.65399396e-01 2.65399396e-01 6.71088621e-02
      5.73323928e-02 1.54236764e-01 1.46672338e-01 2.92413346e-02
      3.82711701e-02 4.49328087e-02 2.65399396e-01 2.65399396e-01
      1.21660769e-01 1.56306699e-01 2.65399396e-01 2.29084760e-01
      7.26250708e-02 7.52845183e-02 5.74866720e-02 2.65399396e-01
      2.65399396e-01 1.03746191e-01 1.27516568e-01 2.65399396e-01
      2.51465410e-01 5.62184229e-02 4.25203890e-02 3.38032544e-02
      2.51465410e-01 2.51465410e-01 1.33272707e-01 6.88595399e-02
      2.51465410e-01 1.01244047e-01 1.86629426e-02 2.21002717e-02
      6.18502088e-02 2.51465410e-01 2.51465410e-01 2.16001019e-01
      9.84318256e-02 1.32729605e-01 2.51465410e-01 1.14836685e-01
      7.38208070e-02 5.86090609e-02 1.47734061e-01 2.51465410e-01
      1.39727518e-01 8.45449939e-02 2.01061606e-01 2.51465410e-01
      1.64631054e-01 1.20561779e-01 1.50851771e-01 1.67448401e-01
      2.51465410e-01 1.62796333e-01 4.99527305e-02 1.23379976e-01
      8.88583511e-02 3.20674852e-02 6.33798018e-02 1.03893705e-01
      3.01950008e-01 3.01950008e-01 3.01950008e-01 1.64670691e-01
      6.22375906e-02 1.10023335e-01 5.61218001e-02 6.81813359e-02
      4.11269814e-02 8.54779854e-02 1.41940609e-01 9.86716375e-02
      1.05483174e-01 1.08014703e-01 1.81153521e-01 1.67666674e-01
      1.89428315e-01 3.01950008e-01 3.01950008e-01 3.01950008e-01
      2.86386281e-01 1.05326399e-01 8.56781304e-02 1.07595876e-01
      7.14053288e-02 8.87769461e-02 1.20556705e-01 1.42497882e-01
      1.36262804e-01 1.25979498e-01 1.01111062e-01 1.10971957e-01
      1.95834816e-01 8.76318589e-02 7.21163824e-02 3.67023610e-02
      1.35209024e-01 1.14617012e-01 2.31328234e-01 2.07615212e-01
      2.26169109e-01 2.84447134e-01 2.11786166e-01 1.63018823e-01
      3.82389389e-02 1.54030144e-01 1.18341949e-02 1.13461420e-01
      8.30990672e-02 2.68047750e-01 2.48765066e-01 9.08816829e-02
      1.15659431e-01 8.67482349e-02 1.43506274e-01 7.46790245e-02
      2.36835703e-01 2.11975917e-01 2.76641518e-01 1.67057127e-01
      1.57215223e-01 2.15652838e-01 3.20398510e-02 2.35155016e-01
      6.15228526e-03 1.20500766e-01 7.09514469e-02 1.60376638e-01
      3.36845756e-01 2.81415164e-01 1.79152369e-01 3.24265696e-02
      1.14317514e-01 6.10167198e-02 6.43218979e-02 7.11268410e-02
      3.07899296e-01 2.84829617e-01 1.38631374e-01 1.29243359e-01
      5.03893234e-02 1.06666051e-01 9.31456611e-02 1.82542771e-01
      1.12600103e-01 2.70934582e-01 1.58792645e-01 2.20331103e-01
      2.11757079e-01 1.55808814e-02 1.94342121e-01 5.19731920e-03
      4.13157977e-02 2.86802277e-02 1.30327046e-01 2.80785024e-01
      1.07652910e-01 1.31524771e-01 2.25626794e-03 1.33337080e-01
      1.06127225e-02 1.19895816e-01 5.47470264e-02 2.67543882e-01
      2.22993389e-01 8.58621970e-02 8.21226165e-02 2.14490611e-02
      1.68155015e-01 2.21677646e-02 1.24179468e-01 8.41772854e-02
      2.13222370e-01 1.91106617e-01 7.19049126e-02 1.06474578e-01
      2.65945364e-02 3.01088989e-01 2.24179700e-02 7.42646977e-02
      7.62019604e-02 1.85232475e-01 3.01008463e-01 6.07044920e-02
      7.75879472e-02 8.61732115e-04 1.53960213e-01 2.99420301e-03
      9.55496132e-02 6.87972009e-02 3.15128803e-01 3.40629965e-01
      1.65171623e-01 1.23779617e-01 2.82464288e-02 3.15852314e-01
      2.41347961e-02 9.09398198e-02 8.97294804e-02 3.62564504e-01
      2.64176428e-02 1.01774465e-02 2.55906638e-02 5.15472963e-02
      1.75794005e-01 8.99805799e-02 6.67457283e-02 2.53586397e-02
      2.94209830e-02 1.77476462e-03 4.14063130e-03 6.31143749e-02
      2.65739828e-01 3.27264458e-01 3.62552971e-01 3.25131804e-01
      4.08465378e-02 6.76759239e-03 7.86265507e-02 8.97568688e-02
      1.02843478e-01 1.00053489e-01 1.63442075e-01 6.31545559e-02
      4.06119525e-02 1.49771422e-02 6.51763305e-02 2.84676086e-02
      1.01983912e-01 3.62552971e-01 3.62552971e-01 3.62552971e-01
      2.04574540e-01 8.61246437e-02 6.40824158e-03 1.42858466e-02
      1.68376602e-04 1.98386726e-03 4.55078073e-02 2.42501259e-01
      2.78486878e-01 3.16742718e-01 3.13326031e-01 9.71778668e-03
      1.06369541e-03 6.47131493e-03 1.65729411e-02 4.42304127e-02
      1.62358224e-01 2.36210749e-01 2.26904050e-01 1.63612425e-01
      5.93692157e-03 5.39815333e-03 2.54794955e-03 2.77704354e-02
      3.10903013e-01 3.16742718e-01 3.02419335e-01 1.31228819e-01
      6.34516478e-02 1.26378855e-03 1.08986837e-03 1.15444101e-02
      3.09967343e-02 1.64292708e-01 3.16742718e-01 2.24265993e-01
      8.49060491e-02 2.49685179e-02 1.31732086e-03 6.56772312e-03
      1.13670193e-02 5.62822027e-03 4.18429822e-03 1.15864901e-02
      2.32824255e-02 1.59027174e-01 3.96082073e-01 1.68719739e-01
      2.25846432e-02 7.03975046e-03 4.34463006e-03 6.92825625e-03
      1.93161443e-02 4.22958136e-02 3.44801813e-01 3.96082073e-01
      3.96082073e-01 2.91486718e-02 2.33654678e-02 2.26788558e-02
      1.72724389e-02 2.34343261e-02 1.94704868e-02 3.57145667e-02
      9.82732922e-02 6.10191338e-02 2.21732780e-02 2.76665203e-02
      2.08646245e-02 1.16598159e-02 1.13635259e-02 7.69261410e-03
      1.41175359e-01 3.96082073e-01 3.88157755e-01 4.27175015e-02
      1.98470298e-02 6.85085729e-03 1.92397293e-02 2.83670593e-02
      3.72813307e-02 1.59799546e-01 3.53015631e-01 3.33391339e-01
      3.79162133e-02 5.94350956e-02 1.53449168e-02 4.41228971e-02
      3.58074754e-02 4.06936407e-02 5.19058332e-02 2.12825939e-01
      2.21196949e-01 7.27691352e-02 3.45528796e-02 6.59844698e-03
      1.04074851e-02 9.31257941e-03 5.35526453e-03 7.28289485e-02
      3.53015631e-01 3.53015631e-01 1.23128861e-01 8.34474787e-02
      1.47227943e-02 6.58909455e-02 2.63779722e-02 2.93267332e-02
      4.73541506e-02 3.53015631e-01 3.53015631e-01 2.90055871e-01
      1.00289099e-01 5.03400378e-02 8.01411346e-02 8.56418908e-02
      7.05239773e-02 4.12546247e-02 1.61770254e-01 1.19301222e-01
      1.06903903e-01 8.45956653e-02 5.53064123e-02 4.63638157e-02
      1.06417283e-01 6.09723441e-02 4.76326197e-02 8.11508000e-02
      1.25232279e-01 1.24867648e-01 1.40454203e-01 5.88122383e-02
      1.34573802e-01 7.25992620e-02 1.03568837e-01 8.16323683e-02
      3.31480861e-01 3.88920069e-01 3.88920069e-01 1.51301339e-01
      8.00759271e-02 5.22876643e-02 7.78415725e-02 8.07065293e-02
      7.54072964e-02 1.20635815e-01 3.88920069e-01 3.88920069e-01
      1.04731284e-01 8.51460993e-02 4.02265936e-02 5.39950393e-02
      6.99522570e-02 7.45741501e-02 1.36746854e-01 2.56218493e-01
      1.51179180e-01 1.18108340e-01 9.90040302e-02 7.11463988e-02
      4.93064821e-02 7.00721443e-02 6.99621513e-02 1.40945897e-01
      2.32123986e-01 1.80431426e-01 2.49135196e-01 1.70680061e-01
      5.73685877e-02 4.95029315e-02 1.13613814e-01 8.07260796e-02
      1.54232949e-01 3.13433826e-01 3.13433826e-01 3.13433826e-01
      1.34559795e-01 7.05707148e-02 5.25556803e-02 1.70163259e-01
      5.86846434e-02 1.39644712e-01 3.13433826e-01 3.13433826e-01
      1.22284673e-01 5.65320514e-02 4.06179838e-02 2.75564883e-02
      4.08766046e-02 7.54412636e-02 1.43808812e-01 2.03416720e-01
      2.66228288e-01 1.32337749e-01 4.26486656e-02 3.21997292e-02
      2.10303552e-02 2.74641495e-02 2.46012751e-02 1.77691594e-01
      2.19144464e-01 2.56796658e-01 3.14986914e-01 7.51466081e-02
      4.13267910e-02 2.27565747e-02 5.82727157e-02 7.55270049e-02
      1.79173619e-01 3.14986914e-01 3.14986914e-01 2.18783662e-01
      4.60418798e-02 2.90264506e-02 6.82360819e-03 3.76175456e-02
      9.19242799e-02 2.49761462e-01 3.14986914e-01 3.14986914e-01
      8.82925987e-02 4.18524407e-02 4.02080305e-02 3.40242460e-02
      7.96912685e-02 8.03639963e-02 1.99169636e-01 1.51856244e-01
      1.19657703e-01 6.46445900e-02 4.77002487e-02 1.01388469e-01
      1.09988362e-01 1.99954525e-01 2.89297521e-01 2.89297521e-01
      2.78867751e-01 1.64752170e-01 1.61312670e-01 6.27169684e-02
      5.75271398e-02 6.20730408e-02 1.17216997e-01 7.69141838e-02
      1.92045093e-01 2.34967381e-01 1.44441426e-01 1.58086836e-01
      1.04825974e-01 1.80800006e-01 2.50634670e-01 2.89297521e-01
      1.24019362e-01 1.64210081e-01 2.52512306e-01 2.50613004e-01
      2.79181805e-02 1.96281299e-02 3.54953110e-02 2.48802733e-02
      5.48036583e-02 2.06442386e-01 2.20335320e-01 2.26533175e-01
      1.55975163e-01 1.57793522e-01 9.45475549e-02 8.36457908e-02
      3.90857346e-02 7.83896223e-02 2.70436406e-01 2.76291579e-01
      2.76291579e-01 2.76291579e-01 5.75392321e-02 3.63984257e-02
      6.69600591e-02 6.57410845e-02 8.83116275e-02 4.97854501e-02
      5.02228513e-02 1.25525624e-01 1.67645931e-01 1.35104448e-01
      2.27746576e-01 2.76291579e-01 2.16348723e-01 2.36551240e-01
      1.63367122e-01 9.62584019e-02 2.05206171e-01 2.76291579e-01
      2.54356772e-01 1.47787228e-01 7.79182985e-02 7.53199086e-02
      6.96078464e-02 8.09718147e-02 9.19886827e-02 2.12802693e-01
      2.61309981e-01 2.43226141e-01 1.57773808e-01 8.50689039e-02
      1.02059402e-01 6.18046448e-02 8.11635479e-02 9.11666229e-02
      1.75058186e-01 2.61309981e-01 2.22033307e-01 2.61309981e-01
      2.16899797e-01 1.58478007e-01 9.41013023e-02 9.42840874e-02
      7.66339749e-02 1.70754105e-01 2.61309981e-01 2.26747021e-01
      2.55655468e-01 8.33364651e-02 1.07757077e-01 1.71761010e-02
      5.32550476e-02 6.90809414e-02 1.54941246e-01 2.61309981e-01
      2.62501061e-01 1.90382123e-01 1.25976250e-01 5.31678610e-02
      1.67971496e-02 8.67711008e-02 8.75998810e-02 1.20432727e-01
      1.79220334e-01 2.62501061e-01 2.62501061e-01 2.16705263e-01
      1.04105614e-01 5.62413335e-02 8.67494568e-02 1.56748846e-01
      1.72399879e-01 1.84117451e-01 1.59957483e-01 1.20473400e-01
      9.49170366e-02 3.61272208e-02 5.24145924e-03 7.03878477e-02
      8.48325789e-02 2.19161198e-01 2.50690848e-01 2.57543415e-01
      2.09561035e-01 1.53355271e-01 4.19213064e-02 2.12414246e-02
      8.64033997e-02 2.49410227e-01 2.62501061e-01 2.62501061e-01
      2.80036241e-01 2.40890607e-01 2.01983839e-01 1.72849789e-01
      1.55099764e-01 1.19864628e-01 1.75240695e-01 1.92045093e-01
      1.44784808e-01 9.29504111e-02 9.03923064e-02 6.04459345e-02
      6.73740655e-02 6.89320788e-02 5.31159639e-02 7.63555244e-02
      7.98061714e-02 1.06027640e-01 2.20888257e-01 2.43045896e-01
      1.77699193e-01 1.30456477e-01 1.59691617e-01 1.90134034e-01
      2.80218899e-01 2.80218899e-01 2.66592771e-01 8.36983398e-02
      1.20081805e-01 9.47427377e-02 9.37033817e-02 1.52874500e-01
      1.16892420e-01 1.56986415e-01 2.10536927e-01 1.25171289e-01
      2.29669631e-01 1.77297935e-01 1.25402361e-01 8.49803239e-02
      1.65323198e-01 9.73181948e-02 1.58830240e-01 1.36842921e-01
      2.41062358e-01 8.20236430e-02 6.41574711e-02 1.45188376e-01
      1.24338353e-02 2.31270388e-01 1.35965943e-02 1.01085797e-01
      4.82273288e-02 8.59817415e-02 1.95545420e-01 2.42146820e-01
      2.08502963e-01 1.29289612e-01 2.32879937e-01 1.86227053e-01
      2.74515927e-01 2.20246077e-01 2.37655655e-01 2.20926046e-01
      7.17507526e-02 1.34905159e-01 3.06214485e-02 2.26186901e-01
      2.96129156e-02 1.42765626e-01 1.17562518e-01 2.43317664e-01
      6.90556988e-02 5.35691865e-02 1.05532281e-01 0. 1.45928204e-01
      6.99152704e-03 6.23980574e-02 3.76474857e-02 6.74217790e-02
      1.67692065e-01 7.27642924e-02 1.31984830e-01 1.14894919e-02
      1.34391144e-01 5.43785468e-03 1.22197315e-01 1.08211026e-01
      1.82847813e-01 2.18977928e-01 1.16481148e-01 9.53902453e-02
      1.83509085e-02 1.24112569e-01 3.02966181e-02 1.15668692e-01
      1.99045509e-01 2.09130540e-01 3.70047778e-01 3.70047778e-01
      1.84432060e-01 7.86952153e-02 1.42766118e-01 2.35640369e-02
      1.55872270e-01 3.70047778e-01 3.70047778e-01 6.96765333e-02
      2.56178323e-02 4.63302732e-02 1.77499913e-02 5.37955798e-02
      1.10221868e-02 4.12668884e-02 5.12671173e-02 9.49751735e-02
      1.21692203e-01 1.59386978e-01 1.15722962e-01 2.77453307e-02
      5.76223657e-02 1.95700787e-02 4.04872596e-02 3.77662592e-02
      1.15005545e-01 3.06677788e-01 4.01682466e-01 1.65122569e-01
      8.46234411e-02 4.29839604e-02 3.03916391e-02 5.63137271e-02
      1.17591701e-01 2.26058647e-01 4.05669898e-01 4.05669898e-01
      4.05669898e-01 6.88561425e-02 2.69264802e-02 5.34911193e-02
      9.85736847e-02 5.35159074e-02 1.48074582e-01 5.58264256e-02
      1.80265322e-01 1.96231678e-01 4.63926233e-02 2.92029995e-02
      6.90952130e-03 2.35477872e-02 4.33620624e-03 3.13418023e-02
      3.09703834e-02 2.92043298e-01 3.60696405e-01 3.60696405e-01
      6.89187050e-02 1.59104634e-02 1.34824580e-02 3.06766422e-04
      9.32675693e-03 1.61022738e-01 3.60696405e-01 3.60696405e-01
      2.42749508e-02 6.17604656e-03 5.08389948e-03 3.52037661e-02
      6.38927333e-03 2.44650692e-02 9.68886465e-02 3.60696405e-01
      3.60696405e-01 8.60473737e-02 8.03367328e-03 1.06203937e-04
      1.26512889e-02 3.11565382e-04 7.79471314e-03 2.88386196e-02
      3.01203161e-01 3.61679524e-01 3.61679524e-01 9.95566249e-02
      2.02784389e-02 6.24115637e-04 0. 5.37195848e-03 4.38125320e-02
      1.37458324e-01 3.05390149e-01 3.61679524e-01 5.30623645e-02
      1.46889696e-02 7.68292870e-04 6.52945193e-04 1.19044632e-02
      1.12965651e-01 3.61679524e-01 3.61679524e-01 1.56914338e-01
      5.97316725e-03 6.08530419e-04 1.20449963e-03 5.21713169e-03
      2.27024443e-02 9.31213796e-02 1.96488649e-01 1.66850641e-01
      9.04887617e-02 1.25958035e-02 6.32811850e-03 5.54337446e-03
      1.37170143e-02 3.84676494e-02 1.44383356e-01 1.48853838e-01
      9.04687271e-02 6.05853871e-02 9.17280242e-02 8.12884793e-02
      8.78962576e-02 8.87790397e-02 1.43196315e-01 2.53620654e-01
      2.40170434e-01 1.21768147e-01 7.29619414e-02 2.78963502e-02
      1.01028159e-01 4.07394469e-01 4.07394469e-01 1.80340454e-01
      1.51578903e-01 9.43938121e-02 5.03779314e-02 3.85736562e-02
      1.66739926e-01 1.05358057e-01 1.08336255e-01 1.65220320e-01
      2.19667912e-01 2.48574600e-01 2.63417989e-01 9.61920545e-02
      6.81969598e-02 5.86613938e-02 5.56531958e-02 5.52763268e-02
      1.06516525e-01 2.10255161e-01 7.55778626e-02 3.14105675e-02
      1.65390465e-02 7.77234603e-03 3.18086846e-03 2.47747973e-02
      2.77351230e-01 4.36602682e-01 1.84596717e-01 7.63701275e-02
      1.57737751e-02 4.43883948e-02 8.60370696e-03 1.96306594e-02
      3.51588912e-02 4.06572849e-01 4.36602682e-01 4.36602682e-01
      5.90917654e-02 6.07115552e-02 1.69767495e-02 9.61621199e-03
      9.72253829e-03 9.48857330e-03 1.61824264e-02 3.92694473e-02
      4.81430776e-02 6.00518063e-02 3.58357392e-02 2.22547241e-02
      8.55250098e-03 1.49880052e-02 1.48055013e-02 3.66236828e-02
      2.65560150e-01 2.01090455e-01 4.30424213e-02 1.10682007e-02
      2.46800352e-02 9.10453685e-03 2.21988074e-02 2.37845741e-02
      1.04837134e-01 3.72280270e-01 3.72280270e-01 7.99018294e-02
      2.05766819e-02 9.39548481e-03 1.08575802e-02 1.65022537e-02
      2.37547457e-02 5.55243008e-02 3.72280270e-01 3.72280270e-01
      3.28513421e-02 8.90236162e-03 1.89386308e-02 8.77364166e-03
      5.54111227e-03 1.01585193e-02 2.99839973e-02 2.79764265e-01
      2.27753505e-01 6.17016926e-02 1.26279341e-02 1.85266584e-02
      1.04599344e-02 7.65263150e-03 1.46492422e-02 4.01995517e-02
      3.72280270e-01 3.72280270e-01 4.89027090e-02 1.59572028e-02
      4.99345735e-03 8.14042520e-03 1.60971656e-02 1.07286405e-02
      5.57717010e-02 3.46487731e-01 3.46487731e-01 8.41485336e-02
      1.35182766e-02 5.13500301e-03 1.41367819e-02 2.68790182e-02
      1.49062630e-02 7.60286599e-02 3.44142824e-01 3.46487731e-01
      4.15175259e-02 4.31581168e-03 3.73490714e-03 6.35527493e-03
      7.25639798e-03 7.84748979e-03 4.33663167e-02 3.46487731e-01
      3.46487731e-01 8.69988576e-02 6.19882252e-03 1.04914571e-03
      9.16971080e-03 9.27282125e-03 1.39294239e-02 7.43430182e-02
      3.46487731e-01 3.46487731e-01 1.15205042e-01 1.62010696e-02
      1.27353230e-02 6.89871004e-03 1.48035018e-02 2.76393145e-02
      5.11571951e-02 1.68174714e-01 4.03938711e-01 8.46869200e-02
      1.75006539e-02 2.28507835e-02 6.13371562e-03 1.12732146e-02
      3.29708457e-02 4.88923714e-02 1.07073985e-01 2.12111741e-01
      1.53177500e-01 8.67263321e-03 1.72389466e-02 7.55815255e-03
      9.74596478e-03 2.67912541e-02 4.08137627e-02 3.96676481e-01
      4.22815412e-01 3.23544294e-01 2.59890594e-02 4.20865230e-02
      1.03111286e-02 9.95955430e-03 2.23305002e-02 1.61081739e-02
      2.63672292e-01 4.22815412e-01 1.20147586e-01 4.45545539e-02
      3.30229439e-02 2.19900664e-02 1.62606388e-02 2.88218856e-02
      4.74979728e-02 7.20154196e-02 1.34738475e-01 1.50132522e-01
      6.37070015e-02 4.15185690e-02 4.62210774e-02 4.23890278e-02
      2.11672317e-02 4.90835607e-02 8.24161246e-02 2.04101086e-01
      4.52737004e-01 6.61524534e-02 4.94825095e-02 1.62003506e-02
      3.28776031e-03 1.52256601e-02 1.01285530e-02 9.89510864e-02
      4.52737004e-01 4.52737004e-01 1.02565967e-01 3.65869962e-02
      1.48536395e-02 4.65043122e-04 7.45420437e-03 2.40937117e-02
      1.31934941e-01 4.52737004e-01 1.07727133e-01 4.42710258e-02
      3.42108160e-02 3.95172350e-02 6.58492073e-02 3.24248970e-02
      4.25736867e-02 7.40378350e-02 2.14181736e-01 9.00780484e-02
      9.24675465e-02 1.37857944e-01 1.59140766e-01 2.64643818e-01
      2.19267547e-01 1.35858282e-01 2.64081299e-01 2.71778941e-01
      3.42394412e-01 7.07457364e-02 2.17003878e-02 9.58480500e-03
      4.87769116e-03 1.65610015e-02 3.18858847e-02 1.15713239e-01
      3.52424383e-01 3.52424383e-01 3.51449586e-02 2.52756178e-02
      4.17663045e-02 4.44935746e-02 6.43297359e-02 6.85646981e-02
      2.36440778e-01 3.52424383e-01 7.94336349e-02 1.00901067e-01
      8.37555975e-02 6.54904991e-02 8.96889418e-02 1.08915851e-01
      8.57748538e-02 2.61158556e-01 3.49890679e-01 2.54220128e-01
      7.70541281e-02 2.30392069e-02 1.81236733e-02 7.80789182e-03
      1.57869123e-02 2.15850025e-02 1.36495054e-01 3.49890679e-01
      3.47948432e-01 2.30646096e-02 9.54954140e-03 2.19698306e-02
      2.84037702e-02 2.48869751e-02 3.79310399e-02 1.85935974e-01
      3.49890679e-01 3.49890679e-01 4.59282622e-02 4.90236934e-03
      5.39717963e-03 1.70894861e-02 1.22501026e-03 1.08013703e-02
      9.00495648e-02 3.49890679e-01 3.28731745e-01 4.64547947e-02
      7.13259820e-03 3.53355170e-03 1.52334163e-03 7.83343054e-03
      2.04440169e-02 6.96015880e-02 3.28731745e-01 3.28731745e-01
      2.63606995e-01 6.70274124e-02 4.29099388e-02 1.43195651e-02
      3.77950892e-02 7.70991966e-02 2.33765721e-01 1.91105157e-01
      3.28731745e-01 5.85247241e-02 3.01424460e-03 1.08293643e-04
      4.02457546e-03 4.05418141e-05 1.05204647e-02 2.69411039e-02
      3.28731745e-01 3.28731745e-01 2.24907473e-01 3.81563678e-02
      1.50866201e-02 4.06490033e-03 9.21144616e-03 1.54475989e-02
      3.54161486e-02 3.28731745e-01 1.96893781e-01 3.62351298e-01
      1.95991710e-01 1.48148626e-01 1.19880706e-01 1.11668661e-01
      1.12436786e-01 2.83249855e-01 8.75322521e-02 1.16001189e-01
      1.22100033e-01 1.28370896e-01 7.88436979e-02 1.15113862e-01
      6.60919920e-02 7.71145150e-02 1.02690011e-01 6.72504753e-02
      3.65703493e-01 2.97311008e-01 1.19260892e-01 5.23510091e-02
      2.68465076e-02 3.31829302e-02 1.74765680e-02 3.66485491e-02
      2.08208606e-01 3.65703493e-01 1.16779625e-01 7.77310878e-02
      2.64005419e-02 2.56394316e-02 1.99921243e-02 1.94776151e-02
      4.51463275e-02 3.24564695e-01 1.53846696e-01 4.69183959e-02
      3.91325280e-02 1.23713976e-02 3.58392671e-02 2.12042499e-02
      4.91852015e-02 6.13584779e-02 8.14667568e-02 3.18036228e-01
      7.08753392e-02 2.43468862e-02 6.04777690e-03 2.34508123e-02
      2.45419284e-03 2.24051084e-02 6.09161295e-02 1.09363087e-01
      4.96242613e-01 8.82872492e-02 1.44607099e-02 1.89386599e-03
      1.16418982e-02 5.93027193e-03 2.13993434e-02 5.94035722e-02
      3.99521410e-01 4.96242613e-01 2.26478830e-01 1.06191793e-02
      2.48480565e-03 5.64753683e-03 4.52204316e-04 1.64555274e-02
      9.89513323e-02 3.21875870e-01 2.81431437e-01 1.62116632e-01
      4.33580130e-02 6.39368873e-03 7.34961266e-03 1.84095686e-03
      1.25928652e-02 5.45405336e-02 5.94184957e-02 3.79091620e-01
      3.81340265e-01 7.17034861e-02 9.12948977e-03 8.15985538e-03
      1.43185537e-03 1.02641666e-02 4.73075137e-02 8.13700110e-02
      3.81340265e-01 3.18850785e-01 6.02303371e-02 2.91094091e-03
      1.14077120e-03 0. 1.01933843e-02 7.68667981e-02 1.25733197e-01
      3.81340265e-01 3.81340265e-01 9.18553248e-02 2.42034509e-03
      1.00060040e-03 1.09727691e-04 3.92360846e-03 2.80002654e-02
      7.77473003e-02 3.48870546e-01 3.48870546e-01 7.48370513e-02
      1.83544122e-02 4.55181766e-03 4.15966380e-03 8.19691364e-03
      2.26545036e-02 7.81588405e-02 3.48870546e-01 3.48870546e-01
      1.43019006e-01 1.31395664e-02 2.59638764e-03 7.93602038e-03
      1.67460740e-02 8.63878429e-03 5.34854457e-02 3.48870546e-01
      3.48870546e-01 3.67615521e-02 1.80151779e-03 3.23830463e-04
      3.35397577e-04 2.74235063e-04 5.58380177e-03 3.82550433e-02
      3.21503520e-01 3.48870546e-01 2.83387452e-02 1.32435793e-03
      6.16835430e-04 9.01458261e-04 1.65953476e-04 4.36783955e-03
      3.03879678e-02 3.89809936e-01 4.00634497e-01 3.50105584e-01
      5.65739814e-03 1.40411966e-03 3.85393016e-03 1.59781147e-02
      4.18878673e-03 6.15788251e-02 2.06546158e-01 4.00634497e-01
      3.40896934e-01 9.55764949e-03 1.27400900e-03 9.24446154e-04
      2.40373076e-03 6.38973026e-04 2.70236600e-02 2.46831149e-01
      3.59724164e-01 6.15900308e-02 6.28991006e-03 1.11392923e-02
      4.44562687e-03 4.80541523e-04 2.42276187e-03 5.44745252e-02
      1.22068413e-01 1.41417742e-01 5.03663681e-02 7.50396214e-03
      1.43871633e-02 4.15509986e-03 2.31965561e-03 1.20686665e-02
      3.86595987e-02 4.15407032e-01 4.41399902e-01 4.41399902e-01
      2.03001592e-02 6.05835067e-03 2.19150707e-02 2.36914754e-02
      6.58659339e-02 1.15114316e-01 2.00555205e-01 2.75430858e-01
      1.07804865e-01 3.94535735e-02 4.69445027e-02 5.22404611e-02
      7.45996982e-02 1.44181684e-01 1.45382792e-01 2.13258773e-01
      2.31300890e-01 1.39170974e-01 4.63617034e-02 2.77428925e-02
      4.79158312e-02 4.43276949e-02 8.75479281e-02 1.04377717e-01
      8.61204788e-02 7.98285082e-02 1.31887347e-01 8.26121941e-02
      6.56007081e-02 7.90922940e-02 8.68257284e-02 1.42452821e-01
      1.10039756e-01 2.49125868e-01 1.09326899e-01 6.17033541e-02
      3.84271890e-02 1.49993911e-01 1.38188154e-01 1.16632991e-01
      1.92688882e-01 3.18336695e-01 2.96010256e-01 2.28277728e-01
      8.52464885e-02 7.35797510e-02 1.42866954e-01 1.62355021e-01
      7.98106939e-02 1.69947490e-01 3.46988946e-01 2.43382305e-01
      1.27802625e-01 1.01791129e-01 9.03173834e-02 1.39561966e-01
      6.58987164e-02 6.58739135e-02 6.73186928e-02 1.88125998e-01
      2.15221480e-01 2.16694400e-01 1.20503955e-01 1.10438652e-01
      2.01965243e-01 1.12855397e-01 7.35278875e-02 6.94174394e-02
      1.46289378e-01 2.76101142e-01 2.86723882e-01 1.09398328e-01
      1.10174716e-01 1.26497313e-01 8.05076659e-02 6.75749257e-02
      9.51551422e-02 2.18764052e-01 2.43743911e-01 2.17723519e-01
      1.42193779e-01 1.41157046e-01 9.26601291e-02 6.96245208e-02
      1.29931703e-01 2.57018924e-01 4.35933143e-01 1.49492130e-01
      2.17648044e-01 1.55465186e-01 1.48854926e-01 1.61130488e-01
      5.12780659e-02 5.64624257e-02 3.61054540e-02 9.18897390e-02
      1.36669353e-01 1.46560878e-01 1.42914072e-01 1.53997019e-01
      1.35994360e-01 6.00244366e-02 9.32900757e-02 7.65947849e-02
      1.27172187e-01 7.16128647e-02 4.15870324e-02 7.65687153e-02
      8.43890980e-02 3.99365760e-02 1.04190141e-01 1.66269138e-01
      2.58313954e-01 2.29558170e-01 1.00734234e-01 5.86217493e-02
      8.34302828e-02 7.09452331e-02 7.78722391e-02 2.49521852e-01
      3.12533587e-01 3.95199776e-01 3.95199776e-01 3.69252525e-02
      2.90460438e-02 4.63325307e-02 8.14226940e-02 7.46965557e-02
      1.46498293e-01 1.22685984e-01 7.54002482e-02 5.20031266e-02
      1.21384105e-02 1.82229523e-02 3.84361669e-02 1.78588063e-01
      2.40415081e-01 3.34979951e-01 1.98817521e-01 8.71015713e-02
      1.73850413e-02 8.87750834e-02 3.31992619e-02 2.13200357e-02
      1.74561404e-02 2.34099980e-02 7.15339258e-02 9.77376103e-02
      3.99363816e-01 4.88698393e-01 2.23800123e-01 5.60250245e-02
      1.47265326e-02 1.16773136e-02 4.87013208e-03 1.50065832e-02
      6.70880303e-02 4.88698393e-01 4.88698393e-01 1.89273525e-02
      3.08117922e-02 2.58319825e-02 5.62814251e-02 8.28145146e-02
      8.85869414e-02 5.05994037e-02 2.10722312e-02 1.15444129e-02
      6.96338117e-02 5.61809167e-02 2.89964750e-02 1.07512465e-02
      1.91719830e-02 8.92891362e-03 2.21590437e-02 1.10834967e-02
      5.34051508e-02 1.79413185e-01 1.69422477e-02 1.07805785e-02
      4.14405437e-03 3.64184519e-03 1.01053361e-02 1.47615159e-02
      3.24262589e-01 5.04612565e-01 4.91471708e-01 1.77417379e-02
      2.30726488e-02 5.34595456e-03 7.03579420e-03 1.04280170e-02
      1.00457817e-02 2.59569466e-01 5.04612565e-01 4.89907898e-02
      1.50717730e-02 7.95685500e-03 1.90760056e-03 4.47378354e-03
      2.06139032e-03 7.11319223e-03 1.03120441e-02 6.03573546e-02
      8.68585557e-02 1.28223021e-02 8.23762733e-03 4.64900723e-03
      8.03663116e-03 6.20398717e-03 1.11888070e-02 2.61553768e-02
      1.49394512e-01 4.18907672e-01 2.22689006e-02 1.57181751e-02
      3.50750214e-03 2.85181636e-03 2.32621678e-03 2.37154518e-03
      6.99240565e-02 4.85096365e-01 4.47919399e-01 3.77246067e-02
      1.08705899e-02 3.33845941e-03 1.03121554e-03 1.04640913e-03
      4.36302787e-03 1.24509230e-01 4.85096365e-01 7.35155642e-02
      1.38378972e-02 4.48796758e-03 1.89588498e-03 6.37079449e-03
      2.75247800e-03 4.73982235e-03 1.76385362e-02 1.54605210e-01
      1.25422150e-01 1.28530469e-02 4.36963141e-03 1.10540539e-03
      4.45573730e-03 1.59701507e-04 6.79234136e-03 1.89250745e-02
      2.81812280e-01 4.25781697e-01 2.85682715e-02 6.23743329e-03
      1.80107879e-03 6.90319983e-04 4.65899799e-03 6.88606594e-03
      9.27109495e-02 4.25781697e-01 4.25781697e-01 2.07778104e-02
      8.25952832e-03 1.38447508e-02 7.26660714e-03 8.65106005e-03
      1.08971158e-02 7.10380748e-02 4.25781697e-01 1.47880718e-01
      1.20919608e-02 4.39703418e-03 1.20742072e-03 2.85127037e-03
      1.36361772e-03 5.74875157e-03 1.06381848e-02 2.56987303e-01
      2.45231330e-01 2.53790077e-02 6.38877694e-03 1.05897745e-03
      5.47709409e-03 3.54026421e-03 4.65918845e-03 1.20299263e-02
      3.25286210e-01 4.20939445e-01 2.16068756e-02 5.78894513e-03
      1.31465141e-02 1.06636183e-02 3.13103269e-03 8.22150987e-03
      4.26467098e-02 4.20939445e-01 4.20939445e-01 3.78481522e-02
      4.66697896e-03 4.03891783e-03 1.01521220e-02 1.61816133e-04
      5.30371582e-03 2.73251552e-02 4.20939445e-01 2.21430391e-01
      1.63336266e-02 4.96752420e-03 2.08832743e-03 2.76785740e-03
      1.43230462e-03 2.79612676e-03 1.26475440e-02 2.69822747e-01
      2.88957834e-01 1.19588794e-02 7.39130238e-03 5.34214964e-03
      4.04440286e-03 1.98314129e-03 6.51687244e-03 1.62819251e-02
      2.75033832e-01 4.33484703e-01 6.09830357e-02 3.53753357e-03
      5.03906864e-04 3.74965579e-03 1.38155345e-04 7.83625152e-03
      2.70353649e-02 4.33484703e-01 4.33484703e-01 9.82859060e-02
      7.53304968e-03 2.24709394e-03 2.37344601e-03 5.35675185e-03
      1.11457184e-02 3.66419591e-02 4.33484703e-01 2.74668425e-01
      9.52767115e-03 7.15280138e-03 3.33131361e-03 7.00191548e-03
      3.02176340e-03 7.48304371e-03 1.28268851e-02 2.15811536e-01
      2.86587358e-01 1.11452667e-02 6.26777252e-03 3.18830786e-03
      8.21133517e-03 4.01441148e-03 1.07478481e-02 1.52481347e-02
      1.51941299e-01 5.31807661e-01 1.08810671e-01 1.63484365e-02
      5.71547216e-03 5.06506255e-03 1.74512807e-02 1.20583856e-02
      3.46766189e-02 3.32557410e-01 5.31807661e-01 7.98557624e-02
      1.09964460e-02 3.25674331e-03 8.66336375e-03 1.18952412e-02
      9.28162225e-03 2.78132576e-02 4.17499840e-01 2.79271513e-01
      1.96599625e-02 1.09152803e-02 6.98581012e-03 7.07715936e-03
      4.51427884e-03 1.12917842e-02 2.03205589e-02 8.65391046e-02
      1.77386835e-01 2.08198596e-02 1.15417615e-02 8.70746747e-03
      1.86240580e-02 1.42529542e-02 1.19555853e-02 1.67969260e-02
      5.49253114e-02 5.28461158e-01 7.63682649e-02 4.84977383e-03
      1.34668418e-03 9.55657009e-03 6.47068769e-03 9.59557295e-03
      2.45763995e-02 4.86565053e-01 5.28461158e-01 1.67126939e-01
      1.22877574e-02 1.69072801e-03 4.86898841e-03 1.43897184e-03
      1.04111917e-02 4.61362377e-02 3.60873431e-01 1.19293034e-01
      1.62100848e-02 1.18646724e-02 7.75349932e-03 2.32125111e-02
      1.38055179e-02 1.62664987e-02 1.78221297e-02 5.47311492e-02
      7.65898004e-02 2.34751515e-02 1.81247629e-02 4.14481433e-03
      1.66437719e-02 2.59641418e-03 1.63309332e-02 3.64295058e-02
      6.72907159e-02 5.18537939e-01 3.38431358e-01 5.29743657e-02
      9.33675282e-03 1.31322034e-02 5.79144689e-05 1.43394303e-02
      7.12585151e-02 2.61518687e-01 5.18537939e-01 4.54644203e-01
      9.78174508e-02 3.07987165e-02 2.40385495e-02 3.19318217e-03
      7.91345909e-03 3.21083739e-02 1.30850509e-01 7.59824961e-02
      4.43283357e-02 2.16224901e-02 1.94396004e-02 2.97407135e-02
      2.50962679e-04 1.29854642e-02 3.98985334e-02 7.23856688e-02
      4.93893027e-02 3.37797739e-02 3.42497304e-02 5.21510690e-02
      5.70277870e-02 7.08583882e-03 1.57496016e-02 2.46587154e-02
      4.07337211e-02 4.56128180e-01 4.56128180e-01 1.18121065e-01
      3.83840725e-02 2.02709660e-02 1.20275160e-02 1.15843471e-02
      6.53117076e-02 1.69554159e-01 4.56128180e-01 3.82435173e-01
      8.49205777e-02 2.09542047e-02 9.97317210e-03 2.08929256e-02
      1.38908643e-02 9.42343324e-02 1.38842255e-01 1.17245667e-01
      4.82062995e-02 4.62175049e-02 4.66549471e-02 6.46547824e-02
      1.89587250e-02 4.40842099e-02 9.42101628e-02 1.10539787e-01
      1.70037434e-01 1.30682215e-01 5.89984246e-02 3.71958874e-02
      2.80090272e-02 2.89020669e-02 4.35244441e-02 1.26737431e-01
      1.44807920e-01 3.82160634e-01 5.07967353e-01 1.79421306e-01
      3.61152440e-02 5.75135909e-02 4.71396744e-02 3.43409069e-02
      1.11001059e-01 1.36042058e-01 2.40547165e-01 2.84875363e-01
      1.10551670e-01 3.98373678e-02 8.21749568e-02 4.67088111e-02
      6.29880130e-02 1.52968645e-01 1.56143591e-01 1.92345515e-01
      2.54016846e-01 1.50187165e-01 5.34884185e-02 7.76513666e-02
      6.37334436e-02 8.56184140e-02 1.42221704e-01 1.31578609e-01
      1.45936206e-01 1.44953057e-01 9.76028070e-02 2.46444941e-02
      1.82444885e-01 8.08680207e-02 1.14908777e-01 9.31123272e-02
      1.01314798e-01 1.46739334e-01 1.71216577e-01 1.98614791e-01
      1.40685201e-01 9.12973434e-02 4.93005961e-02 6.28611892e-02
      1.27174094e-01 1.31660908e-01 1.55920625e-01 2.38320574e-01
      3.33339274e-01 2.44967207e-01 1.32465497e-01 6.76112026e-02
      5.46540357e-02 7.45859221e-02 1.28124550e-01 1.24095514e-01
      1.16460584e-01 1.08729683e-01 1.25501871e-01 3.17957312e-01
      1.17347695e-01 1.13920934e-01 6.41441047e-02 1.03775099e-01
      1.20153666e-01 1.75068095e-01 2.02146664e-01 2.57204473e-01
      3.15083802e-01 2.33820558e-01 1.39837697e-01 5.30505963e-02
      9.56294760e-02</_>
    <_>
      1.31685436e-01 6.93172812e-02 4.94820699e-02 2.13531218e-02
      4.89610583e-02 3.51602696e-02 4.86298874e-02 1.03737079e-01
      1.53522715e-01 1.35340527e-01 9.25742835e-02 7.43071735e-02
      6.05584458e-02 5.19111417e-02 5.00166155e-02 5.96035421e-02
      1.02182753e-01 1.17876478e-01 4.46110964e-01 1.08015545e-01
      3.76403220e-02 1.54412519e-02 7.70808291e-03 1.70126110e-02
      4.12396416e-02 8.34711865e-02 4.46110964e-01 4.46110964e-01
      1.27238125e-01 4.13884968e-02 2.34691892e-02 6.25170115e-03
      1.39310872e-02 4.54269014e-02 1.47830352e-01 4.46110964e-01
      1.34624124e-01 7.58373290e-02 4.49821465e-02 4.37745228e-02
      2.64574010e-02 2.22133044e-02 4.32124995e-02 6.97406903e-02
      1.30499497e-01 1.44938827e-01 5.39391562e-02 3.49101014e-02
      4.06877398e-02 8.34912285e-02 5.78150749e-02 5.22866659e-02
      1.09821163e-01 1.74491540e-01 4.49306548e-01 8.44818056e-02
      1.96023509e-02 8.88011605e-03 1.81851315e-03 7.76489638e-03
      1.88260209e-02 7.67368600e-02 4.49306548e-01 4.49306548e-01
      1.49727106e-01 2.63597909e-02 4.43462282e-03 1.10587440e-02
      1.96341667e-02 2.11019889e-02 1.22060500e-01 4.49306548e-01
      1.63557723e-01 7.17707574e-02 4.66980115e-02 2.18389370e-02
      6.55006170e-02 2.61737984e-02 2.42224503e-02 7.72093907e-02
      1.34089902e-01 1.83864474e-01 6.54006824e-02 4.06059586e-02
      6.97455020e-04 5.93721122e-02 5.08884527e-03 1.85935330e-02
      5.04641570e-02 1.60871521e-01 4.40044016e-01 1.37803987e-01
      2.66596768e-02 1.92886952e-03 1.14802746e-02 1.15933120e-02
      2.21537743e-02 9.23565328e-02 4.40044016e-01 4.40044016e-01
      1.39784023e-01 2.95688212e-02 4.02814848e-03 6.64649438e-03
      1.78034266e-03 1.50031522e-02 1.87715113e-01 4.40044016e-01
      1.13992751e-01 1.35162687e-02 7.11503485e-03 1.12638029e-03
      3.61199416e-02 1.40615168e-03 1.39587270e-02 2.31005885e-02
      9.83346403e-02 1.04451850e-01 2.94846967e-02 1.38380229e-02
      9.29882005e-03 5.95173351e-02 2.22020689e-03 3.25014181e-02
      3.59689221e-02 9.51538906e-02 4.54823643e-01 1.61696792e-01
      3.33914272e-02 3.86675890e-03 6.37808861e-03 0. 2.75203921e-02
      1.34260356e-01 3.36219579e-01 4.54823643e-01 3.65142375e-01
      5.98396361e-02 6.52020611e-03 1.49309747e-02 0. 8.77406970e-02
      1.37490258e-01 4.54823643e-01 4.97563258e-02 3.63270082e-02
      1.09183136e-02 5.83058596e-03 2.87797358e-02 5.08304872e-03
      1.32040102e-02 1.40296323e-02 3.05679366e-02 7.71201625e-02
      5.64183556e-02 1.54282656e-02 7.23502226e-03 1.11551853e-02
      1.50172990e-02 2.79510021e-02 2.37465240e-02 3.29346545e-02
      4.96301562e-01 3.06902230e-01 2.90410910e-02 3.00724781e-03
      8.21353681e-03 1.63999363e-03 1.99885666e-02 3.48701626e-02
      2.51660287e-01 4.96301562e-01 4.28481668e-01 2.19849311e-02
      2.11364287e-03 2.83400132e-03 6.43282011e-03 1.51553517e-02
      4.86344472e-02 3.70560527e-01 3.60698663e-02 2.00559869e-02
      1.16321240e-02 9.79952142e-03 4.67566680e-03 6.24208478e-03
      1.35626644e-02 2.72234865e-02 3.34171243e-02 6.81945831e-02
      2.79145781e-02 1.26640741e-02 1.48769598e-02 8.76319874e-03
      1.26801734e-03 7.42487097e-03 3.30089517e-02 5.87988719e-02
      5.28790653e-01 2.04289407e-01 4.98379627e-03 1.37517985e-03
      1.38719997e-03 2.44225143e-03 1.01155182e-02 5.98961748e-02
      2.97491848e-01 5.28790653e-01 1.99115992e-01 1.73081562e-03
      1.68779481e-03 5.07898815e-03 1.39735895e-03 5.70418453e-03
      4.62626740e-02 4.95113313e-01 6.85587749e-02 1.61194652e-02
      3.25152255e-03 3.01269256e-03 3.08676786e-03 2.63258436e-04
      1.53796561e-03 1.65571384e-02 5.08292951e-02 1.01466119e-01
      1.35504426e-02 2.93948106e-03 3.42675135e-03 3.11969873e-03
      7.85298005e-04 9.21454572e-04 1.88614186e-02 8.07253271e-02
      5.18183529e-01 6.58131465e-02 3.55312804e-04 4.22801124e-04
      1.31806091e-03 1.80478863e-04 6.76506024e-04 2.29049437e-02
      3.79091263e-01 5.18183529e-01 1.22483768e-01 4.40802338e-04
      1.49716542e-03 2.98056751e-04 0. 0. 2.18293611e-02 5.18183529e-01
      1.01209261e-01 8.44726525e-03 4.14583273e-03 2.72962498e-03
      2.51528854e-03 2.42729438e-04 3.97889497e-04 8.92585516e-03
      7.56750107e-02 1.41180262e-01 7.73009472e-03 4.28115018e-03
      8.18704721e-04 2.50343932e-03 0. 8.29172321e-04 7.68145081e-03
      1.09185994e-01 4.83765692e-01 1.00439742e-01 4.38196672e-04
      1.01311773e-03 2.93979625e-04 0. 0. 6.26080809e-03 4.83765692e-01
      4.83765692e-01 2.59680413e-02 1.15130795e-03 1.63483142e-04
      2.79830041e-04 0. 4.33297391e-04 9.80097614e-03 4.83765692e-01
      1.21544324e-01 8.65157694e-03 2.55066785e-03 4.41779470e-04
      1.22711365e-03 0. 7.70278100e-04 5.67994872e-03 1.01150647e-01
      1.21905670e-01 1.32266646e-02 4.28507058e-03 3.28698941e-03
      3.66860931e-03 4.63709421e-03 1.67930254e-03 3.52324010e-03
      1.23783305e-01 4.84450489e-01 6.61736540e-03 7.70991493e-04 0.
      5.62322639e-05 0. 6.76868833e-04 1.79997515e-02 4.84450489e-01
      4.84450489e-01 8.50393344e-03 2.47308449e-03 1.76137383e-03
      4.24865226e-04 4.21072735e-04 3.79075209e-04 1.95817780e-02
      4.84450489e-01 8.04050863e-02 8.12896900e-03 4.77259001e-03
      4.24937671e-03 1.21517414e-02 1.29360491e-02 6.23476598e-03
      4.53888997e-03 1.08685419e-01 5.84822856e-02 8.82025342e-03
      6.74760714e-03 1.58885296e-03 2.16255561e-02 1.83666889e-02
      1.29776755e-02 1.12504745e-02 1.03213623e-01 5.00119090e-01
      6.97709527e-03 4.10196185e-03 2.86529702e-03 1.53891859e-03
      3.47939553e-03 2.05745804e-03 4.86597307e-02 5.00119090e-01
      4.51552033e-01 1.34728383e-02 6.25326158e-03 7.51116895e-04
      5.61571773e-03 5.62136434e-03 4.15283721e-03 6.26807064e-02
      5.00119090e-01 3.37139294e-02 1.21946018e-02 9.72207170e-03
      1.27655789e-02 1.03277706e-01 7.61853307e-02 2.42033657e-02
      2.26409659e-02 7.01753274e-02 1.14700776e-02 7.89486431e-03
      9.37493797e-03 3.99456359e-02 4.44174349e-01 2.40564138e-01
      2.98544001e-02 1.52986683e-02 3.02524418e-02 2.78070837e-01
      2.28895172e-02 1.20913405e-02 9.02194344e-03 6.07583933e-02
      2.11225096e-02 6.14532176e-03 1.23572357e-01 4.44174349e-01
      2.23069698e-01 5.12800738e-02 2.71841809e-02 2.31549144e-02
      3.34654540e-01 1.28252998e-01 1.38600999e-02 1.95051789e-01
      4.44174349e-01 1.61951520e-02 1.54452920e-02 1.73982158e-02
      6.29106387e-02 3.91418397e-01 2.27461293e-01 2.66840551e-02
      4.80329338e-03 1.13013396e-02 2.50778086e-02 1.81021225e-02
      1.96103640e-02 2.15222053e-02 4.73804399e-02 3.17234509e-02
      1.65197905e-02 1.10413935e-02 1.63384136e-02 2.56700248e-01
      7.74180368e-02 3.46789397e-02 2.86498182e-02 3.77963305e-01
      1.85367689e-01 4.22180109e-02 2.64954537e-01 3.91418397e-01
      2.59659082e-01 5.04205637e-02 3.60850990e-02 3.16557214e-02
      1.87944118e-02 3.55433263e-02 4.87537198e-02 2.72046030e-01
      3.91418397e-01 3.76692973e-02 2.37505585e-02 2.05710847e-02
      7.84686580e-03 2.80723274e-02 7.76630640e-03 2.06835717e-02
      2.46646553e-02 3.64474691e-02 3.38310637e-02 1.56520866e-02
      1.73665155e-02 1.29946647e-02 3.76430191e-02 1.32834176e-02
      4.12596576e-02 6.46620691e-02 4.92915474e-02 4.41743702e-01
      6.73242956e-02 3.32846791e-02 2.66365036e-02 6.87960209e-03
      9.27351043e-03 5.22265546e-02 3.23947608e-01 4.41743702e-01
      4.41743702e-01 4.91167270e-02 2.52541397e-02 1.26012005e-02
      7.22887320e-03 6.15736283e-03 2.95565426e-02 2.81539232e-01
      4.41743702e-01 4.43287157e-02 1.26380417e-02 1.20965578e-02
      4.64349473e-03 1.40362894e-02 8.06783792e-03 3.41631398e-02
      6.56508207e-02 6.93906993e-02 5.00758514e-02 2.99008694e-02
      1.70150213e-02 3.28032277e-03 2.14270391e-02 9.55129880e-03
      4.17920798e-02 4.18847688e-02 6.61496371e-02 4.70690578e-01
      2.89886855e-02 1.54102081e-02 6.04767492e-03 3.25733726e-03
      3.36035434e-03 2.06087306e-02 2.14763120e-01 4.70690578e-01
      4.70690578e-01 7.61228427e-02 1.08998530e-02 1.44648075e-03
      8.52778554e-03 4.44274163e-03 3.70041505e-02 1.70477465e-01
      4.70690578e-01 4.95467670e-02 3.92932482e-02 3.07109132e-02
      1.03443917e-02 3.23187448e-02 1.27889104e-02 2.98652221e-02
      3.56581174e-02 6.38407320e-02 7.63047114e-02 3.67143154e-02
      2.89975274e-02 2.27528494e-02 2.74110045e-02 1.10613089e-02
      1.63026508e-02 2.04302315e-02 7.10644126e-02 4.84103531e-01
      1.00704506e-01 2.66442206e-02 8.96015763e-03 1.45442449e-02
      7.68535398e-03 2.98446454e-02 9.68219563e-02 4.84103531e-01
      4.84103531e-01 6.93497062e-02 3.13449465e-02 1.35257347e-02
      7.34978588e-03 3.72181041e-03 1.06581459e-02 4.98411655e-02
      4.84103531e-01 3.19136828e-01 3.87702584e-02 4.86370968e-03
      7.79765192e-04 0. 1.05523295e-03 5.75058116e-03 2.88085155e-02
      3.36779475e-01 3.38332206e-01 4.84957844e-02 1.34823695e-02
      1.18280901e-03 3.63938021e-03 3.19762761e-03 2.03949977e-02
      5.11597097e-02 3.38332206e-01 2.68002331e-01 6.82256073e-02
      4.95871529e-02 2.17605717e-02 1.67382620e-02 2.76257307e-03
      1.18460450e-02 7.09069371e-02 2.93055564e-01 3.38332206e-01
      3.38332206e-01 1.04814984e-01 1.51323592e-02 1.43072540e-02
      2.25937963e-02 6.17627464e-02 1.20537475e-01 3.38332206e-01
      1.48749128e-01 2.36441884e-02 5.04675880e-03 1.65748096e-03
      3.83373443e-03 1.22248451e-03 4.20603389e-03 1.01300748e-02
      1.19285665e-01 1.71556026e-01 9.93809029e-02 7.17024831e-03
      1.28915184e-03 5.56657230e-03 1.40439114e-03 7.06140418e-03
      2.52713598e-02 1.23382658e-01 2.15007991e-01 5.08147418e-01
      1.01789758e-01 2.79445853e-03 9.84002650e-03 1.22810397e-02
      1.70098972e-02 2.09860876e-02 1.23074181e-01 5.08147418e-01
      5.08147418e-01 1.98833540e-01 1.07593602e-02 2.85128076e-02
      3.55734653e-03 8.16376414e-03 3.06545645e-02 1.17020987e-01
      9.70853493e-02 1.01747967e-01 6.74403692e-03 0. 2.78110499e-03
      1.31566823e-03 5.82616823e-03 1.22811338e-02 5.91244996e-02
      3.19762290e-01 2.55011290e-01 2.19362359e-02 1.23896275e-03
      6.41793595e-04 5.53985767e-04 4.07536095e-03 2.33239494e-02
      7.96741024e-02 4.12959576e-01 4.41010445e-01 5.98291382e-02
      6.61964295e-03 9.52463318e-03 6.40776940e-04 9.90781747e-03
      1.56233162e-02 7.06659183e-02 4.41010445e-01 4.41010445e-01
      1.28539324e-01 5.06239571e-03 1.62115286e-03 3.99294915e-03
      1.15023209e-02 1.64985415e-02 1.31843373e-01 3.67525637e-01
      2.25560889e-01 1.98820159e-02 8.72365723e-04 0. 1.92602110e-05
      1.42661436e-03 1.55580370e-02 4.12176624e-02 3.67525637e-01
      3.29019517e-01 1.25016933e-02 4.83524194e-03 3.68134701e-03
      5.73665486e-04 7.71716004e-03 1.33988531e-02 6.17760941e-02
      3.67525637e-01 3.67525637e-01 7.95731097e-02 4.63613681e-03
      2.68538715e-03 5.80103323e-03 4.19834536e-03 7.94535223e-03
      7.76612908e-02 3.67525637e-01 3.67525637e-01 4.42998596e-02
      1.79230105e-02 1.39220525e-02 1.77525710e-02 7.61104980e-03
      1.77962035e-02 6.69661909e-02 3.67601275e-01 2.73488849e-01
      6.94656465e-03 4.68516629e-03 3.15566990e-03 7.18632189e-04
      5.59293758e-03 9.02540050e-03 6.72329068e-02 3.67601275e-01
      2.65191108e-01 1.37125682e-02 3.16667277e-03 2.18837784e-04
      5.59085456e-04 6.31512282e-03 2.60348767e-02 1.18368737e-01
      3.67601275e-01 3.67601275e-01 2.47317515e-02 1.35982195e-02
      1.63162220e-02 1.71320420e-02 7.25593604e-03 2.65589524e-02
      5.69899566e-02 3.67601275e-01 3.67601275e-01 4.30357158e-02
      1.32460957e-02 7.79201649e-03 5.34791593e-03 1.21143488e-02
      4.10409644e-02 1.07096322e-01 3.46911311e-01 1.42492354e-01
      6.28479058e-03 1.72050379e-03 8.55339284e-04 1.58053648e-04
      7.86190666e-03 3.37443836e-02 1.30062863e-01 3.46911311e-01
      8.63692909e-02 2.65934481e-03 2.69580923e-04 1.75426796e-03
      5.95058780e-04 5.74715622e-03 3.45394164e-02 2.27067217e-01
      3.46911311e-01 3.46911311e-01 2.07955018e-02 7.67257530e-03
      2.23615323e-03 2.08957354e-04 1.41572179e-02 5.55522926e-02
      1.86236605e-01 3.46911311e-01 1.20741911e-01 6.62693568e-03
      1.09833537e-03 3.27588129e-03 2.27661012e-03 4.76975664e-02
      3.46911311e-01 3.46911311e-01 3.52793545e-01 3.76653261e-02
      4.45013586e-03 1.11830560e-03 3.07873660e-03 1.18641148e-03
      9.59678087e-03 3.79784629e-02 2.71938592e-01 3.52793545e-01
      6.95258677e-02 5.83654875e-03 9.56705073e-04 2.18261546e-03
      4.57695074e-04 4.86183586e-03 1.50042903e-02 3.29289466e-01
      2.38506764e-01 1.84909720e-02 1.14826104e-02 8.13999306e-03
      5.16266748e-03 5.05348016e-03 1.31557524e-01 3.52793545e-01
      3.52793545e-01 1.78813189e-01 3.53094861e-02 1.51331928e-02
      1.56504400e-02 3.70168942e-03 2.37005274e-03 9.20610577e-02
      3.52793545e-01 2.58252800e-01 4.28282082e-01 1.19797863e-01
      4.26534284e-03 7.65282675e-05 5.73279394e-04 8.00882408e-05
      2.73655262e-03 4.30408958e-03 4.28282082e-01 4.28282082e-01
      4.57042046e-02 4.62746946e-03 0. 3.47904628e-03 4.95984277e-04
      4.79704887e-03 1.28024928e-02 4.28282082e-01 2.19391942e-01
      5.45493960e-02 1.19183976e-02 1.17148664e-02 8.72647623e-04
      7.71953817e-03 5.47251478e-02 2.81082988e-01 2.12472424e-01
      1.87342882e-01 5.40906787e-02 1.05904285e-02 6.79326151e-03
      1.22982552e-02 1.30061368e-02 3.10989376e-02 6.11467175e-02
      1.53333545e-01 4.63602692e-01 1.86782014e-02 3.54258041e-03 0.
      2.63127801e-03 8.72151577e-04 4.27897181e-03 2.81614717e-02
      4.63602692e-01 4.63602692e-01 1.97122656e-02 2.90297600e-03
      7.00334786e-04 7.47430080e-04 1.14258658e-03 4.19231039e-03
      3.67223993e-02 4.63602692e-01 1.58806324e-01 5.17838188e-02
      8.88094679e-03 1.78194046e-03 1.64355002e-02 6.35227701e-03
      7.71696260e-03 2.58377176e-02 1.36459112e-01 1.88098848e-01
      6.10654764e-02 1.12418924e-02 2.57711089e-03 9.83398594e-03
      5.87353017e-03 8.40276573e-03 3.03648412e-02 2.11434931e-01
      4.55384582e-01 1.61319356e-02 8.46982002e-03 2.56458065e-03
      3.44888540e-03 4.44992678e-03 5.95696922e-03 5.49658909e-02
      4.55384582e-01 4.48570073e-01 2.16835607e-02 1.38463425e-02
      2.86910706e-03 4.07359470e-03 5.58455614e-03 4.59000934e-03
      5.78945614e-02 4.55384582e-01 1.32317141e-01 5.21018989e-02
      1.86156183e-02 5.26027288e-03 9.18538868e-03 7.83516001e-03
      1.06066009e-02 3.13345008e-02 1.95390552e-01 1.42183095e-01
      4.51440103e-02 3.25115100e-02 8.77172127e-03 1.11158658e-02
      1.13236671e-02 9.24331415e-03 2.79272273e-02 2.82973379e-01
      2.57596433e-01 1.89006198e-02 9.38680209e-03 3.65837989e-03
      7.04892073e-03 3.36935488e-03 3.32382298e-03 1.10977359e-01
      4.64629650e-01 2.27481231e-01 2.83429883e-02 9.87430941e-03
      4.75053862e-03 4.21504192e-02 1.78270824e-02 7.04572489e-03
      2.59377509e-01 4.64629650e-01 1.02216460e-01 2.55385358e-02
      1.81448422e-02 6.42737839e-03 5.17666433e-03 8.64601601e-03
      1.10642454e-02 4.66785282e-02 3.19323987e-01 9.90554839e-02
      1.34715689e-02 7.85820093e-03 4.67487099e-03 1.23339165e-02
      7.09073897e-03 2.05152556e-02 1.40997648e-01 4.64629650e-01
      1.38981342e-01 2.42037531e-02 5.05303452e-03 2.52769515e-03
      2.24831365e-02 1.51367038e-02 9.94353835e-03 2.59070933e-01
      3.74804705e-01 1.18814088e-01 2.14248188e-02 9.56353080e-03
      1.17833605e-02 8.17943714e-04 4.55359463e-03 2.47681011e-02
      3.74804705e-01 3.74804705e-01 8.19695517e-02 1.27850575e-02
      3.45865241e-03 2.55526160e-03 6.87670428e-03 7.05964863e-03
      1.56860016e-02 1.86461747e-01 3.74804705e-01 8.03944618e-02
      1.62971001e-02 8.53087008e-03 5.88291930e-03 3.03410226e-03
      9.53004044e-03 3.33155580e-02 3.74804705e-01 3.74804705e-01
      8.48460272e-02 8.00208282e-03 4.01107082e-03 5.67850191e-03
      1.05273881e-04 5.40796143e-04 1.61481500e-02 3.48561496e-01
      3.48561496e-01 9.40410048e-02 3.81935434e-03 8.95667472e-04
      5.33930957e-04 1.08315151e-04 9.11959942e-05 1.92119461e-02
      3.48561496e-01 3.48561496e-01 4.59560156e-02 6.46543875e-03
      8.56135041e-03 4.00822051e-03 1.67668494e-03 3.41716199e-03
      2.48107277e-02 3.48561496e-01 3.48561496e-01 2.72191670e-02
      4.01100563e-03 4.58562793e-03 1.13731623e-03 3.63784464e-04
      1.27288746e-03 6.40429482e-02 3.48561496e-01 3.48561496e-01
      9.29553434e-02 1.66792353e-03 6.08016097e-04 1.91811239e-04
      7.44069403e-05 8.17917404e-04 3.40445712e-02 3.47580969e-01
      3.28375280e-01 1.17227383e-01 5.35810553e-03 3.57974030e-04
      5.43598653e-05 1.00398762e-03 3.41919134e-03 3.25727277e-02
      2.02753142e-01 2.73867667e-01 1.27783725e-02 7.35255482e-04
      4.91351995e-04 2.51935999e-04 6.28224007e-05 2.31586536e-03
      1.91475913e-01 4.16354984e-01 3.17525089e-01 1.77073460e-02
      7.59142931e-05 1.13722699e-05 1.50838268e-05 3.94436094e-04
      8.78897868e-03 2.73343295e-01 4.16354984e-01 2.58789539e-01
      2.47432515e-01 1.49172209e-02 2.07896624e-03 5.86691487e-04
      3.21754767e-03 2.89975386e-03 1.75608490e-02 1.69508055e-01
      3.36752862e-01 3.02027225e-01 1.66613162e-02 5.44612482e-03
      1.51641713e-03 7.72849773e-04 1.45512618e-04 3.40102403e-03
      7.24772364e-02 3.36752862e-01 5.92540093e-02 2.29097041e-03
      2.01526540e-03 1.25704601e-03 1.73952570e-03 1.13973338e-02
      3.07204872e-01 3.36752862e-01 3.36752862e-01 8.47959965e-02
      8.18568934e-03 1.37103321e-02 1.28737064e-02 2.09983438e-03
      1.25279482e-02 1.52029142e-01 3.36752862e-01 3.36752862e-01
      2.44264845e-02 6.85905367e-02 4.91550229e-02 1.21339159e-02
      9.89666115e-03 2.82163383e-03 8.25679861e-03 1.72247123e-02
      2.46772487e-02 4.53000814e-02 4.29867119e-01 2.18795270e-01
      1.09393280e-02 6.90422114e-03 2.65416061e-03 8.29877611e-03
      1.72101203e-02 3.44051868e-02 3.28411050e-02 4.29867119e-01
      4.29867119e-01 6.41525760e-02 1.00873094e-02 5.55121712e-03
      8.00026022e-03 1.21511491e-02 1.27318753e-02 5.04576974e-02
      4.29867119e-01 4.29867119e-01 4.54541184e-02 1.36664426e-02
      4.00934776e-04 2.84082326e-03 8.48962180e-03 2.46268418e-02
      7.02341497e-02 3.82317066e-01 2.27358073e-01 4.05351538e-03
      6.85360609e-03 2.30930164e-03 3.41211678e-03 6.72736717e-03
      3.29449475e-02 2.33556777e-01 3.82317066e-01 2.10822880e-01
      1.61372907e-02 3.34361307e-02 5.81372704e-04 3.39635881e-03
      1.09029207e-02 5.55187911e-02 5.35726696e-02 3.82317066e-01
      3.82317066e-01 2.03099754e-02 1.92077495e-02 5.70089265e-04
      2.90233386e-03 2.76300404e-02 4.14755531e-02 1.36172399e-01
      3.82317066e-01 2.56778508e-01 6.37454763e-02 5.39539419e-02
      4.90330579e-03 1.00380629e-02 5.20260930e-02 5.91489151e-02
      2.68568695e-01 3.30116957e-01 7.25782439e-02 2.74034161e-02
      2.07275730e-02 7.50017934e-05 8.99270643e-03 1.29945865e-02
      4.55325954e-02 3.30116957e-01 3.30116957e-01 8.42452720e-02
      1.64550785e-02 3.82781215e-03 5.92714129e-03 2.47961916e-02
      1.85960028e-02 7.96687454e-02 1.31201029e-01 3.18809032e-01
      2.55278885e-01 2.19240263e-01 6.55742586e-02 7.23981904e-03
      9.85911023e-03 2.06863135e-02 2.79608686e-02 3.30116957e-01
      3.30116957e-01 2.52594680e-01 2.21288264e-01 5.10109030e-02
      9.67484526e-03 2.51221340e-02 1.62517373e-02 4.56100330e-02
      3.49212795e-01 3.49212795e-01 5.84789068e-02 5.73716126e-03
      6.67921593e-03 1.26569225e-02 1.57472026e-02 5.61671332e-03
      4.60708104e-02 3.49212795e-01 3.49212795e-01 5.08840308e-02
      1.11257499e-02 9.52442735e-03 1.92430485e-02 5.01810806e-03
      1.29279215e-02 2.90923547e-02 3.49212795e-01 3.49212795e-01
      5.55538200e-02 2.71416288e-02 1.56499520e-02 9.68076196e-03
      1.54298218e-02 7.05220457e-03 3.29752937e-02 3.49212795e-01
      3.49212795e-01 3.92541885e-02 1.55240744e-02 1.43149523e-02
      1.52346333e-02 5.95235964e-03 1.28599638e-02 5.18244877e-02
      3.44595760e-01 3.44595760e-01 3.72020900e-02 7.14972382e-03
      1.28070889e-02 1.97465159e-02 5.87934162e-03 3.06917205e-02
      4.55642641e-02 3.44595760e-01 3.44595760e-01 2.57713702e-02
      6.91882614e-03 1.35275852e-02 9.82804410e-03 8.72980151e-03
      2.72297636e-02 7.29787126e-02 3.44595760e-01 3.44595760e-01
      3.19785364e-02 1.31410554e-01 7.61896223e-02 4.72230911e-02
      2.76295487e-02 4.58335318e-02 1.16738454e-01 3.43860835e-01
      1.87317356e-01 2.69531924e-02 2.00383723e-01 1.21235944e-01
      6.42403960e-02 3.15662138e-02 5.44248410e-02 1.09966531e-01
      3.33694547e-01 3.33694547e-01 2.05003750e-02 1.11004896e-02
      9.21160262e-03 4.95194038e-03 1.22832637e-02 5.88308200e-02
      1.91629007e-01 3.33694547e-01 1.47253767e-01 2.60571279e-02
      1.45963915e-02 6.26533199e-03 2.75300560e-03 6.57638237e-02
      3.33694547e-01 3.33694547e-01 9.89639014e-02 7.08414018e-02
      2.41665766e-02 1.31075472e-01 8.18970427e-02 3.47162262e-02
      1.44198490e-02 2.67132614e-02 4.66997996e-02 1.95885077e-01
      6.45486265e-02 1.77344501e-01 3.33694547e-01 2.70960718e-01
      7.67951226e-03 1.89987998e-02 1.54570654e-01 2.12855503e-01
      6.10622652e-02 7.91951921e-03 1.05602676e-02 8.80250987e-03
      1.45938119e-03 1.61176117e-03 8.25875401e-02 3.42534512e-01
      3.40415716e-01 2.53420863e-02 7.33821467e-03 6.52615726e-03
      1.28409984e-02 5.66642615e-04 1.46213733e-03 7.37058967e-02
      3.42534512e-01 3.42534512e-01 1.30614281e-01 2.02530343e-02
      9.28783715e-02 1.53292760e-01 1.10256195e-01 1.81180960e-03
      4.70048748e-02 3.42534512e-01 3.00114274e-01 3.59681956e-02
      2.63566151e-03 1.64218377e-02 8.36463738e-03 1.01724500e-02
      1.38642616e-03 6.15805425e-02 3.42534512e-01 3.42534512e-01
      2.18150429e-02 9.64755658e-03 5.49276872e-03 1.17114577e-02
      1.91384213e-04 9.67851747e-03 5.63079193e-02 3.67505580e-01
      2.93183357e-01 4.64189835e-02 2.43766084e-02 5.82390092e-03
      9.97657888e-03 1.04080280e-02 2.41486840e-02 7.38213956e-02
      3.67505580e-01 1.68308154e-01 1.56710856e-02 1.20980025e-03
      2.54729064e-03 9.59807634e-03 1.20248068e-02 6.48725405e-03
      5.20589203e-02 3.67505580e-01 3.67505580e-01 2.57275235e-02
      2.16512606e-02 1.76234785e-02 1.65793523e-01 1.74689651e-01
      1.12617828e-01 1.49719417e-01 3.67505580e-01 3.09728980e-01
      1.11965396e-01 8.97635370e-02 2.01226156e-02 2.39395928e-02
      7.10658580e-02 5.62503785e-02 9.24651027e-02 3.28091443e-01
      1.57953888e-01 1.18085653e-01 7.42221922e-02 2.08337661e-02
      2.21296046e-02 5.05326390e-02 3.30601335e-02 3.34714390e-02
      6.07594922e-02 9.97019038e-02 6.34502769e-02 1.22955322e-01
      4.60109785e-02 3.28091443e-01 3.28091443e-01 3.28091443e-01
      3.25075209e-01 3.28091443e-01 2.71708757e-01 9.12744477e-02
      7.96104372e-02 2.91833431e-02 1.20284446e-01 2.31054693e-01
      1.77696690e-01 1.34283617e-01 1.08873054e-01 1.04131192e-01
      3.26684117e-01 1.91005290e-01 6.71780482e-02 2.36317012e-02
      3.78702991e-02 4.56903130e-02 6.71963766e-02 1.62297487e-01
      3.16062450e-01 2.73547649e-01 1.50523826e-01 9.70847011e-02
      2.07942147e-02 3.21694091e-02 3.69698070e-02 5.66317141e-02
      1.30977541e-01 2.89375603e-01 2.67928720e-01 1.09745570e-01
      8.68671313e-02 5.91318086e-02 9.10105705e-02 8.62559155e-02
      1.48970529e-01 2.07752496e-01 3.12141687e-01 2.54970759e-01
      1.10585459e-01 8.47036764e-02 1.03320330e-02 4.41247188e-02
      1.72889438e-02 9.08027813e-02 1.54458955e-01 3.28738838e-01
      2.54779220e-01 1.07690386e-01 6.40165210e-02 2.38890592e-02
      5.07536083e-02 4.20008525e-02 7.81037584e-02 1.52605742e-01
      2.59947419e-01 1.92920148e-01 8.24732855e-02 6.29566535e-02
      3.17264386e-02 1.73275828e-01 4.17110994e-02 1.07896641e-01
      2.45439142e-01 2.40902767e-01 2.55012810e-01 7.98818097e-02
      6.15906529e-02 3.88495694e-03 5.55536263e-02 2.80547682e-02
      1.06040634e-01 1.87239990e-01 3.71405333e-01 3.25960457e-01
      2.16294259e-01 5.99274784e-02 9.30017047e-03 1.64115444e-01
      4.98434342e-02 7.68325850e-02 1.39079303e-01 3.58362168e-01
      1.13551088e-01 6.42824695e-02 4.80100960e-02 2.43234523e-02
      9.72929448e-02 4.52414081e-02 8.34288150e-02 1.82013199e-01
      2.03708917e-01 1.94236979e-01 1.54183447e-01 2.34126136e-01
      5.44761308e-02 4.50962074e-02 7.17925057e-02 1.55585647e-01
      3.37493181e-01 3.37493181e-01 2.16465890e-01 1.72187760e-01
      6.41623288e-02 2.91611385e-02 9.45779383e-02 3.15808021e-02
      5.64513654e-02 6.04349002e-02 1.83317125e-01 3.11635822e-01
      2.68028527e-01 3.37493181e-01 1.61362574e-01 7.26529434e-02
      8.06327686e-02 9.02061239e-02 9.65620652e-02 1.87424183e-01
      8.50346237e-02 8.65135938e-02 1.27037495e-01 2.81905308e-02
      1.13976626e-02 1.95793007e-02 6.01095557e-02 4.64641482e-01
      3.08860719e-01 7.08862320e-02 7.27337524e-02 7.04164132e-02
      2.12950557e-02 6.08364632e-03 1.07447263e-02 1.80480614e-01
      4.64641482e-01 4.64641482e-01 1.43366948e-01 1.30610108e-01
      1.47554070e-01 5.89683242e-02 2.36161780e-02 5.00221737e-02
      3.33150811e-02 4.50194143e-02 5.87247722e-02 1.34836227e-01
      1.39611810e-01 9.94965732e-02 4.71930467e-02 3.05331890e-02
      3.74492072e-02 6.15297258e-02 1.51113138e-01 1.29609644e-01
      9.08770505e-03 8.89462233e-03 5.01380302e-03 5.62337879e-03
      2.63707340e-03 7.26914592e-03 2.35152960e-01 4.12017435e-01
      1.55183360e-01 3.68800643e-03 7.70267099e-04 5.84923662e-04
      2.70105712e-03 3.67054902e-03 2.55951304e-02 4.12017435e-01
      4.12017435e-01 1.22135319e-01 3.17897275e-02 2.41202489e-02
      1.42615717e-02 1.63986478e-02 1.61734708e-02 1.22998431e-02
      9.79994759e-02 1.57960951e-01 4.19865809e-02 2.27390993e-02
      7.22679868e-03 4.61549917e-03 6.87969336e-03 3.18909548e-02
      8.85244533e-02 4.12017435e-01 4.12017435e-01 5.95009103e-02
      3.33695300e-03 4.84320371e-05 5.17086999e-04 3.29908304e-04
      2.40533263e-03 4.82802317e-02 3.33919317e-01 3.33919317e-01
      7.84426630e-02 5.31825656e-03 7.26480619e-04 4.09294479e-03
      3.33471550e-03 4.23920061e-03 5.51472344e-02 2.97975123e-01
      2.43347660e-01 5.08656278e-02 5.19183604e-03 1.55558600e-03
      7.27267121e-04 2.07633036e-03 5.64296916e-02 3.33919317e-01
      3.33919317e-01 3.33919317e-01 2.89569385e-02 4.23669862e-03
      4.84320371e-05 1.58797789e-04 1.79331482e-03 8.10261294e-02
      3.33919317e-01 3.33919317e-01 2.07571626e-01 1.44102210e-02
      1.23249972e-02 3.20172966e-01 3.39526623e-01 3.00926656e-01
      2.39489898e-02 2.92796851e-03 2.05268105e-03 4.91237408e-03
      4.15884517e-03 2.26094015e-02 3.39526623e-01 3.39526623e-01
      1.00383177e-01 2.40218733e-02 2.08257488e-03 5.46083273e-03
      1.24488845e-02 1.52138304e-02 4.19878075e-03 9.75483358e-02
      3.39526623e-01 3.39526623e-01 2.86552370e-01 7.76671767e-02
      6.07102644e-03 7.04179145e-03 4.07269364e-03 2.52235327e-02
      1.09932028e-01 2.37295941e-01 1.92635700e-01 9.49957967e-02
      2.07215082e-02 2.24803891e-02 2.42808331e-02 1.77432820e-02
      1.00287564e-01 3.44169229e-01 3.44169229e-01 5.85878827e-02
      8.56186748e-02 1.62743442e-02 2.77401600e-02 1.04620919e-01
      8.73620510e-02 1.86391354e-01 2.22284555e-01 3.44169229e-01
      3.17655802e-01 2.89872646e-01 8.16001594e-02 9.02058333e-02
      1.58403605e-01 1.21495068e-01 1.24307856e-01 1.42643854e-01
      1.12741105e-01 4.83808108e-02 7.95152262e-02 3.51845659e-02
      6.69544712e-02 8.44663307e-02 8.35202113e-02 2.21362919e-01
      1.37337536e-01 8.33266899e-02 1.48571208e-01 2.00541690e-01
      7.52199665e-02 1.12701282e-01 9.83956233e-02 1.86806023e-01
      1.66906536e-01 1.48615986e-01 2.68486202e-01 3.07613224e-01
      1.90718099e-01 3.24165560e-02 5.96436858e-02 4.33535166e-02
      7.08234236e-02 3.07613224e-01 3.07613224e-01 2.46123627e-01
      3.07613224e-01 1.37346923e-01 2.12624911e-02 4.25451472e-02
      4.50054333e-02 1.12644315e-01 2.19320580e-01 8.45501870e-02
      4.22207266e-02 1.19231425e-01 1.27515212e-01 2.66422294e-02
      7.55515024e-02 5.43010868e-02 1.20934144e-01 3.07613224e-01
      3.07613224e-01 3.13235037e-02 8.84981155e-02 7.43198395e-02
      1.93236358e-02 5.25762290e-02 6.35740161e-02 1.72715530e-01
      3.59819442e-01 3.59819442e-01 4.58229445e-02 4.50098887e-02
      3.21509466e-02 7.85867777e-03 7.57904630e-03 2.00510025e-02
      6.28056228e-02 3.59819442e-01 3.59819442e-01 5.43696769e-02
      8.92029628e-02 9.47229341e-02 3.91031653e-02 9.84716695e-03
      3.07012890e-02 1.08334258e-01 3.59819442e-01 3.59819442e-01
      1.45878345e-02 1.17017087e-02 2.19313391e-02 1.99670140e-02
      1.58665217e-02 3.53829861e-02 9.51684490e-02 1.71985775e-01
      2.47382805e-01 5.59038557e-02 1.15200505e-01 1.62436664e-01
      1.45682648e-01 4.57176529e-02 3.07244882e-02 7.84984604e-02
      2.58929461e-01 2.58929461e-01 5.36739677e-02 2.58929461e-01
      2.58929461e-01 9.75987986e-02 2.88345832e-02 4.48772833e-02
      1.00850105e-01 1.17714256e-01 5.16011454e-02 4.72446345e-02
      2.58929461e-01 2.50057846e-01 8.09710398e-02 2.88490076e-02
      3.55480500e-02 5.10987006e-02 4.00108546e-02 7.44002536e-02
      4.95323278e-02 2.58929461e-01 2.58929461e-01 2.58929461e-01
      1.47220030e-01 1.09421022e-01 4.01892215e-02 6.97821565e-03
      1.20261889e-02 2.59750132e-02 2.47947544e-01 2.58929461e-01
      2.37881497e-01 2.04805762e-01 2.58929461e-01 5.71919419e-02
      1.42786056e-02 1.61706191e-02 3.37958485e-02 2.23376319e-01
      1.14104919e-01 4.17746268e-02 1.44780232e-02 1.42287742e-02
      1.87783111e-02 7.63354674e-02 2.51272395e-02 1.35866836e-01
      3.19555938e-01 3.19555938e-01 1.19845226e-01 8.35562274e-02
      8.83423612e-02 9.18124989e-02 1.23695405e-02 1.04795247e-02
      2.25950759e-02 1.12365797e-01 8.80223215e-02 9.24919769e-02
      1.12466767e-01 2.40241691e-01 1.16895273e-01 3.19503322e-02
      4.65976819e-03 2.76402496e-02 3.19555938e-01 3.19555938e-01
      3.19555938e-01 3.19555938e-01 2.99538076e-01 2.22079098e-01
      5.87694682e-02 1.18271634e-02 9.44588706e-02 2.83126861e-01
      2.78956383e-01 5.52768968e-02 8.54032561e-02 3.01167428e-01
      1.54993981e-01 2.10084543e-02 5.51346922e-03 2.97769960e-02
      1.47828879e-02 3.44864130e-02 1.77556556e-02 9.54130664e-02
      3.01167428e-01 2.78213054e-01 3.47524099e-02 3.54655483e-03
      2.64948867e-02 1.46060973e-01 1.88232839e-01 1.65409967e-01
      2.32290894e-01 3.01167428e-01 3.01167428e-01 1.03982545e-01
      9.04598366e-03 1.98779926e-02 1.37856379e-02 2.62941457e-02
      3.55252512e-02 6.99006915e-02 3.01167428e-01 3.01167428e-01
      3.81228514e-02 1.06797582e-02 8.39381572e-03 1.24324262e-02
      1.66316759e-02 3.56169697e-03 7.41493627e-02 3.07470500e-01
      3.07470500e-01 1.07517011e-01 6.11777380e-02 6.58272058e-02
      2.24019438e-01 2.39165515e-01 6.54348135e-02 8.26383904e-02
      3.07470500e-01 2.56190419e-01 2.21173093e-01 2.24599987e-02
      1.18952021e-02 9.43084992e-03 6.01561693e-03 2.25959066e-03
      5.40493280e-02 3.07470500e-01 3.07470500e-01 3.07470500e-01
      7.78726041e-02 5.95958196e-02 7.36281350e-02 7.73158818e-02
      7.08819227e-03 3.56901959e-02 2.21048445e-01 3.07470500e-01
      1.05712757e-01 1.21822998e-01 1.01696059e-01 3.37385237e-01
      3.37385237e-01 2.19024613e-01 1.10027216e-01 2.09902361e-01
      1.33430958e-01 4.40792069e-02 5.23496382e-02 2.88190991e-02
      8.15713480e-02 1.46651790e-01 1.11319326e-01 6.48691431e-02
      4.27485928e-02 4.89321128e-02 3.37385237e-01 1.27402067e-01
      9.62788165e-02 1.36621922e-01 1.69875070e-01 3.85097824e-02
      3.08310445e-02 1.09717123e-01 3.37385237e-01 3.37385237e-01
      7.65737221e-02 3.62846442e-02 2.87091173e-02 4.25085910e-02
      3.66936810e-02 2.46064384e-02 4.00342532e-02 3.37385237e-01
      7.11931065e-02 3.02995313e-02 3.13725397e-02 2.28263624e-02
      2.35313736e-02 3.65821533e-02 4.65146378e-02 4.43391576e-02
      7.76029229e-02 9.83833969e-02 4.41321023e-02 4.53783795e-02
      1.02042751e-02 1.34691335e-02 9.12988931e-03 1.57752670e-02
      2.67646629e-02 1.13363728e-01 4.83641058e-01 5.29334992e-02
      2.30284501e-02 1.04409987e-02 4.98437556e-03 2.23641135e-02
      2.18672436e-02 2.92768553e-02 4.83641058e-01 4.83641058e-01
      7.25679919e-02 2.41366755e-02 5.73580852e-03 2.51343916e-03
      9.24671069e-03 6.53265463e-03 2.84587909e-02 4.83641058e-01
      1.04976892e-01 3.53737473e-02 3.23674120e-02 1.89879525e-03
      4.76422161e-03 3.61142703e-03 1.02376631e-02 3.32056619e-02
      1.39520094e-01 1.41262233e-01 6.64556175e-02 2.05516145e-02 0.
      8.32529645e-03 3.45628033e-03 7.15453411e-03 3.64035293e-02
      1.26096293e-01 4.76722717e-01 6.80953190e-02 1.80531871e-02
      1.15546270e-03 3.18113278e-04 2.17598304e-03 1.21934991e-03
      1.98694840e-02 4.76722717e-01 4.76722717e-01 5.95111623e-02
      2.63025239e-02 0. 0. 0. 2.31422469e-04 1.99509207e-02
      4.76722717e-01 1.41809970e-01 7.10051209e-02 2.22970881e-02
      6.10187883e-03 7.24665448e-03 2.18336447e-03 1.06471693e-02
      2.47791149e-02 9.20454338e-02 1.63605586e-01 6.36200905e-02
      6.16777800e-02 4.31614816e-02 2.12490913e-02 2.86192168e-02
      3.12672071e-02 4.17591743e-02 1.09328724e-01 4.69796658e-01
      6.27524108e-02 2.58205943e-02 1.86739082e-03 6.27719346e-05
      1.30869215e-04 2.23595556e-03 1.98463518e-02 4.69796658e-01
      4.69796658e-01 5.16844355e-02 4.40470576e-02 1.61375720e-02
      1.52684264e-02 1.97679996e-02 2.80780233e-02 1.17522620e-01
      4.69796658e-01 1.74116105e-01 6.94181100e-02 6.44836798e-02
      5.22066653e-02 3.28086242e-02 6.35875836e-02 4.03413400e-02
      6.75773993e-02 1.21779144e-01 1.69843540e-01 9.59593505e-02
      5.04118912e-02 4.86598387e-02 3.83749716e-02 4.39686626e-02
      3.38521935e-02 8.18098187e-02 2.07356885e-01 3.71392667e-01
      6.92812279e-02 1.02636106e-01 1.09689258e-01 8.75281468e-02
      1.01541303e-01 7.85087124e-02 2.93221205e-01 3.71392667e-01
      3.42364669e-01 1.75944343e-01 1.07549630e-01 1.73716411e-01
      1.24496236e-01 1.34371907e-01 9.00380686e-02 2.19241738e-01
      3.71392667e-01 1.35840178e-01 7.24328011e-02 3.73256952e-02
      5.79893775e-02 5.00879474e-02 3.74184139e-02 6.85255900e-02
      8.79045129e-02 1.84075221e-01 1.08768426e-01 4.20605391e-02
      3.29629444e-02 9.23766643e-02 2.77180612e-01 3.07518423e-01
      3.07518423e-01 2.94378310e-01 1.69559166e-01 1.31886020e-01
      1.34013310e-01 6.85186461e-02 1.04843251e-01 6.76631555e-02
      1.48543626e-01 1.07531562e-01 1.03342198e-01 1.81464270e-01
      7.33359531e-02 1.49538353e-01 3.07518423e-01 3.07518423e-01
      3.07518423e-01 2.26516500e-01 9.47326943e-02 5.12352064e-02
      8.03517625e-02 6.20699767e-03 2.33455840e-03 4.59656818e-03
      7.66320229e-02 2.39232734e-01 3.01428407e-01 2.57674187e-01
      7.51937032e-02 1.59953348e-02 3.35169840e-03 0. 3.80810164e-03
      1.44311294e-01 3.01428407e-01 3.01428407e-01 2.47061685e-01
      3.48212682e-02 4.81922133e-03 6.15045475e-03 4.37293425e-02
      1.98568836e-01 3.01428407e-01 3.01428407e-01 1.15996785e-01
      1.64756402e-02 2.12175166e-03 5.59612922e-03 4.30594198e-03
      2.21042056e-02 2.26504683e-01 3.01428407e-01 3.01428407e-01
      1.87555090e-01 1.49318166e-02 5.64973925e-05 4.27702349e-03
      6.22474961e-03 1.74473263e-02 8.69058520e-02 3.21449250e-01
      3.21449250e-01 3.21449250e-01 1.33889362e-01 4.35303487e-02
      1.46995485e-02 3.64658087e-02 4.17762697e-02 3.64903957e-02
      1.05916724e-01 9.71398577e-02 9.99455750e-02 6.65816888e-02
      3.70017439e-02 3.38938944e-02 7.88994972e-03 7.73694646e-03
      5.55340061e-03 5.89815676e-02 1.80678889e-01 3.21449250e-01
      3.21449250e-01 3.21449250e-01 3.67238298e-02 4.38895151e-02
      3.88484858e-02 1.14802150e-02 3.62077653e-02 5.22692241e-02
      2.25356579e-01 3.21449250e-01 3.21449250e-01 6.47730753e-02
      2.33254641e-01 1.70292363e-01 3.26149166e-02 5.18211052e-02
      6.72377050e-02 6.69075251e-02 9.16363001e-02 1.05537109e-01
      1.47030130e-01 3.02746862e-01 3.02746862e-01 5.01874536e-02
      4.90170680e-02 1.30532812e-02 3.41090374e-02 7.73922056e-02
      7.88641945e-02 1.63852826e-01 2.58112103e-01 2.31215835e-01
      9.92689654e-02 6.62771910e-02 5.91062717e-02 1.43549532e-01
      3.02746862e-01 3.02746862e-01 2.30877355e-01 2.76677608e-01
      3.02746862e-01 1.04515001e-01 8.08234438e-02 3.80368195e-02
      4.44271900e-02 7.43441805e-02 1.12574682e-01 1.69458941e-01
      3.39661688e-01 2.77236998e-01 4.80426550e-02 6.08955175e-02
      3.08081694e-02 4.06759232e-02 1.23985663e-01 1.05086811e-01
      2.66099662e-01 3.39661688e-01 3.33479792e-01 9.46050361e-02
      9.40361172e-02 6.37217760e-02 8.05535838e-02 9.86662656e-02
      1.44706234e-01 3.16865653e-01 2.35849977e-01 1.91883087e-01
      5.14594391e-02 4.48475741e-02 5.15730679e-02 2.19853446e-02
      5.77028915e-02 1.05733238e-01 1.92516387e-01 2.33157173e-01
      1.46366656e-01 9.30209681e-02 6.34787530e-02 7.66611919e-02
      4.22868133e-02 5.89953400e-02 1.71383783e-01 1.78120315e-01
      3.13979000e-01 2.03432009e-01 6.26642630e-02 4.00411487e-02
      6.86642304e-02 9.49490890e-02 5.25097251e-02 1.14490271e-01
      2.41747066e-01 1.89715996e-01 1.25026241e-01 1.03695706e-01
      1.77821577e-01 3.01059127e-01 3.13979000e-01 2.30659753e-01
      1.43797442e-01 2.54389375e-01 2.33856976e-01 1.28596321e-01
      6.26050904e-02 3.08774784e-02 5.77856489e-02 4.50715758e-02
      3.55484560e-02 1.08804412e-01 1.67260543e-01 2.80998796e-01
      1.09246299e-01 4.79202569e-02 3.66554074e-02 5.23855425e-02
      7.52030760e-02 6.03389740e-02 1.17515489e-01 3.13979000e-01
      2.26327032e-02 2.63877809e-02 1.79811828e-02 7.66548589e-02
      1.45809487e-01 3.22805136e-01 2.46777356e-01 3.18361521e-01
