<?xml version="1.0"?>
<opencv_storage>
<my_svm type_id="opencv-ml-svm">
  <svm_type>C_SVC</svm_type>
  <kernel><type>RBF</type>
    <gamma>2.2500000000000003e-03</gamma></kernel>
  <C>2.5000000000000000e+00</C>
  <term_criteria><epsilon>2.2204460492503131e-16</epsilon>
    <iterations>10000</iterations></term_criteria>
  <var_all>3780</var_all>
  <var_count>3780</var_count>
  <class_count>2</class_count>
  <class_labels type_id="opencv-matrix">
    <rows>1</rows>
    <cols>2</cols>
    <dt>i</dt>
    <data>
      -1 1</data></class_labels>
  <sv_total>51</sv_total>
  <support_vectors>
    <_>
      4.71259234e-03 1.83783611e-03 2.63744034e-02 2.89430320e-01
      4.74776953e-01 9.36784670e-02 1.40693560e-02 1.87235291e-03
      4.75896383e-03 9.55205504e-03 2.28139069e-02 6.65402487e-02
      1.61996514e-01 3.26171666e-01 5.89490570e-02 3.83848995e-02
      2.27987468e-02 1.57495048e-02 1.40654510e-02 7.00347684e-03
      9.28739235e-02 3.89238566e-01 4.74776953e-01 1.41244024e-01
      5.33471666e-02 2.73013115e-02 2.07592733e-02 3.17332596e-02
      2.79399343e-02 8.38342682e-02 1.28300950e-01 2.27589086e-01
      1.63318336e-01 1.04535043e-01 7.44838119e-02 5.45994155e-02
      3.57474536e-02 8.34231004e-02 1.38867125e-01 8.98640901e-02
      3.22406441e-01 9.06627178e-02 1.59783080e-01 1.17828302e-01
      6.26724735e-02 4.63294536e-02 8.85262266e-02 1.28470585e-01
      9.44764912e-02 3.00690681e-01 1.19951800e-01 2.97733188e-01
      1.85936570e-01 9.36258584e-02 1.24251448e-01 1.38986915e-01
      2.05748767e-01 8.21013153e-02 2.58161217e-01 1.36480331e-01
      1.48423180e-01 1.15174562e-01 1.11207463e-01 1.65337056e-01
      2.29201958e-01 2.58289307e-01 1.70192569e-01 2.58007854e-01
      1.09354064e-01 1.83933854e-01 1.28443196e-01 9.50565487e-02
      2.24882010e-02 4.37142551e-02 5.63596860e-02 8.53994712e-02
      1.21891588e-01 5.43622300e-02 6.69862926e-02 4.93001416e-02
      3.33355665e-02 4.52777743e-02 9.22544599e-02 1.29773647e-01
      1.78927600e-01 1.51132479e-01 1.82483777e-01 1.10888980e-01
      5.54009490e-02 1.72242448e-02 1.04343064e-01 1.35301113e-01
      1.28961891e-01 1.56627998e-01 1.19752929e-01 5.54031655e-02
      6.61791563e-02 4.54664379e-02 4.92656454e-02 4.72985119e-01
      4.72985119e-01 4.33141708e-01 2.45709151e-01 1.10738263e-01
      9.67254937e-02 6.52398765e-02 3.43902335e-02 7.88242221e-02
      4.80195358e-02 3.96870486e-02 3.92250568e-02 3.33851241e-02
      1.95382591e-02 4.52030301e-02 4.85031605e-02 3.28868330e-02
      1.64096542e-02 1.51726708e-01 5.34670241e-02 2.25342438e-02
      7.57062389e-03 3.26745980e-03 1.29979094e-02 3.41310799e-02
      4.99891005e-02 5.70644736e-02 4.76190180e-01 4.76190180e-01
      1.30301878e-01 3.21548469e-02 1.09475562e-02 2.24924441e-02
      2.67311111e-02 1.54760834e-02 5.15953824e-02 4.76190180e-01
      4.76190180e-01 8.11311379e-02 7.18855206e-03 5.02183568e-04
      6.95804413e-03 2.14383341e-02 3.23462561e-02 1.07542180e-01
      1.33589089e-01 3.85611542e-02 5.49511239e-03 3.89754132e-04
      1.63720921e-03 3.79650458e-03 7.22065987e-03 1.84631050e-02
      3.89859155e-02 3.18100631e-01 7.13087469e-02 3.99784045e-03
      1.53329547e-05 3.16689094e-03 4.18255338e-03 1.08553832e-02
      2.29949113e-02 6.65938556e-02 4.44485277e-01 4.44485277e-01
      2.01944578e-02 1.48981716e-03 2.02587387e-03 5.74789755e-03
      7.85064604e-03 1.61920823e-02 1.06733888e-01 4.44485277e-01
      4.44485277e-01 4.52116132e-02 2.19815783e-03 2.70907069e-03
      6.51682029e-03 3.14678922e-02 4.97695543e-02 2.34245777e-01
      3.11228693e-01 3.16543616e-02 3.16116214e-03 0. 2.19652778e-03
      1.81666680e-03 5.56693133e-03 1.36895282e-02 9.51600447e-02
      4.16271269e-01 1.37494998e-02 1.42950902e-03 7.37679875e-05
      1.10830518e-03 1.76887610e-04 2.19748076e-03 1.41839348e-02
      1.92926273e-01 4.16271269e-01 2.23328412e-01 5.31810299e-02
      3.56308126e-04 3.71607632e-04 1.23534491e-03 1.94373950e-02
      5.08769974e-02 3.06440353e-01 4.16271269e-01 5.35412282e-02
      1.64624657e-02 0. 2.18371006e-05 9.12577307e-05 9.49645508e-03
      7.16448799e-02 4.16271269e-01 3.57525975e-01 2.00898591e-02
      3.58738401e-03 2.90146243e-04 6.91586174e-04 0. 7.98724184e-04
      3.68768536e-03 1.94363907e-01 3.83954525e-01 1.90352406e-02
      3.46624618e-03 3.23216926e-04 1.05087226e-03 0. 3.89705383e-05
      2.20130384e-03 3.00651461e-01 3.83954525e-01 2.15370636e-02
      1.23623846e-04 0. 0. 0. 1.96897401e-03 3.19338329e-02
      3.83954525e-01 3.83954525e-01 2.65927967e-02 1.24977785e-04 0.
      1.08761864e-03 0. 0. 7.58605683e-03 3.83954525e-01 3.05561244e-01
      5.95351169e-03 4.39943309e-04 2.76471052e-04 1.06196827e-03 0. 0.
      3.84933711e-03 3.23433936e-01 2.56588846e-01 6.09001657e-03
      2.61559675e-04 1.08671188e-03 1.41168712e-03 0. 0. 3.93079175e-03
      3.81114334e-01 3.81114334e-01 2.43693348e-02 1.10494366e-05
      1.30775454e-03 3.74121475e-03 7.44416029e-04 4.11095127e-04
      1.86646227e-02 3.81114334e-01 3.81114334e-01 1.56083768e-02
      1.17983785e-03 2.87706032e-03 3.62469070e-03 5.24114305e-03
      1.10327164e-02 6.82277456e-02 3.81114334e-01 1.80237338e-01
      7.98601285e-03 9.89019405e-04 3.14443093e-03 1.93849986e-03 0.
      4.13110422e-04 8.46811477e-03 4.03432012e-01 1.19273856e-01
      6.85609179e-03 3.60442512e-03 2.40265881e-03 1.26311451e-03 0.
      7.81914918e-04 3.47563513e-02 3.58656138e-01 4.05424893e-01
      9.89552122e-03 3.10240034e-03 1.89551502e-03 9.90426517e-04
      4.76675807e-03 2.24651657e-02 7.29685798e-02 4.05424893e-01
      3.13306600e-01 9.67751443e-03 3.74400592e-03 1.93602685e-03
      2.54257786e-04 1.67397736e-03 1.61700305e-02 2.42510766e-01
      4.05424893e-01 9.83399376e-02 1.09052612e-02 6.46133022e-03
      4.52036154e-04 7.46343634e-04 1.15260505e-03 9.35692340e-04
      4.28389758e-02 2.97076195e-01 9.18124169e-02 6.72468590e-03
      7.77261984e-03 1.61921117e-03 1.21068337e-03 1.48192083e-03
      3.90891451e-03 2.64472198e-02 2.11899474e-01 2.35838801e-01
      1.15309730e-02 5.85892564e-03 4.83903917e-04 7.48241437e-05
      1.81733957e-03 4.69444133e-03 3.60257059e-01 4.57422554e-01
      1.65849134e-01 1.27091538e-02 1.40167614e-02 1.68593263e-03
      6.79374556e-04 2.36412114e-03 1.31447697e-02 4.57422554e-01
      4.57422554e-01 1.10888220e-01 8.90121330e-03 9.67207272e-03
      3.09342286e-03 2.05715792e-03 3.83152656e-04 1.12529024e-02
      4.35389727e-02 1.94559127e-01 6.00012988e-02 7.83362798e-03
      3.67192971e-03 2.06228200e-04 1.52073090e-03 0. 1.69111248e-02
      6.63542300e-02 1.75776303e-01 1.41012594e-01 2.79687010e-02
      1.52863450e-02 3.22089111e-03 3.52808926e-03 2.87520885e-03
      5.33441715e-02 4.65603590e-01 4.65603590e-01 9.20600668e-02
      1.75777134e-02 2.49730045e-04 2.14726082e-04 1.60367682e-03
      1.38751767e-03 6.33608997e-02 4.65603590e-01 4.65603590e-01
      8.58367532e-02 7.34730158e-03 5.17685292e-03 0. 4.78593213e-03
      6.52474631e-03 4.65070456e-02 1.74751624e-01 2.98427165e-01
      4.58894558e-02 2.26008683e-03 4.43139067e-03 0. 1.10647855e-02
      3.61446738e-02 7.47855678e-02 2.50650316e-01 1.57875925e-01
      1.61156803e-01 3.39005217e-02 0. 0. 1.26093888e-04 5.77220973e-03
      1.08820066e-01 4.25312817e-01 4.25312817e-01 7.45842382e-02
      1.34175252e-02 4.61384392e-04 0. 1.20225688e-03 2.47855596e-02
      2.30077922e-01 4.25312817e-01 3.58624130e-01 7.40821362e-02
      2.88205463e-02 4.24315669e-02 6.80253468e-03 2.15995628e-02
      3.60797904e-02 7.24600777e-02 2.19562307e-01 1.61111325e-01
      5.89333735e-02 6.70669675e-02 2.22083867e-01 1.77353159e-01
      7.20236897e-02 3.90404835e-02 5.29565327e-02 4.80693653e-02
      7.26118758e-02 9.88019928e-02 2.70658135e-02 1.73133276e-02
      4.40122699e-03 4.01255861e-03 3.93371321e-02 2.73539394e-01
      4.77390617e-01 4.26030606e-01 1.67111799e-01 8.43293965e-02
      1.47535011e-01 1.83267355e-01 1.06925771e-01 3.47218066e-02
      9.31821242e-02 2.05280483e-01 3.86755377e-01 2.24045105e-02
      1.33674994e-01 3.87065470e-01 3.33955646e-01 1.42343178e-01
      8.83843675e-02 9.39659923e-02 1.99920516e-02 9.05741099e-03
      1.43580809e-01 2.78606623e-01 2.26213366e-01 1.15589760e-01
      1.09708384e-01 3.89406569e-02 8.20975378e-02 2.28756834e-02
      8.02681893e-02 8.68714452e-02 7.67551586e-02 2.39359945e-01
      3.32348287e-01 2.92957067e-01 1.07820854e-01 1.07920140e-01
      7.85594434e-02 1.50730416e-01 1.01029590e-01 1.06642224e-01
      1.26776010e-01 9.62577686e-02 2.86906570e-01 9.15066600e-02
      1.33296818e-01 7.25391358e-02 8.75714496e-02 2.74273574e-01
      2.53666848e-01 1.01441830e-01 2.44649872e-02 7.24224374e-02
      1.31798647e-02 6.70759901e-02 4.02559973e-02 2.09868163e-01
      3.07924151e-01 2.38087907e-01 9.32727754e-02 4.91022281e-02
      8.73942673e-02 1.11836204e-02 5.50420806e-02 5.95820807e-02
      2.22713068e-01 2.15511680e-01 1.09248504e-01 7.61365667e-02
      1.91111621e-02 1.30893767e-01 4.70166169e-02 1.25553295e-01
      1.36871994e-01 2.61582345e-01 3.79230618e-01 1.59257889e-01
      6.65953010e-02 2.86396611e-02 5.37572838e-02 2.54248213e-02
      1.31619796e-01 1.32780641e-01 4.00993764e-01 4.77686152e-02
      4.15442139e-02 1.22342817e-01 2.25707307e-01 4.16063160e-01
      2.04607755e-01 1.06237844e-01 5.04024290e-02 4.66221794e-02
      1.32257417e-01 8.32353681e-02 5.90948276e-02 3.76214571e-02
      1.04746044e-01 1.38948530e-01 1.13409467e-01 1.47108421e-01
      1.47071838e-01 6.52310327e-02 6.11047335e-02 1.14713699e-01
      9.67080593e-02 4.16063160e-01 3.11565191e-01 1.63692221e-01
      8.94062370e-02 4.99035157e-02 1.57239318e-01 1.36568815e-01
      9.03548226e-02 5.87661788e-02 9.37725976e-02 8.01309571e-02
      1.30465791e-01 3.29492897e-01 2.13207185e-01 5.03231026e-02
      3.50500830e-02 2.10807864e-02 1.91779193e-02 2.91391350e-02
      2.81931330e-02 2.36882158e-02 4.67338115e-02 5.19112311e-02
      9.57249552e-02 2.13946655e-01 1.03852861e-01 4.54139262e-02
      3.17969695e-02 3.10676042e-02 3.14809158e-02 3.71927023e-02
      4.07543294e-02 4.96496111e-02 1.18417017e-01 2.77747065e-01
      1.41130149e-01 2.93842852e-02 1.38093401e-02 3.25107090e-02
      9.06127244e-02 7.67900571e-02 1.40999630e-01 5.29739916e-01
      5.29739916e-01 4.38802689e-01 4.19471152e-02 2.66807284e-02
      1.98319573e-02 3.31259780e-02 4.30141166e-02 5.85623123e-02
      2.70484239e-01 7.09903017e-02 1.89988688e-02 5.87734859e-03
      4.67656320e-03 7.80516304e-03 5.57929697e-03 1.43487165e-02
      2.65271693e-01 4.15245146e-01 1.10364825e-01 2.57526673e-02
      4.50388435e-03 1.28173199e-03 1.34693994e-03 1.49151532e-03
      2.38106698e-02 8.43864307e-02 4.15245146e-01 4.09517080e-01
      6.25789985e-02 4.23530908e-03 1.09815998e-02 8.39828234e-03
      1.04034524e-02 1.92844346e-02 2.30030268e-01 4.15245146e-01
      2.78981268e-01 1.73548944e-02 1.37914605e-02 1.97600313e-02
      8.50123633e-03 9.62736830e-03 3.45326997e-02 3.75823379e-01
      3.75823379e-01 8.71606767e-02 2.06488352e-02 1.29786879e-03
      1.01633708e-03 1.04798027e-03 3.55686620e-03 5.14854342e-02
      3.75823379e-01 3.75823379e-01 7.06178695e-02 1.12637384e-02
      5.53462014e-04 4.35349671e-03 5.96314203e-03 1.95385441e-02
      9.61835906e-02 2.98454106e-01 3.75823379e-01 9.13100466e-02
      2.73261797e-02 1.83299538e-02 1.53344823e-02 1.04038576e-02
      2.91587152e-02 6.89998567e-02 2.47328877e-01 2.74526000e-01
      4.70695570e-02 2.21578572e-02 1.13559151e-02 1.92762520e-02
      4.13388833e-02 8.67189318e-02 1.05429098e-01 3.37464392e-01
      3.37464392e-01 4.20099460e-02 2.34663337e-02 2.95867473e-02
      2.12385617e-02 1.82115920e-02 3.19999903e-02 1.14925161e-01
      3.37464392e-01 3.37464392e-01 1.03920765e-01 5.54271489e-02
      7.48533756e-02 4.50087748e-02 7.62514845e-02 1.39577448e-01
      2.11319536e-01 1.03926063e-01 1.01185896e-01 3.46425623e-02
      4.15092595e-02 6.61264360e-02 5.48631400e-02 6.41883239e-02
      6.70184493e-02 8.79314542e-02 2.84576446e-01 1.49386793e-01
      9.80836600e-02 7.28895590e-02 1.64375007e-01 1.18563324e-01
      1.34750500e-01 3.03978741e-01 3.37464392e-01 3.05955499e-01
      1.63236335e-01 4.87714559e-02 8.31656437e-03 1.21945506e-02
      9.12935566e-03 2.70384755e-02 9.45024416e-02 2.28287429e-01
      3.05955499e-01 4.77607362e-02 1.05120605e-02 0. 8.96974962e-05
      2.67222407e-04 6.77421922e-03 7.97905102e-02 3.05955499e-01
      3.05955499e-01 8.26072842e-02 3.16220596e-02 1.03380289e-02
      4.03974727e-02 6.14039712e-02 8.33498240e-02 3.05955499e-01
      3.05955499e-01 3.05955499e-01 2.14352198e-02 1.85347849e-03
      8.24587827e-04 3.06994393e-02 1.32990450e-01 1.46829039e-01
      2.95354128e-01 3.05955499e-01 3.27772468e-01 1.97262019e-02
      3.71472590e-04 9.64258652e-05 2.75265280e-04 1.10627490e-03
      2.97909253e-03 4.10635993e-02 3.27772468e-01 3.27772468e-01
      6.12131208e-02 4.75077005e-03 2.12136933e-04 1.57133292e-03
      1.97524158e-03 1.87107292e-03 1.67943388e-02 3.27772468e-01
      3.27772468e-01 1.75837092e-02 1.68134756e-02 2.70768609e-02
      2.13015694e-02 8.53684694e-02 7.03968704e-02 7.09466487e-02
      3.24217409e-01 3.27772468e-01 2.52739131e-01 1.86834440e-01
      1.17730848e-01 3.38450149e-02 1.39382724e-02 7.22879311e-03
      1.80247445e-02 3.27772468e-01 2.92147964e-01 1.16536744e-01
      2.54430026e-02 9.04038362e-03 1.29779419e-02 5.85777871e-03
      8.30055680e-03 4.63347733e-02 2.92147964e-01 2.92147964e-01
      9.62594673e-02 8.38669464e-02 7.37205967e-02 2.99816374e-02
      1.90431569e-02 4.19721715e-02 1.47473186e-01 2.92147964e-01
      2.92147964e-01 2.92147964e-01 2.40897030e-01 7.73421600e-02
      4.96917889e-02 1.78799387e-02 1.49281174e-02 5.03385924e-02
      2.92147964e-01 2.36606136e-01 2.92147964e-01 2.33162865e-01
      9.89637077e-02 5.71836159e-02 3.33013572e-02 4.59460430e-02
      1.28399983e-01 1.95873007e-01 3.49280357e-01 6.86899051e-02
      1.24935679e-01 1.48376301e-01 6.38046041e-02 3.96844894e-02
      1.14242688e-01 2.38163501e-01 3.49280357e-01 2.72816718e-01
      2.42110956e-02 2.45141108e-02 3.13726850e-02 4.02459465e-02
      1.54285198e-02 4.96304072e-02 2.95154929e-01 3.49280357e-01
      2.29180530e-01 1.62348896e-01 2.73182601e-01 2.09427238e-01
      1.03453420e-01 5.97848445e-02 9.86510590e-02 1.87987626e-01
      1.29525661e-01 1.63897097e-01 7.14935660e-02 7.75688067e-02
      5.94307780e-02 9.00234580e-02 3.17648873e-02 3.87646891e-02
      6.76145628e-02 1.20480344e-01 2.22275198e-01 2.00397111e-02
      1.09476689e-02 7.25725945e-03 9.49090905e-03 2.87763495e-03
      8.80937837e-03 3.45324129e-01 4.46259946e-01 1.78812936e-01
      3.41217555e-02 3.01525090e-02 3.10860691e-03 6.95281755e-03
      1.12357894e-02 3.10510062e-02 4.46259946e-01 4.46259946e-01
      1.29755437e-01 6.82055876e-02 4.79690693e-02 2.21616328e-02
      3.91198285e-02 2.31234934e-02 2.32825726e-02 5.29852994e-02
      1.41981035e-01 1.39355391e-01 9.22010243e-02 3.23419347e-02
      1.39663583e-02 2.38504354e-02 4.72909771e-02 5.17587848e-02
      2.05344707e-01 2.58517355e-01 5.67707345e-02 2.07346380e-02
      9.84898861e-03 3.27599904e-04 7.27000786e-03 9.94517654e-03
      6.28350601e-02 3.61748993e-01 3.61748993e-01 2.95647103e-02
      7.26669095e-03 1.48832778e-05 1.27971298e-05 4.36525419e-03
      6.51504425e-03 1.13031447e-01 3.61748993e-01 3.61748993e-01
      7.74760097e-02 5.86683713e-02 1.68979205e-02 7.95244798e-03
      1.55646419e-02 2.89965831e-02 6.92564473e-02 2.65404373e-01
      2.55196571e-01 4.99032848e-02 3.96144986e-02 2.84137223e-02
      1.87607054e-02 3.17149237e-02 3.74282263e-02 1.76850721e-01
      3.61748993e-01 3.60998929e-01 2.15026513e-02 4.51022573e-03 0. 0.
      7.46276230e-04 1.98735343e-03 7.85062164e-02 3.60153317e-01
      2.87066013e-01 1.36908749e-02 1.78755180e-03 0. 0. 6.00460953e-06
      2.23864033e-03 8.31519514e-02 3.60153317e-01 1.30539000e-01
      6.08742274e-02 2.36745141e-02 1.58031955e-02 1.98018290e-02
      1.91400200e-02 2.34867409e-02 2.31936976e-01 3.60153317e-01
      3.40536237e-01 4.48072217e-02 7.85540696e-03 3.42081394e-03
      9.05100629e-03 6.01403276e-03 2.53708307e-02 3.60153317e-01
      3.60153317e-01 2.37093672e-01 3.89266759e-02 6.96048373e-03
      1.32748752e-03 5.68685471e-04 8.70279109e-05 6.70251809e-03
      1.14289425e-01 3.70681942e-01 2.00395897e-01 8.23567882e-02
      3.02015003e-02 1.62990335e-02 1.58408023e-02 1.47214141e-02
      8.57690163e-03 4.63988818e-02 1.46249548e-01 1.81162685e-01
      3.13396789e-02 3.14100739e-03 1.04836328e-03 2.17084656e-03
      2.43442645e-03 8.81464779e-02 4.16386604e-01 4.16386604e-01
      2.47841224e-01 6.20906278e-02 2.11418793e-02 6.49482105e-03
      4.35514655e-03 5.39467391e-03 7.04167262e-02 3.21705461e-01
      4.16386604e-01 1.88581884e-01 1.55657306e-01 6.86462373e-02
      5.26214167e-02 6.03825003e-02 1.22603148e-01 6.56995624e-02
      1.09653883e-01 1.43662736e-01 2.21273065e-01 8.66882429e-02
      4.93702441e-02 2.38385163e-02 1.63634047e-02 1.61873415e-01
      8.27523246e-02 8.52473080e-02 1.09384380e-01 1.13747090e-01
      1.59929395e-01 5.99051490e-02 1.40308244e-02 6.73451135e-03
      7.70585313e-02 1.09994866e-01 4.26756442e-01 4.28182214e-01
      2.88602501e-01 6.66892678e-02 2.60283574e-02 2.01051813e-02
      1.95136727e-05 1.22596741e-01 1.12572141e-01 2.05253765e-01
      4.14267302e-01 2.00519741e-01 1.32807747e-01 6.14871718e-02
      1.60345528e-02 5.65815775e-04 7.12229013e-02 4.30906974e-02
      6.35986775e-02 2.04610944e-01 2.55248755e-01 2.95428813e-01
      8.78667086e-02 1.38623752e-02 7.55889574e-04 1.11311879e-02
      8.05543363e-03 5.42148203e-02 1.36040092e-01 3.77413243e-01
      1.18162230e-01 5.48517331e-02 2.09915563e-02 6.06722897e-04
      6.15900271e-02 3.69508788e-02 7.16938227e-02 4.04838771e-01
      3.25532407e-01 3.35849464e-01 1.22953281e-01 2.15831846e-02
      1.57348122e-02 1.60468817e-02 5.02091506e-03 2.93124169e-02
      2.03690693e-01 3.56668323e-01 4.93756458e-02 4.88059931e-02
      6.64195865e-02 5.33268265e-02 1.79082334e-01 1.80590093e-01
      1.24081127e-01 6.08236827e-02 2.94795930e-02 7.57371336e-02
      1.16477914e-01 1.48046732e-01 2.46807292e-01 1.13180518e-01
      4.83582318e-02 4.40633558e-02 1.55008659e-01 9.80211943e-02
      1.20598935e-01 8.74279588e-02 1.28904417e-01 1.19504131e-01
      8.40714946e-02 1.02756001e-01 1.27346799e-01 1.22201398e-01
      1.36218354e-01 7.75670558e-02 1.53524965e-01 4.27797765e-01
      4.27797765e-01 4.27797765e-01 9.62109715e-02 4.52910475e-02
      9.13685858e-02 1.65678248e-01 7.67482957e-03 6.60402402e-02
      2.92118460e-01 1.58979610e-01 2.73257606e-02 2.69587175e-03
      4.44667926e-03 1.73449442e-02 1.37077542e-02 3.46469916e-02
      3.33240122e-01 3.33240122e-01 3.33240122e-01 2.98025180e-02
      1.98455546e-02 4.47174907e-03 1.01878922e-02 1.62694659e-02
      9.53636505e-03 6.51330054e-02 3.33240122e-01 3.33240122e-01
      1.96008131e-01 2.02005729e-02 4.94616153e-03 7.01224618e-03
      1.01559432e-02 7.87807405e-02 1.51409596e-01 3.33240122e-01
      3.33240122e-01 1.45894557e-01 4.75172922e-02 1.92046519e-02
      3.80161740e-02 4.83783670e-02 9.73933414e-02 3.85201991e-01
      3.85201991e-01 2.96395183e-01 3.68334353e-02 6.48042709e-02
      2.09899731e-02 2.91373190e-02 4.59934138e-02 1.06111981e-01
      3.85201991e-01 2.75468349e-01 3.82070579e-02 6.18914515e-02
      8.28309655e-02 4.42399196e-02 4.20158729e-02 7.46958777e-02
      1.46817088e-01 2.09204897e-01 3.37053835e-01 2.36775205e-01
      7.29750320e-02 8.81133303e-02 3.63394022e-02 6.33447617e-02
      1.24549113e-01 7.87094980e-02 9.83230472e-02 1.05716228e-01
      4.09654155e-02 6.05612732e-02 8.18853229e-02 7.23344311e-02
      7.74921849e-02 1.29867628e-01 2.23349169e-01 3.12498659e-01
      1.49582893e-01 6.49895370e-02 1.35309085e-01 9.42533091e-02
      8.99570212e-02 1.32137060e-01 2.34104931e-01 1.51126638e-01
      8.28644931e-02 6.81569651e-02 4.68048453e-02 1.03215680e-01
      9.23016965e-02 1.67570904e-01 2.13482112e-01 2.06795424e-01
      1.47352174e-01 7.28639513e-02 8.75765830e-02 2.81461105e-02
      1.01784267e-01 7.34023675e-02 1.87335685e-01 2.54709631e-01
      3.12498659e-01 1.48500189e-01 4.06237543e-02 3.61100920e-02
      1.50706107e-02 1.08428545e-01 9.03080180e-02 2.31817648e-01
      3.12498659e-01 3.12498659e-01 6.71809539e-02 2.21183952e-02
      3.49495970e-02 5.51708490e-02 9.97469798e-02 1.03302896e-01
      1.70448124e-01 1.08311020e-01 1.21535353e-01 2.03819543e-01
      4.05841991e-02 5.98455705e-02 8.92684460e-02 1.83191359e-01
      1.86640710e-01 2.49665320e-01 3.36956263e-01 3.36956263e-01
      1.00301437e-01 4.37336341e-02 3.17622013e-02 5.15201166e-02
      7.71260262e-02 9.45872366e-02 1.60249040e-01 2.13720694e-01
      1.89031154e-01 2.09649831e-01 7.45799392e-02 5.51263578e-02
      1.03417054e-01 9.32550654e-02 1.07153930e-01 2.24760786e-01
      3.36956263e-01 3.36956263e-01 5.96714243e-02 1.52902948e-02
      1.95867550e-02 2.41572279e-02 1.29730880e-01 1.91006422e-01
      1.38292864e-01 3.04212302e-01 3.04212302e-01 3.41224931e-02
      4.28401073e-03 8.93411320e-03 2.13947091e-02 2.50946343e-01
      3.04212302e-01 3.04212302e-01 2.97531128e-01 1.46186337e-01
      6.89696148e-02 2.03304309e-02 2.29735170e-02 4.40050811e-02
      1.23383664e-01 1.40881270e-01 1.15980670e-01 9.71411169e-02
      1.13283910e-01 3.27278264e-02 1.12417489e-02 1.49388788e-02
      6.17413893e-02 3.04212302e-01 3.04212302e-01 3.04212302e-01
      9.82382223e-02 6.35976493e-02 2.08515506e-02 1.10093616e-02
      2.31750291e-02 1.16474591e-01 1.71400055e-01 3.22858095e-01
      1.36547774e-01 5.28912731e-02 2.05671806e-02 5.42477593e-02
      1.97698653e-01 2.42901206e-01 3.22858095e-01 3.20827693e-01
      5.68893440e-02 1.22783789e-02 1.06837116e-02 2.76551843e-02
      2.40489515e-03 3.66151507e-04 2.80821789e-03 1.46766528e-01
      3.22858095e-01 3.22858095e-01 1.63328499e-01 3.41777839e-02
      1.22337779e-02 8.19993988e-02 8.97947401e-02 6.05008826e-02
      3.22858095e-01 3.22858095e-01 1.66033685e-01 2.02350933e-02
      1.48116285e-02 3.20957936e-02 1.74755678e-01 2.97312856e-01
      2.52078086e-01 2.19816118e-01 2.02378914e-01 4.18131202e-02
      1.73193365e-02 2.55698320e-02 6.35388345e-02 2.47543901e-01
      1.86642334e-01 1.26231730e-01 3.48086394e-02 4.89659049e-02
      4.05607782e-02 1.90695655e-02 5.96598461e-02 1.73125446e-01
      2.97312856e-01 2.00849637e-01 9.48006436e-02 2.54622221e-01
      2.97312856e-01 6.50523007e-02 2.90000066e-02 2.77277511e-02
      1.82811931e-01 2.97312856e-01 1.25318974e-01 6.64950907e-02
      5.82981370e-02 8.37228522e-02 5.23755252e-02 6.23049997e-02
      1.52238309e-01 2.97312856e-01 1.91876307e-01 7.84136206e-02
      8.45537484e-02 4.31546159e-02 4.44877818e-02 4.29969355e-02
      4.37791497e-02 1.09841399e-01 2.50470251e-01 9.52080935e-02
      5.03353998e-02 4.96424250e-02 2.95352545e-02 7.95067921e-02
      3.68541591e-02 4.32944782e-02 6.54233322e-02 1.08996153e-01
      3.11573923e-01 4.18297462e-02 4.63075303e-02 1.08913653e-01
      3.11573923e-01 1.70778409e-01 2.56562471e-01 3.11573923e-01
      3.11573923e-01 9.59194824e-02 4.27751467e-02 4.96313535e-02
      1.19803824e-01 3.11573923e-01 2.38847688e-01 2.02026516e-01
      2.23384514e-01 2.27965295e-01 1.95935175e-01 1.09015346e-01
      7.55180940e-02 4.64196876e-02 1.61167011e-01 7.79660642e-02
      6.75655976e-02 7.24298507e-02 1.87109083e-01 2.18366563e-01
      1.71057671e-01 4.84594814e-02 3.46631892e-02 1.78998142e-01
      1.16527475e-01 1.05628364e-01 1.39307454e-01 1.84848085e-01
      2.52565205e-01 8.68785307e-02 5.06828353e-02 8.15014839e-02
      2.88436323e-01 2.88436323e-01 1.16280392e-01 2.18536004e-01
      2.54527986e-01 2.03968301e-01 1.14445440e-01 1.30256996e-01
      5.14773205e-02 2.88436323e-01 1.77753001e-01 1.38951391e-01
      2.20489681e-01 2.03048915e-01 1.95216835e-01 2.57988006e-01
      1.11512773e-01 5.96594550e-02 1.16368286e-01 6.51139989e-02
      9.57364216e-02 1.32993743e-01 1.84195101e-01 2.38384783e-01
      2.91962951e-01 2.17274562e-01 1.18881144e-01 1.02660939e-01
      9.19709131e-02 1.89918190e-01 2.56683648e-01 2.41266459e-01
      1.39909297e-01 1.62084490e-01 2.14294866e-01 1.03738815e-01
      1.89148068e-01 4.61374931e-02 8.45430046e-02 1.34511352e-01
      1.57243386e-01 1.69070572e-01 2.42679432e-01 2.06921697e-01
      1.09789327e-01 7.46265575e-02 5.61753213e-02 8.00587982e-02
      1.79963261e-01 1.87119693e-01 1.45458370e-01 7.73215666e-02
      5.77092655e-02 5.87560944e-02 4.38354537e-02 4.65795547e-02
      2.18218237e-01 3.23498696e-01 2.17148095e-01 1.16898343e-01
      5.01418076e-02 1.88138243e-02 5.96154891e-02 6.88615516e-02
      1.97546840e-01 3.43931466e-01 3.43931466e-01 2.59324223e-01
      7.66799822e-02 6.01808168e-02 5.94614297e-02 3.06155216e-02
      3.34091224e-02 5.98121770e-02 9.96113196e-02 1.04061268e-01
      1.02664329e-01 1.55410036e-01 1.02346197e-01 4.22476679e-02
      8.63024592e-02 1.02997325e-01 2.76381344e-01 3.25917691e-01
      2.54307538e-01 1.99346706e-01 1.78885050e-02 1.80655010e-02
      2.44426611e-03 1.85535494e-02 4.00997922e-02 2.61134654e-01
      3.07337284e-01 3.07337284e-01 6.18039891e-02 5.07938303e-03
      2.00867304e-03 5.08513593e-04 2.54469202e-03 1.46146966e-02
      1.64973825e-01 3.07337284e-01 2.15323254e-01 2.96251699e-02
      8.06935653e-02 6.11029603e-02 1.47617860e-02 5.53094409e-02
      1.25376135e-01 3.07337284e-01 3.07337284e-01 2.50364989e-01
      9.06820372e-02 8.99803732e-03 7.91602768e-03 2.88888742e-03
      2.39244215e-02 2.28582665e-01 3.07337284e-01 3.07337284e-01
      1.81207895e-01 2.13056263e-02 1.19677419e-02 3.62466695e-03
      5.51583420e-04 4.45340993e-03 4.32688445e-02 1.18139036e-01
      3.46455425e-01 3.46455425e-01 6.35451153e-02 8.18579923e-03
      4.74873651e-03 4.92698001e-03 1.44271813e-02 8.32513049e-02
      7.94663802e-02 1.95050716e-01 2.16693968e-01 5.52812815e-02 0.
      6.03561784e-05 6.94993045e-03 1.04394354e-01 3.46455425e-01
      3.46455425e-01 3.46455425e-01 1.99315175e-01 1.82554238e-02
      2.29276698e-02 1.51965357e-02 3.76004353e-02 1.52249902e-01
      3.32720280e-01 1.97035968e-01 1.98714033e-01 9.47858244e-02
      1.89511627e-02 1.05081007e-01 8.27052891e-02 3.27614248e-02
      4.84828241e-02 1.31834477e-01 5.26448451e-02 8.61331373e-02
      2.83708513e-01 1.86045334e-01 2.03362718e-01 1.68994546e-01
      7.03481883e-02 3.80146578e-02 3.86439450e-02 1.18865697e-02
      2.88244262e-02 1.31937295e-01 1.63233921e-01 1.68775216e-01
      1.97800279e-01 1.85653567e-01 2.43025750e-01 4.34199721e-01
      1.23052478e-01 6.53981790e-02 6.38234392e-02 1.14037745e-01
      3.28007787e-01 3.74812156e-01 2.05917567e-01 7.03175142e-02
      6.70666099e-02 9.05208848e-03 3.27356011e-02 6.83268756e-02
      1.28044710e-01 6.18604533e-02 3.70694660e-02 6.76751509e-02
      7.34209195e-02 4.40101214e-02 5.53627424e-02 5.62298708e-02
      7.35595301e-02 8.46523345e-02 2.57198885e-02 5.53583056e-02
      1.90984443e-01 4.31398213e-01 4.31398213e-01 1.95040539e-01
      4.42575887e-02 4.93881516e-02 7.52791762e-02 6.22188821e-02
      5.63812107e-02 4.53736447e-02 9.53663513e-02 6.37289509e-02
      6.62113354e-02 4.79865335e-02 4.57982421e-02 6.47310838e-02
      3.89693826e-02 6.58894703e-02 5.80043010e-02 2.59278148e-01
      4.31398213e-01 4.31398213e-01 1.19599789e-01 2.37852521e-02
      2.22531054e-02 1.06726224e-02 2.83177570e-02 1.69735372e-01
      3.26972783e-01 3.26972783e-01 9.45841819e-02 6.67047640e-03
      6.81902235e-03 7.69304717e-03 7.22898468e-02 8.71606395e-02
      1.84888110e-01 3.18253100e-01 3.26972783e-01 7.49162138e-02
      2.78623514e-02 6.19797781e-02 3.70712280e-02 8.86092987e-03
      8.17547552e-03 2.09616832e-02 9.63284150e-02 3.26972783e-01
      3.26972783e-01 6.42573535e-02 1.08471597e-02 4.88284137e-03
      5.06569892e-02 4.48346101e-02 4.40566018e-02 1.31307423e-01
      3.26972783e-01 3.26972783e-01 8.14435333e-02 6.61934093e-02
      2.69906893e-02 2.21799627e-01 2.17040002e-01 1.85120225e-01
      1.89176887e-01 1.44953698e-01 1.02417685e-01 1.03262208e-01
      2.17759684e-01 1.88468874e-01 9.64178368e-02 9.23565924e-02
      1.30104795e-01 5.48358597e-02 7.81156570e-02 8.84445682e-02
      1.25233695e-01 1.89425468e-01 1.55135289e-01 1.49445310e-01
      1.54757157e-01 8.64933208e-02 2.41048172e-01 2.93199629e-01
      1.93057775e-01 1.43978283e-01 2.54476964e-01 1.22955389e-01
      9.09750909e-02 8.45326483e-02 4.66762222e-02 6.55832291e-02
      1.90031171e-01 1.42658129e-01 1.76441997e-01 2.93199629e-01
      2.17058569e-01 6.79734871e-02 4.29366641e-02 7.39703178e-02
      1.59488115e-02 6.71815127e-02 6.24966361e-02 1.69191167e-01
      2.40091056e-01 1.86808601e-01 7.30933473e-02 2.03536972e-02
      1.13430321e-02 1.41079258e-02 3.97404172e-02 8.48510116e-02
      2.91181803e-01 3.22837859e-01 3.22837859e-01 1.36720657e-01
      3.87579575e-02 2.31644269e-02 1.09549835e-02 9.71592143e-02
      1.15941510e-01 2.09505379e-01 2.67007381e-01 2.68188596e-01
      1.24919146e-01 3.14137228e-02 4.96478099e-03 6.93504652e-03
      1.85649451e-02 1.29935309e-01 3.22837859e-01 3.22837859e-01
      2.71504134e-01 6.45135790e-02 3.75972800e-02 1.33038154e-02
      2.48808637e-02 4.65275049e-02 1.15054935e-01 2.34555200e-01
      3.08790803e-01 2.44473189e-01 1.41936943e-01 8.10343474e-02
      3.32987756e-02 5.19302189e-02 7.83952400e-02 9.86412242e-02
      2.56905168e-01 3.08790803e-01 3.00486863e-01 7.33650327e-02
      2.78281365e-02 9.71186254e-03 4.78816871e-03 2.23037358e-02
      8.17296058e-02 2.41843820e-01 3.08790803e-01 1.97007388e-01
      9.62392688e-02 4.38688472e-02 2.93941144e-02 5.01405410e-02
      1.01940110e-01 1.29712239e-01 2.49151424e-01 3.08790803e-01
      2.48302102e-01 8.12090635e-02 2.59646568e-02 1.29236439e-02
      5.03290705e-02 8.23433399e-02 8.38503838e-02 1.74480617e-01
      1.58924878e-01 1.27331108e-01 5.44204228e-02 1.02871098e-02
      5.39660640e-03 1.25913978e-01 4.06298548e-01 4.06298548e-01
      3.17734003e-01 1.04139283e-01 8.80039111e-02 3.53099853e-02
      1.06464047e-02 1.27151310e-02 4.62777615e-02 1.31075665e-01
      1.41362295e-01 1.34438872e-01 1.18749410e-01 6.62700534e-02
      2.30220016e-02 2.29226425e-03 3.35537493e-02 7.89740831e-02
      4.06298548e-01 4.06298548e-01 1.13592215e-01 4.93832752e-02
      2.83379331e-02 3.19606788e-03 2.29579891e-04 0. 7.50296935e-02
      3.37335318e-01 3.37335318e-01 8.23739916e-02 1.56016368e-02
      8.46818089e-03 3.34224477e-02 4.11694720e-02 3.01198941e-02
      1.99383005e-01 3.37335318e-01 2.93867171e-01 2.82195285e-02
      7.02355057e-03 1.55661423e-02 7.03100860e-03 2.67218752e-03
      1.20784892e-02 3.28598171e-02 3.37335318e-01 3.37335318e-01
      7.75157958e-02 5.32066487e-02 1.24081997e-02 6.27501979e-02
      3.55871134e-02 1.28715532e-02 1.11105897e-01 3.37335318e-01
      3.37335318e-01 7.12445900e-02 9.83142108e-02 1.16932720e-01
      2.18350872e-01 1.17861070e-01 8.64674449e-02 1.99183583e-01
      2.76491851e-01 1.15512833e-01 2.53991410e-02 2.24355273e-02
      9.81550962e-02 2.76491851e-01 1.00982875e-01 8.53357613e-02
      1.43911988e-01 2.76491851e-01 1.18570201e-01 7.77704567e-02
      1.25435829e-01 2.76491851e-01 1.17414527e-01 6.82339221e-02
      2.95499563e-02 1.59315705e-01 2.76491851e-01 1.59681886e-01
      6.86254054e-02 8.80966038e-02 1.58255920e-01 2.76491851e-01
      1.04891039e-01 5.41393533e-02 1.92144722e-01 2.76491851e-01
      1.85060397e-01 1.04663037e-01 1.39931232e-01 1.78550139e-01
      1.34228498e-01 2.88226996e-02 3.17190066e-02 1.53806120e-01
      3.35037619e-01 1.64947376e-01 1.24265403e-01 1.51612610e-01
      2.54973918e-01 4.06356081e-02 5.54739572e-02 5.25120422e-02
      1.42121091e-01 3.35037619e-01 1.76457793e-01 9.00823474e-02
      9.62314457e-02 7.98407346e-02 1.91891417e-01 1.01976760e-01
      5.51342703e-02 2.11142689e-01 3.35037619e-01 2.73172468e-01
      5.59400953e-02 6.70935661e-02 5.93084395e-02 5.36084361e-02
      7.83486217e-02 7.76112229e-02 1.71321645e-01 3.35037619e-01
      2.44464695e-01 5.39134629e-02 4.19433750e-02 3.86251733e-02
      1.64654121e-01 1.11115880e-01 1.00568473e-01 1.32124081e-01
      2.73692966e-01 2.57001668e-01 1.33145630e-01 2.48365417e-01
      2.36887008e-01 1.30947590e-01 6.35718480e-02 1.01905324e-01
      3.13791893e-02 1.37435496e-01 8.80630612e-02 1.39380783e-01
      2.23919034e-01 1.56633914e-01 1.75508901e-01 1.45346135e-01
      1.54601872e-01 1.94921687e-01 2.73692966e-01 2.13723212e-01
      1.35522112e-01 1.77496463e-01 2.28167042e-01 1.52469307e-01
      6.48252591e-02 8.55525136e-02 8.28752518e-02 9.05620232e-02
      6.00417927e-02 1.38195768e-01 1.78473532e-01 2.44359300e-01
      1.39289588e-01 1.18695669e-01 2.34705880e-01 9.04741064e-02
      1.70316353e-01 3.67203653e-02 1.06781796e-01 1.51596040e-01
      1.55108094e-01 1.58307642e-01 2.00972021e-01 2.20569938e-01
      1.21174708e-01 1.55509531e-01 3.87258790e-02 7.34337345e-02
      1.84150457e-01 1.80447578e-01 1.99555516e-01 1.29354432e-01
      1.39624506e-01 1.46537900e-01 2.47682631e-01 5.89399114e-02
      1.65008515e-01 1.19998872e-01 2.15608314e-01 2.46305436e-01
      2.50586748e-01 1.95688367e-01 1.98636249e-01 3.40480328e-01
      2.10665967e-02 5.43944240e-02 5.41603304e-02 1.03787728e-01
      1.12318389e-01 1.28200650e-01 1.44370183e-01 5.65420240e-02
      8.42641145e-02 8.65309685e-02 1.61632195e-01 1.88642055e-01
      1.30761728e-01 2.23135114e-01 1.42054453e-01 1.13905817e-01
      1.99169129e-01 2.42450997e-01 2.47552678e-01 2.61907846e-01
      1.77256688e-01 1.95185766e-01 2.12610051e-01 1.95937678e-01
      1.65002599e-01 9.79216099e-02 2.10729867e-01 3.53166237e-02
      3.91603410e-02 3.74398939e-02 6.88338503e-02 2.13782415e-01
      1.98073357e-01 2.10326925e-01 2.01327220e-01 2.82510847e-01
      1.19631425e-01 9.90200937e-02 8.51259306e-02 1.22788951e-01
      5.29352017e-02 3.38135473e-02 2.00620629e-02 7.60857686e-02
      3.10074747e-01 2.33411238e-01 1.50680661e-01 8.64335597e-02
      4.58451621e-02 6.86495192e-03 7.88398925e-03 8.03136081e-03
      7.47132078e-02 3.45872462e-01 3.45872462e-01 1.79833680e-01
      7.14751109e-02 1.15070920e-02 2.70357318e-02 5.17054759e-02
      1.96123078e-01 2.28506222e-01 3.45872462e-01 7.90128559e-02
      3.00764795e-02 1.78612694e-02 2.22443044e-02 4.64900350e-03
      2.92983856e-02 2.08706066e-01 3.45872462e-01 3.45872462e-01
      1.23156808e-01 1.83916148e-02 4.59074788e-03 4.07221960e-03 0.
      7.50213279e-04 8.48869048e-03 1.37363374e-01 3.74390453e-01
      3.74390453e-01 1.39595553e-01 3.08813173e-02 1.27550343e-03
      2.82067470e-02 1.56690236e-02 3.64482924e-02 1.42279789e-01
      3.65293711e-01 1.18773066e-01 5.36482818e-02 2.00489797e-02
      1.70788970e-02 0. 2.55943127e-02 1.61665931e-01 3.74390453e-01
      3.74390453e-01 1.36221468e-01 2.58924253e-02 1.84271275e-03 0.
      1.70006957e-02 3.91517840e-02 1.41853780e-01 1.27729729e-01
      3.51347834e-01 1.11291409e-01 4.07693274e-02 2.23784819e-02
      1.40528679e-02 1.86442256e-01 1.53293297e-01 1.36990145e-01
      1.72037959e-01 3.78656447e-01 1.07632354e-01 6.07602000e-02
      5.03115207e-02 1.51569530e-01 2.81786263e-01 2.03258738e-01
      1.05528355e-01 2.05271598e-02 2.13809833e-02 1.53761115e-02
      4.87213321e-02 8.20166022e-02 2.35696822e-01 1.40722245e-01
      1.11318000e-01 1.31127745e-01 8.65561590e-02 3.44576865e-01
      1.69574276e-01 1.38335481e-01 1.37205958e-01 1.46652997e-01
      2.02526435e-01 9.44384485e-02 3.13642249e-02 2.57267728e-02
      1.10495295e-02 2.76044942e-02 1.07672103e-01 1.53645277e-01
      3.94911468e-01 5.11885509e-02 4.14808281e-02 5.30101359e-02
      1.09454505e-01 1.19075008e-01 8.38973448e-02 7.12645277e-02
      5.93838990e-02 6.77616075e-02 4.27442789e-02 5.60671277e-02
      6.60989583e-02 1.24491408e-01 4.20432895e-01 4.20432895e-01
      3.09904277e-01 4.04372364e-02 2.67619174e-02 8.58727023e-02
      8.52797329e-02 9.45957452e-02 7.11550415e-02 1.26272470e-01
      9.39277112e-02 7.52003193e-02 5.91153763e-02 7.25717545e-02
      4.98044305e-02 9.15599763e-02 7.94171542e-02 8.31903145e-02
      3.21338892e-01 4.20432895e-01 2.72161216e-01 1.19654126e-01
      7.17817321e-02 3.28457984e-03 3.43215396e-03 3.97334341e-03
      1.24764713e-02 3.00058931e-01 3.20482671e-01 1.83621138e-01
      2.22729668e-02 5.69823943e-03 2.14673076e-02 2.05562562e-02
      2.28987113e-02 4.29856777e-02 2.53553450e-01 3.20482671e-01
      2.53029376e-01 7.66641945e-02 2.41311789e-02 5.23431506e-03
      6.95542526e-03 3.05847265e-03 9.84641816e-03 8.31922814e-02
      3.20482671e-01 3.03408176e-01 6.73810765e-02 2.68105548e-02
      1.62113979e-02 1.59581434e-02 1.57808848e-02 1.25556048e-02
      1.01777963e-01 3.20482671e-01 3.20482671e-01 3.18866819e-01
      5.80644459e-02 5.60682751e-02 6.77812696e-02 4.99655269e-02
      8.60842541e-02 2.15603113e-01 2.51091123e-01 1.45489201e-01
      1.35554761e-01 6.45819306e-02 5.98061569e-02 5.96639253e-02
      3.19102407e-02 4.37996089e-02 1.48355812e-01 7.65886083e-02
      6.31958693e-02 1.33479506e-01 1.49442494e-01 7.19292089e-02
      1.36310846e-01 7.09008649e-02 4.31595482e-02 1.80696726e-01
      3.42938572e-01 3.42938572e-01 3.42938572e-01 1.94759697e-01
      1.40394002e-01 1.75633729e-01 8.22686255e-02 5.19768260e-02
      1.30857691e-01 8.07374790e-02 1.47099167e-01 3.42938572e-01
      2.58127719e-01 1.81711555e-01 5.89190759e-02 1.38661433e-02
      1.93194933e-02 1.48984969e-01 8.83959606e-02 1.40359133e-01
      1.87535927e-01 3.10734838e-01 1.69993088e-01 6.74903691e-02
      2.70196795e-03 6.86316192e-03 4.81218956e-02 1.83627099e-01
      2.28993803e-01 2.77347147e-01 2.06505507e-01 2.91474283e-01
      1.46064490e-01 5.47740906e-02 5.43125309e-02 1.60914689e-01
      5.15142418e-02 7.41597712e-02 1.84149444e-01 3.10734838e-01
      3.10734838e-01 1.37714103e-01 7.71700125e-03 3.04716658e-02
      7.78123364e-02 8.72657150e-02 1.15381777e-01 2.25636840e-01
      2.56312102e-01 1.64756417e-01 7.84517229e-02 2.26438232e-02
      1.19265607e-02 2.23314334e-02 1.12094291e-01 1.63569063e-01
      2.68579692e-01 2.33757943e-01 1.86649650e-01 1.02929644e-01
      7.47116059e-02 8.20038244e-02 1.40528515e-01 1.15173571e-01
      1.45091251e-01 2.47915253e-01 2.95335978e-01 2.31495693e-01
      9.57584381e-02 2.68253870e-02 1.97755769e-02 2.32949499e-02
      5.42818680e-02 9.32349935e-02 3.10436547e-01 2.29563236e-01
      2.65249431e-01 1.31707311e-01 8.52336884e-02 7.66140595e-02
      5.02179153e-02 8.20371062e-02 1.43278211e-01 3.10436547e-01
      2.89388478e-01 6.37760907e-02 5.11524267e-02 6.18425757e-02
      7.42608011e-02 1.98727429e-01 1.89074382e-01 9.64525342e-02
      1.04182228e-01 8.07111561e-02 4.64141406e-02 4.40176465e-02
      1.50030240e-01 7.92625397e-02 3.72977704e-01 3.72977704e-01
      1.90790445e-01 2.11493134e-01 1.04619645e-01 1.47272527e-01
      1.32911339e-01 9.85333696e-02 6.54896796e-02 8.41846019e-02
      1.12825207e-01 1.29497558e-01 1.53239459e-01 1.36744440e-01
      1.64781421e-01 1.93894386e-01 1.56460479e-01 1.09163485e-01
      1.82624549e-01 2.30689675e-01 1.98597103e-01 2.45863810e-01
      2.35436171e-01 2.46367510e-02 2.25094445e-02 2.74781883e-02
      1.62411015e-02 2.53232390e-01 2.68460363e-01 1.22401841e-01
      2.12201953e-01 1.48066282e-01 1.26511768e-01 8.01239014e-02
      3.14192325e-02 4.87511680e-02 1.50826350e-01 2.39228040e-01
      1.25113770e-01 2.68460363e-01 2.68460363e-01 6.03451505e-02
      1.19398989e-01 1.21289238e-01 1.00192778e-01 7.65349343e-02
      8.00823346e-02 7.60124773e-02 1.79059118e-01 1.94321290e-01
      2.05848828e-01 2.68460363e-01 2.53016472e-01 1.28945842e-01
      9.21561942e-02 1.51139513e-01 1.08323961e-01 2.65969425e-01
      2.68460363e-01 1.80963963e-01 9.80381668e-02 4.72995080e-02
      6.40743077e-02 1.33371100e-01 1.05189763e-01 9.71865803e-02
      1.63911894e-01 2.55386442e-01 2.55386442e-01 2.31852785e-01
      1.08712316e-01 1.14264660e-01 1.97519243e-01 9.36331376e-02
      8.67429525e-02 1.41745910e-01 2.00129837e-01 1.79239929e-01
      2.55386442e-01 1.65557072e-01 7.21750483e-02 7.82614574e-02
      1.23134263e-01 1.05931476e-01 1.51491120e-01 2.55386442e-01
      2.47921273e-01 2.04701945e-01 1.42454594e-01 1.03560798e-01
      1.14500046e-01 8.94200578e-02 1.49906307e-01 2.55386442e-01
      2.55386442e-01 2.50174612e-01 2.50174612e-01 1.41768217e-01
      1.72699034e-01 2.50174612e-01 1.74381822e-01 4.26832363e-02
      8.11673775e-02 7.83086568e-02 7.10483119e-02 1.15532108e-01
      1.27349600e-01 1.57168925e-01 2.50174612e-01 1.67579055e-01
      4.97291498e-02 3.58886532e-02 3.44405882e-02 2.48281524e-01
      2.29179800e-01 1.37020081e-01 1.42130226e-01 2.05868647e-01
      1.42734230e-01 1.42131165e-01 2.50174612e-01 2.50174612e-01
      1.04938157e-01 1.06542565e-01 1.24691986e-01 1.54142767e-01
      2.50174612e-01 1.51786238e-01 7.73423463e-02 1.36804447e-01
      1.63285241e-01 1.27809152e-01 1.14705786e-01 1.62176475e-01
      1.92539141e-01 2.77939171e-01 1.82408303e-01 1.21800184e-01
      9.91834775e-02 1.42673641e-01 1.54508069e-01 7.93393329e-02
      7.43779540e-02 1.00187339e-01 1.54103845e-01 1.16512284e-01
      1.41875714e-01 9.35628787e-02 2.65008897e-01 2.11981788e-01
      1.37890995e-01 1.93695247e-01 2.54693389e-01 2.77939171e-01
      2.03157991e-01 9.09189805e-02 1.33483365e-01 2.77939171e-01
      1.91160783e-01 1.15989342e-01 1.05669960e-01 1.02196865e-01
      1.45382673e-01 1.19923733e-01 7.36101568e-02 1.21218972e-01
      2.26279661e-01 1.90008938e-01 1.20066591e-01 7.44877979e-02
      1.45841718e-01 1.94980115e-01 8.59119892e-02 1.66952878e-01
      8.44041109e-02 2.14673698e-01 1.92799151e-01 1.83603033e-01
      1.62963465e-01 2.68959045e-01 2.82761574e-01 4.45383452e-02
      7.34937117e-02 6.67849258e-02 9.09823477e-02 1.62294477e-01
      1.25933111e-01 8.26178044e-02 8.47864002e-02 1.93014324e-01
      9.98939052e-02 1.58265740e-01 1.46098003e-01 1.44953728e-01
      2.10851267e-01 3.04852486e-01 1.75985351e-01 2.51081765e-01
      2.42894337e-01 8.01670253e-02 1.62326977e-01 1.41712829e-01
      9.57477316e-02 1.02490507e-01 1.21121280e-01 8.74048248e-02
      8.74278247e-02 7.86042958e-02 1.02087576e-02 8.66452884e-03
      1.41976848e-02 4.20802124e-02 1.03827514e-01 2.08536908e-01
      2.55966544e-01 2.24140033e-01 7.24127665e-02 5.52310608e-02
      3.29717509e-02 3.52280922e-02 5.56186028e-02 1.66634932e-01
      3.80420595e-01 2.37020805e-01 1.51454657e-01 7.43760094e-02
      2.27846839e-02 1.45815294e-02 2.20915359e-02 4.59498689e-02
      1.53207019e-01 4.02689219e-01 4.02689219e-01 3.81334722e-01
      6.84248656e-02 6.28209114e-02 1.25905899e-02 1.15739889e-02
      2.92196684e-02 2.11282186e-02 9.84684601e-02 3.15691918e-01
      3.15691918e-01 1.09286793e-01 2.59937141e-02 2.01190151e-02
      1.30888652e-02 1.58140566e-02 7.36809243e-03 4.92122881e-02
      3.15691918e-01 3.15691918e-01 2.84762651e-01 8.31623282e-03
      4.04706597e-03 1.25079299e-03 3.50621087e-03 2.92974524e-02
      3.15691918e-01 3.15691918e-01 3.15691918e-01 2.47549079e-02
      1.95045993e-02 5.89128258e-03 4.00917791e-03 3.46648181e-03
      6.65238425e-02 1.38297200e-01 3.15691918e-01 2.56873131e-01
      2.57487092e-02 1.46572024e-03 5.91177144e-04 1.90307305e-03
      1.35105103e-02 4.96306363e-03 8.29242617e-02 3.75141829e-01
      3.75141829e-01 3.75141829e-01 3.81125808e-02 4.76899045e-03
      3.31257586e-03 1.42901111e-03 1.74564365e-02 1.00481205e-01
      3.20452690e-01 1.45882666e-01 1.84048995e-01 6.94383830e-02
      2.94937920e-02 2.24806089e-02 1.67338978e-02 1.62942752e-01
      2.18651101e-01 3.75141829e-01 3.26369852e-01 1.18650265e-01
      2.94011999e-02 1.08872056e-02 2.81650815e-02 4.73571010e-02
      6.52895421e-02 1.03931099e-01 1.30757630e-01 8.91001448e-02
      6.35761544e-02 3.96831073e-02 3.55330668e-02 5.23260534e-02
      3.90181281e-02 1.51753798e-01 2.38224208e-01 3.52768302e-01
      1.46299466e-01 2.25165352e-01 1.39879182e-01 1.48475304e-01
      1.25803933e-01 1.34979993e-01 2.03599617e-01 1.57987252e-01
      1.05798632e-01 1.05955593e-01 6.09866232e-02 3.61302346e-02
      1.52123526e-01 1.98103681e-01 3.60188633e-01 2.08032563e-01
      2.07785070e-01 2.02065900e-01 1.11631773e-01 9.50654149e-02
      3.74545567e-02 9.13167000e-02 8.09869096e-02 1.35175422e-01
      1.87861398e-01 1.97706670e-01 1.84850588e-01 1.16916239e-01
      1.51302114e-01 2.76358966e-02 6.64204508e-02 7.38812834e-02
      1.28327146e-01 2.13158891e-01 1.42228454e-01 8.38469267e-02
      7.63640478e-02 1.50957018e-01 1.47969201e-01 1.23212352e-01
      9.95823666e-02 1.14576116e-01 1.08898215e-01 1.48178071e-01
      6.12513758e-02 8.76619518e-02 1.98572963e-01 2.36459866e-01
      1.98279887e-01 2.41427943e-01 1.58060044e-01 2.01984659e-01
      1.24439314e-01 4.42269482e-02 3.33187133e-02 1.10131346e-01
      1.91387951e-01 1.81817278e-01 2.15348557e-01 1.41058087e-01
      7.71404803e-02 5.15133105e-02 3.14089544e-02 5.18241301e-02
      1.19299032e-01 2.46629030e-01 2.33060300e-01 4.08182353e-01
      2.35672966e-01 1.83404796e-02 2.15969346e-02 4.69032442e-03
      1.50646586e-02 3.25640440e-02 1.68615058e-01 2.95816064e-01
      1.50301203e-01 8.04838911e-02 1.90843455e-02 2.02900264e-02
      8.74063000e-03 4.35157027e-03 4.26818207e-02 4.20224279e-01
      4.20224279e-01 4.20224279e-01 1.63671613e-01 2.07041726e-02
      1.13864718e-02 8.64316989e-03 1.63935348e-02 2.10336950e-02
      4.16296311e-02 6.65145591e-02 1.00863516e-01 7.34018981e-02
      3.80366668e-02 1.49619589e-02 1.01234363e-02 1.72029510e-02
      2.17521153e-02 4.69489060e-02 2.56142110e-01 4.20224279e-01
      1.39393121e-01 1.27930688e-02 3.04469056e-02 9.86672472e-03
      5.98880043e-03 2.26875544e-02 1.11940093e-01 3.48760813e-01
      3.48760813e-01 1.04498655e-01 4.70687225e-02 4.48239893e-02
      1.95584167e-02 1.26502346e-02 1.96864214e-02 2.80136392e-02
      2.54472524e-01 3.48760813e-01 1.82221830e-01 1.37921972e-02
      5.66086313e-03 3.64462589e-03 5.37046744e-03 9.87889897e-03
      1.35320565e-02 2.11195469e-01 3.48760813e-01 1.05198756e-01
      2.54260320e-02 6.19847188e-03 5.03219338e-03 4.03536391e-03
      6.86815986e-03 1.27408300e-02 2.83671886e-01 3.48760813e-01
      3.48760813e-01 1.04840152e-01 3.27368043e-02 1.81250293e-02
      1.09968558e-02 2.09031496e-02 2.14742795e-02 7.72619545e-02
      2.93260038e-01 2.31906891e-01 1.62053093e-01 4.76488285e-02
      1.41505795e-02 9.08851437e-03 3.40511873e-02 2.14612167e-02
      2.04923488e-02 8.89158100e-02 1.65476561e-01 7.28949681e-02
      1.13366703e-02 1.26196668e-02 6.80482574e-03 2.38420349e-02
      2.73676366e-02 1.14246629e-01 4.23835903e-01 4.23835903e-01
      1.45979732e-01 3.88316698e-02 2.09684242e-02 2.41996422e-02
      6.59111366e-02 4.56893221e-02 4.02598791e-02 4.23835903e-01
      4.23835903e-01 1.56669691e-01 7.99705312e-02 3.73712406e-02
      7.01280404e-03 1.99401733e-02 1.71021242e-02 3.18148695e-02
      8.46859589e-02 1.17984541e-01 1.56614929e-01 8.83799493e-02
      3.84855233e-02 1.24899596e-02 1.20682269e-02 2.18896512e-02
      5.21729812e-02 1.15170114e-01 1.14399105e-01 2.38363177e-01
      1.34324446e-01 6.09812252e-02 2.96674203e-02 3.75929065e-02
      3.78321111e-02 5.91375344e-02 4.08744335e-01 4.08744335e-01
      2.84167439e-01 1.82161838e-01 6.27976432e-02 5.21993823e-02
      2.54758950e-02 2.21631713e-02 3.50776911e-02 4.08744335e-01
      4.08744335e-01 1.64980814e-01 1.62308723e-01 5.54094948e-02
      2.83937752e-02 4.78648022e-02 6.07747883e-02 9.19115022e-02
      1.13147169e-01 1.22293003e-01 1.77474692e-01 2.43524507e-01
      9.61671025e-02 9.08568129e-02 1.02107540e-01 1.24745980e-01
      8.25508237e-02 8.86880979e-02 1.31717518e-01 3.32265198e-01
      2.31573030e-01 4.58211638e-02 7.28487447e-02 6.09960407e-02
      6.19245358e-02 4.53933515e-02 3.16242099e-01 3.32265198e-01
      3.32265198e-01 2.61266977e-01 5.76168522e-02 6.75449073e-02
      8.45647305e-02 1.35882661e-01 4.34301272e-02 1.21766075e-01
      3.32265198e-01 4.85723391e-02 1.08708523e-01 1.43731043e-01
      1.72820434e-01 1.43484414e-01 1.48610130e-01 7.27809444e-02
      1.11516520e-01 7.68434182e-02 1.43738493e-01 3.01750988e-01
      2.54645675e-01 1.87675968e-01 1.77463382e-01 1.83808893e-01
      1.31593600e-01 3.01750988e-01 2.34991476e-01 1.65296450e-01
      6.01515286e-02 3.35015617e-02 6.18345886e-02 7.36112893e-02
      1.32164627e-01 8.67763311e-02 1.88810647e-01 2.42952213e-01
      1.83994472e-01 7.52935186e-02 3.55733633e-02 5.05482517e-02
      7.84358382e-02 1.25807986e-01 1.30042002e-01 3.01750988e-01
      3.01750988e-01 1.74898595e-01 1.92357719e-01 7.56895691e-02
      3.26051377e-02 3.59119065e-02 4.29265350e-02 4.36230339e-02
      2.12088972e-01 2.43317485e-01 2.25215748e-01 1.83233291e-01
      6.15667515e-02 4.24633138e-02 4.84432764e-02 5.31416759e-02
      7.81594962e-02 2.68293977e-01 2.44221404e-01 3.07191104e-01
      4.69480976e-02 8.59043095e-03 3.83086363e-03 1.08846966e-02
      1.28938295e-02 2.14567035e-02 3.07191104e-01 3.07191104e-01
      3.07191104e-01 3.05187702e-01 6.29794002e-02 1.83787663e-02
      1.58451311e-02 1.17242038e-02 1.93591565e-02 8.63419175e-02
      3.07191104e-01 1.17023982e-01 2.45313793e-01 1.34140581e-01
      1.44589707e-01 2.59072512e-01 1.75144553e-01 1.21913329e-01
      2.60640413e-01 1.54899761e-01 7.55304247e-02 1.08656906e-01
      1.12425245e-01 1.82538435e-01 2.60640413e-01 2.22286478e-01
      6.54871464e-02 9.27111953e-02 1.24520071e-01 2.60640413e-01
      2.60640413e-01 1.89928293e-01 1.06052384e-01 1.16253145e-01
      5.27645461e-02 3.04727890e-02 6.73731267e-02 1.94787413e-01
      2.60640413e-01 2.60640413e-01 1.50987431e-01 1.16390109e-01
      1.65412501e-01 8.51346999e-02 1.52585283e-02 5.73694855e-02
      1.32640108e-01 1.27405122e-01 6.00649230e-02 7.83293173e-02
      1.34157002e-01 2.10294321e-01 1.51834518e-01 4.30454575e-02
      8.16032887e-02 2.00990155e-01 1.16655938e-01 6.55683354e-02
      6.32168055e-02 3.83601375e-02 4.08804715e-02 4.11062539e-02
      1.69316772e-02 6.15224801e-02 1.24673173e-01 3.98710608e-01
      2.14623481e-01 6.87845722e-02 5.07265739e-02 1.03146590e-01
      9.71992090e-02 2.57925075e-02 1.04370162e-01 3.50923300e-01
      3.98710608e-01 3.98710608e-01 5.26184849e-02 1.32409101e-02
      6.09086044e-02 5.97379506e-02 1.17479814e-02 6.04226179e-02
      3.00704390e-01 7.69935027e-02 1.23512290e-01 3.74362953e-02
      1.01742744e-02 2.61207316e-02 1.49359284e-02 2.12560836e-02
      2.24192925e-02 3.25408205e-02 1.43362463e-01 4.30828154e-01
      5.99831082e-02 1.59311090e-02 2.11045388e-02 9.14982613e-03
      2.53495108e-02 2.57416759e-02 3.23385708e-02 4.30828154e-01
      4.30828154e-01 5.60174137e-02 9.98788141e-03 1.60466600e-02
      1.01771904e-02 4.38480824e-03 1.25680305e-02 5.12902476e-02
      4.30828154e-01 4.30828154e-01 8.63095894e-02 7.62609439e-03
      2.67740106e-03 1.99695770e-03 3.78656760e-03 4.60030558e-03
      2.79190801e-02 1.65336162e-01 3.90846908e-01 1.85361192e-01
      4.16640639e-02 1.32487630e-02 4.78310278e-03 3.87543207e-03
      9.14721098e-03 2.24807113e-02 1.31708369e-01 3.90846908e-01
      3.90846908e-01 7.69152939e-02 1.09760445e-02 9.27811302e-03
      4.73669032e-04 3.30448936e-04 1.17812520e-02 2.66342402e-01
      3.90846908e-01 1.26175776e-01 1.21955946e-02 7.60419818e-04
      5.94279962e-04 7.01735204e-04 1.78237713e-03 2.47660298e-02
      1.74319312e-01 3.90846908e-01 1.59835085e-01 2.15715338e-02
      6.67818589e-03 3.61023413e-04 3.62702616e-04 6.78805925e-04
      1.94059908e-02 1.45601988e-01 4.12353992e-01 4.12353992e-01
      1.61274642e-01 1.00146523e-02 1.07326247e-02 8.97480175e-04
      2.36293592e-04 1.24175819e-02 2.55168349e-01 3.59755129e-01
      3.08200896e-01 9.85134840e-02 1.00733442e-02 1.34359056e-03
      2.10299762e-03 1.69269275e-02 8.26559290e-02 1.49332806e-01
      4.12353992e-01 2.20366582e-01 5.58531955e-02 2.55621504e-02
      6.33366453e-03 1.08554233e-02 8.97287577e-03 2.05251072e-02
      1.22073688e-01 1.64432272e-01 7.76188374e-02 3.83712538e-02
      3.43849808e-02 2.64162328e-02 4.06966954e-02 3.22018340e-02
      4.93445881e-02 4.47453886e-01 4.47453886e-01 2.49365374e-01
      1.54134363e-01 5.75103462e-02 2.50246897e-02 4.42313589e-02
      1.36543274e-01 2.84744889e-01 1.57231405e-01 1.45236313e-01
      9.49365422e-02 7.55110160e-02 4.00806889e-02 4.61954996e-02
      1.06251769e-01 1.23714231e-01 1.21300898e-01 2.15547651e-01
      2.30017856e-01 1.90151259e-01 1.14772961e-01 1.29492506e-01
      7.26273805e-02 1.16606422e-01 1.41354710e-01 1.70922428e-01
      1.21422499e-01 9.22026262e-02 8.12506750e-02 5.39598987e-02
      7.39847794e-02 2.37887185e-02 8.37036520e-02 6.81052953e-02
      1.18276946e-01 2.75088936e-01 1.72631860e-01 1.84218287e-01
      8.93717781e-02 1.48828611e-01 3.43276896e-02 1.79736868e-01
      1.14344329e-01 2.07518160e-01 2.61040568e-01 2.18589097e-01
      2.43945554e-01 1.06041908e-01 2.43200690e-01 1.38224671e-02
      9.42202136e-02 4.27069664e-02 1.78939626e-01 2.53638536e-01
      1.27580896e-01 1.74632296e-01 5.36785796e-02 2.27849394e-01
      1.69958640e-02 1.37096852e-01 7.08841085e-02 2.28199482e-01
      2.12467626e-01 1.09530963e-01 1.79406688e-01 4.14451174e-02
      2.33686641e-01 4.23701527e-03 1.28811300e-01 4.98715006e-02
      1.89511508e-01 1.31776690e-01 1.20668963e-01 7.09669963e-02
      7.86726996e-02 1.53288946e-01 3.13927472e-01 2.47962311e-01
      2.42001846e-01 1.79133236e-01 1.04114741e-01 5.77440299e-02
      3.07900216e-02 3.65380049e-02 1.45812601e-01 2.59967446e-01
      2.62527823e-01 3.72903436e-01 2.87810743e-01 7.15314373e-02
      1.18469685e-01 1.05122730e-01 1.32684574e-01 2.11114764e-01
      1.42904669e-01 1.56378344e-01 9.00013372e-02 1.13346502e-01
      1.20891988e-01 6.34781867e-02 5.20328805e-02 1.55054983e-02
      2.05249891e-01 8.77707005e-02 1.44692853e-01 9.39535573e-02
      1.47843227e-01 1.23023592e-01 4.27102186e-02 5.12198880e-02
      9.13800746e-02 1.05874181e-01 1.34034917e-01 2.35752389e-01
      2.63291508e-01 2.43682936e-01 2.29523808e-01 5.73318638e-02
      5.76146878e-02 1.10143572e-01 1.05073638e-01 7.92764574e-02
      2.07192048e-01 3.46938521e-01 4.84812737e-01 1.32159278e-01
      6.79418445e-02 7.75747001e-02 3.41861956e-02 9.60558280e-02
      3.71008702e-02 1.20110638e-01 6.38651103e-02 1.23134755e-01
      2.10684419e-01 1.08328968e-01 8.16806704e-02 3.68659347e-02
      7.62849078e-02 1.49446819e-02 1.04379758e-01 1.50669381e-01
      2.98288196e-01 8.35667551e-02 2.93052606e-02 2.52059475e-02
      4.32895981e-02 7.57059157e-02 2.78693866e-02 1.35222673e-01
      3.41551572e-01 2.54353136e-01 8.42425078e-02 5.35392202e-02
      5.30946814e-02 7.06570148e-02 8.19648802e-02 3.55870835e-02
      2.73290753e-01 5.28291523e-01 5.28291523e-01 5.83406202e-02
      3.28744389e-02 2.16595028e-02 4.00411636e-02 6.97751865e-02
      5.87002113e-02 3.84558924e-02 6.47616237e-02 9.04036835e-02
      3.80795747e-02 4.43406068e-02 5.18782772e-02 8.28969926e-02
      1.33591190e-01 1.92589864e-01 7.40265548e-02 8.48530382e-02
      1.01398177e-01 2.23332774e-02 1.02380635e-02 1.29611352e-02
      1.25448620e-02 1.53026031e-02 1.30245425e-02 3.99821363e-02
      4.63267326e-01 4.63267326e-01 5.31803630e-02 7.75917154e-03
      6.98719826e-03 1.48004750e-02 2.41745729e-02 1.86460707e-02
      3.05446368e-02 4.63267326e-01 4.63267326e-01 2.08462160e-02
      9.20547545e-03 1.15390727e-02 1.18766259e-02 1.97172593e-02
      2.86645647e-02 1.61774196e-02 5.70971631e-02 8.76831859e-02
      2.64872089e-02 2.81162886e-03 3.79724894e-03 2.78058997e-03
      1.15882177e-02 6.42572390e-03 1.47252781e-02 1.67830512e-01
      2.94021159e-01 6.91054240e-02 2.70957295e-02 7.81674031e-03
      7.87691958e-03 5.17543685e-03 7.14115147e-03 1.86354090e-02
      3.91878277e-01 3.91878277e-01 1.60259143e-01 5.01157753e-02
      1.03649190e-02 1.90241188e-02 5.41297346e-03 5.93381142e-03
      1.80993602e-02 3.91878277e-01 3.91878277e-01 2.36472636e-02
      4.28619562e-03 2.49496847e-03 1.69264991e-03 5.55326371e-03
      3.02743376e-03 6.37098169e-03 1.28671616e-01 3.45277816e-01
      1.14428163e-01 9.50338971e-03 3.93529702e-03 1.98698021e-03
      2.99056945e-03 6.18301972e-04 4.22564615e-03 2.08463773e-01
      3.91878277e-01 2.70017296e-01 4.79374975e-02 5.22622233e-03
      1.25173032e-02 6.34435005e-03 1.13637391e-02 1.42954476e-02
      2.34684810e-01 3.66165191e-01 3.66165191e-01 5.80625795e-02
      4.32841340e-03 6.34880643e-03 5.13658673e-03 1.53029468e-02
      8.49689543e-03 4.07198183e-02 3.66165191e-01 2.07991898e-01
      1.11819925e-02 2.03525438e-03 4.46100807e-04 1.33121398e-03
      4.83210053e-04 2.71959719e-03 1.07817709e-01 3.66165191e-01
      3.66165191e-01 1.74251273e-02 2.88820447e-04 0. 1.09697983e-03
      3.51147028e-04 4.28070547e-04 1.69599243e-02 3.66165191e-01
      3.46282005e-01 3.75387631e-02 4.57539503e-03 9.59024671e-03
      2.49387557e-03 8.88567418e-03 2.00897064e-02 4.62953858e-02
      3.46282005e-01 3.46282005e-01 5.61848842e-02 4.54946607e-03
      5.11792209e-03 5.00181457e-04 3.36489966e-03 1.74455792e-02
      1.69911161e-01 3.46282005e-01 3.46282005e-01 1.36816474e-02 0. 0.
      1.05022814e-03 0. 7.65419274e-04 3.40314326e-03 3.46282005e-01
      3.46282005e-01 1.62949450e-02 5.16973902e-04 0. 1.33926293e-03
      6.50442904e-04 1.36813696e-03 1.53796356e-02 3.46282005e-01
      3.48287344e-01 4.64958772e-02 3.64344008e-03 0. 0. 0.
      1.35780708e-03 1.11560933e-01 3.48287344e-01 3.48287344e-01
      8.70666355e-02 1.28899300e-02 0. 1.44702464e-03 3.37809674e-04
      6.46807766e-03 6.23613521e-02 3.48287344e-01 3.48287344e-01
      1.50278369e-02 1.43575505e-03 0. 6.32531708e-04 9.48170666e-04
      1.14660792e-03 2.46720444e-02 3.48287344e-01 3.48287344e-01
      1.80345681e-02 2.14046519e-03 0. 5.85545436e-04 2.18808607e-04
      4.04542428e-04 2.45767422e-02 3.45420212e-01 3.69996399e-01
      2.12995872e-01 4.18376140e-02 7.45586911e-03 7.84675125e-03
      1.49794051e-03 9.37848352e-03 3.95405293e-02 3.69996399e-01
      3.69996399e-01 3.50771964e-01 4.64556105e-02 1.37961730e-02
      7.32266484e-03 1.99111272e-03 1.67072471e-03 3.04626729e-02
      1.78982913e-01 3.69996399e-01 6.80561811e-02 5.83996205e-03
      9.26652749e-04 1.11668266e-03 0. 2.16456712e-04 1.09343054e-02
      2.50484884e-01 3.69996399e-01 1.51719123e-01 1.00871604e-02
      2.87773693e-03 1.27732183e-03 4.44604491e-04 9.86585437e-05
      6.96951244e-03 1.17500372e-01 3.98391634e-01 2.27998167e-01
      1.59435291e-02 4.34195017e-03 7.40428269e-03 1.03032207e-02
      1.17415574e-03 3.36182378e-02 2.43482202e-01 3.98391634e-01
      3.98391634e-01 8.04415531e-03 1.06263102e-03 1.77612510e-02
      1.46704828e-02 1.90428924e-03 1.64366737e-02 2.24489570e-01
      3.98391634e-01 1.11730322e-01 7.20497081e-03 1.92915613e-03
      1.01983780e-03 1.59475708e-03 4.02212376e-04 7.92559236e-03
      1.04080930e-01 3.98391634e-01 7.94995055e-02 4.50400682e-03
      3.39635229e-03 7.52810575e-03 2.84345006e-03 4.26047109e-03
      7.68840918e-03 9.17040408e-02 4.68384266e-01 4.68384266e-01
      2.42363289e-02 4.67272988e-03 1.12712728e-02 6.85286289e-03
      6.04925724e-03 1.70947406e-02 9.81090441e-02 4.68384266e-01
      4.68384266e-01 4.80911843e-02 6.45041931e-03 3.50888330e-03
      1.03655187e-02 8.03236943e-03 1.08490679e-02 4.11967561e-02
      2.72366822e-01 1.11073241e-01 1.10586723e-02 1.18464548e-02
      2.16572955e-02 8.16773809e-03 1.45310592e-02 1.80138815e-02
      5.71521260e-02 7.67836720e-02 5.30082099e-02 1.42325098e-02
      1.37858689e-02 1.74850449e-02 2.30261963e-02 1.85133629e-02
      2.13670935e-02 2.89939176e-02 4.63374376e-01 4.63374376e-01
      1.25515506e-01 3.06209475e-02 1.11977523e-02 2.44691446e-02
      1.37713542e-02 1.46619026e-02 1.54012680e-01 4.25712854e-01
      4.63374376e-01 1.09586328e-01 7.64934197e-02 3.50764692e-02
      1.22169042e-02 2.07904875e-02 4.73682955e-02 1.29152209e-01
      1.47803918e-01 6.92039281e-02 2.43870672e-02 2.02656351e-02
      2.65782196e-02 4.77128029e-02 3.05470396e-02 2.51797885e-02
      1.04073651e-01 1.33503735e-01 8.29345658e-02 2.42481977e-02
      1.72602199e-02 3.29978094e-02 2.01698206e-02 5.03186584e-02
      7.19787404e-02 1.09719120e-01 2.73870170e-01 3.83866906e-01
      2.22208783e-01 2.27477983e-01 1.18071839e-01 3.48418839e-02
      9.05520692e-02 1.27526358e-01 1.34450138e-01 9.86619368e-02
      1.87252402e-01 2.06887782e-01 2.10621551e-01 1.83476478e-01
      1.50664806e-01 2.22748637e-01 1.29680723e-01 8.20297822e-02
      1.32725611e-01 1.30225718e-01 6.95598498e-02 4.65269163e-02
      8.57639387e-02 3.01979724e-02 1.16095185e-01 1.64227620e-01
      1.50118619e-01 1.22542240e-01 3.08689713e-01 2.39773512e-01
      1.44028738e-01 1.53539240e-01 7.39754140e-02 8.83691385e-02
      8.61988217e-02 8.32375214e-02 9.02480111e-02 1.88953727e-01
      2.25904211e-01 1.98697433e-01 2.14667723e-01 1.71741322e-01
      2.01136649e-01 1.56530604e-01 4.31035645e-02 2.01262251e-01
      1.23265639e-01 9.66172293e-02 5.23618497e-02 9.95289385e-02
      3.77725512e-02 7.00320974e-02 8.03036690e-02 1.44771487e-01
      1.34001210e-01 4.27202463e-01 3.25388610e-01 1.71609551e-01
      1.59614563e-01 1.33820638e-01 9.29515064e-02 1.08663924e-01
      4.59065177e-02 2.92299151e-01 2.01594397e-01 1.39609218e-01
      6.17980175e-02 7.49322325e-02 5.36754951e-02 4.76833098e-02
      7.01781213e-02 1.98189959e-01 2.59200901e-01 6.02640510e-02
      9.03658196e-02 9.28944722e-03 1.04869314e-01 2.13746093e-02
      7.22514912e-02 8.39014873e-02 2.52624393e-01 1.90238222e-01
      7.73741826e-02 9.73480716e-02 2.45930813e-03 9.20655951e-02
      9.53223836e-03 1.37611344e-01 1.01634219e-01 1.92980021e-01
      4.29683805e-01 6.58865944e-02 6.17171228e-02 1.02161271e-02
      9.29729491e-02 1.74853168e-02 6.25973716e-02 6.83823973e-02
      4.04040515e-01 3.53766590e-01 1.91643074e-01 6.27199933e-02 0.
      1.37148619e-01 4.33283579e-03 1.41309649e-01 1.18284918e-01
      3.26053351e-01</_>
    <_>
      1.11490957e-01 1.35056555e-01 1.08518966e-01 1.15180835e-01
      1.01641305e-01 8.33635181e-02 8.97711664e-02 7.58679286e-02
      7.80314431e-02 9.59881619e-02 2.07157403e-01 1.77403674e-01
      1.15413137e-01 1.50347501e-01 7.72851333e-02 5.47338352e-02
      6.95622489e-02 6.32712170e-02 1.11192651e-01 1.67015523e-01
      9.76713598e-02 7.80480132e-02 1.53309599e-01 1.61670551e-01
      1.54903874e-01 1.19453676e-01 8.48212540e-02 1.28680721e-01
      4.98359412e-01 4.98359412e-01 1.37573585e-01 2.06709772e-01
      1.84025109e-01 4.76167351e-02 3.59054059e-02 3.79480198e-02
      4.52411734e-02 8.57880488e-02 5.16001470e-02 1.58872157e-02
      1.12424027e-02 7.66981347e-03 5.26103517e-03 8.18660203e-03
      1.42229041e-02 1.15427054e-01 3.39357406e-01 1.16478093e-01
      2.38921065e-02 1.38099166e-02 7.59504642e-03 7.72006856e-03
      2.27506589e-02 2.16203742e-02 8.88345242e-02 4.85764265e-01
      3.02476913e-01 2.49738190e-02 1.78534966e-02 2.33573765e-02
      3.51143908e-03 5.28160855e-03 5.96456369e-03 1.69408739e-01
      4.85764265e-01 4.85764265e-01 1.57007817e-02 6.22186018e-03
      2.00099442e-02 1.45215541e-03 1.03706261e-02 9.15787555e-03
      7.08796754e-02 2.41512135e-01 6.90593719e-02 2.33480595e-02
      3.43066640e-02 7.14096008e-03 4.25302424e-03 8.64714757e-03
      6.56100549e-03 1.43653274e-01 4.06767577e-01 1.32166490e-01
      7.21826330e-02 1.37871683e-01 1.08558275e-02 2.78943242e-03
      4.32331813e-03 1.97205413e-02 1.02574691e-01 4.06767577e-01
      4.06767577e-01 5.47340838e-03 2.13213009e-03 4.90220869e-03
      5.48639335e-04 4.70458623e-03 7.88282417e-03 2.60843128e-01
      4.06767577e-01 3.47340226e-01 3.12791355e-02 8.39760900e-03
      9.85139050e-03 1.66624051e-03 4.66154655e-03 2.62867007e-02
      2.10844398e-01 3.96709234e-01 9.24740955e-02 5.47737665e-02
      9.04544294e-02 8.30341596e-03 2.43595894e-03 5.54021308e-03
      2.41858326e-02 3.96709234e-01 3.96709234e-01 5.98092973e-02
      2.22800262e-02 1.81818232e-02 8.76288023e-03 4.51507885e-03
      1.36791281e-02 4.67580557e-02 2.32945845e-01 3.96709234e-01
      1.33661687e-01 3.02966386e-02 1.53808342e-02 7.87985045e-03
      5.80328330e-03 6.26395270e-03 3.14430334e-02 2.24342614e-01
      3.96709234e-01 8.49043950e-02 1.89965423e-02 1.86554752e-02
      1.02794925e-02 1.18371733e-02 2.94351503e-02 6.02054819e-02
      4.27105278e-01 4.27105278e-01 5.78694642e-02 3.16087194e-02
      2.55974270e-02 4.56452183e-02 1.70243178e-02 2.62210406e-02
      9.05308425e-02 4.27105278e-01 4.27105278e-01 2.39916984e-02
      2.32350677e-02 2.89664082e-02 6.30145073e-02 4.32055630e-02
      3.73485424e-02 1.58720866e-01 2.69259065e-01 2.74632245e-01
      9.59420279e-02 4.87721302e-02 3.35020125e-02 3.82608213e-02
      2.42864359e-02 4.78167050e-02 7.90474415e-02 1.38419077e-01
      6.79765493e-02 5.38353436e-02 4.29340638e-02 2.76775174e-02
      5.63030876e-02 5.32737896e-02 4.41876240e-02 8.33770931e-02
      3.88766855e-01 3.88766855e-01 2.54049655e-02 8.04825593e-03
      2.70373896e-02 4.96274754e-02 7.42206722e-02 9.50012058e-02
      2.68746108e-01 3.88766855e-01 3.28787386e-01 6.66134208e-02
      7.07679689e-02 1.74203008e-01 1.00780614e-01 6.72848746e-02
      1.64074123e-01 2.28285357e-01 1.24364242e-01 7.97406733e-02
      4.12291922e-02 2.09261794e-02 2.15751268e-02 5.59729636e-02
      1.02315992e-01 1.14628248e-01 1.22040562e-01 1.48653090e-01
      1.18665993e-01 7.18491450e-02 4.87910956e-02 1.65604293e-01
      1.36250883e-01 1.00706637e-01 1.44211158e-01 1.53978363e-01
      1.39286444e-01 4.73105013e-02 3.68202627e-02 1.05618648e-01
      3.66215080e-01 1.61430463e-01 3.33613195e-02 3.90398689e-02
      3.93988602e-02 1.06810547e-01 6.91635087e-02 4.32547219e-02
      1.46389574e-01 3.66215080e-01 3.66215080e-01 1.81516334e-02
      1.43135730e-02 3.78045030e-02 1.91360377e-02 2.32118573e-02
      2.79398616e-02 4.50850055e-02 3.66215080e-01 2.77586967e-01
      4.76190411e-02 2.13374477e-02 2.39977073e-02 2.10286860e-04
      8.57714005e-03 1.03536742e-02 3.09473258e-02 3.66215080e-01
      3.66215080e-01 2.43130103e-02 1.72047515e-03 5.85861679e-04
      3.58989328e-01 7.81130046e-02 3.09606977e-02 8.69684741e-02
      3.58989328e-01 3.58989328e-01 1.36648063e-02 1.14721237e-02
      1.99598551e-01 3.58989328e-01 6.73137465e-03 7.16517633e-03
      1.79375894e-02 6.06876910e-02 5.83164580e-02 1.93743724e-02
      1.06838737e-02 3.58989328e-01 1.48881576e-03 9.04979475e-04
      2.27985578e-03 3.41899656e-02 3.58989328e-01 3.58989328e-01
      1.14138527e-02 1.33265182e-03 2.72129709e-03 3.18118222e-02
      9.05740913e-03 5.96219487e-03 3.05778980e-02 1.32631376e-01
      9.66326669e-02 2.46125814e-02 7.50772376e-03 2.35485099e-02
      3.62114757e-01 9.07097012e-03 4.68993885e-03 1.26518058e-02
      6.54467717e-02 1.96230393e-02 2.04079282e-02 1.57535430e-02
      3.62114757e-01 3.62114757e-01 1.69275943e-02 8.44056718e-03
      4.29912023e-02 3.62114757e-01 3.19450229e-01 8.86542648e-02
      1.04875982e-01 3.62114757e-01 7.31744543e-02 2.41940599e-02
      1.03846174e-02 1.65851489e-02 3.43987234e-02 2.46469993e-02
      3.32033448e-02 2.74529923e-02 4.98997942e-02 2.75736991e-02
      1.51992897e-02 1.78508926e-02 6.13413937e-02 3.62114757e-01
      2.46755555e-01 3.58642377e-02 2.48497259e-02 2.41822619e-02
      3.33084203e-02 3.40271951e-03 2.09884462e-03 1.61814243e-02
      3.57695192e-01 3.57695192e-01 6.16494566e-02 4.15828787e-02
      5.53252138e-02 4.16066125e-02 3.68967056e-02 1.61715541e-02
      3.90107110e-02 3.57695192e-01 3.57695192e-01 7.14684427e-02
      5.02533503e-02 5.30312061e-02 1.00932736e-03 1.05322909e-03
      2.65052402e-03 2.34242398e-02 3.57695192e-01 2.64530867e-01
      5.08064730e-03 1.36682205e-03 6.62673148e-04 7.89678562e-03
      5.86681347e-03 1.17243016e-02 6.60887063e-02 3.57695192e-01
      3.57695192e-01 1.57441460e-02 8.71337205e-03 4.25720587e-03
      1.95682406e-01 1.68440476e-01 5.68717346e-02 1.15281172e-01
      3.61635923e-01 2.82943487e-01 6.76134899e-02 1.05133303e-01
      2.67711073e-01 2.12397471e-01 1.18967272e-01 4.84175161e-02
      7.02166110e-02 1.01593137e-01 2.48660613e-02 2.75624469e-02
      1.73673421e-01 3.61635923e-01 4.34983335e-02 4.34394553e-02
      4.05438915e-02 1.89125568e-01 3.61635923e-01 3.61635923e-01
      3.32535692e-02 3.57553773e-02 3.90198231e-02 1.10680170e-01
      9.43442807e-02 6.22148514e-02 8.25076178e-02 1.40884563e-01
      3.72062027e-02 7.61434902e-03 5.47783524e-02 1.14477865e-01
      2.16977805e-01 6.67934567e-02 3.72317582e-02 2.93607898e-02
      5.48273958e-02 1.39022116e-02 2.41128542e-02 3.31160903e-01
      4.44926113e-01 2.05685362e-01 4.76129316e-02 3.03359348e-02
      9.42256860e-03 4.90834042e-02 4.07253616e-02 1.08621709e-01
      4.44926113e-01 4.44926113e-01 1.40373543e-01 7.67853111e-02
      5.20513318e-02 3.23715992e-02 3.87424380e-02 9.39044077e-03
      1.05020050e-02 6.73240349e-02 1.93663627e-01 1.76618382e-01
      1.12717651e-01 6.62762374e-02 1.96241867e-02 4.83870283e-02
      3.99856269e-02 6.20979741e-02 1.03929371e-01 1.80614635e-01
      8.00574347e-02 1.40920877e-02 4.97888215e-03 1.45798596e-03
      8.68523121e-03 1.52632110e-02 7.35535622e-02 4.06223863e-01
      4.06223863e-01 7.26628006e-02 1.23947067e-02 2.09166482e-03
      5.28454687e-03 1.22080389e-02 2.96096895e-02 4.33524139e-02
      4.06223863e-01 4.06223863e-01 1.05982296e-01 4.89221923e-02
      2.44268253e-02 1.29945576e-02 1.51563324e-02 2.43443139e-02
      5.21292277e-02 1.18110098e-01 1.15038566e-01 9.51111615e-02
      2.16491111e-02 1.16332341e-02 7.57277198e-03 1.67588592e-02
      3.99784483e-02 5.70980124e-02 4.06223863e-01 3.00277948e-01
      2.14474462e-02 9.28813033e-03 2.96620699e-03 1.34739857e-02
      1.24093127e-02 1.12059740e-02 3.15057226e-02 3.86518925e-01
      3.86518925e-01 8.87362193e-03 5.54822758e-03 1.65789435e-03
      1.26638655e-02 1.78803131e-02 1.96364429e-02 7.03054890e-02
      3.86518925e-01 2.17255622e-01 3.69875915e-02 6.32860186e-03
      6.97155297e-03 3.41010746e-03 7.68793281e-03 1.43519994e-02
      4.17861566e-02 3.86518925e-01 2.56031096e-01 5.75904287e-02
      2.12914385e-02 3.40642617e-03 5.64063154e-03 8.19500349e-03
      1.33987227e-02 5.38219362e-02 3.86518925e-01 3.43563706e-01
      8.01052805e-03 5.96116437e-03 4.00547450e-03 7.14603951e-03
      1.88083705e-02 3.05715743e-02 5.10190353e-02 4.64895159e-01
      1.34673133e-01 1.08325128e-02 1.27146328e-02 1.52746076e-02
      3.77164409e-02 8.78973007e-02 8.07723626e-02 2.20631417e-02
      1.64677769e-01 7.87175223e-02 4.22550626e-02 2.03995649e-02
      2.49367999e-03 4.39407537e-03 4.92468430e-03 2.05972530e-02
      9.03550833e-02 4.64895159e-01 3.44842672e-01 2.41972804e-02
      1.49695342e-02 1.42048029e-02 2.52366383e-02 1.77373048e-02
      5.22183701e-02 2.72852033e-01 4.64895159e-01 2.56705940e-01
      4.19086143e-02 5.33954948e-02 4.36242409e-02 2.90404577e-02
      2.64653359e-02 3.09743937e-02 3.43838073e-02 3.37341279e-02
      4.70539294e-02 4.02974859e-02 2.09773675e-01 4.25308794e-01
      1.40594438e-01 2.63433941e-02 1.87742077e-02 4.13579587e-03
      1.00630969e-02 1.73694771e-02 1.19293265e-01 2.59174615e-01
      1.89298987e-01 1.69579595e-01 3.07698697e-02 1.42411748e-02
      2.71194819e-02 5.28906956e-02 1.00474261e-01 1.64017960e-01
      4.25308794e-01 4.25308794e-01 4.25308794e-01 5.15761562e-02
      6.14053290e-03 1.10899028e-03 1.55748399e-02 3.42968740e-02
      1.60394832e-02 2.19312578e-01 3.70019734e-01 4.83193956e-02
      3.56438057e-03 5.81548549e-03 1.79487513e-04 6.35352393e-04
      9.85135324e-04 3.42387222e-02 3.70019734e-01 3.70019734e-01
      5.07477857e-02 6.14366494e-03 8.65583029e-03 4.30630957e-04
      3.96224263e-04 1.10344193e-03 1.75124742e-02 2.04908267e-01
      3.70019734e-01 2.15870127e-01 1.27235046e-02 1.22654357e-03
      1.29067339e-04 1.87204790e-03 6.26425678e-03 3.71375345e-02
      3.70019734e-01 3.70019734e-01 1.70087308e-01 2.01961435e-02
      1.93263788e-03 3.45489662e-03 8.50199815e-03 1.76313929e-02
      7.67918453e-02 3.92003745e-01 3.92003745e-01 4.75313067e-02
      1.46314735e-02 1.01276226e-02 2.04424700e-03 8.88420269e-03
      1.27574410e-02 1.69690147e-01 3.92003745e-01 3.81080955e-01
      3.41554210e-02 1.07104806e-02 1.73319764e-02 6.91116042e-03
      1.80057175e-02 5.91811538e-02 6.20934963e-02 3.78859162e-01
      3.92003745e-01 1.21836193e-01 4.36236300e-02 6.75961189e-03
      1.81961507e-02 2.83716749e-02 3.68473716e-02 6.23207353e-02
      9.78818983e-02 7.07260221e-02 4.10763882e-02 2.85984315e-02
      9.41057596e-03 1.84564199e-02 2.85698771e-02 6.58015087e-02
      4.02782500e-01 4.02782500e-01 2.93583274e-01 8.95585418e-02
      3.23690660e-02 3.62090692e-02 5.31094112e-02 3.68239433e-02
      2.01531515e-01 2.65462577e-01 3.40267658e-01 1.53038964e-01
      5.54855317e-02 6.49088398e-02 4.10414003e-02 5.03309257e-02
      9.02834460e-02 1.66898191e-01 2.22923681e-01 1.39630258e-01
      6.56251088e-02 5.10190763e-02 2.55608372e-02 1.34638697e-02
      5.96891306e-02 5.65735735e-02 2.00502008e-01 2.75445610e-01
      1.59247905e-01 7.58171082e-02 2.54119989e-02 2.08987594e-02
      2.60173921e-02 6.49262965e-02 6.60574734e-02 1.78158581e-01
      2.34648138e-01 2.09602311e-01 2.21937731e-01 1.12359509e-01
      7.34658390e-02 5.64077161e-02 5.67028448e-02 1.76389247e-01
      1.96996048e-01 3.03986937e-01 1.37051150e-01 1.76882103e-01
      1.11259259e-01 3.88978384e-02 8.64364132e-02 1.03789285e-01
      1.48829937e-01 3.07608485e-01 2.71055788e-01 1.58795610e-01
      9.11300927e-02 1.85202938e-02 2.41107792e-02 5.91758452e-02
      1.16837129e-01 1.55653194e-01 2.10374340e-01 2.75563180e-01
      1.00768611e-01 4.30929139e-02 9.02792905e-03 5.41276075e-02
      9.51076895e-02 1.76327035e-01 1.86579794e-01 3.21248412e-01
      2.30464712e-01 9.47047472e-02 7.14064464e-02 3.40572596e-02
      2.11932752e-02 6.41161278e-02 1.08074166e-01 1.74969435e-01
      2.77759254e-01 2.38847390e-01 9.18211862e-02 6.85117394e-02
      1.10362127e-01 3.22700173e-01 1.96816504e-01 1.42382696e-01
      2.26562053e-01 3.19185376e-01 1.99247703e-01 9.65534672e-02
      6.20674752e-02 1.85882188e-02 5.71670234e-02 3.91454473e-02
      5.91253601e-02 1.08508892e-01 2.52718329e-01 1.32331252e-01
      1.39037564e-01 1.02157958e-01 1.04592770e-01 3.22700173e-01
      2.15965033e-01 5.57008684e-02 1.48075044e-01 1.85850590e-01
      1.47635750e-02 9.43882950e-03 1.19560519e-02 3.14164646e-02
      2.93152690e-01 2.74572879e-01 4.17763181e-02 1.37362182e-02
      1.89015362e-02 2.29995741e-04 4.88457922e-03 5.74620441e-03
      2.37789806e-02 4.10943121e-01 4.10943121e-01 2.96594761e-02
      2.37055356e-03 3.59021651e-04 7.31599890e-03 1.00842863e-02
      1.02432193e-02 4.03745845e-02 3.25089633e-01 1.98171154e-01
      3.51742506e-02 1.63913555e-02 9.19343997e-03 1.08565844e-04
      3.15368758e-03 6.32148050e-03 6.16090931e-02 4.10943121e-01
      4.10943121e-01 3.92258652e-02 3.60239693e-03 2.06417986e-04
      1.11681444e-03 7.90587044e-04 1.57256832e-03 3.03275827e-02
      4.51275826e-01 4.51275826e-01 1.30289728e-02 5.80802734e-04
      1.33020326e-03 1.65797640e-02 7.40350457e-03 7.22666178e-03
      2.89687570e-02 1.48857370e-01 1.16087861e-01 1.55239934e-02
      9.01005045e-03 1.36794345e-02 7.08888576e-04 1.18639937e-03
      2.77073309e-03 8.10946077e-02 4.51275826e-01 4.51275826e-01
      1.96697153e-02 7.87668629e-04 8.69906973e-04 6.64451998e-03
      6.25770586e-03 1.11963917e-02 5.75955659e-02 3.19267958e-01
      1.72112361e-01 1.36308149e-02 1.04793198e-02 9.00533516e-03
      1.06179073e-01 5.15853129e-02 4.98207919e-02 5.01284599e-02
      6.92041069e-02 6.63469359e-02 7.40537196e-02 6.70871809e-02
      7.44009763e-02 6.00814782e-02 3.20349857e-02 6.72510564e-02
      1.39902934e-01 4.29714411e-01 4.29714411e-01 9.51168537e-02
      4.32513133e-02 3.99141349e-02 4.95625399e-02 3.30692939e-02
      9.05404463e-02 1.38400182e-01 1.75205350e-01 9.49310884e-02
      7.44271427e-02 5.51389009e-02 3.77960168e-02 4.04585935e-02
      2.05598976e-02 1.39705449e-01 2.45048776e-01 4.29714411e-01
      4.29714411e-01 8.81300941e-02 4.04042788e-02 2.36849096e-02
      8.41119559e-04 6.52994553e-04 2.62791337e-03 1.53342150e-02
      3.69144112e-01 2.72087812e-01 6.49775006e-03 9.11703741e-04
      5.38624590e-04 8.47710762e-05 5.08096355e-06 1.91287743e-03
      7.77336732e-02 3.69144112e-01 3.69144112e-01 8.87432043e-03
      1.29521926e-04 1.05915614e-03 8.91298812e-04 6.38694386e-04
      6.34403853e-03 1.58632807e-02 3.69144112e-01 3.04254800e-01
      6.14415482e-03 1.99218816e-03 1.46840676e-03 7.00159362e-05 0.
      4.46758728e-04 7.29014426e-02 3.69144112e-01 3.69144112e-01
      6.36494393e-03 6.26081601e-05 2.63722526e-04 1.07991574e-02
      1.14175016e-02 2.10655015e-02 2.62154430e-01 4.36089754e-01
      4.06021178e-01 1.66033041e-02 1.53219420e-02 2.18781792e-02
      6.52996823e-02 5.91249615e-02 5.85462004e-02 7.20204562e-02
      1.41749248e-01 2.95247305e-02 1.14155998e-02 4.84794676e-02
      6.27944097e-02 3.20277805e-03 1.20102828e-02 1.25605892e-02
      2.46502861e-01 4.36089754e-01 4.36089754e-01 2.36511938e-02
      6.25511678e-03 2.01542256e-03 3.73527631e-02 5.06402515e-02
      4.08753902e-02 8.47880989e-02 2.39252061e-01 1.07729502e-01
      3.80631052e-02 2.33307481e-02 2.76076011e-02 2.44940981e-01
      1.40643403e-01 1.23586394e-01 4.12250236e-02 8.33220929e-02
      2.35384740e-02 2.12277211e-02 1.74961194e-01 2.92058617e-01
      2.33285978e-01 1.94410548e-01 1.66418403e-01 7.58095235e-02
      1.60059065e-01 5.21224476e-02 3.76505516e-02 2.36387283e-01
      2.78546005e-01 1.76211402e-01 1.15649909e-01 9.28444415e-02
      8.19331631e-02 2.40671322e-01 1.32516861e-01 6.59697950e-02
      1.25220820e-01 2.20247746e-01 1.11872971e-01 1.05149813e-01
      1.34037912e-01 1.09140076e-01 3.54384899e-01 8.96429643e-02
      9.50094834e-02 2.01787174e-01 2.15337366e-01 1.52437657e-01
      1.60000175e-01 1.46418497e-01 9.45937783e-02 1.04572594e-01
      7.16589689e-02 7.84965307e-02 1.89318523e-01 1.42789066e-01
      1.70421883e-01 8.34177807e-02 9.32027698e-02 4.86515127e-02
      7.44349137e-02 1.17863625e-01 2.02435300e-01 3.23164940e-01
      3.23164940e-01 6.71281368e-02 1.15904696e-01 1.35398656e-01
      1.27494782e-01 3.23164940e-01 6.64097890e-02 9.42496210e-02
      1.70422688e-01 1.22084163e-01 1.26916915e-01 9.09292027e-02
      8.46350789e-02 6.42238483e-02 2.53738374e-01 1.25346854e-01
      1.92278072e-01 3.23164940e-01 2.26660773e-01 1.49584442e-01
      4.02102545e-02 4.99752909e-02 2.18123216e-02 5.88048585e-02
      8.27734843e-02 1.10322990e-01 3.09900731e-01 3.41144800e-01
      2.59154946e-01 1.18029438e-01 3.27560119e-02 4.87572029e-02
      7.30769634e-02 1.17102824e-01 1.10280722e-01 3.84414256e-01
      3.84414256e-01 1.68340474e-01 7.74081647e-02 3.58407795e-02
      2.25756913e-02 9.59108174e-02 7.55591840e-02 9.34021994e-02
      1.26395255e-01 1.86938480e-01 2.67375708e-01 1.25717118e-01
      3.82936299e-02 3.66861746e-02 5.22203334e-02 4.95723672e-02
      9.80396941e-02 1.61530122e-01 2.85158128e-01 5.08169606e-02
      2.42779721e-02 3.77824856e-03 5.35464427e-03 6.63774135e-03
      3.58533189e-02 1.26641974e-01 3.99823159e-01 1.97653919e-01
      5.09168655e-02 7.31852790e-03 3.02297669e-03 5.27327927e-03
      2.07398888e-02 8.97574499e-02 3.99823159e-01 3.99823159e-01
      2.10182056e-01 5.33355363e-02 2.26913784e-02 7.19588017e-03
      4.38739313e-03 5.18909283e-03 1.55944107e-02 9.25417244e-02
      1.59562454e-01 9.24679190e-02 7.77490661e-02 3.22417356e-02
      1.52078932e-02 2.71471366e-02 7.64025450e-02 8.41968283e-02
      3.99823159e-01 3.99823159e-01 1.20261848e-01 2.59415898e-02
      8.68617147e-02 1.55271813e-01 1.97513312e-01 3.82771641e-02
      1.75130751e-03 3.12172039e-03 5.94694074e-03 1.33331083e-02
      3.91746871e-02 1.46419674e-01 3.77154589e-01 3.77154589e-01
      1.43533587e-01 1.47266295e-02 2.83563882e-03 1.53456803e-03
      3.89397959e-03 3.61731253e-03 2.11394597e-02 1.41019046e-01
      3.74459147e-01 3.26212764e-01 1.13305822e-02 1.55511883e-03 0.
      1.10188546e-03 3.31715075e-03 2.78439242e-02 1.92568883e-01
      3.77154589e-01 3.77154589e-01 7.32685775e-02 7.20584719e-03 0.
      1.91996714e-05 1.77276544e-02 1.45463973e-01 3.74151558e-01
      3.74151558e-01 1.54333144e-01 3.97309326e-02 1.26908207e-02
      7.19373859e-03 1.91078261e-02 3.63227427e-02 1.78830296e-01
      3.74151558e-01 2.30590686e-01 4.94112298e-02 1.91301443e-02
      2.61041503e-02 2.87574790e-02 4.39930186e-02 7.78425531e-03
      5.12906611e-02 2.25278914e-01 3.74151558e-01 3.74151558e-01
      1.67686343e-01 2.76380815e-02 4.35225293e-03 9.91728902e-03
      3.99243981e-02 7.47301579e-02 1.46704838e-01 1.52148873e-01
      1.16579510e-01 7.00055510e-02 4.19845767e-02 2.44714972e-02
      3.15861665e-02 2.00278178e-01 3.04655999e-01 3.04655999e-01
      2.57370174e-01 1.17338464e-01 2.23040823e-02 9.60650891e-02
      1.26146063e-01 1.51895523e-01 1.69683799e-01 1.26142099e-01
      9.00284424e-02 1.06222905e-01 1.12355962e-01 4.10433263e-02
      1.12968452e-01 1.07566573e-01 1.41106859e-01 3.01167488e-01
      2.46462867e-01 1.80313870e-01 1.41108587e-01 1.22669555e-01
      4.66434062e-02 9.82310101e-02 1.04360729e-01 1.54922292e-01
      2.93592095e-01 2.28471175e-01 9.52647850e-02 7.16270506e-02
      1.66309521e-01 1.50220603e-01 1.51084334e-01 1.12798959e-01
      1.25851050e-01 1.67657524e-01 1.61071852e-01 1.45199373e-01
      9.65340659e-02 6.22078143e-02 3.85422148e-02 1.59198061e-01
      1.21427983e-01 1.60510540e-01 2.23635092e-01 1.79323316e-01
      1.87564895e-01 9.75756049e-02 5.20490892e-02 4.49832566e-02
      1.39634252e-01 1.38756663e-01 1.89528465e-01 1.51810780e-01
      1.99692994e-01 1.54024869e-01 1.02302566e-01 2.51647025e-01
      2.72581279e-01 2.45100290e-01 1.19158134e-01 7.41169751e-02
      3.00057203e-01 1.95688665e-01 2.04869583e-01 1.80171981e-01
      1.66078046e-01 8.32126737e-02 1.13975845e-01 1.72649264e-01
      1.99597210e-01 1.59564808e-01 9.53921899e-02 9.63799134e-02
      4.15855348e-02 5.62693626e-02 5.92336245e-02 1.54459953e-01
      1.29393220e-01 1.45333171e-01 1.63162678e-01 9.69611481e-02
      5.32588996e-02 2.75174659e-02 1.38153717e-01 8.42933506e-02
      1.99272156e-01 1.45244628e-01 2.21618265e-01 3.63177210e-01
      1.40430883e-01 1.07995585e-01 1.11996822e-01 9.59570780e-02
      1.52261127e-02 8.68637115e-02 1.76464587e-01 2.96005875e-01
      3.27063054e-01 3.20209593e-01 2.27965340e-01 1.02737203e-01
      1.44494250e-01 3.34616639e-02 1.11431733e-01 1.07449375e-01
      2.77685761e-01 1.52559355e-01 1.48722216e-01 1.39933780e-01
      8.08924809e-02 9.13301036e-02 5.01029678e-02 8.27789903e-02
      8.58839080e-02 1.90227136e-01 1.76246002e-01 2.49868795e-01
      2.26126939e-01 1.18314326e-01 1.93174914e-01 2.09204748e-01
      1.15245998e-01 1.52304113e-01 1.33558184e-01 1.58943444e-01
      3.22855473e-01 2.43189603e-01 1.27286270e-01 8.30091760e-02
      5.19514605e-02 9.68817249e-02 5.32752164e-02 1.21193215e-01
      1.64205149e-01 2.65293986e-01 3.00853401e-01 1.81241319e-01
      1.38686731e-01 1.29976407e-01 2.15770856e-01 1.22972384e-01
      9.97839198e-02 1.18653998e-02 1.50479693e-02 1.55766560e-02
      5.18908426e-02 2.50141472e-01 1.42508045e-01 7.21473545e-02
      3.50730270e-02 9.76199564e-03 1.22896803e-04 1.02095969e-03
      8.14308785e-03 1.12665862e-01 4.45262820e-01 4.45262820e-01
      7.96338171e-02 1.60897020e-02 4.83023323e-04 9.12700966e-03
      1.91021655e-02 4.65502702e-02 1.17112719e-01 1.49540320e-01
      1.08190037e-01 5.89789599e-02 3.02579049e-02 9.66739934e-03
      9.00394807e-05 2.16048770e-03 3.09044383e-02 1.68433934e-01
      4.45262820e-01 4.45262820e-01 7.70968273e-02 1.67794991e-02
      1.30537187e-03 5.14465173e-05 5.16694854e-04 2.76557961e-03
      1.08438209e-01 4.13546771e-01 4.13546771e-01 1.26090348e-02
      1.52392837e-03 8.72373275e-05 4.12269554e-04 3.19026224e-03
      8.05053953e-03 6.82165474e-02 2.90459096e-01 8.99748579e-02
      5.29000303e-03 5.16609009e-03 1.11084466e-03 0. 1.57822345e-04
      5.29221306e-03 6.70274124e-02 4.13546771e-01 4.13546771e-01
      2.27281787e-02 1.74570875e-03 0. 6.73471019e-04 3.25959059e-03
      5.55578340e-03 3.91720422e-02 3.99279863e-01 1.90997019e-01
      8.87307525e-03 3.25787673e-03 2.34489096e-04 1.74352266e-02
      4.15018424e-02 1.01620995e-01 1.94246024e-01 2.50829190e-01
      1.32777542e-01 7.08197206e-02 6.49501905e-02 1.41883427e-02
      3.48507613e-02 4.17960137e-02 1.55890211e-01 2.13421121e-01
      4.21419829e-01 3.81435841e-01 1.24291375e-01 1.03141859e-01
      5.68695553e-02 4.06752117e-02 9.16855708e-02 8.20167959e-02
      1.27634779e-01 3.02501589e-01 1.83945879e-01 7.70623311e-02
      6.60081506e-02 1.48765342e-02 6.49179742e-02 1.50781333e-01
      1.13073200e-01 1.30512372e-01 3.68958712e-01 1.98959962e-01
      9.50307921e-02 1.30589262e-01 5.47545366e-02 1.58118934e-03
      7.73125445e-04 5.97903645e-03 9.92795546e-03 3.84797871e-01
      1.75444260e-01 5.80681162e-03 4.82455781e-03 4.45542345e-03
      2.76893465e-04 0. 5.24100498e-04 5.23050316e-02 4.02857780e-01
      3.77951860e-01 9.89882974e-04 1.87934143e-04 7.22930417e-04
      1.90773292e-03 5.27685089e-03 5.61859785e-03 9.72211827e-03
      3.97746801e-01 1.52617708e-01 5.08729368e-03 5.30866068e-03
      3.51980724e-03 1.91130472e-04 4.61279444e-04 9.72624286e-04
      5.18294722e-02 4.02857780e-01 4.02857780e-01 5.65020228e-03
      2.00053165e-03 7.38341187e-04 1.65796001e-03 7.26899039e-03
      5.39624039e-03 1.49484143e-01 4.66382802e-01 3.85211915e-01
      1.54118054e-02 2.22428050e-03 8.51636461e-04 1.24688549e-02
      1.79912932e-02 1.33103384e-02 7.02808872e-02 1.88908324e-01
      1.18164480e-01 4.12232578e-02 9.94296651e-03 8.82084016e-03
      1.03061926e-02 5.89071028e-03 6.20213104e-03 1.58989951e-01
      4.66382802e-01 4.66382802e-01 3.17816623e-02 1.14569720e-02
      3.75078432e-03 2.87579428e-02 1.77645851e-02 1.32288840e-02
      7.51842409e-02 2.40197167e-01 1.41498610e-01 4.33758982e-02
      3.38013433e-02 1.72334407e-02 1.06110431e-01 7.00564831e-02
      8.19868147e-02 9.49134156e-02 2.76651204e-01 2.37092629e-01
      1.35343984e-01 7.42860660e-02 1.01556107e-01 9.39208269e-02
      5.98935634e-02 1.44414231e-01 1.35964423e-01 3.77383381e-01
      1.36330500e-01 1.34113073e-01 9.76132303e-02 1.11742400e-01
      8.64830017e-02 6.43778071e-02 6.38177246e-02 9.67569947e-02
      2.69667804e-01 3.06051016e-01 1.85399204e-01 2.35290542e-01
      1.09716222e-01 1.00504361e-01 1.31214887e-01 1.31307840e-01
      1.18355907e-01 2.33084440e-01 1.60811096e-01 1.62278488e-01
      2.34083399e-01 1.77687809e-01 7.74098709e-02 6.07252643e-02
      8.46555009e-02 1.64995149e-01 3.44429046e-01 1.23289786e-01
      8.08337629e-02 7.66847879e-02 6.62298873e-02 1.18404388e-01
      9.18734744e-02 7.42319971e-02 1.73379093e-01 3.44429046e-01
      1.51895702e-01 9.90318954e-02 1.44053340e-01 9.83247757e-02
      1.93433210e-01 1.09121852e-01 8.98076296e-02 1.52343944e-01
      2.57313579e-01 1.41236469e-01 9.31691453e-02 1.34966373e-01
      1.88687354e-01 3.44429046e-01 1.50500536e-01 1.02776140e-01
      2.57684827e-01 2.18114734e-01 1.45054206e-01 1.01497099e-01
      8.03422704e-02 1.70359239e-01 1.55277297e-01 1.36598304e-01
      5.33796661e-02 9.26198587e-02 2.08903238e-01 7.69471899e-02
      8.06821659e-02 9.07343850e-02 1.13209404e-01 3.67493957e-01
      1.89177707e-01 5.42426445e-02 5.86517118e-02 8.06592032e-02
      1.71213169e-02 8.21204036e-02 1.48176253e-01 3.67493957e-01
      2.09635988e-01 1.25252187e-01 7.52780661e-02 1.55127332e-01
      1.95584759e-01 7.53386244e-02 8.74780044e-02 8.63343924e-02
      1.10540047e-01 3.67493957e-01 2.27343425e-01 8.00313875e-02
      4.47614640e-02 9.46972519e-02 5.55454567e-02 6.14521615e-02
      1.64563462e-01 3.44326019e-01 3.05505484e-01 7.73616955e-02
      3.71302590e-02 1.28007689e-02 1.46239148e-02 1.18991612e-02
      9.51597467e-02 1.40943229e-01 2.87839144e-01 2.54216671e-01
      1.17960051e-01 6.73747733e-02 6.02318943e-02 1.25587106e-01
      1.74688950e-01 2.95109451e-01 3.05505484e-01 2.54894286e-01
      3.05505484e-01 1.09167203e-01 4.06499691e-02 5.37285535e-03
      2.26738974e-02 1.17222127e-02 1.58596355e-02 6.75429106e-02
      2.83790737e-01 3.05505484e-01 8.84400681e-02 5.23717254e-02
      6.64725062e-03 5.56646250e-02 4.86673079e-02 5.90385012e-02
      8.84552225e-02 3.03174585e-01 4.39739320e-04 8.35097104e-04
      1.94739401e-02 2.03452408e-01 3.59491020e-01 4.24265824e-02
      5.03782474e-04 0. 4.39739320e-04 0. 2.23641330e-03 4.24718894e-02
      3.59491020e-01 3.59491020e-01 1.55506790e-01 2.54522096e-02
      6.88708946e-03 3.27004539e-03 6.13105076e-04 0. 0. 6.21542893e-02
      3.59491020e-01 2.20526636e-01 5.99037819e-02 1.38637628e-02
      1.29799964e-03 0. 0. 1.20827230e-02 1.22899339e-01 3.59491020e-01
      3.59491020e-01 2.73307830e-01 6.62557632e-02 1.09505467e-02
      1.39047736e-02 2.33418513e-02 9.19601023e-02 3.64478648e-01
      3.64478648e-01 2.68638730e-01 7.01339096e-02 2.88179182e-02
      1.44951073e-02 5.68041429e-02 7.61736333e-02 8.50768015e-02
      1.38216332e-01 1.40845180e-01 7.94575140e-02 3.73710953e-02
      2.37569399e-02 2.14082040e-02 6.90588262e-03 3.80712003e-03
      4.35384475e-02 2.03299642e-01 3.64478648e-01 3.64478648e-01
      3.64478648e-01 1.56390533e-01 3.27065289e-02 2.76955608e-02
      5.19325435e-02 9.65409651e-02 1.10372201e-01 1.39064014e-01
      2.34641865e-01 9.55921263e-02 5.66081069e-02 1.87701844e-02
      1.98379576e-01 3.13038230e-01 2.76167542e-01 1.13594286e-01
      9.42422524e-02 4.01010662e-02 3.51693295e-02 4.92081940e-02
      7.14620724e-02 2.48280376e-01 3.13038230e-01 1.80337042e-01
      6.35804832e-02 1.27248421e-01 1.47834435e-01 1.26120508e-01
      1.62131250e-01 9.03149918e-02 7.56422356e-02 2.46237800e-01
      3.13038230e-01 1.63062483e-01 1.08587928e-01 1.50870293e-01
      1.01325870e-01 8.87049362e-02 3.50390375e-02 1.17856398e-01
      2.05220118e-01 1.96242139e-01 1.11896574e-01 1.67066976e-01
      1.57546610e-01 1.33095399e-01 1.91431388e-01 8.67033824e-02
      1.24357611e-01 1.16835505e-01 5.88607341e-02 6.35887533e-02
      2.13596627e-01 2.42828175e-01 1.77547365e-01 1.51393235e-01
      7.55389854e-02 2.61039525e-01 1.44606665e-01 1.05410777e-01
      1.52123317e-01 1.84123755e-01 9.41058397e-02 6.94445372e-02
      7.24703521e-02 1.56476676e-01 2.70761609e-01 1.29081741e-01
      5.19186705e-02 1.11522868e-01 1.87542722e-01 1.45677611e-01
      1.31635725e-01 1.70467079e-01 2.04286829e-01 3.57247800e-01
      1.98532000e-01 1.06704846e-01 1.07288912e-01 9.80196744e-02
      6.45988658e-02 4.67458516e-02 1.06281221e-01 3.57247800e-01
      3.35863441e-01 2.02608988e-01 8.11398774e-02 9.28239971e-02
      6.50540292e-02 1.61253102e-02 2.53833663e-02 5.92847690e-02
      2.02480599e-01 3.35863441e-01 2.82715857e-01 1.70524880e-01
      8.52036476e-02 5.25254793e-02 3.51083279e-02 4.82892804e-02
      5.74118830e-02 1.87684715e-01 3.35863441e-01 2.07088873e-01
      1.12212867e-01 6.09965213e-02 5.59290126e-02 4.16912176e-02
      3.95562425e-02 1.29443571e-01 2.62408525e-01 2.69003093e-01
      2.14854732e-01 1.67655870e-01 1.34691149e-01 9.72102433e-02
      8.88807178e-02 8.82173628e-02 1.29403114e-01 1.82550207e-01
      1.24605559e-01 2.30987489e-01 2.36291915e-01 1.27737284e-01
      4.14472483e-02 2.80045737e-02 7.08560944e-02 4.00804542e-02
      7.73588121e-02 9.28123370e-02 2.56035835e-01 3.29433829e-01
      1.71475574e-01 9.51746851e-02 3.59083936e-02 1.14240833e-01
      6.27047569e-02 6.07345663e-02 1.15353785e-01 1.47633195e-01
      2.89952248e-01 2.92759567e-01 7.87584260e-02 1.42250478e-01
      1.19545020e-01 5.04751988e-02 5.61204813e-02 1.08574830e-01
      1.92893058e-01 3.27868551e-01 2.77542889e-01 1.31915867e-01
      2.47064903e-01 1.48988187e-01 8.16842169e-02 7.27917925e-02
      8.11278261e-03 2.62847766e-02 4.53476943e-02 7.52868131e-02
      1.29591882e-01 1.17533065e-01 4.89197597e-02 1.73892379e-02
      9.49334633e-03 1.14564849e-04 2.35480838e-03 1.69708896e-02
      8.48196894e-02 4.68469948e-01 4.68469948e-01 9.42882821e-02
      9.83229466e-03 3.46518797e-03 1.29987439e-02 1.82096381e-02
      2.04157550e-02 5.09235375e-02 1.72141433e-01 1.05868191e-01
      3.94122861e-02 2.22245771e-02 1.56348608e-02 1.26620638e-03
      6.53565163e-04 2.07654852e-03 1.01094231e-01 4.68469948e-01
      4.68469948e-01 4.59083021e-02 9.64619499e-03 5.70137007e-03 0. 0.
      1.37979700e-03 1.19686890e-02 3.95060837e-01 3.95060837e-01
      2.52005309e-02 8.31037469e-04 3.85316489e-05 6.14692457e-04
      1.85482518e-03 1.70513138e-03 6.27752068e-03 3.37354690e-01
      1.69433936e-01 1.64941289e-02 3.53120361e-03 7.70150567e-04 0. 0.
      1.00114201e-04 2.44104788e-02 3.95060837e-01 3.95060837e-01
      1.33489296e-02 4.57814109e-04 4.95406857e-05 4.45586076e-04
      6.96907751e-04 1.41270028e-03 9.10792314e-03 3.95060837e-01
      2.66064703e-01 1.99518185e-02 3.18170874e-03 1.14698301e-03
      5.74789718e-02 8.84397626e-02 5.47902808e-02 6.75483644e-02
      2.77744293e-01 2.94822156e-01 1.40797168e-01 6.81000873e-02
      3.37809771e-02 7.11393729e-02 1.60602063e-01 7.14416206e-02
      1.33774251e-01 2.87700206e-01 1.68583795e-01 9.67473611e-02
      1.28501981e-01 6.49523064e-02 4.21930961e-02 4.29388210e-02
      6.05599023e-02 1.35966033e-01 4.29574698e-01 4.81435508e-01
      1.47155464e-01 5.37201315e-02 4.69161868e-02 7.55870268e-02
      6.74671009e-02 7.29383305e-02 1.14737995e-01 1.77773669e-01
      1.45005450e-01 9.92020443e-02 1.47544816e-01 9.93713364e-02
      1.13786873e-03 6.56260876e-03 3.57062928e-03 9.65021364e-03
      3.38721812e-01 1.78843305e-01 8.65677372e-03 7.61289615e-03
      3.05984588e-03 0. 6.12135453e-04 3.35047930e-03 2.34949328e-02
      4.35808390e-01 4.35808390e-01 1.33108031e-02 1.16177434e-02
      1.60885800e-03 1.77411339e-03 1.78177725e-03 3.75213171e-03
      1.26026701e-02 2.55418748e-01 1.46530256e-01 8.37669894e-03
      1.05640218e-02 4.10078140e-03 0. 1.10674227e-04 8.06426164e-03
      2.20246650e-02 4.35808390e-01 4.35808390e-01 1.25851994e-02
      1.56467725e-02 1.31511223e-03 6.28115190e-03 4.89174062e-03
      2.10506245e-02 9.47504342e-02 4.43388849e-01 4.43388849e-01
      2.94013601e-02 4.38912809e-02 6.03995239e-03 2.36103665e-02
      2.20880713e-02 3.10885049e-02 1.01263657e-01 1.76266730e-01
      1.09891020e-01 2.30732411e-02 3.93971689e-02 1.53611200e-02
      3.80791811e-04 2.35009543e-03 4.12431918e-02 9.40176621e-02
      4.43388849e-01 4.43388849e-01 5.73678836e-02 6.03408217e-02
      3.49126733e-03 1.38689475e-02 2.85371803e-02 7.21172765e-02
      1.38526216e-01 2.43415311e-01 1.81793153e-01 5.38338944e-02
      3.21129672e-02 5.98538481e-03 1.01012170e-01 9.37074423e-02
      9.06171277e-02 1.85701147e-01 2.32712388e-01 2.30822876e-01
      1.16107337e-01 1.85115471e-01 1.01920694e-01 1.18299685e-01
      1.54852420e-01 8.00275877e-02 8.74714032e-02 1.16909817e-01
      1.07947066e-01 1.34986460e-01 2.38064170e-01 1.99784383e-01
      1.35163561e-01 1.62713885e-01 2.25220576e-01 3.03856939e-01
      3.09303194e-01 1.51216969e-01 1.59645781e-01 9.86666605e-02
      7.04502389e-02 1.40233070e-01 1.48236796e-01 1.15080453e-01
      1.33244783e-01 2.40399107e-01 1.28813043e-01 1.83437973e-01
      1.74149588e-01 1.38976574e-01 2.18688980e-01 1.31679833e-01
      6.79580495e-02 6.17818162e-02 7.96745270e-02 6.42932877e-02
      1.30220100e-01 2.06390113e-01 2.70434856e-01 3.53931576e-01
      1.59932658e-01 1.42092973e-01 2.06695810e-01 1.95670649e-01
      8.66063237e-02 1.63946509e-01 1.26496539e-01 2.20018238e-01
      1.83736533e-01 1.12526089e-01 6.16961271e-02 5.25700524e-02
      1.39526829e-01 4.83142883e-02 1.12132363e-01 1.29562199e-01
      1.85163811e-01 2.67266780e-01 1.77526891e-01 2.33481660e-01
      1.52151287e-01 1.88049078e-01 3.41396518e-02 1.47716627e-01
      1.11433506e-01 1.97592661e-01 1.88230649e-01 1.22132137e-01
      1.05203927e-01 1.97548896e-01 1.83079273e-01 5.36963642e-02
      6.74205422e-02 5.91371171e-02 1.19305529e-01 3.56955439e-01
      2.13172615e-01 9.70427096e-02 6.81134611e-02 1.03356421e-01
      5.73296957e-02 3.36684845e-02 1.01906806e-01 2.97494292e-01
      1.96566194e-01 1.93337739e-01 1.98465869e-01 1.85437471e-01
      1.41156778e-01 2.52886135e-02 7.59548396e-02 7.24931210e-02
      1.80702850e-01 3.56955439e-01 1.73582479e-01 9.59980786e-02
      7.85853639e-02 6.93886653e-02 3.42530943e-02 7.51508921e-02
      1.01881705e-01 3.56955439e-01 3.42121691e-01 1.01713546e-01
      4.70757857e-02 1.88129616e-03 5.17208986e-02 1.47826970e-02
      1.01664783e-02 6.79407567e-02 3.42121691e-01 3.42121691e-01
      4.40221354e-02 3.98458540e-02 4.92543099e-04 6.20713718e-02
      1.38290077e-02 2.24603154e-02 6.58973977e-02 3.42121691e-01
      3.42121691e-01 5.53340502e-02 4.35447134e-02 3.64401517e-03
      4.30088229e-02 7.39103695e-03 3.76521274e-02 6.18302152e-02
      3.42121691e-01 3.42121691e-01 3.36924009e-02 4.79566008e-02
      1.79944444e-03 4.84926291e-02 1.25368936e-02 4.83310297e-02
      8.49089101e-02 3.42121691e-01 2.06116191e-03 9.12580363e-05
      4.70590370e-04 1.57120470e-02 2.21931353e-01 3.25905949e-01
      2.60440379e-01 6.40804768e-02 6.73596608e-03 2.35871230e-05
      2.82975520e-06 3.02564050e-03 1.34463618e-02 2.34912157e-01
      3.62441123e-01 3.62441123e-01 9.69565585e-02 1.43158194e-02
      1.04776993e-02 2.30598031e-03 4.16573416e-03 9.28520691e-03
      1.85443703e-02 2.05979586e-01 2.86062628e-01 9.35399160e-02
      2.63805538e-02 3.24913213e-04 1.11346853e-04 2.51302659e-03
      6.84532290e-03 5.27996793e-02 3.62441123e-01 3.62441123e-01
      2.01775149e-01 2.05675904e-02 3.76299466e-03 8.94565601e-03
      1.42262829e-02 2.97739487e-02 1.74980715e-01 3.52323771e-01
      3.44813257e-01 5.60309738e-02 1.77220087e-02 1.54879726e-02
      2.64072716e-02 4.43738103e-02 6.05672859e-02 1.28303096e-01
      2.44886518e-01 1.15082026e-01 3.74026038e-02 3.27387787e-02
      4.37451154e-03 1.07812723e-02 8.11329111e-03 2.15717368e-02
      1.02494381e-01 3.52323771e-01 3.52323771e-01 1.37096688e-01
      2.20382344e-02 1.52015369e-02 2.79251989e-02 2.64332481e-02
      6.79458901e-02 1.54852822e-01 3.24473828e-01 3.52323771e-01
      2.74316460e-01 7.60858208e-02 7.61677250e-02 1.34030521e-01
      2.03004003e-01 1.38897464e-01 1.23243958e-01 1.31332800e-01
      9.66616273e-02 7.92454481e-02 6.39092028e-02 8.48369226e-02
      1.49127379e-01 1.22441180e-01 7.14302659e-02 9.31932479e-02
      6.77699968e-02 6.10745661e-02 8.99938792e-02 9.18989852e-02
      1.00928783e-01 2.22533599e-01 1.88732639e-01 1.77942097e-01
      2.19288588e-01 2.13715896e-01 3.31262708e-01 3.31262708e-01
      2.27576911e-01 1.88450560e-01 2.85452187e-01 1.48227885e-01
      8.83451849e-02 6.79345280e-02 9.40634459e-02 1.30902052e-01
      2.22100869e-01 2.41824433e-01 2.22120702e-01 1.11540750e-01
      5.83122447e-02 9.45505053e-02 1.08284809e-01 7.98327401e-02
      6.71269819e-02 1.08300678e-01 1.68942377e-01 3.18944901e-01
      1.48496777e-01 1.14289567e-01 1.03921883e-01 1.11914821e-01
      1.08453371e-01 2.97438949e-02 9.51473415e-02 2.39643872e-01
      2.35724166e-01 1.50243670e-01 7.23641887e-02 8.14994350e-02
      1.01490155e-01 1.30041733e-01 1.61055118e-01 2.09439263e-01
